svm_type c_svc
kernel_type rbf
gamma 0.125
nr_class 5
total_sv 4422
rho 0.2977324132688778 -1.3778168497512724 -1.0975643565533961 -1.0345994372339342 -1.1384926554821682 -0.9854288550952054 -0.8107504687509505 -0.7919175072635657 0.5247338555363443 0.886423630744755
label 4 2 1 0 3
nr_sv 3114 823 141 16 328
SV
2.0 0.0 0.0 2.0 1:0.17857142857142858 2:0.18295739348370926 3:1.0 8:1.0 9:1.0 2828:1.0 2923:1.0 3104:1.0 
1.309898435272378 0.7725291666547062 0.0 0.0 1:0.41836734693877553 2:0.18295739348370926 5:1.0 8:1.0 519:1.0 1438:1.0 2984:1.0 3069:1.0 
2.0 0.0 0.0 1.2532983469746353 1:0.18622448979591838 2:0.3107769423558897 5:1.0 8:1.0 519:1.0 1948:1.0 2977:1.0 3089:1.0 
1.566370375203152 0.0 0.0 1.243621049643202 1:0.3520408163265306 2:0.13533834586466165 3:1.0 8:1.0 519:1.0 1948:1.0 2984:1.0 3103:1.0 
0.0 0.0 0.0 1.461308630932587 1:0.1836734693877551 2:0.5839598997493735 4:1.0 7:1.0 519:1.0 1948:1.0 2871:1.0 3089:1.0 
0.23144274677552656 0.2741575876442679 0.0 0.0 1:0.29846938775510207 2:0.45864661654135336 3:1.0 7:1.0 519:1.0 1956:1.0 2878:1.0 3089:1.0 
2.0 0.0 0.0 1.2111083815622106 1:0.75 2:0.6015037593984962 3:1.0 8:1.0 726:1.0 1809:1.0 2868:1.0 3104:1.0 
0.0 0.0 0.0 0.28498421820407577 1:0.336734693877551 2:0.9924812030075187 5:1.0 8:1.0 461:1.0 1438:1.0 2983:1.0 3104:1.0 
0.6695090882528963 0.0 0.0 0.0 1:0.42091836734693877 2:0.37343358395989973 5:1.0 7:1.0 387:1.0 1854:1.0 2878:1.0 3104:1.0 
2.0 0.0 0.0 2.0 1:0.28316326530612246 2:0.19047619047619047 3:1.0 7:1.0 400:1.0 2834:1.0 2924:1.0 3104:1.0 
0.0 0.0 0.08435266959644523 0.0 1:0.061224489795918366 2:0.43358395989974935 3:1.0 7:1.0 479:1.0 1890:1.0 2904:1.0 3025:1.0 
0.0 1.6238240275935818 0.0 1.5860312248875539 1:0.37755102040816324 2:0.3182957393483709 4:1.0 8:1.0 1356:1.0 1948:1.0 2953:1.0 3044:1.0 
0.0 0.79768709635152 0.001771259262861799 0.0 1:0.12755102040816327 2:0.5463659147869674 4:1.0 6:1.0 519:1.0 2765:1.0 2904:1.0 3044:1.0 
0.0 0.4052025705886046 0.0 0.0 1:0.2653061224489796 2:0.3659147869674185 3:1.0 6:1.0 449:1.0 1878:1.0 2868:1.0 2998:1.0 
0.0 0.0802719843360132 0.0 0.0 1:0.37755102040816324 2:0.5789473684210527 3:1.0 7:1.0 425:1.0 1829:1.0 2984:1.0 3089:1.0 
0.0 0.0 0.08954965376631041 0.0 1:0.12244897959183673 2:0.924812030075188 3:1.0 8:1.0 9:1.0 1816:1.0 2878:1.0 3050:1.0 
0.0 0.0 0.2118618256541119 0.0 1:0.29591836734693877 2:0.6992481203007519 3:1.0 7:1.0 519:1.0 1890:1.0 2984:1.0 3104:1.0 
1.0745854826015087 0.6749395709164541 0.0 0.1520947266703654 1:0.5841836734693877 2:0.6015037593984962 4:1.0 7:1.0 19:1.0 1441:1.0 2878:1.0 2988:1.0 
0.5749944839967025 0.13156697520750338 0.9236583355100868 0.0 1:0.9668367346938775 2:0.6541353383458647 4:1.0 7:1.0 394:1.0 1438:1.0 2924:1.0 2988:1.0 
2.0 0.0 0.0 0.0 1:0.33163265306122447 2:0.9924812030075187 5:1.0 8:1.0 693:1.0 1854:1.0 2978:1.0 3089:1.0 
0.6607122926176622 0.0 0.0 0.0 1:0.4489795918367347 2:0.12030075187969924 4:1.0 8:1.0 554:1.0 1922:1.0 2899:1.0 3019:1.0 
2.0 0.0 0.0 1.6331334509007638 1:0.6198979591836735 2:0.19799498746867167 4:1.0 7:1.0 544:1.0 1854:1.0 2969:1.0 3089:1.0 
2.0 0.38366114863948186 0.0 2.0 1:0.4260204081632653 2:0.05764411027568922 5:1.0 6:1.0 12:1.0 1438:1.0 2868:1.0 3005:1.0 
0.1855434024124196 0.0 0.0 0.0 1:0.6938775510204082 2:0.5513784461152882 4:1.0 7:1.0 939:1.0 1544:1.0 2953:1.0 2998:1.0 
2.0 0.0 0.0 1.0251012117254692 1:0.2576530612244898 2:0.48872180451127817 3:1.0 8:1.0 41:1.0 1808:1.0 2924:1.0 2996:1.0 
2.0 0.9844890976651821 0.0 0.9665240648684478 1:0.07908163265306123 2:0.3583959899749373 5:1.0 6:1.0 425:1.0 1438:1.0 2876:1.0 2988:1.0 
0.0 0.0 0.0 2.0 1:0.2857142857142857 2:0.9122807017543859 4:1.0 7:1.0 9:1.0 1438:1.0 2984:1.0 3104:1.0 
0.0 1.8821156285626885 0.0 0.0 1:0.07142857142857142 2:0.5263157894736842 5:1.0 8:1.0 400:1.0 1826:1.0 2885:1.0 3089:1.0 
2.0 2.0 0.0 0.0 1:0.20918367346938777 2:0.3358395989974937 3:1.0 8:1.0 9:1.0 1826:1.0 2868:1.0 3104:1.0 
0.0 0.2360622252788321 0.46930882089041953 0.0 1:0.05357142857142857 2:0.46365914786967416 3:1.0 6:1.0 477:1.0 2024:1.0 2867:1.0 3073:1.0 
0.0 0.0 0.0 1.1974624126496511 1:0.12755102040816327 2:0.5463659147869674 4:1.0 7:1.0 402:1.0 2822:1.0 2969:1.0 3104:1.0 
0.0 0.7474629230987894 0.0 0.0 1:0.14030612244897958 2:0.9197994987468672 3:1.0 7:1.0 9:1.0 1821:1.0 2868:1.0 3044:1.0 
0.0 1.0406584425621652 0.0 0.0 1:0.1989795918367347 2:0.7644110275689223 5:1.0 8:1.0 9:1.0 2032:1.0 2878:1.0 3089:1.0 
2.0 0.0 0.0 0.0 1:0.18877551020408162 2:0.3208020050125313 3:1.0 6:1.0 400:1.0 2785:1.0 2885:1.0 3104:1.0 
0.0 0.8055806925759819 0.0 0.0 1:0.6147959183673469 2:0.7593984962406015 4:1.0 7:1.0 898:1.0 1448:1.0 2878:1.0 3044:1.0 
0.20316840981896114 0.0 0.0 0.716778436214898 1:0.40816326530612246 2:0.7468671679197995 4:1.0 7:1.0 9:1.0 2763:1.0 2868:1.0 3104:1.0 
0.0 0.0 0.022069514330522122 0.0 1:0.22959183673469388 2:0.8897243107769424 5:1.0 7:1.0 9:1.0 1906:1.0 2889:1.0 2988:1.0 
2.0 0.0 0.0 0.0 1:0.4923469387755102 2:0.8020050125313283 5:1.0 8:1.0 9:1.0 2155:1.0 2984:1.0 3044:1.0 
0.0 0.7283349222124683 0.02701759134559159 0.0 1:0.2423469387755102 2:0.7368421052631579 4:1.0 7:1.0 1190:1.0 1821:1.0 2976:1.0 2988:1.0 
1.0531203776325366 0.0 0.0 0.0 1:0.5153061224489796 2:0.14786967418546365 5:1.0 7:1.0 1366:1.0 1854:1.0 2969:1.0 2992:1.0 
2.0 2.0 0.0 0.0 1:0.6862244897959183 2:0.39097744360902253 5:1.0 7:1.0 380:1.0 2532:1.0 2969:1.0 3070:1.0 
2.0 0.0 0.0 2.0 1:0.3239795918367347 2:0.49624060150375937 4:1.0 8:1.0 9:1.0 1438:1.0 2983:1.0 3089:1.0 
2.0 1.7124593956549876 0.0 0.19299193220850694 1:0.3903061224489796 2:0.09273182957393483 5:1.0 6:1.0 9:1.0 1862:1.0 2868:1.0 3089:1.0 
2.0 0.6161107746097579 0.0 0.12080641429311173 1:0.45408163265306123 2:0.24561403508771928 3:1.0 8:1.0 9:1.0 1466:1.0 2984:1.0 3025:1.0 
1.0141983812685804 0.4088445902484165 0.0 0.0 1:0.6045918367346939 2:0.7218045112781954 3:1.0 8:1.0 726:1.0 2018:1.0 2984:1.0 3044:1.0 
0.0 0.766674983365788 0.0 0.6699396929218243 1:0.25255102040816324 2:0.46867167919799496 3:1.0 6:1.0 1103:1.0 1878:1.0 2868:1.0 3104:1.0 
2.0 0.0 0.0 1.8525821418856891 1:0.8035714285714286 2:0.2756892230576441 5:1.0 7:1.0 397:1.0 1438:1.0 2969:1.0 3104:1.0 
2.0 0.0 0.0 0.0 1:0.6709183673469388 2:0.12531328320802004 5:1.0 6:1.0 397:1.0 1438:1.0 2969:1.0 2992:1.0 
0.0 0.04479584768150911 0.0 0.0 1:0.3826530612244898 2:0.8596491228070176 3:1.0 6:1.0 12:1.0 1553:1.0 2969:1.0 3104:1.0 
2.0 0.0 0.0 0.0 1:0.04081632653061224 2:0.6140350877192983 3:1.0 8:1.0 9:1.0 1438:1.0 2905:1.0 3089:1.0 
0.0 2.0 0.0 0.9953853277152426 1:0.42346938775510207 2:0.2556390977443609 4:1.0 6:1.0 598:1.0 1438:1.0 2930:1.0 3069:1.0 
0.0 0.0 0.0 2.0 1:0.2627551020408163 2:0.23057644110275688 3:1.0 6:1.0 9:1.0 2576:1.0 2949:1.0 3049:1.0 
0.0 0.0 0.07461707918382313 0.0 1:0.3392857142857143 2:0.9724310776942355 4:1.0 7:1.0 9:1.0 1816:1.0 2932:1.0 3025:1.0 
0.0 0.8134375902317463 0.0 0.0 1:0.6224489795918368 2:0.6716791979949874 4:1.0 6:1.0 425:1.0 1906:1.0 2977:1.0 2998:1.0 
1.5735442065803116 2.0 0.0 1.6476963707740293 1:0.4719387755102041 2:0.3483709273182957 3:1.0 7:1.0 519:1.0 1948:1.0 2878:1.0 3044:1.0 
0.0 0.0 0.0 0.7310608457974004 1:0.24489795918367346 2:0.6892230576441103 4:1.0 7:1.0 519:1.0 1520:1.0 2871:1.0 3104:1.0 
0.0 2.0 0.0 0.0 1:0.29591836734693877 2:0.5889724310776943 3:1.0 6:1.0 380:1.0 1826:1.0 2877:1.0 3069:1.0 
0.0 0.39207653299469486 0.0 0.0 1:0.20153061224489796 2:0.7619047619047619 5:1.0 8:1.0 9:1.0 2533:1.0 2928:1.0 3044:1.0 
0.0 0.0037011377613251004 0.0 0.0 1:0.5280612244897959 2:0.8446115288220551 3:1.0 8:1.0 519:1.0 1821:1.0 2969:1.0 3104:1.0 
0.6669538539330827 0.0 0.0 0.0 1:0.16071428571428573 2:0.5162907268170426 3:1.0 7:1.0 408:1.0 2825:1.0 2898:1.0 2996:1.0 
0.23889193652956203 0.511219208778853 0.0 0.0 1:0.35714285714285715 2:0.6741854636591479 4:1.0 7:1.0 1103:1.0 1809:1.0 2868:1.0 2988:1.0 
0.2207520732155169 0.0 0.0 0.15151313315377152 1:0.08163265306122448 2:0.19548872180451127 3:1.0 7:1.0 451:1.0 1808:1.0 2867:1.0 3089:1.0 
1.5977502630185993 0.0 0.0 0.0 1:0.10204081632653061 2:0.19298245614035087 3:1.0 6:1.0 519:1.0 1438:1.0 2890:1.0 3025:1.0 
0.0 0.0 0.0 1.925346566813132 1:0.3826530612244898 2:0.2882205513784461 5:1.0 6:1.0 1393:1.0 1948:1.0 2945:1.0 3044:1.0 
2.0 0.0 0.0 0.0 1:0.08673469387755102 2:0.606516290726817 3:1.0 6:1.0 9:1.0 1808:1.0 2934:1.0 3103:1.0 
0.09337153019578444 0.6122324630640543 0.0 0.0 1:0.09438775510204081 2:0.3157894736842105 3:1.0 6:1.0 9:1.0 1948:1.0 2908:1.0 3025:1.0 
0.8651505528283201 0.0 0.0 0.0 1:0.288265306122449 2:0.6666666666666666 4:1.0 7:1.0 519:1.0 1948:1.0 2939:1.0 3089:1.0 
1.0923430283490692 0.0 0.0 1.7664901954457892 1:0.2627551020408163 2:0.12280701754385964 5:1.0 7:1.0 519:1.0 2023:1.0 2884:1.0 3050:1.0 
0.0 0.15714063653227545 0.0 0.3832749165132315 1:0.09693877551020408 2:0.5012531328320802 4:1.0 6:1.0 435:1.0 2532:1.0 2878:1.0 3089:1.0 
1.074373882871037 0.0 0.0 2.0 1:0.15051020408163265 2:0.6215538847117794 3:1.0 8:1.0 13:1.0 1586:1.0 2905:1.0 3104:1.0 
1.4332094280261445 0.0 0.0 0.0 1:0.09438775510204081 2:0.8947368421052632 3:1.0 8:1.0 400:1.0 1442:1.0 2885:1.0 3104:1.0 
0.16423271786872443 0.0 0.0 0.0 1:0.37244897959183676 2:1.0 4:1.0 6:1.0 578:1.0 1438:1.0 2969:1.0 2988:1.0 
0.0 0.6096727009217782 0.004395450079954627 0.0 1:0.5076530612244898 2:0.899749373433584 4:1.0 8:1.0 9:1.0 2027:1.0 2984:1.0 3070:1.0 
2.0 0.0 0.0 0.16109517323540073 1:0.33163265306122447 2:0.12280701754385964 3:1.0 6:1.0 519:1.0 1808:1.0 2977:1.0 2996:1.0 
1.3703219046317041 0.0 0.0 0.0 1:0.27040816326530615 2:0.7919799498746867 5:1.0 8:1.0 1246:1.0 1854:1.0 2978:1.0 3025:1.0 
0.0 0.0 0.0 1.759689677411111 1:0.5561224489795918 2:0.40100250626566414 5:1.0 7:1.0 461:1.0 1948:1.0 2984:1.0 3098:1.0 
0.0 0.1864091085690793 0.0 0.0 1:0.35459183673469385 2:0.6215538847117794 4:1.0 8:1.0 519:1.0 1820:1.0 2873:1.0 3089:1.0 
2.0 0.0 0.11101754877684364 0.0 1:0.6479591836734694 2:0.23308270676691728 3:1.0 6:1.0 519:1.0 2823:1.0 2924:1.0 3004:1.0 
2.0 0.0 0.0 0.0 1:0.45663265306122447 2:0.19799498746867167 5:1.0 6:1.0 9:1.0 1438:1.0 2969:1.0 3089:1.0 
0.0 0.0 0.0 1.7795489548599701 1:0.2576530612244898 2:0.6165413533834586 3:1.0 8:1.0 519:1.0 2576:1.0 2953:1.0 3089:1.0 
1.592624059595711 0.1175919837011619 0.0 0.0 1:0.3163265306122449 2:0.7243107769423559 5:1.0 8:1.0 9:1.0 2419:1.0 2930:1.0 3089:1.0 
0.5911186473539115 0.1742935289917036 0.0 0.0 1:0.125 2:0.41604010025062654 4:1.0 7:1.0 1403:1.0 2012:1.0 2982:1.0 3089:1.0 
0.6863023831629497 0.0 0.0 0.0 1:0.5331632653061225 2:0.9899749373433584 5:1.0 7:1.0 9:1.0 1438:1.0 2917:1.0 3089:1.0 
0.0 0.0 0.0 0.12145931687605219 1:0.15816326530612246 2:0.6240601503759399 3:1.0 8:1.0 400:1.0 1829:1.0 2984:1.0 3104:1.0 
0.0 0.0 0.09719146217431353 0.0 1:0.22193877551020408 2:0.7017543859649122 3:1.0 6:1.0 578:1.0 2541:1.0 2905:1.0 3050:1.0 
0.29888790715260144 0.1535139305549505 0.0 0.0 1:0.548469387755102 2:0.14786967418546365 4:1.0 7:1.0 693:1.0 1808:1.0 2953:1.0 2996:1.0 
0.4398862630768751 0.2951119075959982 0.0 0.0 1:0.21428571428571427 2:0.5588972431077694 5:1.0 7:1.0 618:1.0 1463:1.0 2953:1.0 3089:1.0 
0.0 0.2531791310047019 0.0 0.0 1:0.2576530612244898 2:0.8621553884711779 5:1.0 7:1.0 1103:1.0 1438:1.0 2917:1.0 3073:1.0 
1.4290168966228045 0.0 0.0 0.0 1:0.1096938775510204 2:0.5263157894736842 3:1.0 7:1.0 389:1.0 2017:1.0 2905:1.0 3025:1.0 
1.2711966283932603 0.0 0.0 0.0 1:0.14285714285714285 2:0.6892230576441103 3:1.0 7:1.0 602:1.0 2823:1.0 2950:1.0 3089:1.0 
0.0 0.11724132277111488 0.0 0.0 1:0.6683673469387755 2:0.3007518796992481 4:1.0 6:1.0 1367:1.0 1983:1.0 2969:1.0 3040:1.0 
0.4512327608446485 0.4791873282886819 0.0 0.8085541092249734 1:0.5459183673469388 2:0.21052631578947367 3:1.0 8:1.0 599:1.0 2818:1.0 2969:1.0 3025:1.0 
0.3191009582999795 0.0 0.0 0.0 1:0.1989795918367347 2:0.47619047619047616 3:1.0 7:1.0 820:1.0 1438:1.0 2927:1.0 3089:1.0 
2.0 1.2145234869692516 0.0 0.23113864232288597 1:0.8188775510204082 2:0.19298245614035087 4:1.0 6:1.0 371:1.0 2027:1.0 2969:1.0 2988:1.0 
0.0 0.0 0.0 1.128448335629123 1:0.32653061224489793 2:0.681704260651629 4:1.0 7:1.0 490:1.0 1809:1.0 2969:1.0 3089:1.0 
0.0 0.611564707603099 0.0 0.0 1:0.6581632653061225 2:0.8796992481203008 4:1.0 7:1.0 1403:1.0 2532:1.0 2969:1.0 3104:1.0 
0.015218820125022396 0.0 0.0 0.0 1:0.002551020408163265 3:1.0 6:1.0 277:1.0 1706:1.0 2867:1.0 2987:1.0 
0.4535724722735077 0.28500251643271773 0.0 0.0 1:0.5867346938775511 2:0.46365914786967416 3:1.0 7:1.0 1356:1.0 2339:1.0 2969:1.0 3089:1.0 
0.6219152971027632 0.0 0.0 1.8282664377446312 1:0.44387755102040816 2:0.14536340852130325 3:1.0 7:1.0 619:1.0 2828:1.0 2969:1.0 3098:1.0 
0.7232274168568085 0.13106040566721527 0.0 2.0 1:0.14285714285714285 2:0.2756892230576441 4:1.0 8:1.0 1103:1.0 2833:1.0 2868:1.0 3103:1.0 
0.0 0.0 0.0 0.574338275343512 1:0.025510204081632654 2:0.5639097744360902 5:1.0 8:1.0 913:1.0 1809:1.0 2867:1.0 3104:1.0 
0.13242097547117893 0.0 0.0 0.0 1:0.05102040816326531 2:0.9874686716791979 3:1.0 8:1.0 598:1.0 1441:1.0 2917:1.0 3104:1.0 
0.40974850164977955 0.28365931742478706 0.03976125956741039 0.0 1:0.10459183673469388 2:0.3508771929824561 3:1.0 8:1.0 1312:1.0 2048:1.0 2905:1.0 3050:1.0 
0.6159104270415187 0.0 0.0 0.0 1:0.2423469387755102 2:0.39348370927318294 3:1.0 6:1.0 1367:1.0 1816:1.0 2953:1.0 3089:1.0 
2.0 0.0 0.0 0.0 1:0.23979591836734693 2:0.5363408521303258 4:1.0 7:1.0 1386:1.0 1438:1.0 2977:1.0 3103:1.0 
1.0490365853981365 0.0 0.0 2.0 1:0.4387755102040816 2:0.12781954887218044 4:1.0 6:1.0 9:1.0 2828:1.0 2953:1.0 3098:1.0 
1.5885322580635555 0.0 0.0 0.0 1:0.24744897959183673 2:0.5338345864661654 4:1.0 7:1.0 459:1.0 1438:1.0 2905:1.0 3089:1.0 
2.0 2.0 0.0 1.0475642698964727 1:0.6403061224489796 2:0.13784461152882205 4:1.0 7:1.0 9:1.0 2675:1.0 2969:1.0 3047:1.0 
0.0 0.0 0.0 0.7309818352627107 1:0.11224489795918367 2:0.5739348370927319 4:1.0 7:1.0 387:1.0 1888:1.0 2884:1.0 3104:1.0 
0.741423085994953 1.0093137672234962 0.0 0.0 1:0.015306122448979591 2:0.3408521303258145 3:1.0 8:1.0 1190:1.0 1749:1.0 2867:1.0 3089:1.0 
0.0 2.0 0.0 0.06412835555933803 1:0.1096938775510204 2:0.47117794486215536 3:1.0 7:1.0 9:1.0 1438:1.0 2877:1.0 2988:1.0 
2.0 0.7236663297981335 0.0 1.2056377663567819 1:0.5357142857142857 2:0.07017543859649122 3:1.0 7:1.0 9:1.0 2050:1.0 2969:1.0 3020:1.0 
0.022989961803274873 0.0 0.0 0.0 1:0.017857142857142856 2:0.5388471177944862 3:1.0 8:1.0 913:1.0 2485:1.0 2867:1.0 3073:1.0 
0.0 0.0 0.0 0.5198617676832191 1:0.28061224489795916 2:0.9223057644110275 5:1.0 8:1.0 942:1.0 2541:1.0 2984:1.0 3104:1.0 
0.0 0.0 0.16173308041060822 0.0 1:0.16071428571428573 2:0.5213032581453634 3:1.0 6:1.0 1337:1.0 1999:1.0 2924:1.0 3073:1.0 
1.0391262161618593 0.0 0.0 0.0 1:0.125 2:0.7368421052631579 4:1.0 8:1.0 13:1.0 2122:1.0 2877:1.0 2988:1.0 
0.0 1.0478420708537017 0.0 0.0 1:0.18622448979591838 2:0.8095238095238095 3:1.0 7:1.0 9:1.0 2445:1.0 2953:1.0 3089:1.0 
1.1447678022569627 0.0 0.0 0.0 1:0.22448979591836735 2:0.41854636591478694 5:1.0 7:1.0 371:1.0 1442:1.0 2924:1.0 2988:1.0 
0.0 0.5885306925650436 0.0 0.0 1:0.6709183673469388 2:0.5789473684210527 5:1.0 8:1.0 1403:1.0 1438:1.0 2984:1.0 3025:1.0 
2.0 0.6811921576908848 0.0 0.0 1:0.46938775510204084 2:0.8270676691729323 4:1.0 6:1.0 9:1.0 1438:1.0 2969:1.0 2988:1.0 
0.0 0.5362689212167533 0.0 0.7510529457364874 1:0.11989795918367346 2:0.42606516290726815 5:1.0 8:1.0 827:1.0 2514:1.0 2917:1.0 3073:1.0 
0.0 0.0 0.0 0.2060958270678969 1:0.9566326530612245 2:0.6190476190476191 5:1.0 8:1.0 1403:1.0 1948:1.0 2969:1.0 3104:1.0 
0.8787512541018079 0.0 0.0 0.0 1:0.6403061224489796 2:0.08521303258145363 5:1.0 8:1.0 594:1.0 2100:1.0 2953:1.0 3058:1.0 
0.0 0.0 0.0 0.19772548890927596 1:0.16071428571428573 2:0.41604010025062654 4:1.0 7:1.0 519:1.0 1470:1.0 2930:1.0 3089:1.0 
2.0 0.5232501328883914 0.0 1.317612507505962 1:0.6071428571428571 2:0.6541353383458647 5:1.0 8:1.0 9:1.0 1438:1.0 2924:1.0 2996:1.0 
0.0 0.0 0.0 1.5154387756926524 1:0.11734693877551021 2:0.6090225563909775 3:1.0 6:1.0 380:1.0 1948:1.0 2877:1.0 3013:1.0 
0.0 0.0 0.043330714340186 0.0 1:0.15306122448979592 2:0.631578947368421 4:1.0 7:1.0 387:1.0 2027:1.0 2934:1.0 3004:1.0 
0.0 0.47692798041762097 0.0 0.0 1:0.10459183673469388 2:0.40601503759398494 5:1.0 7:1.0 619:1.0 2048:1.0 2969:1.0 2997:1.0 
0.7039145249081089 0.0 0.0 0.0 1:0.06377551020408163 2:0.40852130325814534 4:1.0 7:1.0 535:1.0 2048:1.0 2934:1.0 3025:1.0 
0.0 2.0 0.0 0.0 1:0.09693877551020408 2:0.5839598997493735 4:1.0 7:1.0 9:1.0 2532:1.0 2969:1.0 3025:1.0 
0.0 0.0 0.3489714476744298 0.0 1:0.29336734693877553 2:0.849624060150376 3:1.0 8:1.0 519:1.0 2122:1.0 2885:1.0 3073:1.0 
1.357877939684933 0.0 0.0 0.0 1:0.09693877551020408 2:0.42355889724310775 3:1.0 7:1.0 1112:1.0 1438:1.0 2929:1.0 2996:1.0 
0.0 0.5674103992779682 0.0 0.0 1:0.48214285714285715 2:0.506265664160401 3:1.0 7:1.0 519:1.0 1438:1.0 2924:1.0 3070:1.0 
2.0 0.0 0.0 0.0 1:0.1683673469387755 2:0.2731829573934837 3:1.0 6:1.0 519:1.0 1948:1.0 2868:1.0 3059:1.0 
0.0 0.07212895144629798 0.0 0.0 1:0.49744897959183676 2:0.8120300751879699 4:1.0 7:1.0 619:1.0 1442:1.0 2969:1.0 3089:1.0 
0.3889968926037049 0.0 0.0 0.0 1:0.6147959183673469 2:0.24060150375939848 4:1.0 7:1.0 910:1.0 2836:1.0 2939:1.0 3044:1.0 
0.0 0.0 0.11095228099095845 0.0 1:0.33418367346938777 2:0.899749373433584 4:1.0 8:1.0 519:1.0 1438:1.0 2927:1.0 3044:1.0 
0.9997419083799288 0.0 0.0 0.0 1:0.40561224489795916 2:0.7669172932330827 4:1.0 7:1.0 201:1.0 1442:1.0 2916:1.0 3089:1.0 
1.2365535150254598 1.037098696063745 0.0 0.0 1:0.1989795918367347 2:0.3609022556390977 4:1.0 6:1.0 519:1.0 1829:1.0 2876:1.0 3044:1.0 
2.0 0.0 0.0 0.0 1:0.3494897959183674 2:0.37343358395989973 4:1.0 7:1.0 9:1.0 1482:1.0 2873:1.0 3005:1.0 
0.7092690998040838 0.0 0.0 1.3112516651662087 1:0.3494897959183674 2:0.05764411027568922 5:1.0 6:1.0 1384:1.0 2337:1.0 2969:1.0 3089:1.0 
0.0 0.0 0.007032795912049583 0.0 1:0.025510204081632654 2:0.8696741854636592 3:1.0 7:1.0 625:1.0 1440:1.0 2867:1.0 3047:1.0 
0.0 0.008077317356649134 0.0 0.26643370327613425 1:0.04081632653061224 2:0.7694235588972431 5:1.0 8:1.0 148:1.0 2048:1.0 2874:1.0 3089:1.0 
0.0 0.33766305740971886 0.0 1.399558013526654 1:0.05357142857142857 2:0.3483709273182957 3:1.0 7:1.0 19:1.0 1825:1.0 2877:1.0 2998:1.0 
2.0 0.4927958815009182 0.0 0.0 1:0.17346938775510204 2:0.44360902255639095 3:1.0 8:1.0 477:1.0 2140:1.0 2931:1.0 3089:1.0 
1.556744928285739 0.6198225817382238 0.0 0.38194744246426676 1:0.44642857142857145 2:0.631578947368421 3:1.0 8:1.0 53:1.0 2742:1.0 2969:1.0 3089:1.0 
2.0 0.052542625463493475 0.0 1.8448842007672872 1:0.46938775510204084 2:0.12280701754385964 4:1.0 6:1.0 11:1.0 1456:1.0 2983:1.0 3044:1.0 
2.0 0.0 0.0 0.0 1:0.46938775510204084 2:0.5864661654135338 5:1.0 8:1.0 1103:1.0 2823:1.0 2969:1.0 2988:1.0 
0.0 0.0 0.024014905378297015 0.0 1:0.09693877551020408 2:0.3308270676691729 3:1.0 8:1.0 602:1.0 1438:1.0 2872:1.0 3025:1.0 
2.0 0.0 0.0 0.0 1:0.007653061224489796 2:0.5463659147869674 3:1.0 6:1.0 602:1.0 1441:1.0 2867:1.0 3104:1.0 
0.4655841565976903 0.0 0.0 0.3511233999854776 1:0.00510204081632653 2:0.2656641604010025 3:1.0 6:1.0 473:1.0 1783:1.0 2896:1.0 3089:1.0 
0.22078429722006918 0.0 0.0 0.0 1:0.02040816326530612 2:0.39097744360902253 3:1.0 6:1.0 435:1.0 1438:1.0 2889:1.0 3089:1.0 
0.0 2.0 0.0 0.0 1:0.012755102040816327 2:0.5764411027568922 3:1.0 6:1.0 9:1.0 1438:1.0 2896:1.0 2988:1.0 
2.0 0.0 0.0 0.3933952026605171 1:0.42346938775510207 2:0.05764411027568922 5:1.0 7:1.0 379:1.0 1829:1.0 2969:1.0 3005:1.0 
0.0 0.0 0.011611511595858546 0.0 1:0.17091836734693877 2:0.9022556390977443 3:1.0 7:1.0 132:1.0 2017:1.0 2885:1.0 3103:1.0 
2.0 0.0 0.0 0.0 1:0.4642857142857143 2:0.7343358395989975 5:1.0 6:1.0 379:1.0 1440:1.0 2984:1.0 3089:1.0 
0.7582724069635148 0.08819079578252012 0.0 0.0 1:0.6836734693877551 2:0.3583959899749373 5:1.0 8:1.0 670:1.0 1876:1.0 2969:1.0 3004:1.0 
0.0 0.0 0.0 1.8248932531886666 1:0.15051020408163265 2:0.7644110275689223 5:1.0 8:1.0 430:1.0 2820:1.0 2912:1.0 2998:1.0 
1.72424861049802 0.0 0.0 0.0 1:0.05612244897959184 2:0.3659147869674185 5:1.0 7:1.0 9:1.0 1438:1.0 2867:1.0 3089:1.0 
0.0 0.30692711438710857 0.001356383645154187 0.0 1:0.14285714285714285 2:0.5413533834586466 3:1.0 7:1.0 371:1.0 2472:1.0 2890:1.0 2997:1.0 
0.0 0.13102114851320484 0.0 0.0 1:0.061224489795918366 2:0.7418546365914787 3:1.0 7:1.0 9:1.0 1438:1.0 2920:1.0 3073:1.0 
1.2415094959749817 0.0 0.0 0.0 1:0.5535714285714286 2:0.656641604010025 3:1.0 7:1.0 1384:1.0 1438:1.0 2983:1.0 3089:1.0 
0.5040346586672875 0.0 0.0 0.13719457214493044 1:0.2755102040816326 2:0.3408521303258145 4:1.0 7:1.0 1404:1.0 2833:1.0 2969:1.0 3089:1.0 
2.0 0.0 0.0 2.0 1:0.8367346938775511 2:0.09774436090225563 4:1.0 8:1.0 379:1.0 2790:1.0 2969:1.0 3073:1.0 
0.18110653898838402 0.1285271376898498 0.0 0.0 1:0.04591836734693878 2:0.3283208020050125 4:1.0 6:1.0 711:1.0 2167:1.0 2886:1.0 3044:1.0 
0.0 0.010979064225399574 0.0 0.0 1:0.07908163265306123 2:0.9899749373433584 5:1.0 7:1.0 618:1.0 1820:1.0 2984:1.0 3073:1.0 
0.0 0.0 0.14371605157175008 0.0 1:0.08163265306122448 2:0.41102756892230574 4:1.0 8:1.0 487:1.0 1438:1.0 2872:1.0 3044:1.0 
0.0 0.0 0.027452041964633613 0.0 1:0.03316326530612245 2:0.8696741854636592 3:1.0 6:1.0 9:1.0 1438:1.0 2867:1.0 3050:1.0 
2.0 0.6249121808998692 0.0 0.0 1:0.23469387755102042 2:0.3383458646616541 3:1.0 6:1.0 9:1.0 1802:1.0 2984:1.0 3089:1.0 
0.0 0.0 0.0 0.05270667897189903 1:0.5739795918367347 2:0.8145363408521303 4:1.0 8:1.0 619:1.0 1865:1.0 2969:1.0 3104:1.0 
2.0 0.0 0.0 0.18210977508746146 1:0.30357142857142855 2:0.8546365914786967 4:1.0 7:1.0 53:1.0 1810:1.0 2924:1.0 3089:1.0 
1.2132206192012076 0.0 0.0 1.6348360494929663 1:0.10204081632653061 2:0.40601503759398494 3:1.0 7:1.0 9:1.0 1438:1.0 2912:1.0 2996:1.0 
0.3056154785427487 2.0 0.0 0.29341384123385317 1:0.05612244897959184 2:0.39849624060150374 3:1.0 7:1.0 9:1.0 1438:1.0 2963:1.0 2998:1.0 
0.03701307404953515 0.0 0.0 0.0 1:0.11734693877551021 2:0.7393483709273183 4:1.0 8:1.0 9:1.0 1438:1.0 2957:1.0 3089:1.0 
0.0 0.19228814902894925 0.0 0.0 1:0.5178571428571429 2:0.568922305764411 5:1.0 8:1.0 9:1.0 2532:1.0 2950:1.0 3073:1.0 
2.0 0.0 0.0 1.547038150223343 1:0.798469387755102 2:0.14035087719298245 5:1.0 6:1.0 519:1.0 2819:1.0 2950:1.0 3025:1.0 
2.0 0.0 0.0 0.3145415634796739 1:0.29336734693877553 2:0.3483709273182957 5:1.0 8:1.0 11:1.0 1440:1.0 2969:1.0 3104:1.0 
0.0 0.1169050206251097 0.0 0.0 1:0.04336734693877551 2:0.6942355889724311 3:1.0 8:1.0 1319:1.0 2068:1.0 2904:1.0 3089:1.0 
0.0 0.9893773789143899 0.1520619288651773 0.0 1:0.5331632653061225 2:0.39849624060150374 4:1.0 6:1.0 9:1.0 2027:1.0 2969:1.0 2988:1.0 
2.0 0.0 0.0 0.0 1:0.3979591836734694 2:0.22305764411027568 3:1.0 6:1.0 693:1.0 1438:1.0 2969:1.0 3089:1.0 
0.0 0.0 0.0 0.24627294392321128 1:0.8928571428571429 2:0.2781954887218045 3:1.0 7:1.0 1320:1.0 1860:1.0 2984:1.0 3019:1.0 
2.0 0.5284430376098125 0.0 1.5527053994874984 1:0.4744897959183674 2:0.11779448621553884 5:1.0 7:1.0 11:1.0 1545:1.0 2905:1.0 3013:1.0 
0.037259137688658774 0.0 0.0 0.0 1:0.4719387755102041 2:0.11779448621553884 5:1.0 7:1.0 11:1.0 1545:1.0 2905:1.0 3013:1.0 
1.1809709270895825 0.0 0.0 2.0 1:0.9030612244897959 2:0.2781954887218045 3:1.0 7:1.0 1320:1.0 1860:1.0 2984:1.0 3019:1.0 
1.7147208874717266 0.1790366754745461 0.0 1.1348883278182555 1:0.39285714285714285 2:0.11027568922305764 4:1.0 6:1.0 11:1.0 2797:1.0 2868:1.0 3068:1.0 
0.8688574419238776 0.0 0.0 0.0 1:0.07653061224489796 2:0.6516290726817042 3:1.0 7:1.0 598:1.0 1809:1.0 2904:1.0 3073:1.0 
0.8474080052438967 0.0 0.0 0.0 1:0.11989795918367346 2:0.6190476190476191 4:1.0 8:1.0 11:1.0 1825:1.0 2904:1.0 3089:1.0 
2.0 0.0 0.0 1.7330638191567633 1:0.20408163265306123 2:0.42606516290726815 4:1.0 8:1.0 1340:1.0 1446:1.0 2924:1.0 3089:1.0 
1.8939986761264629 0.7109664524682461 0.0 1.562119816183745 1:0.5357142857142857 2:0.05764411027568922 4:1.0 6:1.0 12:1.0 2532:1.0 2984:1.0 3026:1.0 
0.0 0.8187103453968678 0.0 0.06273358772735019 1:0.23469387755102042 2:0.12531328320802004 4:1.0 6:1.0 9:1.0 2122:1.0 2890:1.0 2996:1.0 
1.796080249283887 0.0 0.0 0.0 1:0.16581632653061223 2:0.2882205513784461 3:1.0 8:1.0 408:1.0 1438:1.0 2867:1.0 3025:1.0 
0.0 1.549713484821185 0.0 0.0 1:0.03571428571428571 2:0.48872180451127817 3:1.0 7:1.0 9:1.0 2532:1.0 2920:1.0 3089:1.0 
2.0 0.0 0.0 0.4697490554315004 1:0.09693877551020408 2:0.656641604010025 3:1.0 8:1.0 726:1.0 1440:1.0 2945:1.0 3104:1.0 
1.9480487736584793 0.0 0.0 0.8054718853514415 1:0.7678571428571429 2:0.2706766917293233 4:1.0 7:1.0 598:1.0 1440:1.0 2868:1.0 2988:1.0 
2.0 0.0 0.0 1.802665615450432 1:0.06377551020408163 2:0.7944862155388471 3:1.0 8:1.0 9:1.0 1440:1.0 2868:1.0 3104:1.0 
0.7388037831392794 0.0 0.0 0.0 1:0.061224489795918366 2:0.7243107769423559 5:1.0 8:1.0 519:1.0 2532:1.0 2929:1.0 3089:1.0 
0.0 0.0 0.047256603445689174 0.0 1:0.22704081632653061 2:0.8295739348370927 4:1.0 6:1.0 17:1.0 1971:1.0 2944:1.0 2988:1.0 
0.0 0.3946255588791104 0.0 0.7278736610376536 1:0.4846938775510204 2:0.23809523809523808 5:1.0 6:1.0 439:1.0 2813:1.0 2984:1.0 3086:1.0 
2.0 0.0 0.0 0.11167845206401845 1:0.7168367346938775 2:0.14536340852130325 4:1.0 8:1.0 13:1.0 1442:1.0 2969:1.0 3052:1.0 
0.0 0.0 0.0 0.014443243912776526 1:0.45153061224489793 2:0.5839598997493735 5:1.0 7:1.0 1364:1.0 2461:1.0 2868:1.0 3104:1.0 
0.0 0.0 0.0 2.0 1:0.30612244897959184 2:0.42857142857142855 3:1.0 8:1.0 9:1.0 2122:1.0 2924:1.0 3073:1.0 
2.0 1.132192739360486 0.0 0.4540254466580569 1:0.5280612244897959 2:0.39598997493734334 4:1.0 7:1.0 11:1.0 1440:1.0 2868:1.0 3073:1.0 
0.06522576444914767 0.0 0.0 0.1966791782964715 1:0.6556122448979592 2:0.41102756892230574 5:1.0 8:1.0 970:1.0 1713:1.0 2868:1.0 3049:1.0 
1.289177631812477 1.9792497554347872 0.0 0.0 1:0.22959183673469388 2:0.5764411027568922 3:1.0 6:1.0 9:1.0 1438:1.0 2868:1.0 3089:1.0 
1.7544384219028288 0.2620405732773091 0.0 0.0 1:0.15306122448979592 2:0.42105263157894735 3:1.0 6:1.0 1103:1.0 1438:1.0 2868:1.0 3104:1.0 
2.0 0.0 0.08683193077273435 0.0 1:0.16326530612244897 2:0.5789473684210527 5:1.0 7:1.0 1356:1.0 1440:1.0 2969:1.0 2988:1.0 
2.0 2.0 0.0 1.343218301189079 1:0.8698979591836735 2:0.20551378446115287 5:1.0 6:1.0 11:1.0 2675:1.0 2984:1.0 3089:1.0 
0.36436741928138827 1.0665681804508802 0.0 0.4086644099686194 1:0.6658163265306123 2:0.9874686716791979 4:1.0 7:1.0 1103:1.0 1854:1.0 2984:1.0 3104:1.0 
2.0 1.2710486017112508 0.0 0.0 1:0.5867346938775511 2:0.12030075187969924 4:1.0 6:1.0 392:1.0 1440:1.0 2984:1.0 3004:1.0 
0.0 0.0 0.0 2.0 1:0.10459183673469388 2:0.46616541353383456 5:1.0 8:1.0 519:1.0 1948:1.0 2969:1.0 3044:1.0 
0.24007949889907435 0.11831303534074047 0.0 0.5170781335268588 1:0.6836734693877551 2:0.37343358395989973 4:1.0 8:1.0 1415:1.0 1452:1.0 2984:1.0 2988:1.0 
0.0 0.46345467077431557 0.10332446578865452 0.0 1:0.06377551020408163 2:0.6716791979949874 3:1.0 8:1.0 9:1.0 1438:1.0 2904:1.0 3044:1.0 
2.0 0.0 0.20626321267885983 0.0 1:0.09183673469387756 2:0.6466165413533834 4:1.0 7:1.0 11:1.0 1438:1.0 2907:1.0 3089:1.0 
0.0 0.0 0.19263391929822374 0.0 1:0.10459183673469388 2:0.9022556390977443 4:1.0 7:1.0 726:1.0 1561:1.0 2924:1.0 2988:1.0 
1.3040632546807185 0.1653391178246515 0.0 0.0 1:0.04081632653061224 2:0.5964912280701754 3:1.0 7:1.0 13:1.0 1561:1.0 2972:1.0 2998:1.0 
0.6351867603108879 0.0 0.0 0.0 1:0.0663265306122449 2:0.3659147869674185 5:1.0 8:1.0 578:1.0 2027:1.0 2940:1.0 3019:1.0 
0.0 0.0 0.016695013133218674 0.0 1:0.43112244897959184 2:0.2957393483709273 3:1.0 6:1.0 827:1.0 2027:1.0 2924:1.0 3025:1.0 
0.694248285312812 0.0 0.0 0.0 1:0.3852040816326531 2:0.5839598997493735 5:1.0 6:1.0 68:1.0 1561:1.0 2905:1.0 3073:1.0 
0.05801582295612339 0.0 0.0 0.0 1:0.3239795918367347 2:0.7117794486215538 4:1.0 8:1.0 642:1.0 1438:1.0 2924:1.0 3104:1.0 
0.8517105753231631 0.0 0.0 0.0 1:0.11224489795918367 2:0.43609022556390975 3:1.0 6:1.0 154:1.0 2812:1.0 2905:1.0 3073:1.0 
0.0 0.12879728620100314 0.0 0.4913254148477354 1:0.4030612244897959 2:0.11278195488721804 3:1.0 6:1.0 598:1.0 2833:1.0 2885:1.0 3103:1.0 
0.9905381829345542 0.0 0.0 0.12773876094072997 1:0.13010204081632654 2:0.2756892230576441 4:1.0 7:1.0 157:1.0 2145:1.0 2899:1.0 3104:1.0 
0.542558260949022 0.0 0.0 2.0 1:0.08673469387755102 2:0.18295739348370926 3:1.0 8:1.0 519:1.0 1438:1.0 2932:1.0 3069:1.0 
1.065660245476315 0.0 0.0 0.5288545479894213 1:0.1683673469387755 2:0.17042606516290726 4:1.0 6:1.0 676:1.0 1809:1.0 2890:1.0 3004:1.0 
0.0997157813890012 0.8351983065670631 0.0 0.0 1:0.1326530612244898 2:0.13533834586466165 3:1.0 8:1.0 524:1.0 1948:1.0 2984:1.0 3103:1.0 
0.12778155408516073 0.0 0.0 0.2155314113987515 1:0.03826530612244898 2:0.18045112781954886 3:1.0 8:1.0 1103:1.0 1948:1.0 2887:1.0 3097:1.0 
1.9795057374833356 0.0 0.0 0.0 1:0.22193877551020408 2:0.41854636591478694 4:1.0 7:1.0 726:1.0 1438:1.0 2871:1.0 3089:1.0 
0.17484439097578083 0.0 0.0 2.0 1:0.18112244897959184 2:0.2857142857142857 4:1.0 7:1.0 519:1.0 1948:1.0 2871:1.0 2988:1.0 
2.0 1.8302010203200638 0.0 0.34803905726653095 1:0.29591836734693877 2:0.3408521303258145 4:1.0 7:1.0 9:1.0 1816:1.0 2969:1.0 3089:1.0 
1.1576239895537215 0.0 0.0 0.0 1:0.04336734693877551 2:0.2907268170426065 4:1.0 6:1.0 1297:1.0 1948:1.0 2933:1.0 2998:1.0 
0.0737630144420366 0.0 0.0 0.0 1:0.29846938775510207 2:0.18546365914786966 3:1.0 7:1.0 519:1.0 1956:1.0 2878:1.0 3097:1.0 
2.0 0.410459005068641 0.0 2.0 1:0.1683673469387755 2:0.2807017543859649 3:1.0 7:1.0 1407:1.0 1438:1.0 2969:1.0 2998:1.0 
0.30664456108137894 0.0 0.0 0.0 1:0.12244897959183673 2:0.22807017543859648 4:1.0 6:1.0 693:1.0 2122:1.0 2975:1.0 3104:1.0 
1.3591066597927501 0.0 0.0 0.0 1:0.4030612244897959 2:0.39097744360902253 4:1.0 7:1.0 1320:1.0 1438:1.0 2940:1.0 2996:1.0 
0.582830653348619 0.0 0.0 0.0 1:0.14795918367346939 2:0.3558897243107769 3:1.0 7:1.0 408:1.0 1438:1.0 2969:1.0 3013:1.0 
1.5005678926303918 0.24080525413493836 0.0 0.16451441491686095 1:0.22959183673469388 2:0.21052631578947367 3:1.0 6:1.0 591:1.0 1440:1.0 2977:1.0 3096:1.0 
2.0 0.0 0.0 0.9703232687229969 1:0.3137755102040816 2:0.3283208020050125 5:1.0 8:1.0 519:1.0 1854:1.0 2878:1.0 3089:1.0 
2.0 1.8946990232508745 0.0 0.0 1:0.13520408163265307 2:0.15288220551378445 4:1.0 6:1.0 1356:1.0 1442:1.0 2984:1.0 3104:1.0 
0.17859252724583882 0.6119795910725354 0.0 1.2319814292819076 1:0.15306122448979592 2:0.16290726817042606 4:1.0 7:1.0 12:1.0 1438:1.0 2868:1.0 2988:1.0 
2.0 0.0 0.0 0.4347749642884259 1:0.21683673469387754 2:0.13032581453634084 3:1.0 7:1.0 588:1.0 2017:1.0 2944:1.0 3065:1.0 
2.0 0.0 0.0 0.0 1:0.2372448979591837 2:0.3057644110275689 4:1.0 6:1.0 425:1.0 2832:1.0 2876:1.0 3019:1.0 
0.0 0.0 0.0 0.28691969898363495 1:0.2423469387755102 2:0.23057644110275688 3:1.0 6:1.0 400:1.0 1809:1.0 2924:1.0 2998:1.0 
0.0 0.0 0.0 0.7453482524996675 1:0.08163265306122448 2:0.21553884711779447 5:1.0 8:1.0 461:1.0 1438:1.0 2867:1.0 3104:1.0 
1.0267441077271247 0.0 0.0 1.1708447759521015 1:0.25510204081632654 2:0.07769423558897243 5:1.0 8:1.0 461:1.0 1890:1.0 2983:1.0 2987:1.0 
0.426430091646554 0.0 0.0 0.0 1:0.09948979591836735 2:0.39348370927318294 5:1.0 8:1.0 1235:1.0 2533:1.0 2887:1.0 3036:1.0 
0.21806188977716412 0.0 0.0 0.0 1:0.09693877551020408 2:0.39348370927318294 5:1.0 8:1.0 408:1.0 2533:1.0 2945:1.0 3036:1.0 
2.0 0.0 0.0 1.2989179372837136 1:0.26785714285714285 2:0.17293233082706766 5:1.0 8:1.0 408:1.0 2829:1.0 2953:1.0 3089:1.0 
0.597752821776986 0.0 0.0 0.8770420455751244 1:0.14030612244897958 2:0.43107769423558895 3:1.0 6:1.0 9:1.0 1438:1.0 2984:1.0 3104:1.0 
0.6963338421737655 0.0 0.031608726122119075 0.0 1:0.3826530612244898 2:0.24060150375939848 4:1.0 6:1.0 588:1.0 1971:1.0 2924:1.0 2997:1.0 
0.4995049995523166 0.0 0.0 2.0 1:0.1377551020408163 2:0.23809523809523808 3:1.0 8:1.0 425:1.0 1438:1.0 2969:1.0 3104:1.0 
2.0 0.0 0.0 2.0 1:0.14795918367346939 2:0.13283208020050125 5:1.0 6:1.0 1405:1.0 1854:1.0 2984:1.0 3089:1.0 
2.0 1.0617993430861077 0.0 1.2246497826570462 1:0.33163265306122447 2:0.2656641604010025 3:1.0 7:1.0 9:1.0 1816:1.0 2924:1.0 2998:1.0 
0.19902494569168278 0.09175552611482866 0.0 0.0 1:0.0663265306122449 2:0.07268170426065163 4:1.0 8:1.0 1297:1.0 2027:1.0 2976:1.0 3047:1.0 
2.0 0.0 0.0 2.0 1:0.18112244897959184 2:0.08521303258145363 5:1.0 7:1.0 400:1.0 1438:1.0 2885:1.0 3005:1.0 
0.5219483649827741 0.0 0.0 0.19774306264150493 1:0.18622448979591838 2:0.2756892230576441 4:1.0 6:1.0 577:1.0 1829:1.0 2885:1.0 3044:1.0 
0.5065040070335687 0.0 0.0 1.5585865711269824 1:0.34438775510204084 2:0.09523809523809523 4:1.0 6:1.0 461:1.0 2006:1.0 2905:1.0 3005:1.0 
0.0 0.0 0.0 2.0 1:0.34438775510204084 2:0.11528822055137844 4:1.0 6:1.0 461:1.0 1438:1.0 2905:1.0 2992:1.0 
2.0 0.0 0.0 2.0 1:0.16071428571428573 2:0.17794486215538846 3:1.0 8:1.0 726:1.0 1948:1.0 2953:1.0 3044:1.0 
1.7753662208086562 0.17413498651137907 0.0 0.0 1:0.12755102040816327 2:0.10776942355889724 4:1.0 6:1.0 519:1.0 2765:1.0 2904:1.0 3091:1.0 
2.0 0.0 0.0 0.0 1:0.18622448979591838 2:0.13533834586466165 5:1.0 7:1.0 519:1.0 2048:1.0 2924:1.0 2987:1.0 
0.0 0.4629032882765226 0.0 0.0 1:0.11224489795918367 2:0.17794486215538846 3:1.0 6:1.0 1336:1.0 2763:1.0 2971:1.0 3064:1.0 
2.0 0.32222467295047413 0.0 0.43326074131378495 1:0.2193877551020408 2:0.13032581453634084 3:1.0 6:1.0 1393:1.0 1441:1.0 2905:1.0 3089:1.0 
0.6919829695064479 0.0 0.0 0.26568128009888126 1:0.22448979591836735 2:0.14035087719298245 3:1.0 7:1.0 1393:1.0 2155:1.0 2905:1.0 3089:1.0 
0.27359042287906865 0.0 0.03705533580520193 0.0 1:0.11989795918367346 2:0.13784461152882205 3:1.0 6:1.0 53:1.0 1890:1.0 2977:1.0 3032:1.0 
2.0 0.0 0.0 0.0 1:0.22193877551020408 2:0.23308270676691728 3:1.0 7:1.0 1393:1.0 1482:1.0 2905:1.0 3098:1.0 
0.0 0.0 0.0 0.5288572347076819 1:0.24744897959183673 2:0.22807017543859648 3:1.0 7:1.0 461:1.0 1438:1.0 2905:1.0 3081:1.0 
2.0 0.0 0.0 2.0 1:0.23469387755102042 2:0.16290726817042606 4:1.0 6:1.0 9:1.0 2532:1.0 2961:1.0 3097:1.0 
0.0 0.28183629898241236 0.17094924140401604 0.0 1:0.21683673469387754 2:0.3007518796992481 3:1.0 6:1.0 381:1.0 1953:1.0 2978:1.0 3044:1.0 
0.0 0.0 0.0 0.8642957914433318 1:0.08928571428571429 2:0.2606516290726817 3:1.0 6:1.0 449:1.0 1878:1.0 2873:1.0 2988:1.0 
0.03879619862651588 1.3177942244436993 0.0 0.0 1:0.1377551020408163 2:0.22807017543859648 3:1.0 6:1.0 449:1.0 2017:1.0 2877:1.0 2998:1.0 
0.9700963083947719 0.4929836347392822 0.0 0.0 1:0.20153061224489796 2:0.15538847117794485 3:1.0 7:1.0 565:1.0 1438:1.0 2950:1.0 3000:1.0 
2.0 2.0 0.0 2.0 1:0.14285714285714285 2:0.12030075187969924 4:1.0 6:1.0 12:1.0 1438:1.0 2868:1.0 2998:1.0 
0.0 0.0 0.026546555778450852 0.0 1:0.12244897959183673 2:0.8671679197994987 3:1.0 7:1.0 9:1.0 1816:1.0 2878:1.0 3050:1.0 
0.03616151101312151 0.0 0.0 0.2067353317152719 1:0.15306122448979592 2:0.12280701754385964 5:1.0 6:1.0 1356:1.0 1829:1.0 2950:1.0 3013:1.0 
0.18846493477294038 1.1620793267806389 0.0 0.0 1:0.15306122448979592 2:0.13283208020050125 5:1.0 8:1.0 1356:1.0 1906:1.0 2950:1.0 2993:1.0 
0.569364546241648 0.0 0.0 0.0 1:0.12755102040816327 2:0.13283208020050125 3:1.0 8:1.0 400:1.0 1906:1.0 2893:1.0 2993:1.0 
0.0 2.0 0.0 0.0 1:0.3877551020408163 2:0.19047619047619047 5:1.0 6:1.0 461:1.0 1438:1.0 2984:1.0 3018:1.0 
0.0 0.0 0.0 0.28120881237162254 1:0.3239795918367347 2:0.37844611528822053 4:1.0 8:1.0 461:1.0 1890:1.0 2885:1.0 3104:1.0 
1.8143220808996978 0.0 0.0 0.5176118151205146 1:0.29591836734693877 2:0.3182957393483709 3:1.0 7:1.0 519:1.0 1890:1.0 2984:1.0 3005:1.0 
0.0 0.0 0.0 0.22230802488998053 1:0.3494897959183674 2:0.2857142857142857 4:1.0 7:1.0 598:1.0 1438:1.0 2868:1.0 3103:1.0 
2.0 0.0 0.0 2.0 1:0.29336734693877553 2:0.2656641604010025 4:1.0 6:1.0 9:1.0 1544:1.0 2983:1.0 3073:1.0 
0.0 0.0 0.0 0.9533138703937817 1:0.3469387755102041 2:0.2756892230576441 4:1.0 8:1.0 598:1.0 1948:1.0 2868:1.0 3047:1.0 
0.7234124108063273 2.0 0.0 0.0 1:0.5178571428571429 2:0.6541353383458647 4:1.0 7:1.0 9:1.0 1438:1.0 2924:1.0 2988:1.0 
0.0 0.12668585545727087 0.042290934803694634 0.0 1:0.4489795918367347 2:0.506265664160401 4:1.0 7:1.0 394:1.0 1438:1.0 2876:1.0 3044:1.0 
2.0 0.0 0.0 0.0 1:0.1556122448979592 2:0.2832080200501253 4:1.0 7:1.0 400:1.0 1438:1.0 2885:1.0 3089:1.0 
0.0 0.09837448353025115 0.0 0.0 1:0.1556122448979592 2:0.40852130325814534 4:1.0 7:1.0 400:1.0 1829:1.0 2885:1.0 3089:1.0 
1.1857135872844409 0.0 0.0 2.0 1:0.29081632653061223 2:0.41353383458646614 4:1.0 8:1.0 9:1.0 1438:1.0 2969:1.0 3089:1.0 
2.0 0.29731261608945675 0.0 0.0 1:0.05612244897959184 2:0.15037593984962405 3:1.0 7:1.0 11:1.0 1829:1.0 2905:1.0 3005:1.0 
2.0 0.0 0.0 0.0 1:0.32908163265306123 2:0.5112781954887218 5:1.0 8:1.0 9:1.0 1438:1.0 2868:1.0 3089:1.0 
2.0 0.0 0.0 0.0 1:0.2372448979591837 2:0.5964912280701754 4:1.0 6:1.0 588:1.0 2017:1.0 2876:1.0 3103:1.0 
1.8397907685291697 0.7828382606674944 0.0 0.0 1:0.3877551020408163 2:0.24310776942355888 4:1.0 8:1.0 1032:1.0 1438:1.0 2984:1.0 3025:1.0 
0.0 0.0 0.0 2.0 1:0.22448979591836735 2:0.2932330827067669 4:1.0 8:1.0 9:1.0 1438:1.0 2969:1.0 3044:1.0 
2.0 0.0 0.0 0.16544151682029815 1:0.23979591836734693 2:0.18045112781954886 4:1.0 7:1.0 379:1.0 2483:1.0 2969:1.0 3089:1.0 
2.0 0.19530144546036252 0.0 0.0 1:0.41581632653061223 2:0.15037593984962405 3:1.0 7:1.0 97:1.0 1948:1.0 2953:1.0 3036:1.0 
2.0 0.17514734371599872 0.0718118416004048 0.0 1:0.11224489795918367 2:0.17042606516290726 5:1.0 8:1.0 519:1.0 2140:1.0 2898:1.0 3025:1.0 
2.0 0.0 0.0 2.0 1:0.36989795918367346 2:0.11779448621553884 4:1.0 8:1.0 578:1.0 1948:1.0 2969:1.0 3005:1.0 
0.36920093907901547 0.0 0.20734256583675326 0.0 1:0.1760204081632653 2:0.3533834586466165 3:1.0 8:1.0 619:1.0 1854:1.0 2889:1.0 3063:1.0 
2.0 0.0 0.0 0.0 1:0.1913265306122449 2:0.17293233082706766 4:1.0 7:1.0 116:1.0 1948:1.0 2885:1.0 3016:1.0 
1.6808890844524345 0.0 0.0 0.0 1:0.1836734693877551 2:0.3583959899749373 3:1.0 8:1.0 425:1.0 1854:1.0 2905:1.0 3063:1.0 
0.0 0.0 0.0 0.7621882128395374 1:0.1760204081632653 2:0.17794486215538846 3:1.0 6:1.0 619:1.0 1854:1.0 2889:1.0 3025:1.0 
0.6351856126383391 0.0 0.0 0.5443894287163117 1:0.17857142857142858 2:0.17042606516290726 4:1.0 6:1.0 519:1.0 2048:1.0 2896:1.0 3009:1.0 
1.4838223387255252 0.0 0.0 0.0 1:0.18112244897959184 2:0.38345864661654133 4:1.0 7:1.0 519:1.0 2785:1.0 2896:1.0 3070:1.0 
0.36831307185354495 0.0 0.0 0.0 1:0.2602040816326531 2:0.3233082706766917 4:1.0 8:1.0 12:1.0 2122:1.0 2868:1.0 3098:1.0 
2.0 0.0 0.0 2.0 1:0.32908163265306123 2:0.5714285714285714 3:1.0 7:1.0 431:1.0 1809:1.0 2905:1.0 3089:1.0 
0.0 0.0 0.0 0.1606319854148705 1:0.08928571428571429 2:0.518796992481203 4:1.0 8:1.0 387:1.0 2048:1.0 2877:1.0 3050:1.0 
0.6034574059162656 0.0 0.0 0.0 1:0.12244897959183673 2:0.15037593984962405 4:1.0 6:1.0 218:1.0 1438:1.0 2886:1.0 3009:1.0 
0.0 0.1816353468557429 0.0 0.0 1:0.058673469387755105 2:0.18295739348370926 4:1.0 7:1.0 1258:1.0 1816:1.0 2867:1.0 3047:1.0 
0.7531125245975502 0.22916744947292048 0.0 0.0 1:0.11989795918367346 2:0.21553884711779447 4:1.0 7:1.0 218:1.0 1983:1.0 2886:1.0 2987:1.0 
0.9819767005704795 0.0 0.0 0.0 1:0.22193877551020408 2:0.22055137844611528 4:1.0 7:1.0 554:1.0 2071:1.0 2867:1.0 3019:1.0 
0.8247533756907753 0.0 0.0 0.3761310576297895 1:0.11989795918367346 2:0.10025062656641603 4:1.0 6:1.0 1054:1.0 2153:1.0 2904:1.0 2998:1.0 
0.8107814356101652 1.556875836111538 0.0 0.9579535434460914 1:0.11734693877551021 2:0.18796992481203006 4:1.0 7:1.0 598:1.0 1854:1.0 2874:1.0 3000:1.0 
2.0 0.9863198498037715 0.0 0.0 1:0.3086734693877551 2:0.17042606516290726 5:1.0 6:1.0 9:1.0 1438:1.0 2905:1.0 2997:1.0 
2.0 0.7918171761331867 0.0 0.7169520336705038 1:0.19642857142857142 2:0.09022556390977443 5:1.0 6:1.0 408:1.0 1808:1.0 2893:1.0 3004:1.0 
0.0 0.0 0.0 0.07260471415421232 1:0.19642857142857142 2:0.41604010025062654 5:1.0 8:1.0 408:1.0 1809:1.0 2893:1.0 3089:1.0 
0.0 0.0 0.10158610658403375 0.0 1:0.19387755102040816 2:0.5488721804511278 3:1.0 8:1.0 461:1.0 1890:1.0 2889:1.0 3049:1.0 
1.220984368382406 0.0 0.0 0.0 1:0.1683673469387755 2:0.6691729323308271 4:1.0 6:1.0 519:1.0 1948:1.0 2961:1.0 3081:1.0 
1.6896166796338885 0.0 0.0 0.0 1:0.6836734693877551 2:0.5363408521303258 3:1.0 6:1.0 519:1.0 1948:1.0 2961:1.0 3018:1.0 
1.447583071619864 0.08241051319915264 0.0 0.0 1:0.22448979591836735 2:0.12781954887218044 5:1.0 8:1.0 1150:1.0 2027:1.0 2953:1.0 3025:1.0 
2.0 0.0 0.0 2.0 1:0.11734693877551021 2:0.11027568922305764 4:1.0 8:1.0 578:1.0 2834:1.0 2876:1.0 3104:1.0 
1.225207781130817 0.0 0.0 0.0 1:0.10714285714285714 2:0.3408521303258145 5:1.0 7:1.0 641:1.0 1482:1.0 2877:1.0 3073:1.0 
1.0621911455995878 0.061980317819609484 0.0 0.0 1:0.1326530612244898 2:0.15288220551378445 5:1.0 8:1.0 598:1.0 2027:1.0 2905:1.0 3025:1.0 
2.0 0.0 0.0 0.894857695078998 1:0.18112244897959184 2:0.11278195488721804 4:1.0 7:1.0 578:1.0 2007:1.0 2978:1.0 2996:1.0 
0.47788215052422983 0.0 0.0 0.40088789756206206 1:0.3877551020408163 2:0.16040100250626566 5:1.0 8:1.0 455:1.0 2214:1.0 2888:1.0 3089:1.0 
0.32979877682077585 0.0 0.0 0.28430928704854225 1:0.22193877551020408 2:0.10275689223057644 4:1.0 8:1.0 68:1.0 2070:1.0 2893:1.0 2997:1.0 
2.0 0.0 0.0 0.024924891386744585 1:0.11479591836734694 2:0.23308270676691728 5:1.0 8:1.0 1405:1.0 1808:1.0 2984:1.0 2996:1.0 
0.3925853643878523 0.0 0.0 1.2815237052431834 1:0.11989795918367346 2:0.2832080200501253 3:1.0 7:1.0 12:1.0 1834:1.0 2868:1.0 2998:1.0 
0.6840500811293446 0.0 0.0 0.0 1:0.11734693877551021 2:0.3659147869674185 4:1.0 7:1.0 9:1.0 1438:1.0 2872:1.0 3089:1.0 
1.3684216600177446 0.0 0.0 0.0 1:0.22193877551020408 2:0.14035087719298245 4:1.0 8:1.0 415:1.0 1971:1.0 2868:1.0 3065:1.0 
0.6391881279837832 0.6842019365580815 0.0 0.0 1:0.3010204081632653 2:0.09774436090225563 5:1.0 6:1.0 526:1.0 2006:1.0 2905:1.0 3009:1.0 
2.0 0.868917050971506 0.0 0.0 1:0.45153061224489793 2:0.2957393483709273 5:1.0 7:1.0 1246:1.0 1829:1.0 2899:1.0 3089:1.0 
2.0 0.0 0.0 2.0 1:0.2857142857142857 2:0.07017543859649122 4:1.0 6:1.0 9:1.0 1854:1.0 2868:1.0 2987:1.0 
0.0 0.0 0.0 2.0 1:0.14030612244897958 2:0.12280701754385964 4:1.0 6:1.0 158:1.0 1808:1.0 2884:1.0 2996:1.0 
2.0 0.0 0.0 0.0 1:0.1377551020408163 2:0.15288220551378445 3:1.0 7:1.0 435:1.0 2099:1.0 2878:1.0 3070:1.0 
2.0 0.0 0.0 0.5436729139165977 1:0.20408163265306123 2:0.11278195488721804 4:1.0 6:1.0 425:1.0 1438:1.0 2969:1.0 3089:1.0 
2.0 0.0 0.0 0.5783572448820224 1:0.14030612244897958 2:0.3458646616541353 4:1.0 7:1.0 425:1.0 1973:1.0 2943:1.0 3089:1.0 
2.0 0.0 0.0 0.0 1:0.10204081632653061 2:0.10275689223057644 4:1.0 6:1.0 9:1.0 2435:1.0 2969:1.0 3069:1.0 
0.0 0.0 0.0 0.6695977196223272 1:0.2653061224489796 2:0.8120300751879699 3:1.0 7:1.0 1396:1.0 2790:1.0 2950:1.0 3073:1.0 
1.5918235538963064 0.3817693785761735 0.2641833535648922 0.0 1:0.125 2:0.11278195488721804 3:1.0 6:1.0 526:1.0 1953:1.0 2904:1.0 2987:1.0 
0.0 1.160700567203906 0.0 0.0 1:0.27040816326530615 2:0.7092731829573935 4:1.0 8:1.0 1103:1.0 2532:1.0 2868:1.0 2988:1.0 
2.0 0.0 0.0 0.0 1:0.11224489795918367 2:0.2756892230576441 3:1.0 7:1.0 68:1.0 1442:1.0 2873:1.0 3025:1.0 
0.0 0.096348210327756 0.0 0.0 1:0.5586734693877551 2:0.2531328320802005 5:1.0 8:1.0 461:1.0 1586:1.0 2977:1.0 3089:1.0 
0.7522801273431144 0.0 0.0 0.8380560581228582 1:0.08673469387755102 2:0.3333333333333333 3:1.0 8:1.0 932:1.0 1948:1.0 2876:1.0 3104:1.0 
0.9207813820380499 0.0 0.0 0.0 1:0.15816326530612246 2:0.11528822055137844 3:1.0 6:1.0 428:1.0 2399:1.0 2868:1.0 3019:1.0 
2.0 0.0 0.0 0.05193427547347927 1:0.25255102040816324 2:0.09523809523809523 5:1.0 6:1.0 578:1.0 1829:1.0 2924:1.0 3019:1.0 
2.0 1.6562493479268239 0.13910839420836138 0.23684054869279292 1:0.11734693877551021 2:0.13032581453634084 4:1.0 6:1.0 9:1.0 2532:1.0 2904:1.0 3009:1.0 
2.0 2.0 0.0 2.0 1:0.2780612244897959 2:0.05764411027568922 3:1.0 6:1.0 9:1.0 1438:1.0 2878:1.0 3005:1.0 
2.0 0.07838598440337383 0.0 2.0 1:0.07908163265306123 2:0.15288220551378445 3:1.0 6:1.0 1405:1.0 1857:1.0 2984:1.0 2988:1.0 
2.0 0.0 0.07461071582826555 0.25401548725543355 1:0.22959183673469388 2:0.24561403508771928 3:1.0 8:1.0 693:1.0 2007:1.0 2890:1.0 3044:1.0 
2.0 0.0 0.0 2.0 1:0.09948979591836735 2:0.41854636591478694 4:1.0 8:1.0 9:1.0 1438:1.0 2953:1.0 3089:1.0 
0.0 0.0 0.16950786196785084 0.0 2:0.2556390977443609 3:1.0 6:1.0 9:1.0 1438:1.0 2867:1.0 2997:1.0 
0.0 0.20798398794882114 0.0 0.7559347163113301 1:0.14030612244897958 2:0.11027568922305764 3:1.0 6:1.0 9:1.0 2027:1.0 2877:1.0 3024:1.0 
0.5140783395223801 0.0 0.0 0.0 1:0.05357142857142857 2:0.3258145363408521 3:1.0 8:1.0 107:1.0 1438:1.0 2905:1.0 2998:1.0 
0.0 2.0 0.0 0.0 1:0.05357142857142857 2:0.3182957393483709 3:1.0 7:1.0 379:1.0 1808:1.0 2876:1.0 2996:1.0 
0.7826044593751453 0.0 0.0 0.0 1:0.05357142857142857 2:0.2581453634085213 3:1.0 6:1.0 107:1.0 1637:1.0 2905:1.0 3040:1.0 
2.0 0.0 0.0 0.11468839885130311 1:0.04846938775510204 2:0.05012531328320802 3:1.0 6:1.0 394:1.0 1536:1.0 2956:1.0 3025:1.0 
1.0236754446312188 0.0 0.0 0.46002839810531987 1:0.2653061224489796 2:0.17042606516290726 3:1.0 8:1.0 208:1.0 1438:1.0 2920:1.0 3065:1.0 
2.0 0.0 0.0 0.8908200172138304 1:0.21173469387755103 2:0.2857142857142857 4:1.0 8:1.0 519:1.0 1564:1.0 2924:1.0 2998:1.0 
1.5252426449313239 0.0 0.0 2.0 1:0.5841836734693877 2:0.21804511278195488 4:1.0 6:1.0 9:1.0 1948:1.0 2940:1.0 3025:1.0 
2.0 2.0 0.0 1.91876661036618 1:0.3979591836734694 2:0.2882205513784461 4:1.0 7:1.0 9:1.0 1438:1.0 2878:1.0 2989:1.0 
0.009961612511233233 0.0 0.0 0.0 1:0.1989795918367347 2:0.3659147869674185 5:1.0 8:1.0 9:1.0 1890:1.0 2912:1.0 3009:1.0 
0.2770744475132916 0.0 0.0 0.0 1:0.25 2:0.3408521303258145 5:1.0 7:1.0 1399:1.0 1442:1.0 2978:1.0 3104:1.0 
1.1499795430300348 0.0 0.0 0.0 1:0.3163265306122449 2:0.5137844611528822 4:1.0 7:1.0 1103:1.0 1482:1.0 2969:1.0 2998:1.0 
2.0 0.0 0.0 0.0 1:0.10714285714285714 2:0.11027568922305764 4:1.0 7:1.0 53:1.0 1438:1.0 2906:1.0 3026:1.0 
1.0884359154067205 0.0 0.11033429788391934 0.26533357509654865 1:0.10714285714285714 2:0.15288220551378445 4:1.0 6:1.0 53:1.0 1482:1.0 2906:1.0 3070:1.0 
0.36580563070102307 0.0 0.03351588880116463 0.5052547553656509 1:0.38010204081632654 2:0.2506265664160401 4:1.0 6:1.0 41:1.0 1470:1.0 2877:1.0 3044:1.0 
0.0 0.04632865738584417 0.0 1.8262584647095088 1:0.14795918367346939 2:0.17042606516290726 3:1.0 7:1.0 379:1.0 1438:1.0 2876:1.0 3049:1.0 
0.0 0.0 0.11102454151921398 0.4765721865824135 1:0.32142857142857145 2:0.37092731829573933 4:1.0 7:1.0 526:1.0 1470:1.0 2884:1.0 2997:1.0 
0.0 0.06989749333454243 0.037509187548775635 0.07624407465412605 1:0.6505102040816326 2:0.2506265664160401 4:1.0 6:1.0 41:1.0 1470:1.0 2873:1.0 3044:1.0 
2.0 0.0 0.0 0.0 1:0.17091836734693877 2:0.17543859649122806 3:1.0 7:1.0 425:1.0 1854:1.0 2924:1.0 3104:1.0 
0.5929703694442084 0.0 0.0 0.8888716645255916 1:0.17091836734693877 2:0.43859649122807015 3:1.0 6:1.0 425:1.0 1948:1.0 2924:1.0 3104:1.0 
2.0 0.0 0.0 1.224401929783613 1:0.19642857142857142 2:0.17794486215538846 4:1.0 7:1.0 368:1.0 1854:1.0 2877:1.0 3104:1.0 
0.3116906678225224 0.0 0.0 0.0 1:0.16581632653061223 2:0.18295739348370926 5:1.0 7:1.0 387:1.0 1854:1.0 2930:1.0 3047:1.0 
0.0 0.0 0.023302128652822468 0.4644202028965063 1:0.44642857142857145 2:0.19047619047619047 3:1.0 7:1.0 519:1.0 1797:1.0 2984:1.0 2997:1.0 
0.8803899486474307 0.1729746008373577 0.0 0.0 1:0.17346938775510204 2:0.19298245614035087 3:1.0 7:1.0 425:1.0 1797:1.0 2924:1.0 2997:1.0 
0.9104440675863524 0.0 0.0 0.7053644464401289 1:0.35714285714285715 2:0.16791979949874686 4:1.0 6:1.0 425:1.0 1854:1.0 2912:1.0 3044:1.0 
0.9018427693775806 0.0 0.0 0.0 1:0.1913265306122449 2:0.08521303258145363 4:1.0 6:1.0 425:1.0 1907:1.0 2927:1.0 2987:1.0 
2.0 0.0 0.0 0.0 1:0.35459183673469385 2:0.18295739348370926 4:1.0 7:1.0 425:1.0 1854:1.0 2912:1.0 3047:1.0 
0.0 0.4921396611854799 0.0 0.608091074922791 1:0.18112244897959184 2:0.16040100250626566 4:1.0 8:1.0 425:1.0 1816:1.0 2984:1.0 3050:1.0 
2.0 0.0 0.0 2.0 1:0.11479591836734694 2:0.23558897243107768 3:1.0 6:1.0 13:1.0 1438:1.0 2885:1.0 3089:1.0 
2.0 0.0 0.0 0.0 1:0.13520408163265307 2:0.11027568922305764 3:1.0 6:1.0 588:1.0 1442:1.0 2924:1.0 3005:1.0 
0.0 0.0 0.0 1.1967383179035347 1:0.32653061224489793 2:0.06766917293233082 4:1.0 6:1.0 540:1.0 1837:1.0 2969:1.0 3044:1.0 
1.3492675089450161 0.0 0.0 1.3594852766431926 1:0.07908163265306123 2:0.17794486215538846 5:1.0 7:1.0 425:1.0 1438:1.0 2876:1.0 3104:1.0 
0.189139972476161 0.0 0.0 0.0 1:0.02040816326530612 2:0.21553884711779447 3:1.0 8:1.0 400:1.0 1553:1.0 2969:1.0 3104:1.0 
1.4977909477023585 0.0 0.0 0.0 1:0.11479591836734694 2:0.15037593984962405 4:1.0 6:1.0 1399:1.0 2018:1.0 2969:1.0 3096:1.0 
0.13756530774067108 0.0 0.0 0.8476484540157669 1:0.24489795918367346 2:0.23308270676691728 4:1.0 6:1.0 9:1.0 2009:1.0 2873:1.0 3044:1.0 
0.2664464682559916 1.1204789125133066 0.0 0.0 1:0.1556122448979592 2:0.18295739348370926 3:1.0 8:1.0 589:1.0 2155:1.0 2976:1.0 3073:1.0 
0.9875127841517136 2.0 0.0 0.0 1:0.23979591836734693 2:0.24812030075187969 3:1.0 7:1.0 580:1.0 2028:1.0 2924:1.0 3104:1.0 
2.0 0.0 0.0 0.9872778759002329 1:0.1836734693877551 2:0.10275689223057644 3:1.0 6:1.0 1288:1.0 1769:1.0 2961:1.0 3098:1.0 
1.8595390101863898 0.0 0.0 0.0 1:0.10204081632653061 2:0.17794486215538846 3:1.0 6:1.0 1356:1.0 2717:1.0 2950:1.0 3081:1.0 
2.0 0.0 0.0 0.0 1:0.08163265306122448 2:0.18295739348370926 3:1.0 7:1.0 1356:1.0 2102:1.0 2950:1.0 3097:1.0 
2.0 1.117621881194795 0.0 0.0 1:0.10459183673469388 2:0.12280701754385964 3:1.0 6:1.0 1356:1.0 2832:1.0 2978:1.0 3044:1.0 
2.0 0.41899359994141244 0.0 0.0 1:0.12755102040816327 2:0.10025062656641603 4:1.0 8:1.0 13:1.0 2027:1.0 2961:1.0 3025:1.0 
1.611055709787167 0.0 0.0 1.671630909698636 1:0.1913265306122449 2:0.2882205513784461 5:1.0 8:1.0 9:1.0 1553:1.0 2977:1.0 3104:1.0 
1.5357470504699857 1.9313621566408807 0.0 0.0920812944244417 1:0.1096938775510204 2:0.2531328320802005 5:1.0 8:1.0 124:1.0 1769:1.0 2969:1.0 3010:1.0 
0.0 0.0 0.0 1.2505437330060885 1:0.22448979591836735 2:0.18546365914786966 5:1.0 8:1.0 387:1.0 1438:1.0 2924:1.0 3097:1.0 
0.0 0.8906845734035214 0.019724305027992228 2.0 1:0.2857142857142857 2:0.43107769423558895 4:1.0 7:1.0 9:1.0 1438:1.0 2984:1.0 3044:1.0 
2.0 0.0 0.0 0.6669456611670462 1:0.2857142857142857 2:0.19047619047619047 4:1.0 6:1.0 9:1.0 1441:1.0 2984:1.0 3073:1.0 
2.0 0.0 0.0 0.48709296502288585 1:0.1989795918367347 2:0.12030075187969924 3:1.0 8:1.0 12:1.0 1440:1.0 2953:1.0 3097:1.0 
1.6198406994930572 0.0 0.0 1.102334005214062 1:0.1989795918367347 2:0.14786967418546365 3:1.0 7:1.0 12:1.0 2013:1.0 2953:1.0 3104:1.0 
0.0 0.0 0.0 0.9229732007804862 1:0.061224489795918366 2:0.24812030075187969 3:1.0 6:1.0 9:1.0 1438:1.0 2888:1.0 3104:1.0 
2.0 0.2671757987541619 0.0 1.741614287956338 1:0.15051020408163265 2:0.21553884711779447 3:1.0 7:1.0 1405:1.0 1438:1.0 2984:1.0 2989:1.0 
2.0 0.0 0.0 0.0934556596206427 1:0.1836734693877551 2:0.38095238095238093 4:1.0 8:1.0 65:1.0 1438:1.0 2924:1.0 2988:1.0 
0.8285485380272063 0.0 0.0 0.0 1:0.05357142857142857 2:0.18546365914786966 3:1.0 6:1.0 1399:1.0 1438:1.0 2978:1.0 2996:1.0 
0.0 0.5170174254632444 0.0 0.0 1:0.1326530612244898 2:0.05764411027568922 4:1.0 6:1.0 37:1.0 1466:1.0 2924:1.0 2994:1.0 
2.0 0.0 0.0 1.0591268671083536 1:0.125 2:0.08270676691729323 4:1.0 8:1.0 1383:1.0 1442:1.0 2950:1.0 3090:1.0 
1.1519373462313307 1.4215830948975638 0.0 0.0 1:0.07142857142857142 2:0.16791979949874686 5:1.0 6:1.0 400:1.0 1826:1.0 2885:1.0 3037:1.0 
2.0 0.29975356264294717 0.0 1.5519274303503612 1:0.17346938775510204 2:0.16040100250626566 3:1.0 6:1.0 397:1.0 2834:1.0 2917:1.0 3104:1.0 
2.0 0.566826493847035 0.0 0.0 1:0.18622448979591838 2:0.12030075187969924 3:1.0 6:1.0 9:1.0 1441:1.0 2899:1.0 3089:1.0 
2.0 0.0 0.0 0.8385228208058786 1:0.18877551020408162 2:0.08020050125313283 3:1.0 6:1.0 9:1.0 2785:1.0 2899:1.0 3104:1.0 
2.0 0.0 0.0 0.845347781460548 1:0.07142857142857142 2:0.06265664160401002 4:1.0 6:1.0 9:1.0 2800:1.0 2961:1.0 3081:1.0 
2.0 0.0 0.0 0.24687547829782797 1:0.19642857142857142 2:0.07769423558897243 5:1.0 6:1.0 726:1.0 1829:1.0 2924:1.0 2996:1.0 
0.44270676135953174 1.6381670269715864 0.0 1.2321679616029482 1:0.2372448979591837 2:0.12531328320802004 3:1.0 8:1.0 184:1.0 1438:1.0 2890:1.0 2998:1.0 
1.2115908473441719 0.4194701956675284 0.0 0.6499765054703094 1:0.25 2:0.23057644110275688 5:1.0 6:1.0 602:1.0 1613:1.0 2924:1.0 3010:1.0 
1.7785433659828365 0.04794758475944821 0.0 0.25088029523447614 1:0.2653061224489796 2:0.14285714285714285 5:1.0 8:1.0 104:1.0 1533:1.0 2984:1.0 2998:1.0 
0.0 1.507677019612624 0.0 0.0 1:0.14540816326530612 2:0.21553884711779447 3:1.0 6:1.0 461:1.0 1826:1.0 2984:1.0 3019:1.0 
2.0 2.0 0.0 2.0 1:0.1096938775510204 2:0.10025062656641603 3:1.0 6:1.0 12:1.0 1438:1.0 2868:1.0 3044:1.0 
2.0 0.0 0.0 2.0 1:0.20918367346938777 2:0.14035087719298245 3:1.0 6:1.0 9:1.0 1890:1.0 2868:1.0 3104:1.0 
0.44735428006585226 0.0 0.0 2.0 1:0.11734693877551021 2:0.08270676691729323 3:1.0 6:1.0 134:1.0 1826:1.0 2945:1.0 3004:1.0 
2.0 0.0 0.0 0.0 1:0.08163265306122448 2:0.09022556390977443 3:1.0 6:1.0 588:1.0 2725:1.0 2867:1.0 3036:1.0 
2.0 1.7478915580084922 0.0 0.003943930250922804 1:0.05357142857142857 2:0.07268170426065163 3:1.0 6:1.0 477:1.0 2024:1.0 2867:1.0 3025:1.0 
2.0 0.0 0.0 0.3110132137979772 1:0.2602040816326531 2:0.13283208020050125 3:1.0 6:1.0 9:1.0 2047:1.0 2976:1.0 3073:1.0 
0.0 0.0 0.0 0.9518319760561882 1:0.21428571428571427 2:0.2982456140350877 4:1.0 8:1.0 9:1.0 1595:1.0 2953:1.0 3073:1.0 
2.0 0.0 0.0 2.0 1:0.30357142857142855 2:0.06015037593984962 3:1.0 6:1.0 1383:1.0 1438:1.0 2950:1.0 2987:1.0 
0.0 0.0 0.0 0.8154335720164426 1:0.30357142857142855 2:0.20551378446115287 3:1.0 6:1.0 1383:1.0 2068:1.0 2950:1.0 3089:1.0 
0.7132667030858708 0.0 0.0 0.0 1:0.2780612244897959 2:0.39598997493734334 5:1.0 8:1.0 9:1.0 1809:1.0 2868:1.0 2988:1.0 
0.0 0.0 0.044290188683512546 0.0 1:0.05357142857142857 2:0.3609022556390977 3:1.0 8:1.0 400:1.0 2812:1.0 2885:1.0 3085:1.0 
0.29282365792148046 0.9403593406241996 0.0 1.2115452811291412 1:0.11479591836734694 2:0.24561403508771928 5:1.0 6:1.0 327:1.0 2256:1.0 2920:1.0 3044:1.0 
2.0 0.0 0.0 2.0 1:0.45153061224489793 2:0.09022556390977443 3:1.0 8:1.0 9:1.0 1438:1.0 2984:1.0 3089:1.0 
1.6308598232554017 0.0 0.0 0.8018090948440115 1:0.19387755102040816 2:0.12280701754385964 5:1.0 6:1.0 425:1.0 2155:1.0 2984:1.0 2998:1.0 
2.0 0.0 0.0 1.0085463326367365 1:0.14030612244897958 2:0.20551378446115287 5:1.0 8:1.0 9:1.0 1441:1.0 2905:1.0 2988:1.0 
0.0 0.0 0.0 2.0 1:0.44642857142857145 2:0.7719298245614035 4:1.0 8:1.0 9:1.0 1598:1.0 2984:1.0 3104:1.0 
0.20770581197416219 0.0 0.0 1.875545120736717 1:0.2066326530612245 2:0.15037593984962405 4:1.0 8:1.0 1297:1.0 2832:1.0 2969:1.0 3044:1.0 
0.0 0.0 0.0 1.3032865114916015 1:0.18112244897959184 2:0.40852130325814534 5:1.0 7:1.0 1383:1.0 1448:1.0 2969:1.0 3104:1.0 
1.726293704340287 1.4824071035747004 0.0 0.2822140291760101 1:0.3137755102040816 2:0.2531328320802005 4:1.0 7:1.0 9:1.0 2532:1.0 2977:1.0 3091:1.0 
2.0 0.0 0.0 2.0 1:0.17091836734693877 2:0.12030075187969924 3:1.0 6:1.0 1405:1.0 2027:1.0 2984:1.0 3104:1.0 
2.0 0.0 0.0 0.8525852837715746 1:0.3163265306122449 2:0.11779448621553884 4:1.0 7:1.0 1049:1.0 1440:1.0 2868:1.0 2988:1.0 
1.7531921309456642 0.0 0.0 1.053621007409849 1:0.33418367346938777 2:0.12030075187969924 4:1.0 7:1.0 12:1.0 2155:1.0 2969:1.0 3032:1.0 
0.6145023800434615 0.0 0.0 0.0 1:0.125 2:0.3082706766917293 4:1.0 7:1.0 726:1.0 2478:1.0 2912:1.0 2988:1.0 
2.0 0.0 0.0 2.0 1:0.4260204081632653 2:0.14035087719298245 3:1.0 7:1.0 1405:1.0 1438:1.0 2984:1.0 2998:1.0 
2.0 0.245106182866386 0.0 0.12995339572295456 1:0.3010204081632653 2:0.3258145363408521 3:1.0 8:1.0 392:1.0 1438:1.0 2899:1.0 3044:1.0 
2.0 0.0 0.0 0.0 1:0.26785714285714285 2:0.21052631578947367 4:1.0 6:1.0 1356:1.0 2819:1.0 2924:1.0 2998:1.0 
0.0 2.0 0.0 2.0 1:0.08163265306122448 2:0.38847117794486213 3:1.0 6:1.0 12:1.0 1438:1.0 2868:1.0 2988:1.0 
1.8225033465275202 2.0 0.0 0.565026095668954 1:0.1989795918367347 2:0.22055137844611528 4:1.0 6:1.0 1103:1.0 2018:1.0 2878:1.0 3089:1.0 
2.0 0.08134478090648135 0.0 0.0 1:0.14795918367346939 2:0.17042606516290726 3:1.0 7:1.0 1356:1.0 1442:1.0 2969:1.0 3089:1.0 
1.6280737560318883 0.19623636390009644 0.0 0.9817843320880231 1:0.07142857142857142 2:0.15037593984962405 3:1.0 8:1.0 597:1.0 1507:1.0 2877:1.0 3044:1.0 
0.49058337997286827 0.0 0.0 0.0 1:0.09183673469387756 2:0.2957393483709273 5:1.0 6:1.0 1195:1.0 2122:1.0 2878:1.0 3073:1.0 
0.3428258032353657 0.01857387693720638 0.0 0.0 1:0.17857142857142858 2:0.13784461152882205 5:1.0 8:1.0 400:1.0 1448:1.0 2917:1.0 3018:1.0 
0.0 0.21123874538288973 0.0 0.0 1:0.058673469387755105 2:0.3182957393483709 3:1.0 8:1.0 619:1.0 1652:1.0 2950:1.0 2998:1.0 
0.25992132274807006 0.0 0.0 0.0 1:0.1760204081632653 2:0.05263157894736842 3:1.0 6:1.0 11:1.0 2337:1.0 2924:1.0 2987:1.0 
2.0 0.5476064691919594 0.0 0.34267509413348424 1:0.29336734693877553 2:0.08270676691729323 5:1.0 6:1.0 9:1.0 1612:1.0 2978:1.0 2992:1.0 
1.503203167735598 0.0 0.0 2.0 1:0.13520408163265307 2:0.13784461152882205 5:1.0 6:1.0 1383:1.0 1616:1.0 2978:1.0 2995:1.0 
2.0 0.0 0.0 2.0 1:0.39540816326530615 2:0.16290726817042606 4:1.0 7:1.0 12:1.0 1438:1.0 2868:1.0 3004:1.0 
1.1281982443365166 0.8598119360151351 0.0 0.0 1:0.22959183673469388 2:0.21052631578947367 5:1.0 6:1.0 9:1.0 1906:1.0 2889:1.0 3025:1.0 
0.19610951223238954 0.28350798435449753 0.0 0.0 1:0.21173469387755103 2:0.46616541353383456 5:1.0 6:1.0 124:1.0 2155:1.0 2984:1.0 3044:1.0 
2.0 2.0 0.0 0.0 1:0.05612244897959184 2:0.2781954887218045 5:1.0 6:1.0 124:1.0 2018:1.0 2878:1.0 3044:1.0 
0.10578529339191663 0.7679478823071553 0.0 0.5695350692210198 1:0.17857142857142858 2:0.46616541353383456 3:1.0 6:1.0 9:1.0 2155:1.0 2874:1.0 3044:1.0 
2.0 0.0 0.0 2.0 1:0.10204081632653061 2:0.20551378446115287 3:1.0 8:1.0 9:1.0 1553:1.0 2904:1.0 3104:1.0 
1.318606771365124 0.0 0.0 2.0 1:0.20408163265306123 2:0.08270676691729323 4:1.0 6:1.0 40:1.0 2801:1.0 2868:1.0 3037:1.0 
0.9569316208720717 0.6267375774049125 0.0 0.2514434779691568 1:0.12244897959183673 2:0.21052631578947367 3:1.0 6:1.0 340:1.0 1769:1.0 2872:1.0 2988:1.0 
0.6947520013839084 0.9763020333061185 0.0 0.5507226378860387 1:0.25510204081632654 2:0.14285714285714285 3:1.0 6:1.0 9:1.0 2619:1.0 2904:1.0 3096:1.0 
2.0 1.6506605285689566 0.0 2.0 1:0.06887755102040816 2:0.08020050125313283 3:1.0 6:1.0 425:1.0 1438:1.0 2923:1.0 2988:1.0 
2.0 2.0 0.0 0.0 1:0.2193877551020408 2:0.12531328320802004 4:1.0 7:1.0 1103:1.0 1438:1.0 2950:1.0 3025:1.0 
1.6620872464186909 0.0 0.0 1.4448618767554253 1:0.1096938775510204 2:0.10275689223057644 5:1.0 6:1.0 436:1.0 2750:1.0 2945:1.0 2987:1.0 
2.0 0.0 0.0 0.0 1:0.22448979591836735 2:0.3082706766917293 3:1.0 7:1.0 1103:1.0 2027:1.0 2969:1.0 3104:1.0 
1.0519745507372895 0.0 0.0 0.0 1:0.06377551020408163 2:0.15538847117794485 3:1.0 8:1.0 619:1.0 2009:1.0 2889:1.0 3005:1.0 
2.0 0.4233164913477271 0.0 0.07737365216856748 1:0.14030612244897958 2:0.20300751879699247 3:1.0 6:1.0 1322:1.0 2047:1.0 2868:1.0 3089:1.0 
0.0 0.0 0.0 1.9003500359901928 1:0.4362244897959184 2:0.16290726817042606 4:1.0 8:1.0 591:1.0 1438:1.0 2969:1.0 3065:1.0 
1.9056975654273112 0.0 0.0 0.0 1:0.35714285714285715 2:0.14035087719298245 3:1.0 6:1.0 9:1.0 1890:1.0 2969:1.0 3089:1.0 
0.0 0.0 0.0 1.081546479567574 1:0.1683673469387755 2:0.44360902255639095 5:1.0 7:1.0 9:1.0 1710:1.0 2945:1.0 3089:1.0 
2.0 0.7136709114487814 0.0 0.0 1:0.17346938775510204 2:0.21553884711779447 5:1.0 7:1.0 1356:1.0 1438:1.0 2984:1.0 3054:1.0 
1.169077050731648 0.0 0.0 0.16028457667359078 1:0.32653061224489793 2:0.5488721804511278 4:1.0 6:1.0 379:1.0 1459:1.0 2878:1.0 3104:1.0 
2.0 0.0 0.0 0.22930277269676436 1:0.32653061224489793 2:0.17042606516290726 4:1.0 8:1.0 379:1.0 2785:1.0 2878:1.0 3104:1.0 
2.0 0.15059253895721303 0.0 2.0 1:0.3239795918367347 2:0.24561403508771928 4:1.0 7:1.0 9:1.0 1438:1.0 2983:1.0 3102:1.0 
0.8733084293926533 0.0 0.0 1.126497313122955 1:0.22959183673469388 2:0.14285714285714285 3:1.0 8:1.0 9:1.0 1645:1.0 2950:1.0 3097:1.0 
0.0 0.0 0.0 0.6171269499606268 1:0.18622448979591838 2:0.22556390977443608 3:1.0 6:1.0 726:1.0 1438:1.0 2924:1.0 3070:1.0 
1.355729390965253 0.0 0.0 0.12411351044999919 1:0.14540816326530612 2:0.24310776942355888 3:1.0 8:1.0 9:1.0 2317:1.0 2977:1.0 3098:1.0 
0.6420798250156802 0.4540463817480477 0.0 0.0 1:0.1913265306122449 2:0.18045112781954886 5:1.0 8:1.0 1393:1.0 2633:1.0 2877:1.0 3044:1.0 
2.0 2.0 0.0 0.9204662539497336 1:0.06887755102040816 2:0.15288220551378445 5:1.0 8:1.0 9:1.0 2018:1.0 2897:1.0 3044:1.0 
0.0 0.061018898589838416 0.0 0.0 1:0.1377551020408163 2:0.17293233082706766 5:1.0 7:1.0 295:1.0 1554:1.0 2924:1.0 3097:1.0 
0.7326942502579075 0.4415459146253725 0.0 0.0 1:0.15816326530612246 2:0.17042606516290726 5:1.0 7:1.0 9:1.0 1477:1.0 2904:1.0 3024:1.0 
0.08353383773677081 1.0536963831736323 0.0 0.6142834704975023 1:0.3086734693877551 2:0.10526315789473684 5:1.0 7:1.0 1318:1.0 1865:1.0 2924:1.0 3044:1.0 
1.8351374622168346 0.0 0.20284356500813683 0.46207283979938174 1:0.17346938775510204 2:0.10526315789473684 3:1.0 8:1.0 726:1.0 2027:1.0 2924:1.0 3018:1.0 
0.10123214695122822 0.0 0.0 0.0 1:0.1096938775510204 2:0.3007518796992481 5:1.0 8:1.0 598:1.0 2747:1.0 2898:1.0 3044:1.0 
2.0 1.2659627013785513 0.0 2.0 1:0.16581632653061223 2:0.37343358395989973 5:1.0 8:1.0 9:1.0 1438:1.0 2924:1.0 3044:1.0 
0.0 0.5412863957768007 0.16039482573266617 0.5023517120595119 1:0.1096938775510204 2:0.37343358395989973 4:1.0 8:1.0 436:1.0 1438:1.0 2924:1.0 3044:1.0 
2.0 0.8865273460544054 0.0 2.0 1:0.06377551020408163 2:0.16290726817042606 4:1.0 7:1.0 9:1.0 1438:1.0 2932:1.0 3086:1.0 
1.8487647179130031 0.4401738735884281 0.0 1.2461740226716218 1:0.11989795918367346 2:0.09273182957393483 3:1.0 6:1.0 9:1.0 1985:1.0 2924:1.0 3089:1.0 
2.0 0.0 0.0 0.0 1:0.18877551020408162 2:0.11779448621553884 3:1.0 7:1.0 400:1.0 1438:1.0 2889:1.0 3104:1.0 
1.8475831824586708 0.9142856626438187 0.0 0.0 1:0.10204081632653061 2:0.10025062656641603 3:1.0 8:1.0 37:1.0 1769:1.0 2984:1.0 3096:1.0 
2.0 0.0 0.0 2.0 1:0.12244897959183673 2:0.24310776942355888 4:1.0 8:1.0 9:1.0 1438:1.0 2984:1.0 3104:1.0 
2.0 0.3240700201096698 0.0 0.6570025898368425 1:0.15051020408163265 2:0.19799498746867167 5:1.0 6:1.0 12:1.0 2009:1.0 2868:1.0 2996:1.0 
1.9924661279009395 0.0 0.0 0.0 1:0.10459183673469388 2:0.18295739348370926 5:1.0 6:1.0 340:1.0 1829:1.0 2976:1.0 3009:1.0 
0.14023225977989776 0.0 0.0 0.3996638835955464 1:0.06887755102040816 2:0.17042606516290726 5:1.0 6:1.0 1394:1.0 1438:1.0 2973:1.0 3104:1.0 
0.0 1.3838763773692542 0.0 1.0482256819753644 1:0.21683673469387754 2:0.22305764411027568 3:1.0 6:1.0 37:1.0 1864:1.0 2953:1.0 3044:1.0 
1.5124657938496926 0.0 0.0 2.0 1:0.1836734693877551 2:0.5413533834586466 3:1.0 7:1.0 9:1.0 1829:1.0 2984:1.0 3104:1.0 
0.0 0.08408035535851857 0.0 0.0 1:0.18622448979591838 2:0.21052631578947367 5:1.0 6:1.0 571:1.0 1466:1.0 2978:1.0 3073:1.0 
2.0 0.9355167686130469 0.0 1.8236507207983192 1:0.1989795918367347 2:0.11528822055137844 3:1.0 6:1.0 9:1.0 2592:1.0 2950:1.0 3044:1.0 
2.0 0.9233662958614992 0.0 0.0 1:0.21173469387755103 2:0.5137844611528822 5:1.0 8:1.0 589:1.0 1442:1.0 2917:1.0 3044:1.0 
2.0 0.0 0.0 0.3406607650316285 1:0.18622448979591838 2:0.13032581453634084 4:1.0 7:1.0 9:1.0 2534:1.0 2868:1.0 3103:1.0 
2.0 0.34926856977432774 0.0 0.6264946323445396 1:0.09693877551020408 2:0.18045112781954886 5:1.0 7:1.0 379:1.0 1438:1.0 2984:1.0 2988:1.0 
2.0 0.0 0.0 2.0 1:0.25510204081632654 2:0.10776942355889724 5:1.0 6:1.0 618:1.0 1490:1.0 2905:1.0 3104:1.0 
2.0 0.7189521694194614 0.0 1.5208171420426029 1:0.20153061224489796 2:0.18796992481203006 3:1.0 8:1.0 1372:1.0 1438:1.0 2878:1.0 2998:1.0 
0.26878523119913567 0.0 0.0 1.4805205061192483 1:0.07908163265306123 2:0.09273182957393483 5:1.0 8:1.0 104:1.0 1808:1.0 2958:1.0 3104:1.0 
2.0 0.011413716900924391 0.0 1.0569321721092524 1:0.1377551020408163 2:0.13784461152882205 5:1.0 8:1.0 12:1.0 1442:1.0 2868:1.0 2998:1.0 
0.005599584001751106 0.0 0.0 0.5966827350895632 1:0.33418367346938777 2:0.14035087719298245 4:1.0 7:1.0 449:1.0 1878:1.0 2984:1.0 2994:1.0 
0.4311965077131385 0.0 0.0 2.0 1:0.19642857142857142 2:0.09774436090225563 4:1.0 6:1.0 680:1.0 1835:1.0 2969:1.0 3005:1.0 
2.0 0.0 0.0 0.0 1:0.1326530612244898 2:0.18796992481203006 3:1.0 7:1.0 1356:1.0 2109:1.0 2950:1.0 3089:1.0 
2.0 0.0 0.0 2.0 1:0.12755102040816327 2:0.12781954887218044 4:1.0 6:1.0 726:1.0 1438:1.0 2969:1.0 2992:1.0 
2.0 0.0 0.0 1.3420339970001385 1:0.4846938775510204 2:0.11278195488721804 5:1.0 6:1.0 1236:1.0 1956:1.0 2950:1.0 3065:1.0 
0.796691946650989 0.0 0.0 0.7645536819036715 1:0.1683673469387755 2:0.21804511278195488 4:1.0 8:1.0 124:1.0 1827:1.0 2920:1.0 3104:1.0 
0.0 0.0 0.0 1.6303241048079835 1:0.1326530612244898 2:0.07268170426065163 4:1.0 7:1.0 400:1.0 1879:1.0 2969:1.0 3044:1.0 
0.0 0.0 0.0 1.349209078189338 1:0.11989795918367346 2:0.39598997493734334 5:1.0 8:1.0 1383:1.0 1438:1.0 2950:1.0 3104:1.0 
2.0 0.0 0.0 0.0 1:0.5076530612244898 2:0.11528822055137844 5:1.0 8:1.0 379:1.0 1808:1.0 2969:1.0 2996:1.0 
1.1849475433716936 0.9791324333854693 0.0 0.0015218522005723322 1:0.19387755102040816 2:0.08771929824561403 5:1.0 6:1.0 589:1.0 2018:1.0 2924:1.0 3049:1.0 
2.0 0.0 0.0 2.0 1:0.04081632653061224 2:0.11528822055137844 3:1.0 8:1.0 9:1.0 1438:1.0 2905:1.0 3044:1.0 
1.6703215933299516 0.0 0.0 0.0 1:0.15816326530612246 2:0.24561403508771928 4:1.0 7:1.0 9:1.0 1948:1.0 2929:1.0 3096:1.0 
1.19493589515752 0.0 0.0 0.40759055386867693 1:0.22193877551020408 2:0.15789473684210525 4:1.0 8:1.0 13:1.0 1831:1.0 2984:1.0 3065:1.0 
0.7424974870251447 0.0 0.0 0.0 1:0.20408163265306123 2:0.21303258145363407 5:1.0 8:1.0 9:1.0 1816:1.0 2905:1.0 2988:1.0 
1.0904735342795446 0.0 0.028731961304885232 0.0 1:0.2066326530612245 2:0.46616541353383456 5:1.0 6:1.0 1104:1.0 2119:1.0 2929:1.0 2988:1.0 
2.0 0.0 0.0 0.8222785081282505 1:0.15051020408163265 2:0.13032581453634084 3:1.0 6:1.0 1103:1.0 1948:1.0 2970:1.0 3005:1.0 
0.4259883170888606 0.0 0.0 1.4237265429073604 1:0.25255102040816324 2:0.20050125313283207 4:1.0 8:1.0 519:1.0 2533:1.0 2976:1.0 3049:1.0 
0.7135952162453665 0.4944523498287138 0.0 0.16395297064839173 1:0.08163265306122448 2:0.08020050125313283 3:1.0 6:1.0 9:1.0 1445:1.0 2949:1.0 3069:1.0 
0.0 1.0045745947658522 0.0 0.06578548094125271 1:0.09183673469387756 2:0.19047619047619047 3:1.0 6:1.0 598:1.0 1948:1.0 2890:1.0 3050:1.0 
2.0 2.0 0.0 0.0 1:0.09438775510204081 2:0.07769423558897243 3:1.0 6:1.0 9:1.0 1438:1.0 2867:1.0 3069:1.0 
0.6740326065191263 0.0 0.0 0.4336943144239448 1:0.20153061224489796 2:0.12280701754385964 3:1.0 7:1.0 519:1.0 1445:1.0 2930:1.0 3069:1.0 
0.0 2.0 0.0 0.0 1:0.16326530612244897 2:0.09022556390977443 4:1.0 6:1.0 676:1.0 2027:1.0 2949:1.0 3010:1.0 
0.0 0.5739265194274463 0.0 1.5697147633113453 1:0.13520408163265307 2:0.15789473684210525 4:1.0 7:1.0 519:1.0 2105:1.0 2949:1.0 3069:1.0 
0.9219283553671951 0.0 0.0 0.0 1:0.17346938775510204 2:0.22055137844611528 3:1.0 6:1.0 519:1.0 2105:1.0 2984:1.0 3069:1.0 
1.8477510725224138 0.0 0.0 0.0 1:0.1836734693877551 2:0.05012531328320802 3:1.0 6:1.0 1147:1.0 2532:1.0 2929:1.0 2987:1.0 
0.0 0.0 0.0 0.7661698694740278 1:0.3392857142857143 2:0.2731829573934837 4:1.0 6:1.0 9:1.0 1816:1.0 2932:1.0 3025:1.0 
2.0 0.0 0.0 0.0 1:0.28061224489795916 2:0.3533834586466165 3:1.0 7:1.0 387:1.0 1438:1.0 2905:1.0 3025:1.0 
2.0 0.0 0.0 2.0 1:0.09183673469387756 2:0.2506265664160401 3:1.0 7:1.0 9:1.0 1438:1.0 2867:1.0 3005:1.0 
2.0 1.7037838140316524 0.0 2.0 1:0.2576530612244898 2:0.13533834586466165 4:1.0 6:1.0 9:1.0 1438:1.0 2885:1.0 3013:1.0 
0.0 0.20449010148249688 0.0 0.0 1:0.5178571428571429 2:0.2957393483709273 5:1.0 6:1.0 1103:1.0 2023:1.0 2868:1.0 3073:1.0 
1.879898034774034 0.0 0.0 0.0 1:0.32142857142857145 2:0.46867167919799496 4:1.0 7:1.0 1103:1.0 1948:1.0 2927:1.0 3050:1.0 
2.0 0.0 0.0 0.39820248465123953 1:0.25510204081632654 2:0.2706766917293233 4:1.0 7:1.0 1147:1.0 1438:1.0 2905:1.0 3060:1.0 
2.0 0.0 0.0 0.0 1:0.07397959183673469 2:0.16040100250626566 4:1.0 7:1.0 1405:1.0 1438:1.0 2984:1.0 2987:1.0 
1.8253345044628169 1.0532034456623398 0.0 0.0 1:0.32142857142857145 2:0.24812030075187969 4:1.0 7:1.0 1103:1.0 2576:1.0 2927:1.0 3025:1.0 
0.5672470172985002 0.0 0.0 0.0 1:0.18877551020408162 2:0.581453634085213 3:1.0 7:1.0 1407:1.0 1482:1.0 2924:1.0 3089:1.0 
0.0 0.0 0.1355779655073338 1.052389949650349 1:0.5994897959183674 2:0.2781954887218045 4:1.0 6:1.0 53:1.0 1482:1.0 2984:1.0 3018:1.0 
0.7484883265338191 1.2471143424112847 0.0 0.0 1:0.4489795918367347 2:0.12781954887218044 4:1.0 7:1.0 425:1.0 1816:1.0 2868:1.0 3050:1.0 
0.047566904992110595 0.0 0.045832013702953034 0.0 1:0.21428571428571427 2:0.2882205513784461 4:1.0 6:1.0 9:1.0 2155:1.0 2957:1.0 3050:1.0 
2.0 0.7466279652888509 0.0 2.0 1:0.29591836734693877 2:0.3634085213032581 3:1.0 7:1.0 726:1.0 1438:1.0 2930:1.0 2998:1.0 
2.0 2.0 0.0 2.0 1:0.37244897959183676 2:0.2706766917293233 4:1.0 7:1.0 9:1.0 1438:1.0 2878:1.0 3089:1.0 
0.0 1.8044878667044257 0.0 0.0 1:0.28061224489795916 2:0.3208020050125313 4:1.0 6:1.0 461:1.0 1438:1.0 2924:1.0 3025:1.0 
2.0 2.0 0.0 0.0 1:0.25255102040816324 2:0.20802005012531327 5:1.0 7:1.0 598:1.0 1438:1.0 2878:1.0 3077:1.0 
0.3977738256103134 2.0 0.0 0.0 1:0.375 2:0.19298245614035087 4:1.0 7:1.0 1403:1.0 1854:1.0 2969:1.0 3070:1.0 
1.2700674686328428 0.0 0.0 0.0 1:0.1989795918367347 2:0.21303258145363407 4:1.0 6:1.0 425:1.0 1906:1.0 2950:1.0 3024:1.0 
2.0 0.4314098957623208 0.0 0.0 1:0.2193877551020408 2:0.12781954887218044 3:1.0 7:1.0 477:1.0 1948:1.0 2904:1.0 3013:1.0 
0.41950576245089666 0.0 0.0 0.0 1:0.13010204081632654 2:0.11779448621553884 4:1.0 7:1.0 519:1.0 1646:1.0 2893:1.0 3077:1.0 
1.3200115036945412 0.0 0.0 1.2332429179540971 1:0.08163265306122448 2:0.21804511278195488 3:1.0 6:1.0 379:1.0 1646:1.0 2876:1.0 3096:1.0 
0.0 2.0 0.0 0.0 1:0.20918367346938777 2:0.23809523809523808 4:1.0 7:1.0 1103:1.0 2532:1.0 2890:1.0 3025:1.0 
0.0 1.2800861574384514 0.0 0.0 1:0.2193877551020408 2:0.12531328320802004 3:1.0 6:1.0 477:1.0 1948:1.0 2904:1.0 3070:1.0 
0.0 0.0 0.05773907448655262 0.0 1:0.19387755102040816 2:0.10776942355889724 4:1.0 6:1.0 425:1.0 2027:1.0 2950:1.0 2997:1.0 
2.0 0.0 0.0 0.9584562509966986 1:0.13520408163265307 2:0.17042606516290726 3:1.0 7:1.0 9:1.0 1438:1.0 2950:1.0 3097:1.0 
0.0 0.0 0.0 1.5259243032436252 1:0.2193877551020408 2:0.3007518796992481 4:1.0 6:1.0 96:1.0 1438:1.0 2930:1.0 3104:1.0 
2.0 0.010739344404423631 0.0055212221281767376 0.046554966981987654 1:0.1096938775510204 2:0.17293233082706766 5:1.0 8:1.0 9:1.0 1527:1.0 2920:1.0 3050:1.0 
2.0 1.4734425560868856 0.0 0.0 1:0.41836734693877553 2:0.15037593984962405 5:1.0 8:1.0 231:1.0 2018:1.0 2878:1.0 3040:1.0 
2.0 2.0 0.0 0.0 1:0.11989795918367346 2:0.16541353383458646 4:1.0 7:1.0 1103:1.0 1438:1.0 2874:1.0 3047:1.0 
0.0 2.0 0.0 0.12460153553923611 1:0.14795918367346939 2:0.2631578947368421 3:1.0 7:1.0 9:1.0 1438:1.0 2924:1.0 3097:1.0 
1.6319606911479374 0.0 0.0 0.0 1:0.44387755102040816 2:0.20050125313283207 4:1.0 6:1.0 1367:1.0 2028:1.0 2969:1.0 3025:1.0 
0.0 2.0 0.0 1.661155070431384 1:0.1556122448979592 2:0.2556390977443609 3:1.0 6:1.0 387:1.0 2532:1.0 2878:1.0 3089:1.0 
0.0 0.0 0.0 1.4863683173999798 1:0.23469387755102042 2:0.14035087719298245 3:1.0 6:1.0 425:1.0 1854:1.0 2878:1.0 3005:1.0 
2.0 0.7950808697471597 0.4587772936376384 2.0 1:0.5255102040816326 2:0.2932330827067669 4:1.0 7:1.0 9:1.0 1438:1.0 2984:1.0 2993:1.0 
0.6612013178956732 0.1697543479483024 0.0 0.951061758190195 1:0.12244897959183673 2:0.21804511278195488 4:1.0 7:1.0 379:1.0 2796:1.0 2876:1.0 3089:1.0 
0.5310018184493538 0.7055204468799066 0.0 0.0 1:0.14030612244897958 2:0.12280701754385964 5:1.0 8:1.0 461:1.0 2532:1.0 2928:1.0 3044:1.0 
2.0 2.0 0.0 1.789377906617207 1:0.3903061224489796 2:0.23809523809523808 4:1.0 6:1.0 9:1.0 1438:1.0 2953:1.0 3089:1.0 
0.9807883284128462 1.6332303152920018 0.0 0.0 1:0.43112244897959184 2:0.16040100250626566 4:1.0 7:1.0 1103:1.0 1438:1.0 2969:1.0 3054:1.0 
2.0 0.0 0.0 2.0 1:0.6454081632653061 2:0.24310776942355888 5:1.0 7:1.0 9:1.0 1438:1.0 2969:1.0 2988:1.0 
2.0 0.0 0.010550514262084282 0.0 1:0.15816326530612246 2:0.43859649122807015 4:1.0 7:1.0 9:1.0 2047:1.0 2952:1.0 3004:1.0 
2.0 2.0 0.0 1.8462461588696557 1:0.22704081632653061 2:0.15288220551378445 3:1.0 7:1.0 9:1.0 1438:1.0 2868:1.0 3072:1.0 
2.0 2.0 0.0 0.46739815903257537 1:0.6275510204081632 2:0.3157894736842105 4:1.0 7:1.0 9:1.0 1438:1.0 2953:1.0 2997:1.0 
0.23896525581137645 0.0 0.0 0.0 1:0.11734693877551021 2:0.2907268170426065 4:1.0 6:1.0 594:1.0 1438:1.0 2952:1.0 3104:1.0 
1.348507924214281 0.0 0.0 0.0 1:0.20408163265306123 2:0.3208020050125313 5:1.0 8:1.0 519:1.0 1438:1.0 2867:1.0 2988:1.0 
2.0 0.0 0.0 0.0 1:0.25 2:0.48120300751879697 4:1.0 7:1.0 9:1.0 2532:1.0 2950:1.0 3025:1.0 
2.0 0.8884943427507997 0.0 2.0 1:0.6581632653061225 2:0.41102756892230574 4:1.0 7:1.0 9:1.0 2532:1.0 2984:1.0 2998:1.0 
2.0 2.0 0.0 1.1099342293550027 1:0.29591836734693877 2:0.2882205513784461 3:1.0 8:1.0 380:1.0 1826:1.0 2877:1.0 3077:1.0 
1.5462864338533615 2.0 0.19042422708579823 0.0 1:0.25 2:0.13032581453634084 3:1.0 6:1.0 519:1.0 1949:1.0 2885:1.0 3052:1.0 
2.0 0.0 0.0 2.0 1:0.288265306122449 2:0.2807017543859649 3:1.0 7:1.0 9:1.0 1438:1.0 2953:1.0 3098:1.0 
1.1593357707542142 0.24716590613225894 0.0 0.919736904540477 1:0.16581632653061223 2:0.24310776942355888 4:1.0 7:1.0 477:1.0 1906:1.0 2930:1.0 3037:1.0 
0.7705098187593834 0.0 0.0 0.0 1:0.29336734693877553 2:0.2506265664160401 3:1.0 8:1.0 519:1.0 1906:1.0 2976:1.0 2993:1.0 
1.2946018733211682 1.2630146525351138 0.0 0.0 1:0.29336734693877553 2:0.16040100250626566 3:1.0 7:1.0 519:1.0 1906:1.0 2976:1.0 3050:1.0 
2.0 0.0 0.0 0.916268197774809 1:0.29336734693877553 2:0.24310776942355888 3:1.0 7:1.0 519:1.0 1906:1.0 2976:1.0 3037:1.0 
1.7214992956155966 0.6195309312927251 0.0 0.0 1:0.2576530612244898 2:0.16040100250626566 5:1.0 7:1.0 477:1.0 1906:1.0 2873:1.0 3050:1.0 
0.0 0.3352825360548679 0.0 0.7076861894964173 1:0.2576530612244898 2:0.24310776942355888 5:1.0 7:1.0 477:1.0 1906:1.0 2873:1.0 3037:1.0 
0.0 0.0 0.0 0.19884265872319537 1:0.10459183673469388 2:0.10526315789473684 3:1.0 6:1.0 461:1.0 2351:1.0 2929:1.0 3070:1.0 
2.0 0.0 0.0 2.0 1:0.3137755102040816 2:0.17794486215538846 4:1.0 6:1.0 9:1.0 1948:1.0 2953:1.0 3103:1.0 
0.0 0.0 0.0 0.4980246878861271 1:0.3137755102040816 2:0.18546365914786966 5:1.0 6:1.0 598:1.0 2796:1.0 2868:1.0 3078:1.0 
0.6766969322703252 0.0 0.0 0.0 1:0.14540816326530612 2:0.2731829573934837 3:1.0 7:1.0 425:1.0 1829:1.0 2969:1.0 3005:1.0 
0.4440168466395304 0.0 0.0 0.0 1:0.14540816326530612 2:0.09273182957393483 3:1.0 6:1.0 425:1.0 1835:1.0 2969:1.0 3009:1.0 
0.0 0.0 0.0 2.0 1:0.28061224489795916 2:0.08270676691729323 4:1.0 6:1.0 400:1.0 2541:1.0 2885:1.0 3049:1.0 
0.6841106414552027 0.0 0.0 0.0 1:0.28061224489795916 2:0.09273182957393483 4:1.0 6:1.0 400:1.0 1835:1.0 2885:1.0 3009:1.0 
1.3916276973082358 0.0 0.0 1.0690616340577452 1:0.4897959183673469 2:0.45112781954887216 5:1.0 7:1.0 1103:1.0 1948:1.0 2924:1.0 3104:1.0 
1.6841140744458734 0.8262618112346276 0.0 0.37275035570733955 1:0.1836734693877551 2:0.13032581453634084 4:1.0 6:1.0 9:1.0 1969:1.0 2877:1.0 2998:1.0 
0.918094157133049 1.808611576234748 0.0 0.0 1:0.13520408163265307 2:0.2781954887218045 3:1.0 7:1.0 540:1.0 1948:1.0 2878:1.0 3050:1.0 
0.0 0.5735160506927399 0.0 0.0 1:0.3112244897959184 2:0.17794486215538846 4:1.0 7:1.0 519:1.0 1438:1.0 2953:1.0 2997:1.0 
2.0 1.2575509792167303 0.0 0.0 1:0.2653061224489796 2:0.2932330827067669 5:1.0 7:1.0 561:1.0 1438:1.0 2905:1.0 3069:1.0 
0.37787651036620173 0.0 0.0 0.7337207250222304 1:0.14285714285714285 2:0.23057644110275688 5:1.0 8:1.0 561:1.0 1866:1.0 2905:1.0 3093:1.0 
1.5025866968290853 0.0 0.0 0.0 1:0.2729591836734694 2:0.2832080200501253 5:1.0 6:1.0 561:1.0 2525:1.0 2905:1.0 3044:1.0 
2.0 0.05821778246382486 0.0 0.0 1:0.2066326530612245 2:0.2656641604010025 5:1.0 8:1.0 594:1.0 1990:1.0 2905:1.0 3025:1.0 
1.3340149975618205 0.0 0.0 0.0 1:0.10459183673469388 2:0.2807017543859649 4:1.0 8:1.0 735:1.0 2737:1.0 2889:1.0 3064:1.0 
0.0 0.16156400699615597 0.0 0.0 1:0.3086734693877551 2:0.17543859649122806 4:1.0 6:1.0 1103:1.0 1829:1.0 2964:1.0 3064:1.0 
0.0 0.0 0.0 2.0 1:0.18112244897959184 2:0.17794486215538846 3:1.0 7:1.0 400:1.0 2155:1.0 2944:1.0 3013:1.0 
1.5895743387622612 0.0 0.0 0.0 1:0.41836734693877553 2:0.20551378446115287 4:1.0 7:1.0 9:1.0 2747:1.0 2969:1.0 3050:1.0 
1.6085074370116772 0.0 0.0 0.0 1:0.24489795918367346 2:0.14285714285714285 5:1.0 8:1.0 1104:1.0 1525:1.0 2976:1.0 3002:1.0 
1.1415650116745373 0.0 0.0 0.0 1:0.20153061224489796 2:0.23809523809523808 5:1.0 8:1.0 9:1.0 2533:1.0 2928:1.0 3096:1.0 
0.9382144592276409 0.0 0.0 0.0 1:0.14795918367346939 2:0.20551378446115287 5:1.0 7:1.0 96:1.0 1949:1.0 2882:1.0 3044:1.0 
2.0 0.0 0.0 2.0 1:0.6964285714285714 2:0.23057644110275688 5:1.0 8:1.0 9:1.0 1438:1.0 2868:1.0 3090:1.0 
0.49816871717337113 0.0 0.0 0.5706973990525591 1:0.20408163265306123 2:0.18796992481203006 3:1.0 8:1.0 519:1.0 1809:1.0 2913:1.0 3025:1.0 
1.78451073494232 0.0 0.0 1.465649757097894 1:0.15306122448979592 2:0.11278195488721804 3:1.0 8:1.0 519:1.0 1438:1.0 2930:1.0 3022:1.0 
0.0 0.09248171618859921 0.0 0.19543774801701852 1:0.20153061224489796 2:0.15288220551378445 3:1.0 6:1.0 1396:1.0 2048:1.0 2975:1.0 3000:1.0 
1.9260268260814835 0.0 0.0 0.8647225486985751 1:0.2066326530612245 2:0.07769423558897243 3:1.0 7:1.0 1296:1.0 2074:1.0 2884:1.0 2996:1.0 
2.0 0.0 0.0 2.0 1:0.06377551020408163 2:0.13032581453634084 3:1.0 6:1.0 9:1.0 1438:1.0 2932:1.0 3005:1.0 
2.0 2.0 0.0 2.0 1:0.1377551020408163 2:0.13032581453634084 3:1.0 6:1.0 12:1.0 1438:1.0 2868:1.0 3089:1.0 
2.0 2.0 0.0 2.0 1:0.06377551020408163 2:0.13283208020050125 3:1.0 6:1.0 9:1.0 1441:1.0 2932:1.0 2988:1.0 
2.0 2.0 0.012258599248126964 1.1638538674187704 1:0.16071428571428573 2:0.06015037593984962 3:1.0 6:1.0 461:1.0 1438:1.0 2885:1.0 3052:1.0 
2.0 0.11191855514599176 0.0 0.0 1:0.1836734693877551 2:0.06766917293233082 4:1.0 8:1.0 12:1.0 1955:1.0 2868:1.0 3016:1.0 
2.0 0.9110326170292311 0.0 0.015057558771853878 1:0.1096938775510204 2:0.12531328320802004 3:1.0 6:1.0 1396:1.0 1441:1.0 2898:1.0 2988:1.0 
0.0 0.0 0.0 0.3486620226815893 1:0.23979591836734693 2:0.15538847117794485 3:1.0 6:1.0 1394:1.0 1837:1.0 2878:1.0 3018:1.0 
2.0 0.9291449889911367 0.0 0.0 1:0.16071428571428573 2:0.12531328320802004 3:1.0 6:1.0 408:1.0 1441:1.0 2898:1.0 2988:1.0 
0.20986476686737682 0.0 0.0 0.0 1:0.13010204081632654 2:0.14035087719298245 3:1.0 7:1.0 12:1.0 1837:1.0 2868:1.0 3040:1.0 
0.0 0.0 0.07109096641006366 0.0 1:0.16071428571428573 2:0.10526315789473684 3:1.0 6:1.0 408:1.0 2825:1.0 2898:1.0 3018:1.0 
0.7150797254531469 0.0 0.0 0.0 1:0.09948979591836735 2:0.17293233082706766 4:1.0 7:1.0 400:1.0 2083:1.0 2885:1.0 3018:1.0 
0.0 1.5641251050560685 0.0 0.0 1:0.10204081632653061 2:0.042606516290726815 3:1.0 6:1.0 519:1.0 1438:1.0 2890:1.0 3024:1.0 
0.6952567440930313 2.0 0.0 2.0 1:0.04336734693877551 2:0.14786967418546365 3:1.0 6:1.0 9:1.0 2532:1.0 2904:1.0 3025:1.0 
2.0 0.2028176690377599 0.0 2.0 1:0.13520408163265307 2:0.21553884711779447 4:1.0 8:1.0 9:1.0 2525:1.0 2924:1.0 3047:1.0 
0.7186093776493175 0.0 0.0 0.22844903125910898 1:0.07908163265306123 2:0.12280701754385964 3:1.0 7:1.0 451:1.0 1808:1.0 2867:1.0 2996:1.0 
2.0 0.0 0.0 0.0 1:0.14540816326530612 2:0.06766917293233082 3:1.0 6:1.0 519:1.0 1948:1.0 2905:1.0 3009:1.0 
0.07151297432551529 0.1114494788868494 0.0 0.0 1:0.12244897959183673 2:0.23809523809523808 3:1.0 7:1.0 13:1.0 2033:1.0 2876:1.0 3089:1.0 
0.8815188772468712 0.0 0.0 0.0 1:0.1096938775510204 2:0.18796992481203006 3:1.0 7:1.0 11:1.0 1948:1.0 2885:1.0 3102:1.0 
0.0 0.0 0.0 1.1983431854120163 1:0.07653061224489796 2:0.07017543859649122 4:1.0 6:1.0 12:1.0 1809:1.0 2868:1.0 2997:1.0 
1.3232444845594618 0.0 0.0 0.0 1:0.11734693877551021 2:0.3659147869674185 4:1.0 8:1.0 989:1.0 2422:1.0 2905:1.0 3019:1.0 
0.7061986481483372 0.0 0.0 0.0 1:0.2602040816326531 2:0.24561403508771928 4:1.0 8:1.0 1396:1.0 2532:1.0 2899:1.0 2997:1.0 
0.4542362386649946 0.0 0.0 0.0 1:0.31887755102040816 2:0.11278195488721804 4:1.0 7:1.0 1112:1.0 2418:1.0 2899:1.0 3025:1.0 
0.0 0.03724377674883691 0.4223454781672807 0.0 1:0.1556122448979592 2:0.24561403508771928 3:1.0 7:1.0 9:1.0 1890:1.0 2924:1.0 3050:1.0 
0.0 0.0 0.0 2.0 1:0.11224489795918367 2:0.24812030075187969 3:1.0 7:1.0 380:1.0 1808:1.0 2945:1.0 2996:1.0 
0.4828112620039407 0.0 0.0 1.1228759015854275 1:0.09183673469387756 2:0.03759398496240601 3:1.0 6:1.0 9:1.0 2155:1.0 2876:1.0 3032:1.0 
2.0 0.07064266345548667 0.0 0.0 1:0.04081632653061224 2:0.08521303258145363 3:1.0 6:1.0 726:1.0 2438:1.0 2912:1.0 3006:1.0 
0.5990975046768854 0.8528899233800125 0.0 0.0 1:0.08928571428571429 2:0.10275689223057644 3:1.0 6:1.0 1009:1.0 2732:1.0 2886:1.0 3054:1.0 
0.13950006334984433 0.0 0.0 0.0 1:0.11224489795918367 2:0.14536340852130325 5:1.0 8:1.0 425:1.0 1948:1.0 2950:1.0 3037:1.0 
0.9272820967924376 0.0 0.0 0.8411999437550466 1:0.1913265306122449 2:0.12781954887218044 4:1.0 8:1.0 408:1.0 1829:1.0 2969:1.0 3086:1.0 
2.0 0.0 0.0 0.0 1:0.21428571428571427 2:0.2706766917293233 5:1.0 6:1.0 9:1.0 2817:1.0 2969:1.0 3089:1.0 
1.8914613411892356 0.0 0.0 0.0 1:0.06887755102040816 2:0.08521303258145363 3:1.0 6:1.0 1399:1.0 1438:1.0 2978:1.0 3104:1.0 
0.8824828347073229 0.0 0.0 2.0 1:0.09183673469387756 2:0.19799498746867167 3:1.0 7:1.0 619:1.0 1438:1.0 2961:1.0 3103:1.0 
0.5176160010560314 0.0 0.0 0.0 1:0.14285714285714285 2:0.22055137844611528 3:1.0 6:1.0 519:1.0 1965:1.0 2969:1.0 3044:1.0 
2.0 0.40870672451755485 0.0 2.0 1:0.14285714285714285 2:0.19047619047619047 3:1.0 8:1.0 519:1.0 1948:1.0 2969:1.0 3073:1.0 
1.2210779624674968 0.0 0.0 1.79733417053533 1:0.08673469387755102 2:0.17293233082706766 3:1.0 8:1.0 461:1.0 1948:1.0 2984:1.0 3089:1.0 
0.40586193058791215 0.0 0.0 0.0 1:0.08163265306122448 2:0.20802005012531327 4:1.0 6:1.0 13:1.0 1442:1.0 2950:1.0 3070:1.0 
1.8485120700784319 0.0 0.0 2.0 1:0.6683673469387755 2:0.14285714285714285 4:1.0 6:1.0 13:1.0 1438:1.0 2950:1.0 2994:1.0 
2.0 0.0 0.0 0.0 1:0.21428571428571427 2:0.11779448621553884 4:1.0 7:1.0 519:1.0 1442:1.0 2880:1.0 3032:1.0 
2.0 0.6180563190226296 0.0 1.1999540995485853 1:0.14540816326530612 2:0.08521303258145363 3:1.0 6:1.0 9:1.0 1442:1.0 2874:1.0 3032:1.0 
2.0 0.8729421104598234 0.0 0.0 1:0.12755102040816327 2:0.23558897243107768 5:1.0 8:1.0 379:1.0 1818:1.0 2978:1.0 3089:1.0 
2.0 2.0 0.0 1.246117148105744 1:0.3137755102040816 2:0.07769423558897243 3:1.0 7:1.0 9:1.0 1442:1.0 2878:1.0 3070:1.0 
0.0 0.0 0.0 0.08857805883439136 1:0.27040816326530615 2:0.3182957393483709 4:1.0 7:1.0 519:1.0 1999:1.0 2893:1.0 3044:1.0 
0.0 0.0 0.0 0.002075007702900456 1:0.20153061224489796 2:0.2631578947368421 3:1.0 7:1.0 1103:1.0 1948:1.0 2969:1.0 3013:1.0 
2.0 2.0 0.0 0.8978521426815158 1:0.14795918367346939 2:0.08771929824561403 3:1.0 6:1.0 1103:1.0 1438:1.0 2877:1.0 3000:1.0 
2.0 0.14076650735304558 0.0 0.0 1:0.17346938775510204 2:0.09523809523809523 3:1.0 6:1.0 402:1.0 1948:1.0 2939:1.0 2989:1.0 
1.7909341168394988 0.0 0.0 1.0063606191149523 1:0.17346938775510204 2:0.11779448621553884 3:1.0 6:1.0 402:1.0 1948:1.0 2939:1.0 3089:1.0 
2.0 0.0 0.0 1.0930832654555658 1:0.1913265306122449 2:0.3082706766917293 3:1.0 6:1.0 13:1.0 1438:1.0 2868:1.0 3073:1.0 
0.3031666968181691 0.0 0.25386021582023677 0.0 1:0.058673469387755105 2:0.07769423558897243 3:1.0 8:1.0 932:1.0 2786:1.0 2912:1.0 3071:1.0 
2.0 0.0 0.0 0.8889739835547824 1:0.07397959183673469 2:0.05513784461152882 5:1.0 6:1.0 1047:1.0 1865:1.0 2924:1.0 3025:1.0 
1.0991223392755873 0.0 0.0 0.09185066356044283 1:0.10204081632653061 2:0.16541353383458646 3:1.0 8:1.0 400:1.0 1809:1.0 2877:1.0 2997:1.0 
2.0 0.882377508699506 0.0 1.599658906557935 1:0.33418367346938777 2:0.18295739348370926 3:1.0 7:1.0 13:1.0 1442:1.0 2984:1.0 3104:1.0 
0.4335821047817568 0.0 0.0 0.3922878032088133 1:0.2602040816326531 2:0.07518796992481203 5:1.0 6:1.0 92:1.0 1948:1.0 2912:1.0 3044:1.0 
2.0 0.0 0.0 0.0 1:0.13010204081632654 2:0.12781954887218044 3:1.0 8:1.0 519:1.0 1481:1.0 2905:1.0 3025:1.0 
1.8299785801223907 0.0 0.0 0.0 1:0.25510204081632654 2:0.15037593984962405 4:1.0 8:1.0 13:1.0 1686:1.0 2878:1.0 2988:1.0 
1.0392383998113912 0.0 0.0 1.837657357928258 1:0.1556122448979592 2:0.43107769423558895 5:1.0 7:1.0 257:1.0 1438:1.0 2868:1.0 3089:1.0 
0.0 0.0 0.0 0.23235074596428248 1:0.09438775510204081 2:0.09774436090225563 3:1.0 6:1.0 527:1.0 1829:1.0 2897:1.0 2997:1.0 
2.0 0.0 0.0 0.0 1:0.058673469387755105 2:0.09774436090225563 3:1.0 6:1.0 436:1.0 2155:1.0 2905:1.0 3089:1.0 
0.2958508316708298 0.0 0.0 0.13192100820759928 1:0.14285714285714285 2:0.12531328320802004 4:1.0 6:1.0 702:1.0 1948:1.0 2976:1.0 3025:1.0 
0.0 2.0 0.0 0.0 1:0.17857142857142858 2:0.24812030075187969 3:1.0 6:1.0 9:1.0 1438:1.0 2878:1.0 3098:1.0 
2.0 0.6362755591161915 0.0 2.0 1:0.23469387755102042 2:0.08771929824561403 4:1.0 8:1.0 1103:1.0 1482:1.0 2876:1.0 3037:1.0 
1.3864327405703316 0.0 0.0 1.6150907715201126 1:0.24489795918367346 2:0.14035087719298245 4:1.0 8:1.0 461:1.0 1482:1.0 2977:1.0 3025:1.0 
2.0 1.8888675280920433 0.0 1.1442223114806913 1:0.30357142857142855 2:0.06766917293233082 5:1.0 8:1.0 1103:1.0 1948:1.0 2893:1.0 3089:1.0 
1.4179404054373816 0.0 0.0 0.0 1:0.08673469387755102 2:0.2957393483709273 3:1.0 8:1.0 1103:1.0 2532:1.0 2876:1.0 3013:1.0 
1.0247574157688422 0.0 0.12805439488994677 0.0 1:0.1326530612244898 2:0.13283208020050125 3:1.0 6:1.0 594:1.0 1482:1.0 2889:1.0 3098:1.0 
2.0 0.0 0.3928001752476987 1.966404670876911 1:0.20408163265306123 2:0.09774436090225563 3:1.0 6:1.0 519:1.0 1482:1.0 2885:1.0 3005:1.0 
2.0 0.0 0.0 1.3914141616859375 1:0.07908163265306123 2:0.12280701754385964 5:1.0 7:1.0 11:1.0 2833:1.0 2930:1.0 3103:1.0 
1.9075867057894065 0.0 0.0 1.2292689550740696 1:0.21428571428571427 2:0.15037593984962405 3:1.0 6:1.0 519:1.0 1948:1.0 2892:1.0 3070:1.0 
0.0 0.3809288470702223 0.0 1.4858695278964122 1:0.10714285714285714 2:0.21804511278195488 3:1.0 6:1.0 9:1.0 2027:1.0 2939:1.0 3089:1.0 
1.2005845595386997 0.0 0.08210773499083959 0.0 1:0.11989795918367346 2:0.05263157894736842 3:1.0 6:1.0 1103:1.0 1466:1.0 2948:1.0 2993:1.0 
0.7098814904517599 0.42445179801268784 0.0 0.0 1:0.09438775510204081 2:0.11779448621553884 4:1.0 6:1.0 435:1.0 2532:1.0 2878:1.0 3068:1.0 
2.0 0.5733812299444342 0.0 2.0 1:0.17091836734693877 2:0.20050125313283207 3:1.0 8:1.0 380:1.0 1808:1.0 2877:1.0 2998:1.0 
0.0 1.419062892326954 0.0 0.0 1:0.09438775510204081 2:0.2882205513784461 3:1.0 6:1.0 1103:1.0 2532:1.0 2924:1.0 3089:1.0 
1.8780367118653762 0.0 0.0 0.6131200379305112 1:0.17346938775510204 2:0.11027568922305764 5:1.0 6:1.0 726:1.0 1948:1.0 2978:1.0 3039:1.0 
0.8156132034626092 0.0 0.0 0.0 1:0.11224489795918367 2:0.09273182957393483 4:1.0 7:1.0 702:1.0 1864:1.0 2912:1.0 2998:1.0 
1.4971878020551537 0.0 0.0 0.7712220738147268 1:0.05357142857142857 2:0.10526315789473684 3:1.0 6:1.0 37:1.0 1438:1.0 2873:1.0 3059:1.0 
0.027432747806005683 0.0 0.0 2.0 1:0.1683673469387755 2:0.17794486215538846 5:1.0 8:1.0 9:1.0 1438:1.0 2887:1.0 3070:1.0 
0.018304934769688933 0.0 0.0 1.2719661620740896 1:0.19642857142857142 2:0.16290726817042606 4:1.0 8:1.0 1357:1.0 1438:1.0 2969:1.0 3007:1.0 
2.0 0.0 0.0 1.0141553904003853 1:0.11479591836734694 2:0.12781954887218044 5:1.0 6:1.0 9:1.0 2822:1.0 2874:1.0 3005:1.0 
2.0 0.43183711576025013 0.0 0.6380219218198073 1:0.17857142857142858 2:0.07769423558897243 3:1.0 7:1.0 400:1.0 1829:1.0 2885:1.0 2996:1.0 
0.9002663813454348 0.0 0.0 0.0 1:0.08163265306122448 2:0.17293233082706766 4:1.0 7:1.0 400:1.0 2820:1.0 2876:1.0 3073:1.0 
0.34996108519527885 0.0 0.0 0.0 1:0.14285714285714285 2:0.22556390977443608 3:1.0 7:1.0 726:1.0 1890:1.0 2977:1.0 3036:1.0 
2.0 1.0665975709841413 0.0 2.0 1:0.15816326530612246 2:0.13533834586466165 4:1.0 7:1.0 519:1.0 1829:1.0 2953:1.0 3005:1.0 
1.1152219892546422 0.0 0.0 0.0 1:0.07908163265306123 2:0.14536340852130325 3:1.0 6:1.0 1386:1.0 1442:1.0 2924:1.0 3025:1.0 
0.18941206317784653 0.0 0.0 0.07501131696934654 1:0.24489795918367346 2:0.13784461152882205 4:1.0 6:1.0 1383:1.0 2155:1.0 2924:1.0 3097:1.0 
0.4676333674485619 0.0 0.0 1.4538578757074962 1:0.288265306122449 2:0.37593984962406013 3:1.0 7:1.0 527:1.0 1948:1.0 2885:1.0 3065:1.0 
2.0 0.0 0.0 1.188405618082198 1:0.21683673469387754 2:0.06265664160401002 5:1.0 6:1.0 400:1.0 2028:1.0 2945:1.0 3025:1.0 
1.3052136985997282 0.0 0.0 0.0 1:0.15816326530612246 2:0.21052631578947367 5:1.0 8:1.0 1103:1.0 1829:1.0 2939:1.0 3065:1.0 
2.0 0.0 0.0 0.0 1:0.20918367346938777 2:0.3558897243107769 5:1.0 7:1.0 519:1.0 1829:1.0 2876:1.0 3025:1.0 
2.0 0.0 0.0 1.2853594339409615 1:0.2627551020408163 2:0.3007518796992481 3:1.0 7:1.0 1103:1.0 2823:1.0 2884:1.0 3044:1.0 
1.2053397292927772 0.0 0.0 2.0 1:0.3520408163265306 2:0.20300751879699247 4:1.0 8:1.0 13:1.0 1438:1.0 2969:1.0 3044:1.0 
2.0 0.0 0.0 2.0 1:0.11989795918367346 2:0.12531328320802004 4:1.0 7:1.0 9:1.0 2833:1.0 2969:1.0 3103:1.0 
2.0 0.7318917836703271 0.0 1.8317706052195983 1:0.1836734693877551 2:0.15288220551378445 5:1.0 6:1.0 1318:1.0 1854:1.0 2984:1.0 3044:1.0 
2.0 2.0 0.0 1.5006837250054117 1:0.35459183673469385 2:0.11528822055137844 5:1.0 7:1.0 461:1.0 1438:1.0 2984:1.0 3089:1.0 
1.3185443110776554 0.0 0.0 0.014217534147353435 1:0.08418367346938775 2:0.3634085213032581 3:1.0 7:1.0 92:1.0 2007:1.0 2912:1.0 3089:1.0 
0.0 0.0 0.0 2.0 1:0.32142857142857145 2:0.09022556390977443 5:1.0 6:1.0 400:1.0 1829:1.0 2868:1.0 3005:1.0 
0.0 0.0 0.0 0.27863486134000215 1:0.37244897959183676 2:0.2656641604010025 4:1.0 6:1.0 578:1.0 1438:1.0 2969:1.0 3102:1.0 
1.1629671817379663 0.0 0.0 0.0 1:0.1556122448979592 2:0.24812030075187969 3:1.0 7:1.0 1399:1.0 1442:1.0 2978:1.0 3070:1.0 
2.0 0.0 0.0 2.0 1:0.19642857142857142 2:0.10776942355889724 4:1.0 6:1.0 9:1.0 1442:1.0 2984:1.0 2994:1.0 
0.0 0.0 0.0 2.0 1:0.25 2:0.3483709273182957 4:1.0 6:1.0 618:1.0 1438:1.0 2969:1.0 3044:1.0 
0.0 0.1068594202567189 0.0 1.4075986381644527 1:0.23979591836734693 2:0.3583959899749373 4:1.0 7:1.0 525:1.0 1442:1.0 2984:1.0 3104:1.0 
2.0 0.0 0.0 0.0 1:0.09948979591836735 2:0.06265664160401002 5:1.0 6:1.0 1399:1.0 1948:1.0 2978:1.0 3089:1.0 
1.434181001898646 0.0 0.0 1.3347994016778095 1:0.1377551020408163 2:0.12280701754385964 3:1.0 6:1.0 519:1.0 1948:1.0 2920:1.0 3064:1.0 
0.27161291447220487 1.0066460728781153 0.0 0.0 1:0.08163265306122448 2:0.06516290726817042 3:1.0 6:1.0 997:1.0 1906:1.0 2867:1.0 3009:1.0 
0.8387867007462116 0.0 0.0 0.0 1:0.3112244897959184 2:0.07769423558897243 4:1.0 6:1.0 702:1.0 2426:1.0 2976:1.0 2987:1.0 
1.2862673906472215 0.0 0.0 0.0 1:0.09693877551020408 2:0.23308270676691728 3:1.0 7:1.0 807:1.0 1442:1.0 2885:1.0 3097:1.0 
1.3311722326522617 0.58344136158765 0.0 0.0 1:0.1556122448979592 2:0.2731829573934837 3:1.0 6:1.0 1399:1.0 2532:1.0 2868:1.0 3005:1.0 
1.2370628906289125 1.2148487108840214 0.0 1.3045868317429614 1:0.1556122448979592 2:0.12781954887218044 3:1.0 8:1.0 645:1.0 2532:1.0 2878:1.0 3053:1.0 
2.0 2.0 0.0 0.38337902449474737 1:0.08928571428571429 2:0.15037593984962405 3:1.0 6:1.0 519:1.0 2074:1.0 2867:1.0 2998:1.0 
0.0 2.0 0.0 0.0 1:0.19642857142857142 2:0.13784461152882205 5:1.0 6:1.0 519:1.0 1438:1.0 2984:1.0 3024:1.0 
0.0 1.359514301950499 0.0 1.4193157290128355 1:0.14285714285714285 2:0.15789473684210525 3:1.0 6:1.0 9:1.0 1948:1.0 2904:1.0 2988:1.0 
2.0 0.0 0.0 0.5661072796671597 1:0.08928571428571429 2:0.12781954887218044 3:1.0 8:1.0 519:1.0 2532:1.0 2867:1.0 3053:1.0 
0.0 0.0 0.021541033839740813 0.0 1:0.061224489795918366 2:0.20300751879699247 3:1.0 6:1.0 932:1.0 1854:1.0 2912:1.0 3025:1.0 
2.0 0.7038781384324674 0.0 0.0 1:0.23979591836734693 2:0.08521303258145363 3:1.0 6:1.0 519:1.0 1994:1.0 2977:1.0 3025:1.0 
0.7948063712631973 0.0 0.0 0.0 1:0.125 2:0.13032581453634084 3:1.0 8:1.0 435:1.0 2155:1.0 2905:1.0 3032:1.0 
2.0 0.08116279316422127 0.0 1.025659672137021 1:0.19387755102040816 2:0.12030075187969924 5:1.0 8:1.0 9:1.0 1997:1.0 2905:1.0 3050:1.0 
2.0 0.8837070224523254 0.027059867635419527 0.11549879751936112 1:0.14285714285714285 2:0.18796992481203006 3:1.0 8:1.0 919:1.0 1438:1.0 2977:1.0 3025:1.0 
2.0 0.0 0.0 0.0 1:0.20918367346938777 2:0.12280701754385964 3:1.0 6:1.0 425:1.0 1864:1.0 2905:1.0 3025:1.0 
1.9773233958217997 2.0 0.0 0.7112167587457908 1:0.5331632653061225 2:0.20802005012531327 4:1.0 6:1.0 1147:1.0 1854:1.0 2984:1.0 2988:1.0 
2.0 1.439335194576252 0.0 1.806682557383353 1:0.3163265306122449 2:0.18796992481203006 4:1.0 6:1.0 97:1.0 1438:1.0 2984:1.0 3032:1.0 
0.1297933749351119 0.0 0.0 1.0095718548230634 1:0.6147959183673469 2:0.3107769423558897 4:1.0 7:1.0 1103:1.0 1526:1.0 2969:1.0 3104:1.0 
0.0 0.0 0.15207382934932553 0.0 1:0.08673469387755102 2:0.7919799498746867 3:1.0 7:1.0 932:1.0 1616:1.0 2912:1.0 3089:1.0 
1.9728787767872351 0.0 0.0 0.0 1:0.1836734693877551 2:0.17794486215538846 4:1.0 7:1.0 1051:1.0 1438:1.0 2878:1.0 3097:1.0 
0.06921051119245221 1.618754522064577 0.0 0.5685665165944036 1:0.22959183673469388 2:0.12531328320802004 3:1.0 7:1.0 461:1.0 1829:1.0 2977:1.0 3005:1.0 
0.0 0.3511228894683331 0.0 0.7389182325866396 1:0.125 2:0.08771929824561403 4:1.0 6:1.0 527:1.0 1820:1.0 2904:1.0 3059:1.0 
1.499168720797754 0.0 0.0 0.0 1:0.20408163265306123 2:0.19298245614035087 3:1.0 6:1.0 519:1.0 1906:1.0 2924:1.0 3009:1.0 
0.4866854496663963 0.0 0.0 0.0 1:0.18877551020408162 2:0.11278195488721804 4:1.0 6:1.0 1103:1.0 1948:1.0 2976:1.0 3028:1.0 
1.1071388577678083 0.0 0.0 0.9012101024894208 1:0.16071428571428573 2:0.2631578947368421 5:1.0 6:1.0 519:1.0 1948:1.0 2878:1.0 3098:1.0 
2.0 2.0 0.0 0.9867269838487482 1:0.14540816326530612 2:0.09523809523809523 3:1.0 6:1.0 9:1.0 1442:1.0 2885:1.0 3044:1.0 
0.6148160288696792 1.10047699222163 0.0 0.5745643065540844 1:0.2857142857142857 2:0.23057644110275688 3:1.0 8:1.0 461:1.0 1948:1.0 2969:1.0 3006:1.0 
2.0 0.0 0.0 2.0 1:0.20918367346938777 2:0.14035087719298245 5:1.0 6:1.0 1398:1.0 1438:1.0 2868:1.0 3005:1.0 
1.5156415378967683 0.0 0.0 0.03979529986649506 1:0.20408163265306123 2:0.22556390977443608 5:1.0 6:1.0 519:1.0 2364:1.0 2953:1.0 3005:1.0 
0.0 0.0 0.23150865342175392 0.0 1:0.0663265306122449 2:0.3283208020050125 3:1.0 8:1.0 92:1.0 1890:1.0 2912:1.0 2997:1.0 
0.0 0.0 0.0 0.5808532730839228 1:0.2653061224489796 2:0.5213032581453634 4:1.0 8:1.0 527:1.0 1438:1.0 2939:1.0 3098:1.0 
0.0 1.1967782528921158 0.0 1.5260331629240964 1:0.14795918367346939 2:0.12030075187969924 3:1.0 7:1.0 9:1.0 1956:1.0 2949:1.0 3069:1.0 
1.2427273737019469 0.0 0.07862419163589161 0.0 1:0.30357142857142855 2:0.15037593984962405 4:1.0 7:1.0 9:1.0 1956:1.0 2912:1.0 3025:1.0 
0.0 0.0 0.0 0.2782206139824594 1:0.2193877551020408 2:0.2957393483709273 4:1.0 7:1.0 519:1.0 1438:1.0 2873:1.0 3032:1.0 
0.0 0.0 0.0 2.0 1:0.25 2:0.2982456140350877 5:1.0 8:1.0 9:1.0 1438:1.0 2978:1.0 3047:1.0 
2.0 0.0 0.0 1.3699089805620792 1:0.1556122448979592 2:0.14285714285714285 4:1.0 6:1.0 527:1.0 1438:1.0 2905:1.0 3069:1.0 
2.0 0.8713716246584857 0.11586486760745524 0.0 1:0.11989795918367346 2:0.17543859649122806 4:1.0 6:1.0 435:1.0 1438:1.0 2889:1.0 2988:1.0 
0.0 0.0 0.09274871479784498 0.2241090442035789 1:0.1377551020408163 2:0.43609022556390975 4:1.0 7:1.0 1047:1.0 1453:1.0 2924:1.0 2988:1.0 
0.5798425415926977 0.39451216490937885 0.0 1.2057691695642585 1:0.25 2:0.14285714285714285 5:1.0 6:1.0 1047:1.0 2476:1.0 2969:1.0 3044:1.0 
0.0 0.4607184873126056 0.0 0.0 1:0.25 2:0.3007518796992481 5:1.0 6:1.0 1047:1.0 2532:1.0 2969:1.0 3044:1.0 
1.794524888740123 0.7338063279427107 0.0 0.34984664175150504 1:0.1377551020408163 2:0.20551378446115287 4:1.0 6:1.0 1103:1.0 1854:1.0 2868:1.0 3048:1.0 
2.0 0.0 0.0 2.0 1:0.18112244897959184 2:0.5238095238095238 3:1.0 8:1.0 9:1.0 1438:1.0 2868:1.0 3104:1.0 
0.0 0.42771031058199677 0.0 0.4867157482746357 1:0.18877551020408162 2:0.2556390977443609 4:1.0 7:1.0 9:1.0 2532:1.0 2949:1.0 3050:1.0 
0.0 0.019212852006946446 0.0 1.1296935237076322 1:0.336734693877551 2:0.13283208020050125 3:1.0 7:1.0 92:1.0 2476:1.0 2905:1.0 3044:1.0 
1.6562638012579791 0.023353525860093236 0.0 0.646358198074883 1:0.28316326530612246 2:0.24310776942355888 5:1.0 8:1.0 1399:1.0 2476:1.0 2969:1.0 3089:1.0 
1.1251760021630715 0.0 0.0 0.0 1:0.15816326530612246 2:0.07518796992481203 3:1.0 6:1.0 1103:1.0 1438:1.0 2876:1.0 2987:1.0 
2.0 0.5263850809917001 0.0 0.4464522022238442 1:0.4744897959183674 2:0.37844611528822053 5:1.0 6:1.0 535:1.0 1438:1.0 2978:1.0 2988:1.0 
0.0 0.0 0.0 0.043682945813519836 1:0.3392857142857143 2:0.46365914786967416 5:1.0 8:1.0 1103:1.0 1964:1.0 2899:1.0 3098:1.0 
0.0 0.0 0.034007889859572475 0.20831395916200718 1:0.12755102040816327 2:0.18045112781954886 3:1.0 6:1.0 1103:1.0 2155:1.0 2943:1.0 3025:1.0 
2.0 0.0 0.0 0.759444432468643 1:0.3010204081632653 2:0.14786967418546365 3:1.0 8:1.0 391:1.0 1948:1.0 2969:1.0 2993:1.0 
2.0 0.0 0.0 1.9245502782288906 1:0.1377551020408163 2:0.09774436090225563 5:1.0 6:1.0 519:1.0 1438:1.0 2969:1.0 2987:1.0 
2.0 0.8841610023103511 0.0 1.16373135212041 1:0.12755102040816327 2:0.12531328320802004 3:1.0 7:1.0 13:1.0 1464:1.0 2873:1.0 3089:1.0 
2.0 0.0 0.0 0.7641896481109098 1:0.17346938775510204 2:0.09022556390977443 3:1.0 7:1.0 519:1.0 1948:1.0 2932:1.0 2993:1.0 
2.0 0.0 0.0 0.0 1:0.08163265306122448 2:0.3684210526315789 5:1.0 8:1.0 13:1.0 1438:1.0 2874:1.0 2988:1.0 
2.0 0.0 0.00846992565400239 0.0 1:0.09438775510204081 2:0.07769423558897243 3:1.0 8:1.0 519:1.0 1442:1.0 2889:1.0 2994:1.0 
2.0 0.0 0.0 0.0 1:0.08418367346938775 2:0.15538847117794485 3:1.0 7:1.0 1356:1.0 1442:1.0 2969:1.0 2993:1.0 
0.0 0.0 0.0 0.4886840785816658 1:0.1556122448979592 2:0.17794486215538846 5:1.0 7:1.0 519:1.0 1438:1.0 2873:1.0 3044:1.0 
2.0 0.0 0.0 0.40549746446965185 1:0.07908163265306123 2:0.19298245614035087 3:1.0 7:1.0 403:1.0 1482:1.0 2912:1.0 3037:1.0 
2.0 0.0 0.0 0.0 1:0.4413265306122449 2:0.06766917293233082 3:1.0 6:1.0 519:1.0 2481:1.0 2973:1.0 2987:1.0 
0.0 0.006615789048972146 0.0 1.624428426270401 1:0.07142857142857142 2:0.13032581453634084 3:1.0 6:1.0 1052:1.0 2434:1.0 2867:1.0 3044:1.0 
1.831956621754669 0.0 0.0 0.0 1:0.4413265306122449 2:0.13032581453634084 3:1.0 6:1.0 519:1.0 2434:1.0 2973:1.0 3044:1.0 
0.40141417660652906 0.0 0.0 2.0 1:0.15306122448979592 2:0.16290726817042606 5:1.0 6:1.0 12:1.0 1948:1.0 2969:1.0 3089:1.0 
0.32978163774800345 0.0 0.0 1.012292291434962 1:0.18112244897959184 2:0.22305764411027568 4:1.0 6:1.0 53:1.0 1438:1.0 2969:1.0 3098:1.0 
1.6412520245267463 0.4275337995402349 0.0 0.0 1:0.3520408163265306 2:0.2506265664160401 5:1.0 6:1.0 257:1.0 1686:1.0 2978:1.0 3096:1.0 
0.0 0.2724841061471834 0.0 0.0 1:0.11989795918367346 2:0.08771929824561403 5:1.0 6:1.0 53:1.0 1442:1.0 2877:1.0 3103:1.0 
2.0 0.0 0.2784593609413024 2.0 1:0.11479591836734694 2:0.20300751879699247 3:1.0 6:1.0 53:1.0 1482:1.0 2984:1.0 3089:1.0 
0.0 0.0 0.0 2.0 1:0.15816326530612246 2:0.3208020050125313 3:1.0 6:1.0 12:1.0 1438:1.0 2969:1.0 3089:1.0 
0.0 0.0 0.0 1.5858144731975994 1:0.10204081632653061 2:0.09523809523809523 3:1.0 7:1.0 92:1.0 1948:1.0 2884:1.0 3038:1.0 
1.3203237951214835 0.0 0.0 1.0333443185467737 1:0.09948979591836735 2:0.10776942355889724 4:1.0 7:1.0 519:1.0 1438:1.0 2918:1.0 3073:1.0 
2.0 0.3380791259547017 0.0 0.0 1:0.17857142857142858 2:0.09523809523809523 3:1.0 6:1.0 726:1.0 1442:1.0 2885:1.0 3025:1.0 
2.0 0.0 0.0 0.0 1:0.12244897959183673 2:0.13032581453634084 4:1.0 7:1.0 400:1.0 2155:1.0 2950:1.0 3096:1.0 
2.0 0.0 0.0 2.0 1:0.11989795918367346 2:0.17042606516290726 3:1.0 7:1.0 726:1.0 1948:1.0 2984:1.0 3104:1.0 
2.0 0.13085126728782034 0.0 1.4271382695556092 1:0.23469387755102042 2:0.10025062656641603 4:1.0 6:1.0 519:1.0 2348:1.0 2929:1.0 3053:1.0 
1.8815646253876424 0.0 0.0 0.0 1:0.1836734693877551 2:0.3107769423558897 3:1.0 7:1.0 425:1.0 1442:1.0 2969:1.0 3104:1.0 
2.0 0.10444202385229719 0.0 0.0 1:0.22193877551020408 2:0.2706766917293233 5:1.0 6:1.0 1399:1.0 1442:1.0 2978:1.0 3089:1.0 
1.879095068731552 1.2014532345924966 0.0 2.0 1:0.20153061224489796 2:0.2832080200501253 3:1.0 6:1.0 9:1.0 1442:1.0 2885:1.0 3037:1.0 
2.0 2.0 0.0 0.0 1:0.09438775510204081 2:0.24060150375939848 3:1.0 8:1.0 1356:1.0 2023:1.0 2950:1.0 3005:1.0 
2.0 0.0 0.0 2.0 1:0.29081632653061223 2:0.22055137844611528 3:1.0 7:1.0 519:1.0 1948:1.0 2969:1.0 3089:1.0 
0.10085846414086805 0.0 0.0 0.0 1:0.14540816326530612 2:0.24060150375939848 4:1.0 7:1.0 519:1.0 1890:1.0 2940:1.0 2997:1.0 
2.0 0.0 0.0 0.0 1:0.16326530612244897 2:0.17543859649122806 4:1.0 6:1.0 13:1.0 2017:1.0 2877:1.0 2996:1.0 
