svm_type c_svc
kernel_type rbf
gamma 8.0
nr_class 2
total_sv 4221
rho -2.7060268307655755
label 0 1
nr_sv 2116 2105
SV
650.0554214284264 1:0.3333333333333333 2:0.07777777777777778 3:1.0 4:0.008528784648187633 23:1.0 102:1.0 244:1.0 
5.687413758383009 1:0.3333333333333333 3:0.5 4:0.0042643923240938165 23:1.0 181:1.0 249:1.0 
15.856235769431404 1:0.3333333333333333 2:0.24444444444444444 3:1.0 4:0.0042643923240938165 23:1.0 119:1.0 204:1.0 
21.19326117143983 2:0.4 3:0.7636363636363637 4:0.11727078891257996 58:1.0 103:1.0 249:1.0 
7473.413252307093 2:0.5 3:0.5467980295566502 4:0.43283582089552236 57:1.0 181:1.0 215:1.0 
8192.0 1:0.3333333333333333 2:0.2111111111111111 3:0.9477611940298507 4:0.2857142857142857 61:1.0 181:1.0 249:1.0 
8192.0 1:0.3333333333333333 2:0.14444444444444443 3:0.7692307692307693 4:0.16631130063965885 61:1.0 102:1.0 249:1.0 
8190.294068652282 1:0.3333333333333333 2:0.011111111111111112 3:1.0 4:0.0021321961620469083 19:1.0 137:1.0 253:1.0 
3.3516487655434903 2:0.7111111111111111 3:0.8266129032258065 4:0.5287846481876333 61:1.0 101:1.0 249:1.0 
0.9466140427181456 1:0.3333333333333333 2:0.3111111111111111 3:0.5714285714285714 4:0.014925373134328358 57:1.0 137:1.0 215:1.0 
522.4747571885075 1:0.3333333333333333 2:0.2222222222222222 3:0.8429752066115702 4:0.2579957356076759 61:1.0 101:1.0 249:1.0 
1.3983051491574634 1:0.3333333333333333 2:0.3333333333333333 3:1.0 4:0.0021321961620469083 22:1.0 102:1.0 253:1.0 
55.34700030241703 1:0.3333333333333333 2:0.18888888888888888 3:0.8 4:0.053304904051172705 61:1.0 137:1.0 215:1.0 
8192.0 1:0.3333333333333333 2:0.15555555555555556 3:0.9801980198019802 4:0.21535181236673773 22:1.0 121:1.0 249:1.0 
2055.803392640275 1:0.3333333333333333 2:0.08888888888888889 3:0.4744897959183674 4:0.835820895522388 61:1.0 153:1.0 198:1.0 
13.76324517312617 1:0.3333333333333333 2:0.15555555555555556 3:0.6666666666666666 4:0.01279317697228145 6:1.0 119:1.0 215:1.0 
44.25663555120839 2:0.12222222222222222 3:0.9530916844349681 4:1.0 61:1.0 101:1.0 198:1.0 
8192.0 2:0.15555555555555556 3:0.9918032786885246 4:0.2601279317697228 57:1.0 102:1.0 249:1.0 
8192.0 1:0.3333333333333333 2:0.2111111111111111 3:0.9007633587786259 4:0.279317697228145 61:1.0 102:1.0 198:1.0 
37.81236329014318 1:0.3333333333333333 2:0.23333333333333334 3:1.0 4:0.0042643923240938165 57:1.0 102:1.0 250:1.0 
8190.294144013496 1:0.3333333333333333 2:0.3111111111111111 3:0.4744897959183674 4:0.835820895522388 61:1.0 118:1.0 198:1.0 
520.9227182676425 1:0.3333333333333333 2:0.14444444444444443 3:1.0 4:0.06396588486140725 23:1.0 153:1.0 244:1.0 
231.03670796130697 1:0.3333333333333333 2:0.5111111111111111 3:0.9285714285714286 4:0.05970149253731343 61:1.0 102:1.0 215:1.0 
14.498811978587344 2:0.5888888888888889 3:0.4418604651162791 4:0.5501066098081023 61:1.0 119:1.0 197:1.0 
8192.0 1:0.3333333333333333 2:0.3 3:1.0 4:0.008528784648187633 23:1.0 102:1.0 197:1.0 
207.40234962422448 1:0.3333333333333333 2:0.35555555555555557 3:1.0 4:0.006396588486140725 57:1.0 119:1.0 215:1.0 
5074.420719131003 1:0.3333333333333333 3:1.0 4:0.006396588486140725 57:1.0 181:1.0 215:1.0 
35.00056401385944 1:0.3333333333333333 2:0.07777777777777778 3:0.9024390243902439 4:0.08742004264392324 23:1.0 102:1.0 204:1.0 
2429.7338916209715 1:0.3333333333333333 2:0.08888888888888889 3:0.9024390243902439 4:0.08742004264392324 23:1.0 102:1.0 244:1.0 
73.42166221139746 1:0.3333333333333333 2:0.32222222222222224 3:0.875 4:0.017057569296375266 23:1.0 181:1.0 204:1.0 
8192.0 2:0.3 3:0.4418604651162791 4:0.5501066098081023 61:1.0 102:1.0 215:1.0 
8192.0 1:0.3333333333333333 2:0.3 3:0.9024390243902439 4:0.08742004264392324 23:1.0 119:1.0 215:1.0 
274.84310113433025 2:0.13333333333333333 3:0.9918032786885246 4:0.2601279317697228 57:1.0 181:1.0 253:1.0 
35.10457219984131 1:0.3333333333333333 2:0.4222222222222222 3:0.9801980198019802 4:0.21535181236673773 22:1.0 119:1.0 249:1.0 
318.57874958297157 2:0.4444444444444444 3:0.9918032786885246 4:0.2601279317697228 57:1.0 118:1.0 249:1.0 
358.04603332279635 1:0.3333333333333333 2:0.3 3:0.87 4:0.21321961620469082 41:1.0 181:1.0 244:1.0 
66.81077687610171 1:0.3333333333333333 2:0.45555555555555555 3:0.9417808219178082 4:0.6226012793176973 61:1.0 181:1.0 198:1.0 
451.5967379525634 2:0.3333333333333333 3:0.8135593220338984 4:0.1257995735607676 23:1.0 157:1.0 198:1.0 
8192.0 1:0.3333333333333333 3:0.9164265129682997 4:0.7398720682302772 61:1.0 181:1.0 249:1.0 
437.0579159980917 1:0.3333333333333333 2:0.08888888888888889 3:0.7692307692307693 4:0.02771855010660981 61:1.0 121:1.0 215:1.0 
17.57307260912534 1:0.3333333333333333 2:0.03333333333333333 3:0.75 4:0.008528784648187633 23:1.0 103:1.0 198:1.0 
8192.0 2:0.044444444444444446 3:0.7636363636363637 4:0.11727078891257996 58:1.0 102:1.0 215:1.0 
8187.619619813431 1:0.3333333333333333 3:0.5416666666666666 4:0.0511727078891258 61:1.0 181:1.0 197:1.0 
2086.5107960455584 1:0.3333333333333333 2:0.2 3:0.8 4:0.010660980810234541 19:1.0 119:1.0 198:1.0 
108.46872395549455 1:0.3333333333333333 2:0.05555555555555555 3:1.0 4:0.03624733475479744 23:1.0 119:1.0 277:1.0 
11.234819784351952 2:0.25555555555555554 3:0.6578947368421053 4:0.16204690831556504 57:1.0 121:1.0 250:1.0 
8192.0 1:0.3333333333333333 2:0.15555555555555556 3:0.9417808219178082 4:0.6226012793176973 61:1.0 119:1.0 233:1.0 
1377.6931681036988 1:0.3333333333333333 2:0.2222222222222222 3:0.9417808219178082 4:0.6226012793176973 61:1.0 181:1.0 233:1.0 
0.961565336586195 1:0.3333333333333333 2:0.4111111111111111 3:0.9007633587786259 4:0.279317697228145 61:1.0 118:1.0 204:1.0 
8192.0 1:0.3333333333333333 2:0.13333333333333333 3:0.9801980198019802 4:0.21535181236673773 22:1.0 119:1.0 249:1.0 
71.4798706262435 1:0.3333333333333333 2:0.37777777777777777 3:0.7692307692307693 4:0.16631130063965885 61:1.0 181:1.0 250:1.0 
122.82991868478264 1:0.3333333333333333 2:0.08888888888888889 3:0.9417808219178082 4:0.6226012793176973 61:1.0 119:1.0 198:1.0 
8192.0 2:0.13333333333333333 3:0.8266129032258065 4:0.5287846481876333 61:1.0 102:1.0 215:1.0 
5103.4448550369225 2:0.35555555555555557 3:0.8266129032258065 4:0.5287846481876333 61:1.0 121:1.0 215:1.0 
8192.0 1:0.3333333333333333 3:0.4744897959183674 4:0.835820895522388 61:1.0 181:1.0 198:1.0 
2873.9520138031326 1:0.3333333333333333 2:0.16666666666666666 3:0.5555555555555556 4:0.03837953091684435 61:1.0 102:1.0 249:1.0 
8192.0 1:0.3333333333333333 2:0.17777777777777778 3:0.87 4:0.21321961620469082 41:1.0 102:1.0 249:1.0 
8192.0 1:0.3333333333333333 2:0.3888888888888889 3:0.9007633587786259 4:0.279317697228145 61:1.0 102:1.0 215:1.0 
1178.132507389682 2:0.24444444444444444 3:0.4444444444444444 4:0.019189765458422176 57:1.0 102:1.0 215:1.0 
266.1961466064407 1:0.3333333333333333 2:0.08888888888888889 3:0.8888888888888888 4:0.019189765458422176 23:1.0 118:1.0 198:1.0 
172.7930056663729 1:0.3333333333333333 2:0.4777777777777778 3:0.9164265129682997 4:0.7398720682302772 61:1.0 102:1.0 250:1.0 
8192.0 1:0.3333333333333333 2:0.12222222222222222 3:1.0 4:0.0021321961620469083 23:1.0 119:1.0 198:1.0 
154.2305155129988 1:0.3333333333333333 2:0.08888888888888889 3:0.9007633587786259 4:0.279317697228145 61:1.0 102:1.0 250:1.0 
3.661369899401117 1:0.3333333333333333 2:0.24444444444444444 3:1.0 23:1.0 153:1.0 204:1.0 
2.2437491356945056 1:0.3333333333333333 3:0.9024390243902439 4:0.08742004264392324 23:1.0 181:1.0 197:1.0 
2403.418121971375 1:0.3333333333333333 2:0.12222222222222222 3:0.9801980198019802 4:0.21535181236673773 22:1.0 102:1.0 249:1.0 
1.2021537424911541 2:0.6 3:0.4418604651162791 4:0.5501066098081023 61:1.0 121:1.0 249:1.0 
1.491248669525405 1:0.3333333333333333 2:0.2777777777777778 3:0.6666666666666666 4:0.006396588486140725 61:1.0 119:1.0 250:1.0 
109.84371051895783 1:0.3333333333333333 3:0.5555555555555556 4:0.03837953091684435 61:1.0 181:1.0 199:1.0 
412.7650738148577 1:0.3333333333333333 2:0.13333333333333333 3:0.9801980198019802 4:0.21535181236673773 22:1.0 119:1.0 277:1.0 
3865.0677071943205 1:0.3333333333333333 2:0.16666666666666666 3:1.0 4:0.0042643923240938165 57:1.0 181:1.0 215:1.0 
8112.1552204753425 1:0.3333333333333333 2:0.43333333333333335 3:1.0 4:0.010660980810234541 19:1.0 119:1.0 249:1.0 
3.5159567615947402 1:0.3333333333333333 2:0.5777777777777777 3:0.5333333333333333 4:0.031982942430703626 6:1.0 134:1.0 277:1.0 
199.60519552564094 1:0.3333333333333333 2:0.24444444444444444 3:0.9306930693069307 4:0.21535181236673773 61:1.0 102:1.0 250:1.0 
4.051976517563321 1:0.3333333333333333 2:0.044444444444444446 3:0.5714285714285714 4:0.014925373134328358 57:1.0 119:1.0 250:1.0 
8192.0 1:0.3333333333333333 3:0.7142857142857143 4:0.04477611940298507 61:1.0 181:1.0 198:1.0 
0.5713455349618475 1:0.3333333333333333 2:0.8 3:0.3333333333333333 4:0.006396588486140725 23:1.0 153:1.0 215:1.0 
8192.0 2:0.17777777777777778 3:0.4418604651162791 4:0.5501066098081023 61:1.0 181:1.0 198:1.0 
10.378421497983627 1:0.3333333333333333 2:0.2111111111111111 3:0.5 4:0.0042643923240938165 22:1.0 119:1.0 249:1.0 
22.273466356782244 2:0.23333333333333334 3:0.6578947368421053 4:0.16204690831556504 57:1.0 118:1.0 249:1.0 
8192.0 1:0.3333333333333333 2:0.13333333333333333 3:0.8677248677248677 4:0.40298507462686567 61:1.0 181:1.0 215:1.0 
0.3606533341103387 1:0.3333333333333333 2:0.25555555555555554 3:0.9007633587786259 4:0.279317697228145 61:1.0 119:1.0 197:1.0 
8192.0 1:0.3333333333333333 2:0.16666666666666666 3:1.0 4:0.0042643923240938165 61:1.0 119:1.0 215:1.0 
8192.0 2:0.2111111111111111 3:0.8135593220338984 4:0.1257995735607676 23:1.0 119:1.0 198:1.0 
8192.0 2:0.37777777777777777 3:0.6578947368421053 4:0.16204690831556504 57:1.0 181:1.0 215:1.0 
393.1524849492844 2:0.4111111111111111 3:0.8135593220338984 4:0.1257995735607676 23:1.0 119:1.0 198:1.0 
8192.0 1:0.3333333333333333 3:0.8676470588235294 4:0.2899786780383795 58:1.0 181:1.0 215:1.0 
1138.9368487713211 2:0.24444444444444444 3:0.8135593220338984 4:0.1257995735607676 23:1.0 119:1.0 198:1.0 
8192.0 1:0.3333333333333333 2:0.2 3:0.9007633587786259 4:0.279317697228145 61:1.0 102:1.0 198:1.0 
178.13922106683023 1:0.3333333333333333 2:0.5555555555555556 3:0.9007633587786259 4:0.279317697228145 61:1.0 102:1.0 198:1.0 
819.1232598762092 1:0.3333333333333333 2:0.07777777777777778 3:0.7777777777777778 4:0.03837953091684435 57:1.0 119:1.0 215:1.0 
3929.442003513751 1:0.3333333333333333 2:0.06666666666666667 3:1.0 4:0.03624733475479744 23:1.0 118:1.0 215:1.0 
5574.573240602884 2:0.26666666666666666 3:0.9918032786885246 4:0.2601279317697228 57:1.0 118:1.0 249:1.0 
8088.2809745218165 2:0.08888888888888889 3:0.6578947368421053 4:0.16204690831556504 57:1.0 101:1.0 215:1.0 
3319.4032678980166 1:0.3333333333333333 2:0.2222222222222222 3:0.87 4:0.21321961620469082 41:1.0 148:1.0 215:1.0 
3.501855449208404 1:0.3333333333333333 2:0.17777777777777778 3:1.0 4:0.031982942430703626 22:1.0 119:1.0 277:1.0 
552.4745397162204 1:0.3333333333333333 2:0.2222222222222222 3:0.9285714285714286 4:0.05970149253731343 61:1.0 181:1.0 250:1.0 
8192.0 2:0.08888888888888889 3:0.8266129032258065 4:0.5287846481876333 61:1.0 102:1.0 215:1.0 
9.213923368569057 1:0.3333333333333333 2:0.18888888888888888 3:0.4 4:0.031982942430703626 61:1.0 101:1.0 197:1.0 
0.7837772427205988 1:0.3333333333333333 2:0.36666666666666664 3:0.8333333333333334 4:0.03837953091684435 57:1.0 102:1.0 249:1.0 
8192.0 2:0.15555555555555556 3:0.4418604651162791 4:0.5501066098081023 61:1.0 119:1.0 198:1.0 
2170.684586882751 1:0.3333333333333333 2:0.18888888888888888 3:1.0 4:0.0021321961620469083 57:1.0 101:1.0 215:1.0 
8192.0 2:0.2777777777777778 3:0.9918032786885246 4:0.2601279317697228 57:1.0 102:1.0 249:1.0 
69.04442176752606 1:0.3333333333333333 2:0.1111111111111111 3:0.7142857142857143 4:0.014925373134328358 61:1.0 102:1.0 217:1.0 
2826.4680361807496 3:0.7636363636363637 4:0.11727078891257996 58:1.0 102:1.0 215:1.0 
8192.0 2:0.3333333333333333 3:0.9918032786885246 4:0.2601279317697228 57:1.0 119:1.0 215:1.0 
1865.1469273125076 1:0.3333333333333333 2:0.3333333333333333 3:0.7142857142857143 4:0.014925373134328358 61:1.0 181:1.0 215:1.0 
8192.0 2:0.23333333333333334 3:0.8266129032258065 4:0.5287846481876333 61:1.0 119:1.0 215:1.0 
619.4125289983439 1:0.3333333333333333 2:0.13333333333333333 3:0.7142857142857143 4:0.04477611940298507 61:1.0 181:1.0 215:1.0 
243.03612682452356 1:0.3333333333333333 2:0.08888888888888889 3:0.7142857142857143 4:0.04477611940298507 61:1.0 121:1.0 215:1.0 
71.78393102948637 2:0.15555555555555556 3:0.6956521739130435 4:0.09808102345415778 57:1.0 108:1.0 215:1.0 
1896.6046346400724 1:0.3333333333333333 2:0.2222222222222222 3:0.8333333333333334 4:0.03837953091684435 57:1.0 119:1.0 215:1.0 
4736.151539071746 2:0.1 3:0.6578947368421053 4:0.16204690831556504 57:1.0 102:1.0 250:1.0 
847.7418051525407 1:0.3333333333333333 3:0.6666666666666666 4:0.006396588486140725 61:1.0 181:1.0 215:1.0 
21.982569521973588 2:0.022222222222222223 3:0.8135593220338984 4:0.1257995735607676 23:1.0 157:1.0 198:1.0 
584.0060495124277 1:0.3333333333333333 2:0.28888888888888886 3:1.0 4:0.017057569296375266 23:1.0 118:1.0 277:1.0 
2766.790669250371 1:0.3333333333333333 2:0.011111111111111112 3:0.9164265129682997 4:0.7398720682302772 61:1.0 181:1.0 215:1.0 
54.153934691798675 1:0.3333333333333333 2:0.14444444444444443 3:0.9 4:0.29850746268656714 61:1.0 157:1.0 198:1.0 
1714.8621754515464 1:0.3333333333333333 3:0.9477611940298507 4:0.2857142857142857 61:1.0 181:1.0 198:1.0 
231.78195294039014 1:0.3333333333333333 2:0.2222222222222222 3:0.9801980198019802 4:0.21535181236673773 22:1.0 102:1.0 277:1.0 
21.889280824941277 2:0.14444444444444443 3:0.8857142857142857 4:0.07462686567164178 57:1.0 103:1.0 215:1.0 
1.7843949242804504 2:0.4666666666666667 3:0.8135593220338984 4:0.1257995735607676 23:1.0 181:1.0 204:1.0 
4284.081406581277 2:0.2 3:0.5467980295566502 4:0.43283582089552236 57:1.0 102:1.0 249:1.0 
18.334528878244573 1:0.3333333333333333 2:0.2 3:1.0 4:0.0042643923240938165 57:1.0 148:1.0 217:1.0 
8192.0 1:0.3333333333333333 2:0.3111111111111111 3:1.0 4:0.06396588486140725 23:1.0 102:1.0 198:1.0 
16.863469074451842 2:0.18888888888888888 3:0.8135593220338984 4:0.1257995735607676 23:1.0 119:1.0 233:1.0 
8192.0 2:0.2111111111111111 3:0.5467980295566502 4:0.43283582089552236 57:1.0 119:1.0 249:1.0 
0.6774429658361383 1:0.6666666666666666 2:0.34444444444444444 57:1.0 102:1.0 215:1.0 
1.7694683158329345 1:0.3333333333333333 2:0.28888888888888886 3:0.8888888888888888 4:0.019189765458422176 23:1.0 102:1.0 197:1.0 
1078.831587920044 2:0.4222222222222222 3:0.5467980295566502 4:0.43283582089552236 57:1.0 102:1.0 215:1.0 
8192.0 2:0.14444444444444443 3:0.8266129032258065 4:0.5287846481876333 61:1.0 181:1.0 249:1.0 
6180.478423996512 2:0.2111111111111111 3:0.4418604651162791 4:0.5501066098081023 61:1.0 181:1.0 198:1.0 
4160.852146580622 1:0.3333333333333333 2:0.05555555555555555 3:0.9024390243902439 4:0.08742004264392324 23:1.0 119:1.0 198:1.0 
6820.843920584175 1:0.3333333333333333 2:0.2111111111111111 3:0.9024390243902439 4:0.08742004264392324 23:1.0 119:1.0 198:1.0 
798.7770563529781 2:0.3111111111111111 3:0.4444444444444444 4:0.019189765458422176 57:1.0 102:1.0 215:1.0 
190.48379426187518 1:0.3333333333333333 2:0.18888888888888888 3:0.7777777777777778 4:0.019189765458422176 57:1.0 119:1.0 249:1.0 
4.466900317021664 1:0.3333333333333333 2:0.07777777777777778 3:0.8 4:0.053304904051172705 61:1.0 102:1.0 244:1.0 
2407.0041330778095 1:0.3333333333333333 2:0.022222222222222223 3:0.9285714285714286 4:0.05970149253731343 61:1.0 102:1.0 215:1.0 
1611.8435416937898 1:0.3333333333333333 2:0.26666666666666666 3:0.8333333333333334 4:0.03837953091684435 57:1.0 102:1.0 215:1.0 
145.6688380024609 1:0.3333333333333333 2:0.2222222222222222 3:1.0 4:0.0021321961620469083 57:1.0 181:1.0 225:1.0 
4.807637443385862 2:0.28888888888888886 3:0.875 4:0.0511727078891258 23:1.0 129:1.0 233:1.0 
523.8582356934571 1:0.3333333333333333 2:0.4888888888888889 3:0.967741935483871 4:0.13219616204690832 61:1.0 181:1.0 249:1.0 
3279.040949313822 1:0.3333333333333333 2:0.14444444444444443 3:0.967741935483871 4:0.13219616204690832 61:1.0 119:1.0 249:1.0 
4124.230299108768 2:0.18888888888888888 3:0.6578947368421053 4:0.16204690831556504 57:1.0 113:1.0 215:1.0 
8192.0 2:0.14444444444444443 3:0.9530916844349681 4:1.0 61:1.0 102:1.0 250:1.0 
9.640589989699304 1:0.3333333333333333 3:1.0 4:0.0021321961620469083 57:1.0 181:1.0 225:1.0 
88.57060496544565 1:0.3333333333333333 2:0.15555555555555556 3:0.9477611940298507 4:0.2857142857142857 61:1.0 181:1.0 249:1.0 
545.7154567851153 1:0.3333333333333333 2:0.1111111111111111 3:0.5555555555555556 4:0.03837953091684435 61:1.0 119:1.0 215:1.0 
28.044583740775767 1:0.3333333333333333 2:0.6444444444444445 3:0.5555555555555556 4:0.03837953091684435 61:1.0 119:1.0 215:1.0 
21.28110821341723 2:0.08888888888888889 3:0.6578947368421053 4:0.16204690831556504 57:1.0 118:1.0 198:1.0 
673.5199263047981 2:0.15555555555555556 3:0.5467980295566502 4:0.43283582089552236 57:1.0 102:1.0 215:1.0 
8192.0 1:0.3333333333333333 2:0.16666666666666666 3:0.8677248677248677 4:0.40298507462686567 61:1.0 102:1.0 198:1.0 
35.08795030483909 1:0.3333333333333333 2:0.2 3:1.0 4:0.06396588486140725 23:1.0 119:1.0 244:1.0 
2053.3651367849984 1:0.3333333333333333 3:0.7777777777777778 4:0.019189765458422176 57:1.0 181:1.0 249:1.0 
8192.0 1:0.3333333333333333 2:0.23333333333333334 3:1.0 4:0.06396588486140725 23:1.0 102:1.0 244:1.0 
1829.4216348320504 1:0.3333333333333333 2:0.36666666666666664 3:0.87 4:0.21321961620469082 41:1.0 181:1.0 244:1.0 
10.906670897951424 1:0.3333333333333333 2:0.23333333333333334 3:0.7692307692307693 4:0.16631130063965885 61:1.0 101:1.0 215:1.0 
0.007163129641511334 2:0.2111111111111111 3:0.8135593220338984 4:0.1257995735607676 23:1.0 101:1.0 204:1.0 
8192.0 1:0.3333333333333333 3:0.9 4:0.29850746268656714 61:1.0 181:1.0 199:1.0 
8.569067510934328 1:0.3333333333333333 2:0.18888888888888888 3:0.8632478632478633 4:0.24946695095948826 61:1.0 102:1.0 197:1.0 
4576.959954288414 1:0.3333333333333333 2:0.16666666666666666 3:0.9306930693069307 4:0.21535181236673773 61:1.0 102:1.0 215:1.0 
4915.347673581761 1:0.3333333333333333 2:0.18888888888888888 3:1.0 4:0.01279317697228145 23:1.0 157:1.0 197:1.0 
3658.4488495840415 1:0.3333333333333333 2:0.4111111111111111 3:0.6 4:0.010660980810234541 6:1.0 119:1.0 215:1.0 
57.40930673033157 1:0.3333333333333333 3:0.9417808219178082 4:0.6226012793176973 61:1.0 181:1.0 215:1.0 
5153.9695686483465 1:0.3333333333333333 2:0.3333333333333333 3:0.9477611940298507 4:0.2857142857142857 61:1.0 181:1.0 233:1.0 
26.265297141134216 2:0.18888888888888888 3:0.8266129032258065 4:0.5287846481876333 61:1.0 102:1.0 249:1.0 
8192.0 1:0.3333333333333333 2:0.25555555555555554 3:0.4744897959183674 4:0.835820895522388 61:1.0 102:1.0 233:1.0 
5691.13969607498 2:0.16666666666666666 3:0.5467980295566502 4:0.43283582089552236 57:1.0 137:1.0 215:1.0 
8192.0 2:0.18888888888888888 3:0.8266129032258065 4:0.5287846481876333 61:1.0 181:1.0 215:1.0 
33.44567287099956 1:0.3333333333333333 2:0.1 3:0.875 4:0.017057569296375266 23:1.0 129:1.0 198:1.0 
8192.0 1:0.3333333333333333 3:0.9 4:0.29850746268656714 61:1.0 181:1.0 233:1.0 
8192.0 2:0.18888888888888888 3:0.8266129032258065 4:0.5287846481876333 61:1.0 181:1.0 215:1.0 
15.702997671634632 2:0.03333333333333333 3:0.96 4:0.10660980810234541 61:1.0 119:1.0 215:1.0 
8192.0 1:0.3333333333333333 2:0.14444444444444443 3:0.8571428571428571 4:0.05970149253731343 23:1.0 102:1.0 198:1.0 
6895.218315766736 1:0.3333333333333333 2:0.044444444444444446 3:0.8571428571428571 4:0.05970149253731343 23:1.0 102:1.0 198:1.0 
2867.8154136304943 1:0.3333333333333333 2:0.12222222222222222 3:1.0 4:0.06396588486140725 23:1.0 102:1.0 198:1.0 
4772.140611369725 1:0.3333333333333333 2:0.13333333333333333 3:0.9024390243902439 4:0.08742004264392324 23:1.0 102:1.0 198:1.0 
2.143334161240241 2:0.07777777777777778 3:0.96 4:0.10660980810234541 61:1.0 119:1.0 198:1.0 
1020.3456083293582 2:0.32222222222222224 3:0.4418604651162791 4:0.5501066098081023 61:1.0 121:1.0 198:1.0 
6.443284068176218 1:0.3333333333333333 2:0.07777777777777778 3:1.0 4:0.008528784648187633 23:1.0 121:1.0 197:1.0 
1393.3056204386137 1:0.3333333333333333 2:0.2222222222222222 3:0.9007633587786259 4:0.279317697228145 61:1.0 102:1.0 215:1.0 
0.24249960723211234 1:0.3333333333333333 2:0.17777777777777778 3:1.0 4:0.06396588486140725 23:1.0 119:1.0 225:1.0 
59.037574476862794 1:0.3333333333333333 2:0.2222222222222222 3:0.9915254237288136 4:0.2515991471215352 57:1.0 119:1.0 249:1.0 
11.574461844406997 2:0.23333333333333334 3:0.8857142857142857 4:0.07462686567164178 57:1.0 102:1.0 225:1.0 
3068.6267287946885 1:0.3333333333333333 3:0.7777777777777778 4:0.019189765458422176 57:1.0 181:1.0 215:1.0 
3479.4154006334975 2:0.12222222222222222 3:0.6578947368421053 4:0.16204690831556504 57:1.0 119:1.0 215:1.0 
8192.0 1:0.3333333333333333 2:0.23333333333333334 3:0.9007633587786259 4:0.279317697228145 61:1.0 102:1.0 249:1.0 
476.7429735905159 1:0.3333333333333333 3:0.8181818181818182 4:0.09381663113006397 61:1.0 181:1.0 215:1.0 
23.826469743680768 1:0.3333333333333333 2:0.12222222222222222 3:0.9306930693069307 4:0.21535181236673773 61:1.0 101:1.0 233:1.0 
12.871576025578577 1:0.3333333333333333 2:0.08888888888888889 3:1.0 4:0.006396588486140725 57:1.0 102:1.0 249:1.0 
868.5536791697172 1:0.3333333333333333 2:0.05555555555555555 3:1.0 4:0.03624733475479744 23:1.0 102:1.0 215:1.0 
0.39346100776955156 1:0.3333333333333333 2:0.03333333333333333 3:0.9801980198019802 4:0.21535181236673773 22:1.0 119:1.0 198:1.0 
13.05582700016664 1:0.3333333333333333 2:0.23333333333333334 3:1.0 4:0.06396588486140725 23:1.0 137:1.0 197:1.0 
6439.584482504049 2:0.2111111111111111 3:0.8266129032258065 4:0.5287846481876333 61:1.0 181:1.0 215:1.0 
2.9527253958454027 1:0.3333333333333333 2:0.044444444444444446 3:0.9801980198019802 4:0.21535181236673773 22:1.0 102:1.0 199:1.0 
16.621569264988118 1:0.3333333333333333 2:0.2 3:0.9306930693069307 4:0.21535181236673773 61:1.0 102:1.0 199:1.0 
30.347538118860477 2:0.4 3:0.6578947368421053 4:0.16204690831556504 57:1.0 137:1.0 198:1.0 
176.01370594779974 2:0.011111111111111112 3:0.4418604651162791 4:0.5501066098081023 61:1.0 181:1.0 211:1.0 
42.997078092788456 2:0.43333333333333335 3:0.5467980295566502 4:0.43283582089552236 57:1.0 102:1.0 198:1.0 
8190.12145411637 1:0.3333333333333333 3:0.9164265129682997 4:0.7398720682302772 61:1.0 181:1.0 217:1.0 
1372.104787076283 2:0.3111111111111111 3:0.4418604651162791 4:0.5501066098081023 61:1.0 181:1.0 198:1.0 
8192.0 2:0.2 3:0.4418604651162791 4:0.5501066098081023 61:1.0 181:1.0 198:1.0 
3934.8258538841046 1:0.3333333333333333 2:0.36666666666666664 3:1.0 4:0.06396588486140725 23:1.0 102:1.0 244:1.0 
8192.0 2:0.12222222222222222 3:0.9530916844349681 4:1.0 61:1.0 102:1.0 249:1.0 
15.21235376387104 1:0.3333333333333333 2:0.022222222222222223 3:1.0 4:0.03624733475479744 23:1.0 102:1.0 233:1.0 
8192.0 2:0.23333333333333334 3:0.4418604651162791 4:0.5501066098081023 61:1.0 102:1.0 215:1.0 
975.8521936218854 2:0.4777777777777778 3:0.4418604651162791 4:0.5501066098081023 61:1.0 102:1.0 215:1.0 
293.899126581592 1:0.3333333333333333 2:0.32222222222222224 3:0.4744897959183674 4:0.835820895522388 61:1.0 119:1.0 198:1.0 
460.54296519619726 2:0.4888888888888889 3:0.9530916844349681 4:1.0 61:1.0 102:1.0 198:1.0 
3.1347098269615223 1:0.3333333333333333 2:0.5555555555555556 3:0.8888888888888888 4:0.019189765458422176 23:1.0 119:1.0 204:1.0 
3.189375070116263 3:0.9530916844349681 4:1.0 61:1.0 181:1.0 217:1.0 
7219.648179822648 1:0.3333333333333333 2:0.06666666666666667 3:0.5 4:0.0042643923240938165 22:1.0 102:1.0 215:1.0 
8192.0 1:0.3333333333333333 2:0.2 3:0.8677248677248677 4:0.40298507462686567 61:1.0 119:1.0 215:1.0 
21.711765125648988 2:0.011111111111111112 3:0.5467980295566502 4:0.43283582089552236 57:1.0 137:1.0 215:1.0 
6.67666914678197 1:0.3333333333333333 2:0.022222222222222223 3:0.8571428571428571 4:0.04477611940298507 23:1.0 153:1.0 217:1.0 
5908.27201569626 1:0.3333333333333333 2:0.16666666666666666 3:0.6666666666666666 4:0.0767590618336887 57:1.0 101:1.0 215:1.0 
4848.70619645924 1:0.3333333333333333 3:0.8181818181818182 4:0.09381663113006397 61:1.0 181:1.0 215:1.0 
8192.0 1:0.3333333333333333 3:0.8181818181818182 4:0.09381663113006397 61:1.0 181:1.0 233:1.0 
950.4955275328251 1:0.3333333333333333 2:0.12222222222222222 3:0.4744897959183674 4:0.835820895522388 61:1.0 102:1.0 233:1.0 
29.137286634426687 1:0.3333333333333333 2:0.6111111111111112 3:0.9007633587786259 4:0.279317697228145 61:1.0 102:1.0 250:1.0 
6625.001609155383 2:0.2 3:0.5467980295566502 4:0.43283582089552236 57:1.0 102:1.0 249:1.0 
8192.0 2:0.2777777777777778 3:0.8266129032258065 4:0.5287846481876333 61:1.0 119:1.0 215:1.0 
0.006545956009350189 1:0.3333333333333333 2:0.08888888888888889 3:0.9007633587786259 4:0.279317697228145 61:1.0 102:1.0 225:1.0 
10.219598474152662 2:0.18888888888888888 3:0.6578947368421053 4:0.16204690831556504 57:1.0 181:1.0 215:1.0 
8192.0 1:0.3333333333333333 2:0.07777777777777778 3:0.9306930693069307 4:0.21535181236673773 61:1.0 102:1.0 215:1.0 
0.9922809367876415 2:0.5444444444444444 3:0.7636363636363637 4:0.11727078891257996 58:1.0 181:1.0 215:1.0 
8192.0 1:0.3333333333333333 3:0.9 4:0.29850746268656714 61:1.0 181:1.0 198:1.0 
8192.0 2:0.2 3:0.8857142857142857 4:0.07462686567164178 57:1.0 102:1.0 215:1.0 
8192.0 1:0.3333333333333333 3:0.9 4:0.29850746268656714 61:1.0 181:1.0 211:1.0 
530.0931267407067 1:0.3333333333333333 2:0.32222222222222224 3:1.0 4:0.06396588486140725 23:1.0 153:1.0 197:1.0 
8114.211117844403 2:0.13333333333333333 3:0.8857142857142857 4:0.07462686567164178 57:1.0 118:1.0 249:1.0 
8192.0 1:0.3333333333333333 2:0.1111111111111111 3:0.9801980198019802 4:0.21535181236673773 22:1.0 119:1.0 249:1.0 
90.6112516700939 1:0.3333333333333333 3:0.4744897959183674 4:0.835820895522388 61:1.0 181:1.0 233:1.0 
41.225015530055316 1:0.3333333333333333 2:0.07777777777777778 3:1.0 23:1.0 119:1.0 233:1.0 
8151.804050048656 1:0.3333333333333333 2:0.044444444444444446 3:0.8571428571428571 4:0.04477611940298507 23:1.0 119:1.0 233:1.0 
1107.7086700624648 1:0.3333333333333333 2:0.05555555555555555 3:0.875 4:0.06823027718550106 23:1.0 119:1.0 215:1.0 
59.457857481777836 1:0.3333333333333333 2:0.06666666666666667 3:0.4744897959183674 4:0.835820895522388 61:1.0 181:1.0 211:1.0 
8192.0 1:0.3333333333333333 2:0.14444444444444443 3:0.4744897959183674 4:0.835820895522388 61:1.0 181:1.0 233:1.0 
8160.464221763466 1:0.3333333333333333 3:0.4744897959183674 4:0.835820895522388 61:1.0 181:1.0 211:1.0 
8192.0 1:0.3333333333333333 2:0.07777777777777778 3:0.4744897959183674 4:0.835820895522388 61:1.0 181:1.0 233:1.0 
8192.0 1:0.3333333333333333 2:0.12222222222222222 3:0.9007633587786259 4:0.279317697228145 61:1.0 102:1.0 198:1.0 
11.843874938671092 2:0.5666666666666667 3:0.8857142857142857 4:0.07462686567164178 57:1.0 115:1.0 215:1.0 
288.52067997930465 1:0.3333333333333333 2:0.16666666666666666 3:0.8571428571428571 4:0.05970149253731343 23:1.0 118:1.0 198:1.0 
8192.0 1:0.3333333333333333 2:0.2222222222222222 3:0.7777777777777778 4:0.019189765458422176 57:1.0 102:1.0 215:1.0 
8192.0 1:0.3333333333333333 3:1.0 4:0.010660980810234541 57:1.0 181:1.0 215:1.0 
197.98011949573407 1:0.3333333333333333 2:0.4888888888888889 3:0.967741935483871 4:0.13219616204690832 61:1.0 119:1.0 215:1.0 
25.927006104405304 1:0.3333333333333333 2:0.2 3:0.6 4:0.021321961620469083 61:1.0 102:1.0 198:1.0 
1104.7604721917683 2:0.4666666666666667 3:0.9918032786885246 4:0.2601279317697228 57:1.0 157:1.0 249:1.0 
47.225833956224804 1:0.3333333333333333 2:0.1111111111111111 3:1.0 4:0.0021321961620469083 19:1.0 119:1.0 198:1.0 
8192.0 2:0.5 3:0.5467980295566502 4:0.43283582089552236 57:1.0 102:1.0 215:1.0 
8192.0 2:0.1111111111111111 3:0.5467980295566502 4:0.43283582089552236 57:1.0 102:1.0 215:1.0 
8192.0 2:0.12222222222222222 3:0.5467980295566502 4:0.43283582089552236 57:1.0 101:1.0 249:1.0 
8192.0 1:0.3333333333333333 3:0.4744897959183674 4:0.835820895522388 61:1.0 181:1.0 233:1.0 
11.708383510650016 1:0.3333333333333333 2:0.2 3:1.0 4:0.006396588486140725 57:1.0 181:1.0 249:1.0 
1.317137467036812 2:0.4222222222222222 3:0.8266129032258065 4:0.5287846481876333 61:1.0 137:1.0 215:1.0 
17.550184228328852 1:0.3333333333333333 2:0.06666666666666667 3:0.7692307692307693 4:0.16631130063965885 61:1.0 103:1.0 215:1.0 
3318.2930462884324 2:0.1 3:1.0 4:0.11300639658848614 57:1.0 119:1.0 244:1.0 
8192.0 2:0.14444444444444443 3:0.9530916844349681 4:1.0 61:1.0 119:1.0 215:1.0 
11.259321284279377 1:0.3333333333333333 2:0.17777777777777778 3:0.9411764705882353 4:0.03624733475479744 23:1.0 121:1.0 233:1.0 
1.7491258315930414 2:0.13333333333333333 3:0.6578947368421053 4:0.16204690831556504 57:1.0 181:1.0 250:1.0 
7.8406649218536195 3:0.875 4:0.0511727078891258 23:1.0 181:1.0 249:1.0 
7326.308735259319 2:0.05555555555555555 3:0.9530916844349681 4:1.0 61:1.0 119:1.0 215:1.0 
591.4663890639591 2:0.3333333333333333 3:0.875 4:0.0511727078891258 23:1.0 102:1.0 233:1.0 
5.601289206202708 1:0.3333333333333333 2:0.15555555555555556 3:0.5416666666666666 4:0.0511727078891258 61:1.0 129:1.0 233:1.0 
0.9664294476366471 2:0.28888888888888886 3:0.6578947368421053 4:0.16204690831556504 57:1.0 102:1.0 198:1.0 
1271.038532638409 2:0.4222222222222222 3:0.5467980295566502 4:0.43283582089552236 57:1.0 102:1.0 215:1.0 
8192.0 1:0.3333333333333333 2:0.022222222222222223 3:0.4744897959183674 4:0.835820895522388 61:1.0 102:1.0 198:1.0 
514.9125299309333 1:0.3333333333333333 2:0.13333333333333333 3:0.9477611940298507 4:0.2857142857142857 61:1.0 181:1.0 233:1.0 
5490.441460353772 1:0.3333333333333333 2:0.13333333333333333 3:0.7692307692307693 4:0.16631130063965885 61:1.0 102:1.0 215:1.0 
2.0838812217176947 2:0.3888888888888889 3:0.9918032786885246 4:0.2601279317697228 57:1.0 137:1.0 226:1.0 
8192.0 1:0.3333333333333333 3:0.4744897959183674 4:0.835820895522388 61:1.0 181:1.0 233:1.0 
61.56964317823157 1:0.3333333333333333 2:0.4777777777777778 3:1.0 6:1.0 181:1.0 249:1.0 
8192.0 2:0.06666666666666667 3:0.9530916844349681 4:1.0 61:1.0 129:1.0 233:1.0 
2.5065964587268335 2:0.5444444444444444 3:0.9918032786885246 4:0.2601279317697228 57:1.0 148:1.0 215:1.0 
8187.17039939339 2:0.3333333333333333 3:0.9918032786885246 4:0.2601279317697228 57:1.0 148:1.0 215:1.0 
8192.0 1:0.3333333333333333 3:0.9024390243902439 4:0.08742004264392324 23:1.0 181:1.0 198:1.0 
8192.0 2:0.23333333333333334 3:0.9918032786885246 4:0.2601279317697228 57:1.0 102:1.0 249:1.0 
0.26653965665301277 2:0.05555555555555555 3:0.9032258064516129 4:0.13219616204690832 23:1.0 102:1.0 225:1.0 
39.63210325193814 2:0.05555555555555555 3:0.7636363636363637 4:0.11727078891257996 58:1.0 181:1.0 225:1.0 
3229.462235785805 2:0.08888888888888889 3:0.9918032786885246 4:0.2601279317697228 57:1.0 102:1.0 249:1.0 
8.838543540640279 1:0.3333333333333333 2:0.17777777777777778 3:0.8 4:0.010660980810234541 57:1.0 103:1.0 215:1.0 
538.5411383317473 1:0.3333333333333333 2:0.13333333333333333 3:1.0 4:0.01279317697228145 23:1.0 102:1.0 197:1.0 
1759.136959423871 2:0.14444444444444443 3:0.6956521739130435 4:0.09808102345415778 57:1.0 157:1.0 215:1.0 
12.335638161977622 1:0.3333333333333333 2:0.6666666666666666 3:0.9801980198019802 4:0.21535181236673773 22:1.0 121:1.0 249:1.0 
8078.852450063628 1:0.3333333333333333 2:0.1111111111111111 3:0.87 4:0.21321961620469082 41:1.0 119:1.0 244:1.0 
4561.272413889516 1:0.3333333333333333 2:0.07777777777777778 3:0.8429752066115702 4:0.2579957356076759 61:1.0 102:1.0 249:1.0 
589.8444395680325 1:0.3333333333333333 2:0.45555555555555555 3:0.87 4:0.21321961620469082 41:1.0 181:1.0 215:1.0 
7957.479556922923 1:0.3333333333333333 2:0.13333333333333333 3:0.9417808219178082 4:0.6226012793176973 61:1.0 102:1.0 215:1.0 
6162.663649595992 2:0.17777777777777778 3:0.5467980295566502 4:0.43283582089552236 57:1.0 177:1.0 215:1.0 
4657.163429385329 1:0.3333333333333333 2:0.1111111111111111 3:0.9417808219178082 4:0.6226012793176973 61:1.0 119:1.0 233:1.0 
32.68598649034911 1:0.3333333333333333 2:0.14444444444444443 3:1.0 4:0.0021321961620469083 57:1.0 137:1.0 215:1.0 
567.7510067714956 1:0.3333333333333333 2:0.2222222222222222 3:0.7692307692307693 4:0.16631130063965885 61:1.0 119:1.0 215:1.0 
9.852074468339945 1:0.3333333333333333 2:0.12222222222222222 3:1.0 4:0.0021321961620469083 23:1.0 129:1.0 215:1.0 
3499.579048503299 2:0.2111111111111111 3:0.6578947368421053 4:0.16204690831556504 57:1.0 119:1.0 215:1.0 
10.865714689899118 1:0.3333333333333333 2:0.12222222222222222 3:0.9417808219178082 4:0.6226012793176973 61:1.0 102:1.0 225:1.0 
2.950691261198398 1:0.3333333333333333 2:0.2 3:1.0 19:1.0 103:1.0 249:1.0 
5065.591433286006 2:0.1 3:0.5467980295566502 4:0.43283582089552236 57:1.0 102:1.0 215:1.0 
8190.294130214768 1:0.3333333333333333 2:0.044444444444444446 3:0.9801980198019802 4:0.21535181236673773 22:1.0 102:1.0 244:1.0 
2658.4161668922347 2:0.1111111111111111 3:0.5467980295566502 4:0.43283582089552236 57:1.0 103:1.0 215:1.0 
75.42443621068882 1:0.3333333333333333 2:0.45555555555555555 3:0.8888888888888888 4:0.019189765458422176 23:1.0 102:1.0 233:1.0 
4678.2776456865895 1:0.3333333333333333 2:0.022222222222222223 3:0.8677248677248677 4:0.40298507462686567 61:1.0 102:1.0 215:1.0 
2.9047930030171702 1:0.3333333333333333 2:0.2222222222222222 3:0.9164265129682997 4:0.7398720682302772 61:1.0 121:1.0 215:1.0 
2218.63739661203 2:0.26666666666666666 3:0.6578947368421053 4:0.16204690831556504 57:1.0 103:1.0 215:1.0 
391.51656207920007 2:0.05555555555555555 3:0.6956521739130435 4:0.09808102345415778 57:1.0 102:1.0 215:1.0 
909.0380780930735 1:0.3333333333333333 2:0.3 3:1.0 4:0.01279317697228145 23:1.0 153:1.0 197:1.0 
8192.0 1:0.3333333333333333 2:0.28888888888888886 3:0.8677248677248677 4:0.40298507462686567 61:1.0 119:1.0 215:1.0 
8192.0 1:0.3333333333333333 2:0.1111111111111111 3:0.9444444444444444 4:0.03837953091684435 22:1.0 119:1.0 249:1.0 
1488.6386476023627 2:0.2222222222222222 3:0.9918032786885246 4:0.2601279317697228 57:1.0 102:1.0 249:1.0 
7590.772423088556 1:0.3333333333333333 2:0.17777777777777778 3:0.9444444444444444 4:0.03837953091684435 22:1.0 119:1.0 249:1.0 
7382.330817506272 2:0.2111111111111111 3:0.5467980295566502 4:0.43283582089552236 57:1.0 102:1.0 215:1.0 
10.712464161785828 1:0.3333333333333333 3:0.8571428571428571 4:0.05970149253731343 23:1.0 181:1.0 197:1.0 
8192.0 1:0.3333333333333333 2:0.044444444444444446 3:0.4744897959183674 4:0.835820895522388 61:1.0 102:1.0 215:1.0 
8192.0 1:0.3333333333333333 2:0.08888888888888889 3:0.8677248677248677 4:0.40298507462686567 61:1.0 102:1.0 215:1.0 
3.6073855391169385 1:0.3333333333333333 2:0.3111111111111111 3:1.0 4:0.006396588486140725 57:1.0 102:1.0 249:1.0 
3938.267088347024 1:0.3333333333333333 3:0.5555555555555556 4:0.03837953091684435 61:1.0 181:1.0 215:1.0 
2208.4990715052463 2:0.15555555555555556 3:0.5467980295566502 4:0.43283582089552236 57:1.0 102:1.0 215:1.0 
359.1001106692334 1:0.3333333333333333 2:0.18888888888888888 3:0.9411764705882353 4:0.03624733475479744 23:1.0 119:1.0 197:1.0 
8192.0 1:0.3333333333333333 2:0.2111111111111111 3:0.9007633587786259 4:0.279317697228145 61:1.0 103:1.0 233:1.0 
206.38807404225923 1:0.3333333333333333 2:0.4222222222222222 3:0.9007633587786259 4:0.279317697228145 61:1.0 103:1.0 233:1.0 
8192.0 1:0.3333333333333333 2:0.1 3:0.8632478632478633 4:0.24946695095948826 61:1.0 102:1.0 198:1.0 
635.8572770418009 1:0.3333333333333333 2:0.07777777777777778 3:0.9801980198019802 4:0.21535181236673773 22:1.0 119:1.0 215:1.0 
13.343994864890615 1:0.3333333333333333 2:0.25555555555555554 3:0.75 4:0.008528784648187633 23:1.0 102:1.0 250:1.0 
31.537188586538303 1:0.3333333333333333 2:0.1111111111111111 3:0.7777777777777778 4:0.019189765458422176 57:1.0 102:1.0 215:1.0 
3384.17145619996 1:0.3333333333333333 2:0.3333333333333333 3:1.0 4:0.0021321961620469083 23:1.0 153:1.0 198:1.0 
823.9785701783894 1:0.3333333333333333 3:0.75 4:0.017057569296375266 61:1.0 181:1.0 250:1.0 
13.088958044155826 1:0.3333333333333333 2:0.15555555555555556 3:0.7692307692307693 4:0.02771855010660981 61:1.0 129:1.0 249:1.0 
129.69003654669385 1:0.3333333333333333 2:0.1111111111111111 3:0.7777777777777778 4:0.019189765458422176 57:1.0 102:1.0 215:1.0 
8192.0 1:0.3333333333333333 2:0.2 3:0.9477611940298507 4:0.2857142857142857 61:1.0 181:1.0 198:1.0 
3556.627876352948 1:0.3333333333333333 2:0.3888888888888889 3:1.0 4:0.06396588486140725 23:1.0 102:1.0 197:1.0 
5.074556931013001 2:0.14444444444444443 3:0.5467980295566502 4:0.43283582089552236 57:1.0 103:1.0 215:1.0 
0.5241061384648327 1:0.3333333333333333 3:1.0 4:0.0042643923240938165 58:1.0 181:1.0 215:1.0 
121.28959749184617 1:0.3333333333333333 2:0.36666666666666664 3:0.8571428571428571 4:0.05970149253731343 23:1.0 102:1.0 244:1.0 
8192.0 1:0.3333333333333333 2:0.2777777777777778 3:0.9007633587786259 4:0.279317697228145 61:1.0 102:1.0 198:1.0 
2.430131624845076 2:0.4111111111111111 3:0.9918032786885246 4:0.2601279317697228 57:1.0 153:1.0 250:1.0 
8192.0 1:0.3333333333333333 2:0.2777777777777778 3:0.9007633587786259 4:0.279317697228145 61:1.0 102:1.0 198:1.0 
96.55366282503226 1:0.3333333333333333 3:0.8429752066115702 4:0.2579957356076759 61:1.0 181:1.0 225:1.0 
1545.7914698440204 1:0.3333333333333333 2:0.4 3:0.9 4:0.29850746268656714 61:1.0 119:1.0 215:1.0 
825.9544988123489 2:0.4666666666666667 3:0.8266129032258065 4:0.5287846481876333 61:1.0 102:1.0 215:1.0 
8192.0 2:0.16666666666666666 3:0.8266129032258065 4:0.5287846481876333 61:1.0 102:1.0 215:1.0 
1235.1905159754142 2:0.37777777777777777 3:0.6578947368421053 4:0.16204690831556504 57:1.0 102:1.0 250:1.0 
10.3387358058728 1:0.3333333333333333 2:0.45555555555555555 3:0.9915254237288136 4:0.2515991471215352 57:1.0 181:1.0 250:1.0 
8192.0 2:0.1 3:0.8266129032258065 4:0.5287846481876333 61:1.0 102:1.0 215:1.0 
2051.0402908129786 1:0.3333333333333333 2:0.06666666666666667 3:0.5416666666666666 4:0.0511727078891258 61:1.0 102:1.0 249:1.0 
2747.6520062711916 2:0.13333333333333333 3:0.9918032786885246 4:0.2601279317697228 57:1.0 119:1.0 215:1.0 
0.27642524640787064 1:0.3333333333333333 2:0.13333333333333333 3:0.8 4:0.053304904051172705 61:1.0 119:1.0 199:1.0 
8192.0 1:0.3333333333333333 3:0.9 4:0.29850746268656714 61:1.0 181:1.0 198:1.0 
8190.293579203818 1:0.3333333333333333 2:0.011111111111111112 3:0.3953488372093023 4:0.09168443496801706 58:1.0 157:1.0 199:1.0 
2.062106469824065 1:0.3333333333333333 2:0.2222222222222222 3:0.8676470588235294 4:0.2899786780383795 58:1.0 157:1.0 215:1.0 
1853.8969450009668 1:0.3333333333333333 2:0.3 3:1.0 4:0.0021321961620469083 19:1.0 181:1.0 199:1.0 
8192.0 1:0.3333333333333333 2:0.05555555555555555 3:0.4744897959183674 4:0.835820895522388 61:1.0 153:1.0 233:1.0 
8192.0 1:0.3333333333333333 2:0.3111111111111111 3:0.9285714285714286 4:0.05970149253731343 61:1.0 102:1.0 215:1.0 
69.92731971047074 1:0.3333333333333333 2:0.06666666666666667 3:1.0 19:1.0 102:1.0 250:1.0 
19.766209212731102 1:0.3333333333333333 2:0.1111111111111111 3:1.0 23:1.0 154:1.0 250:1.0 
1045.898401099988 2:0.18888888888888888 3:0.5467980295566502 4:0.43283582089552236 57:1.0 121:1.0 250:1.0 
35.00874501546389 2:0.03333333333333333 3:0.6578947368421053 4:0.16204690831556504 57:1.0 129:1.0 215:1.0 
1568.1600953436348 3:0.8266129032258065 4:0.5287846481876333 61:1.0 181:1.0 215:1.0 
449.95072683103524 1:0.3333333333333333 2:0.2222222222222222 3:0.9306930693069307 4:0.21535181236673773 61:1.0 119:1.0 233:1.0 
8192.0 1:0.3333333333333333 3:0.4744897959183674 4:0.835820895522388 61:1.0 181:1.0 233:1.0 
3130.7546066818113 1:0.3333333333333333 2:0.08888888888888889 3:0.8632478632478633 4:0.24946695095948826 61:1.0 119:1.0 198:1.0 
3.0287174314035816 1:0.3333333333333333 3:0.9 4:0.29850746268656714 61:1.0 181:1.0 230:1.0 
7578.020241462353 1:0.3333333333333333 2:0.14444444444444443 3:0.8429752066115702 4:0.2579957356076759 61:1.0 119:1.0 198:1.0 
8192.0 1:0.3333333333333333 2:0.08888888888888889 3:1.0 4:0.06396588486140725 23:1.0 119:1.0 198:1.0 
38.35205063962887 1:0.3333333333333333 2:0.16666666666666666 3:0.9306930693069307 4:0.21535181236673773 61:1.0 181:1.0 244:1.0 
8172.670262020261 1:0.3333333333333333 3:0.4744897959183674 4:0.835820895522388 61:1.0 181:1.0 211:1.0 
8192.0 1:0.3333333333333333 3:0.9 4:0.29850746268656714 61:1.0 181:1.0 198:1.0 
3205.561254840113 2:0.2111111111111111 3:0.6578947368421053 4:0.16204690831556504 57:1.0 102:1.0 250:1.0 
8191.399264314196 1:0.3333333333333333 3:0.3953488372093023 4:0.09168443496801706 58:1.0 181:1.0 215:1.0 
1.5809646197332534 3:0.4418604651162791 4:0.5501066098081023 61:1.0 181:1.0 197:1.0 
1.148058272917092 1:0.3333333333333333 2:0.03333333333333333 3:1.0 4:0.0021321961620469083 22:1.0 150:1.0 249:1.0 
8192.0 2:0.23333333333333334 3:0.9530916844349681 4:1.0 61:1.0 181:1.0 198:1.0 
249.0351140933211 2:0.08888888888888889 3:0.9530916844349681 4:1.0 61:1.0 148:1.0 198:1.0 
18.970893841747163 1:0.3333333333333333 2:0.1111111111111111 3:1.0 4:0.0042643923240938165 57:1.0 129:1.0 215:1.0 
8192.0 1:0.3333333333333333 3:0.9 4:0.29850746268656714 61:1.0 181:1.0 233:1.0 
8191.659964997986 1:0.3333333333333333 2:0.03333333333333333 3:0.9 4:0.29850746268656714 61:1.0 119:1.0 244:1.0 
2776.6812223010816 1:0.3333333333333333 2:0.4444444444444444 3:0.8 4:0.010660980810234541 19:1.0 119:1.0 198:1.0 
6268.503052889937 1:0.3333333333333333 2:0.022222222222222223 3:0.8 4:0.010660980810234541 19:1.0 119:1.0 198:1.0 
8192.0 2:0.13333333333333333 3:0.9032258064516129 4:0.13219616204690832 23:1.0 102:1.0 198:1.0 
3.7186925898343963 1:0.6666666666666666 2:0.022222222222222223 3:1.0 4:0.0021321961620469083 61:1.0 121:1.0 215:1.0 
8192.0 1:0.3333333333333333 2:0.1111111111111111 3:0.8676470588235294 4:0.2899786780383795 58:1.0 119:1.0 215:1.0 
271.54805046890704 1:0.3333333333333333 2:0.6333333333333333 3:1.0 4:0.06396588486140725 23:1.0 181:1.0 244:1.0 
17.50091033683288 2:0.35555555555555557 3:0.6956521739130435 4:0.09808102345415778 57:1.0 115:1.0 250:1.0 
5.737487547703497 2:0.044444444444444446 3:0.6578947368421053 4:0.16204690831556504 57:1.0 115:1.0 250:1.0 
8192.0 1:0.3333333333333333 2:0.06666666666666667 3:0.9007633587786259 4:0.279317697228145 61:1.0 102:1.0 204:1.0 
12.400921653013372 2:0.12222222222222222 3:0.8484848484848485 4:0.07036247334754797 58:1.0 101:1.0 233:1.0 
5066.727964515029 1:0.3333333333333333 2:0.13333333333333333 3:0.8632478632478633 4:0.24946695095948826 61:1.0 181:1.0 215:1.0 
8192.0 2:0.2222222222222222 3:0.6578947368421053 4:0.16204690831556504 57:1.0 118:1.0 215:1.0 
563.6400916826548 1:0.3333333333333333 2:0.06666666666666667 3:0.9477611940298507 4:0.2857142857142857 61:1.0 181:1.0 250:1.0 
65.67434701403883 1:0.3333333333333333 2:0.2222222222222222 3:1.0 4:0.006396588486140725 23:1.0 115:1.0 249:1.0 
6.094023309331014 1:0.3333333333333333 2:0.2111111111111111 3:1.0 4:0.0042643923240938165 33:1.0 102:1.0 197:1.0 
8192.0 2:0.28888888888888886 3:0.8857142857142857 4:0.07462686567164178 57:1.0 181:1.0 215:1.0 
2.0242479006568663 1:0.3333333333333333 2:0.06666666666666667 3:0.6666666666666666 4:0.006396588486140725 57:1.0 148:1.0 215:1.0 
7340.978187750524 2:0.15555555555555556 3:0.4418604651162791 4:0.5501066098081023 61:1.0 181:1.0 233:1.0 
2207.487082588007 1:0.3333333333333333 2:0.3111111111111111 3:1.0 4:0.03624733475479744 23:1.0 119:1.0 215:1.0 
8192.0 1:0.3333333333333333 3:0.8 4:0.053304904051172705 61:1.0 181:1.0 215:1.0 
13.972623822892665 1:0.3333333333333333 2:0.34444444444444444 3:0.9007633587786259 4:0.279317697228145 61:1.0 102:1.0 214:1.0 
8192.0 2:0.13333333333333333 3:0.8266129032258065 4:0.5287846481876333 61:1.0 181:1.0 249:1.0 
22.502772884284973 1:0.3333333333333333 2:0.23333333333333334 3:0.8260869565217391 4:0.04904051172707889 61:1.0 108:1.0 233:1.0 
5.58286669332805 1:0.3333333333333333 2:0.24444444444444444 3:1.0 4:0.0042643923240938165 57:1.0 102:1.0 215:1.0 
5471.494377761818 2:0.24444444444444444 3:0.6578947368421053 4:0.16204690831556504 57:1.0 137:1.0 215:1.0 
3.0181724245443267 1:0.3333333333333333 2:0.011111111111111112 3:0.7142857142857143 4:0.014925373134328358 61:1.0 137:1.0 249:1.0 
8192.0 1:0.3333333333333333 2:0.18888888888888888 3:0.8888888888888888 4:0.019189765458422176 23:1.0 102:1.0 215:1.0 
2.3588434569049466 1:0.3333333333333333 2:0.14444444444444443 3:0.9007633587786259 4:0.279317697228145 61:1.0 181:1.0 199:1.0 
4.842578345770239 1:0.3333333333333333 3:0.5714285714285714 4:0.014925373134328358 58:1.0 181:1.0 204:1.0 
7837.835775572425 1:0.3333333333333333 2:0.4444444444444444 3:0.9915254237288136 4:0.2515991471215352 57:1.0 181:1.0 215:1.0 
8.50082534266939 1:0.3333333333333333 2:0.4666666666666667 3:1.0 4:0.06396588486140725 23:1.0 153:1.0 198:1.0 
8167.36149764605 2:0.06666666666666667 3:0.8135593220338984 4:0.1257995735607676 23:1.0 119:1.0 225:1.0 
62.41816367299293 1:0.3333333333333333 2:0.3333333333333333 3:0.87 4:0.21321961620469082 41:1.0 102:1.0 215:1.0 
7.370636740352131 1:0.3333333333333333 3:0.9417808219178082 4:0.6226012793176973 61:1.0 181:1.0 217:1.0 
32.36377749470935 1:0.3333333333333333 2:0.25555555555555554 3:0.7692307692307693 4:0.16631130063965885 61:1.0 101:1.0 277:1.0 
139.80175316490147 2:0.35555555555555557 3:0.6578947368421053 4:0.16204690831556504 57:1.0 102:1.0 249:1.0 
13.446223134762743 2:0.4 3:0.4418604651162791 4:0.5501066098081023 61:1.0 101:1.0 215:1.0 
2066.791772514053 2:0.2111111111111111 3:0.6578947368421053 4:0.16204690831556504 57:1.0 118:1.0 215:1.0 
42.15116097835165 2:0.12222222222222222 3:0.4418604651162791 4:0.5501066098081023 61:1.0 101:1.0 215:1.0 
3802.4446651422704 2:0.35555555555555557 3:0.6578947368421053 4:0.16204690831556504 57:1.0 137:1.0 215:1.0 
979.2280671369707 1:0.3333333333333333 2:0.2222222222222222 3:1.0 4:0.0042643923240938165 57:1.0 102:1.0 215:1.0 
20.49770964273264 1:0.3333333333333333 3:0.8571428571428571 4:0.05970149253731343 23:1.0 181:1.0 244:1.0 
44.8636851415486 2:0.2 3:0.8135593220338984 4:0.1257995735607676 23:1.0 102:1.0 198:1.0 
8192.0 1:0.3333333333333333 3:0.4744897959183674 4:0.835820895522388 61:1.0 181:1.0 198:1.0 
42.67701261063434 1:0.3333333333333333 2:0.32222222222222224 3:0.8429752066115702 4:0.2579957356076759 61:1.0 108:1.0 233:1.0 
4423.089067303761 1:0.3333333333333333 2:0.2 3:0.9477611940298507 4:0.2857142857142857 61:1.0 181:1.0 215:1.0 
8192.0 1:0.3333333333333333 3:0.4744897959183674 4:0.835820895522388 61:1.0 181:1.0 233:1.0 
1287.3105296656156 2:0.43333333333333335 3:0.8266129032258065 4:0.5287846481876333 61:1.0 181:1.0 215:1.0 
188.14226064124523 3:0.8266129032258065 4:0.5287846481876333 61:1.0 181:1.0 250:1.0 
8192.0 2:0.2222222222222222 3:0.8266129032258065 4:0.5287846481876333 61:1.0 102:1.0 215:1.0 
3333.6865880920177 2:0.08888888888888889 3:0.5467980295566502 4:0.43283582089552236 57:1.0 119:1.0 215:1.0 
42.59734790409965 1:0.3333333333333333 2:0.08888888888888889 3:1.0 4:0.0021321961620469083 22:1.0 119:1.0 244:1.0 
122.74421841747268 2:0.2777777777777778 3:0.875 4:0.0511727078891258 23:1.0 119:1.0 199:1.0 
3876.5942903807368 2:0.4444444444444444 3:0.5467980295566502 4:0.43283582089552236 57:1.0 102:1.0 249:1.0 
1210.2419123394047 2:0.25555555555555554 3:0.8135593220338984 4:0.1257995735607676 23:1.0 119:1.0 215:1.0 
444.2220803306047 1:0.3333333333333333 2:0.2222222222222222 3:0.5384615384615384 4:0.02771855010660981 61:1.0 181:1.0 215:1.0 
0.821569931264166 1:0.3333333333333333 2:0.2222222222222222 3:1.0 57:1.0 121:1.0 225:1.0 
16.62683763331429 1:0.3333333333333333 2:0.1111111111111111 3:0.5416666666666666 4:0.0511727078891258 61:1.0 108:1.0 215:1.0 
2.95286518805484 1:0.3333333333333333 2:0.23333333333333334 3:1.0 4:0.06396588486140725 23:1.0 121:1.0 244:1.0 
13.070238328284397 1:0.3333333333333333 3:1.0 4:0.06396588486140725 23:1.0 181:1.0 244:1.0 
8192.0 2:0.2111111111111111 3:0.4418604651162791 4:0.5501066098081023 61:1.0 119:1.0 198:1.0 
5.775502292295493 1:0.3333333333333333 2:0.32222222222222224 3:0.7692307692307693 4:0.16631130063965885 61:1.0 157:1.0 215:1.0 
17.69937254624859 2:0.37777777777777777 3:0.96 4:0.10660980810234541 61:1.0 102:1.0 197:1.0 
189.51413160738565 1:0.3333333333333333 2:0.25555555555555554 3:1.0 4:0.029850746268656716 6:1.0 119:1.0 215:1.0 
26.259707850928113 1:0.3333333333333333 2:0.022222222222222223 3:0.9411764705882353 4:0.03624733475479744 23:1.0 137:1.0 198:1.0 
8192.0 1:0.3333333333333333 2:0.2111111111111111 3:1.0 4:0.0042643923240938165 23:1.0 153:1.0 197:1.0 
8192.0 1:0.3333333333333333 3:0.9164265129682997 4:0.7398720682302772 61:1.0 181:1.0 215:1.0 
174.14066499896177 1:0.3333333333333333 2:0.12222222222222222 3:1.0 4:0.0021321961620469083 6:1.0 119:1.0 215:1.0 
8192.0 1:0.3333333333333333 2:0.2 3:0.4744897959183674 4:0.835820895522388 61:1.0 119:1.0 215:1.0 
0.2807959487082914 2:0.3 3:0.4418604651162791 4:0.5501066098081023 61:1.0 121:1.0 215:1.0 
10.792130023854538 2:0.08888888888888889 3:0.6578947368421053 4:0.16204690831556504 57:1.0 137:1.0 249:1.0 
8192.0 2:0.13333333333333333 3:0.8266129032258065 4:0.5287846481876333 61:1.0 119:1.0 215:1.0 
1040.3292308546804 1:0.3333333333333333 2:0.2777777777777778 3:0.6666666666666666 4:0.0767590618336887 57:1.0 181:1.0 215:1.0 
50.44376668925297 1:0.3333333333333333 2:0.26666666666666666 3:1.0 4:0.014925373134328358 22:1.0 181:1.0 215:1.0 
0.5179213531843708 1:0.3333333333333333 2:0.4 3:0.8632478632478633 4:0.24946695095948826 61:1.0 121:1.0 277:1.0 
342.8074458298733 1:0.3333333333333333 2:0.25555555555555554 3:0.6666666666666666 4:0.0767590618336887 57:1.0 119:1.0 215:1.0 
6.687407770846203 2:0.05555555555555555 3:0.6956521739130435 4:0.09808102345415778 57:1.0 137:1.0 198:1.0 
8192.0 2:0.25555555555555554 3:0.8266129032258065 4:0.5287846481876333 61:1.0 102:1.0 215:1.0 
1.3994142290215235 2:0.18888888888888888 3:0.4418604651162791 4:0.5501066098081023 61:1.0 121:1.0 215:1.0 
1547.0414631420683 1:0.3333333333333333 3:0.7142857142857143 4:0.014925373134328358 61:1.0 181:1.0 198:1.0 
8192.0 1:0.3333333333333333 2:0.17777777777777778 3:1.0 4:0.06396588486140725 23:1.0 181:1.0 198:1.0 
100.75461874312835 2:0.32222222222222224 3:0.8266129032258065 4:0.5287846481876333 61:1.0 102:1.0 249:1.0 
5.45779325218807 3:0.9530916844349681 4:1.0 61:1.0 181:1.0 215:1.0 
0.21707765410487154 1:0.3333333333333333 3:0.9007633587786259 4:0.279317697228145 61:1.0 181:1.0 207:1.0 
8192.0 1:0.3333333333333333 2:0.08888888888888889 3:1.0 4:0.06183368869936034 22:1.0 121:1.0 215:1.0 
14.486529351887146 1:0.3333333333333333 2:0.13333333333333333 3:0.8632478632478633 4:0.24946695095948826 61:1.0 119:1.0 217:1.0 
823.295200125658 1:0.3333333333333333 2:0.2111111111111111 3:0.3333333333333333 4:0.006396588486140725 23:1.0 119:1.0 249:1.0 
8192.0 2:0.2222222222222222 3:0.8266129032258065 4:0.5287846481876333 61:1.0 102:1.0 215:1.0 
8192.0 1:0.3333333333333333 2:0.18888888888888888 3:0.9007633587786259 4:0.279317697228145 61:1.0 102:1.0 215:1.0 
2.0841461019147176 1:0.3333333333333333 2:0.3111111111111111 3:1.0 4:0.0021321961620469083 6:1.0 102:1.0 214:1.0 
45.29971521414667 2:0.6111111111111112 3:0.8266129032258065 4:0.5287846481876333 61:1.0 129:1.0 215:1.0 
8192.0 2:0.2777777777777778 3:0.8266129032258065 4:0.5287846481876333 61:1.0 121:1.0 215:1.0 
1329.5092050863454 2:0.6111111111111112 3:0.5467980295566502 4:0.43283582089552236 57:1.0 102:1.0 250:1.0 
220.4559204902811 1:0.3333333333333333 2:0.05555555555555555 3:1.0 4:0.008528784648187633 23:1.0 102:1.0 204:1.0 
334.4923868755671 1:0.3333333333333333 2:0.24444444444444444 3:0.8333333333333334 4:0.03837953091684435 57:1.0 101:1.0 215:1.0 
7.86713493741596 1:0.3333333333333333 2:0.2222222222222222 3:0.9007633587786259 4:0.279317697228145 61:1.0 121:1.0 233:1.0 
46.09508102579967 1:0.3333333333333333 2:0.18888888888888888 3:0.9007633587786259 4:0.279317697228145 61:1.0 148:1.0 198:1.0 
360.0994639479828 2:0.35555555555555557 3:0.5467980295566502 4:0.43283582089552236 57:1.0 115:1.0 215:1.0 
4.391646988075356 1:0.3333333333333333 3:0.8888888888888888 4:0.019189765458422176 23:1.0 181:1.0 204:1.0 
8190.205244656151 2:0.16666666666666666 3:0.96 4:0.10660980810234541 61:1.0 102:1.0 214:1.0 
36.67379046126541 1:0.3333333333333333 2:0.044444444444444446 3:1.0 4:0.0021321961620469083 57:1.0 102:1.0 250:1.0 
228.37636139607983 1:0.3333333333333333 2:0.2222222222222222 3:0.6 4:0.021321961620469083 61:1.0 102:1.0 233:1.0 
42.4352936076594 1:0.3333333333333333 2:0.011111111111111112 3:1.0 4:0.0042643923240938165 61:1.0 137:1.0 215:1.0 
26.530339114009365 1:0.3333333333333333 2:0.07777777777777778 3:0.9411764705882353 4:0.03624733475479744 23:1.0 102:1.0 246:1.0 
6870.69895199866 2:0.28888888888888886 3:0.4418604651162791 4:0.5501066098081023 61:1.0 129:1.0 215:1.0 
1816.7201921902167 2:0.28888888888888886 3:0.6578947368421053 4:0.16204690831556504 57:1.0 119:1.0 215:1.0 
3555.5744869021146 1:0.3333333333333333 2:0.16666666666666666 3:1.0 23:1.0 102:1.0 215:1.0 
0.6221781832822821 1:0.3333333333333333 2:0.022222222222222223 3:0.5416666666666666 4:0.0511727078891258 61:1.0 101:1.0 211:1.0 
913.6097866504683 1:0.3333333333333333 3:0.8677248677248677 4:0.40298507462686567 61:1.0 181:1.0 250:1.0 
26.334124203822274 1:0.3333333333333333 3:0.9417808219178082 4:0.6226012793176973 61:1.0 181:1.0 204:1.0 
1.6477433593382058 1:0.3333333333333333 2:0.4 3:1.0 4:0.03624733475479744 23:1.0 119:1.0 215:1.0 
8192.0 1:0.3333333333333333 2:0.2 3:0.6666666666666666 4:0.0767590618336887 57:1.0 102:1.0 215:1.0 
7602.634260503554 1:0.3333333333333333 2:0.28888888888888886 3:0.9417808219178082 4:0.6226012793176973 61:1.0 102:1.0 249:1.0 
6055.7310193988515 1:0.3333333333333333 2:0.18888888888888888 3:1.0 4:0.03624733475479744 23:1.0 119:1.0 215:1.0 
507.0718458799469 1:0.3333333333333333 2:0.26666666666666666 3:1.0 23:1.0 153:1.0 197:1.0 
1.9719108808457728 1:0.3333333333333333 2:0.35555555555555557 3:0.9915254237288136 4:0.2515991471215352 57:1.0 108:1.0 204:1.0 
207.63081206094932 1:0.3333333333333333 3:0.9417808219178082 4:0.6226012793176973 61:1.0 181:1.0 198:1.0 
8190.500016844001 1:0.3333333333333333 3:0.9164265129682997 4:0.7398720682302772 61:1.0 181:1.0 225:1.0 
2417.2899514119817 1:0.3333333333333333 2:0.06666666666666667 3:0.8677248677248677 4:0.40298507462686567 61:1.0 119:1.0 215:1.0 
3964.2929847771024 1:0.3333333333333333 2:0.35555555555555557 3:0.6 4:0.010660980810234541 6:1.0 119:1.0 215:1.0 
6643.530506577997 1:0.3333333333333333 2:0.2111111111111111 3:0.9024390243902439 4:0.08742004264392324 23:1.0 119:1.0 198:1.0 
335.50075998196485 1:0.3333333333333333 2:0.2 3:0.9024390243902439 4:0.08742004264392324 23:1.0 181:1.0 233:1.0 
6.3135579851448655 2:0.43333333333333335 3:0.875 4:0.0511727078891258 23:1.0 137:1.0 233:1.0 
8192.0 1:0.3333333333333333 2:0.13333333333333333 3:0.9024390243902439 4:0.08742004264392324 23:1.0 102:1.0 198:1.0 
12.808780221156958 2:0.35555555555555557 3:0.4418604651162791 4:0.5501066098081023 61:1.0 102:1.0 197:1.0 
1.3079362623996604 1:0.3333333333333333 2:0.4444444444444444 3:1.0 4:0.06396588486140725 23:1.0 118:1.0 197:1.0 
1905.7846594037583 1:0.3333333333333333 2:0.15555555555555556 3:0.8 4:0.010660980810234541 57:1.0 102:1.0 215:1.0 
8192.0 1:0.3333333333333333 3:0.9164265129682997 4:0.7398720682302772 61:1.0 181:1.0 198:1.0 
8192.0 1:0.3333333333333333 2:0.16666666666666666 3:0.8 4:0.010660980810234541 57:1.0 102:1.0 215:1.0 
2.203566681878256 1:0.3333333333333333 2:0.2 3:0.3333333333333333 4:0.006396588486140725 23:1.0 119:1.0 197:1.0 
1266.045542585945 1:0.3333333333333333 2:0.1111111111111111 3:0.7142857142857143 4:0.014925373134328358 61:1.0 181:1.0 215:1.0 
320.6149761422646 1:0.3333333333333333 2:0.32222222222222224 3:0.9477611940298507 4:0.2857142857142857 61:1.0 181:1.0 250:1.0 
8.456132796377174 1:0.3333333333333333 2:0.24444444444444444 3:1.0 4:0.03624733475479744 23:1.0 121:1.0 215:1.0 
772.3940810267374 1:0.3333333333333333 2:0.011111111111111112 3:0.8677248677248677 4:0.40298507462686567 61:1.0 181:1.0 249:1.0 
8192.0 1:0.3333333333333333 3:0.3953488372093023 4:0.09168443496801706 58:1.0 181:1.0 215:1.0 
34.460486997138446 1:0.3333333333333333 2:0.4666666666666667 3:0.8888888888888888 4:0.019189765458422176 23:1.0 101:1.0 215:1.0 
4067.6958499156603 1:0.3333333333333333 3:1.0 57:1.0 181:1.0 215:1.0 
81.24824020714189 1:0.3333333333333333 2:0.03333333333333333 3:1.0 4:0.029850746268656716 6:1.0 101:1.0 215:1.0 
3.0985505590119247 1:0.3333333333333333 3:0.9417808219178082 4:0.6226012793176973 61:1.0 181:1.0 253:1.0 
8.36252845495427 1:0.3333333333333333 2:0.022222222222222223 3:0.7058823529411765 4:0.07249466950959488 61:1.0 157:1.0 198:1.0 
8192.0 2:0.28888888888888886 3:0.5467980295566502 4:0.43283582089552236 57:1.0 102:1.0 215:1.0 
4.7259852239919535 1:0.3333333333333333 2:0.14444444444444443 3:1.0 4:0.008528784648187633 23:1.0 181:1.0 197:1.0 
64.63163009832613 2:0.08888888888888889 3:0.9918032786885246 4:0.2601279317697228 57:1.0 153:1.0 215:1.0 
104.01640460212305 1:0.3333333333333333 2:0.3333333333333333 3:1.0 4:0.06396588486140725 23:1.0 153:1.0 244:1.0 
111.3263059637587 1:0.3333333333333333 2:0.32222222222222224 3:0.8 4:0.053304904051172705 61:1.0 119:1.0 197:1.0 
545.277892617351 1:0.3333333333333333 2:0.2777777777777778 3:1.0 4:0.0042643923240938165 57:1.0 119:1.0 215:1.0 
1089.4049253587546 1:0.3333333333333333 2:0.2 3:0.7142857142857143 4:0.014925373134328358 61:1.0 119:1.0 215:1.0 
8.125925631849944 1:0.3333333333333333 3:0.8677248677248677 4:0.40298507462686567 61:1.0 181:1.0 215:1.0 
8.628625974497101 1:0.3333333333333333 2:0.28888888888888886 3:0.5714285714285714 4:0.014925373134328358 61:1.0 102:1.0 225:1.0 
7364.536734487473 2:0.16666666666666666 3:0.8266129032258065 4:0.5287846481876333 61:1.0 102:1.0 249:1.0 
1637.2008520604973 1:0.3333333333333333 2:0.08888888888888889 3:0.5333333333333333 4:0.031982942430703626 6:1.0 101:1.0 215:1.0 
44.88209018206993 1:0.3333333333333333 2:0.6111111111111112 3:0.8 4:0.010660980810234541 57:1.0 102:1.0 215:1.0 
8192.0 2:0.5 3:0.5467980295566502 4:0.43283582089552236 57:1.0 102:1.0 250:1.0 
107.85020112885539 1:0.3333333333333333 3:0.8 4:0.053304904051172705 61:1.0 181:1.0 246:1.0 
8192.0 2:0.2777777777777778 3:0.4418604651162791 4:0.5501066098081023 61:1.0 119:1.0 215:1.0 
219.95320558430177 1:0.3333333333333333 2:0.3888888888888889 3:0.9411764705882353 4:0.03624733475479744 23:1.0 181:1.0 244:1.0 
1230.7490189018229 1:0.3333333333333333 2:0.3111111111111111 3:0.9007633587786259 4:0.279317697228145 61:1.0 102:1.0 233:1.0 
8192.0 2:0.1111111111111111 3:0.8266129032258065 4:0.5287846481876333 61:1.0 119:1.0 215:1.0 
0.14219616347394712 1:0.3333333333333333 3:1.0 4:0.0021321961620469083 58:1.0 181:1.0 233:1.0 
8192.0 1:0.3333333333333333 2:0.1 3:0.9007633587786259 4:0.279317697228145 61:1.0 102:1.0 233:1.0 
201.74969790496442 1:0.3333333333333333 2:0.2777777777777778 3:1.0 4:0.06183368869936034 22:1.0 119:1.0 215:1.0 
5.278600854345993 1:0.3333333333333333 3:0.967741935483871 4:0.06609808102345416 61:1.0 181:1.0 233:1.0 
8191.962797404618 1:0.3333333333333333 3:1.0 4:0.0042643923240938165 58:1.0 181:1.0 211:1.0 
3.413363897179464 1:0.3333333333333333 2:0.1111111111111111 3:0.9801980198019802 4:0.21535181236673773 22:1.0 121:1.0 204:1.0 
1315.0687223767463 2:0.2222222222222222 3:0.4418604651162791 4:0.5501066098081023 61:1.0 102:1.0 249:1.0 
8192.0 1:0.3333333333333333 2:0.08888888888888889 3:1.0 4:0.03624733475479744 23:1.0 102:1.0 204:1.0 
8192.0 1:0.3333333333333333 2:0.45555555555555555 3:1.0 4:0.0021321961620469083 23:1.0 102:1.0 197:1.0 
0.033212114558399584 1:0.3333333333333333 3:0.8333333333333334 4:0.03837953091684435 57:1.0 181:1.0 233:1.0 
125.87531225072264 1:0.3333333333333333 2:0.4 3:0.9915254237288136 4:0.2515991471215352 57:1.0 181:1.0 249:1.0 
42.102433320400316 1:0.3333333333333333 2:0.011111111111111112 3:0.7692307692307693 4:0.16631130063965885 61:1.0 137:1.0 215:1.0 
467.11113407256903 1:0.3333333333333333 2:0.16666666666666666 3:0.9801980198019802 4:0.21535181236673773 22:1.0 119:1.0 204:1.0 
14.014645736406882 3:0.9530916844349681 4:1.0 61:1.0 181:1.0 211:1.0 
9.540175306041416 2:0.08888888888888889 3:0.9530916844349681 4:1.0 61:1.0 121:1.0 233:1.0 
8192.0 2:0.15555555555555556 3:0.6578947368421053 4:0.16204690831556504 57:1.0 102:1.0 215:1.0 
8192.0 1:0.3333333333333333 2:0.34444444444444444 3:0.9417808219178082 4:0.6226012793176973 61:1.0 119:1.0 233:1.0 
8.85158299764378 1:0.3333333333333333 2:0.15555555555555556 3:0.9477611940298507 4:0.2857142857142857 61:1.0 181:1.0 225:1.0 
7231.646784745986 2:0.25555555555555554 3:0.6578947368421053 4:0.16204690831556504 57:1.0 102:1.0 250:1.0 
2.3771083241736073 1:0.3333333333333333 2:0.5 3:0.8 4:0.010660980810234541 57:1.0 102:1.0 249:1.0 
8192.0 1:0.3333333333333333 3:0.8632478632478633 4:0.24946695095948826 61:1.0 181:1.0 215:1.0 
6.6304362699021295 1:0.3333333333333333 2:0.2777777777777778 3:0.5714285714285714 4:0.014925373134328358 57:1.0 119:1.0 250:1.0 
4.037873252010181 1:0.3333333333333333 2:0.12222222222222222 3:0.875 4:0.06823027718550106 23:1.0 115:1.0 244:1.0 
1.6165245807991215 1:0.3333333333333333 2:0.37777777777777777 3:0.875 4:0.06823027718550106 23:1.0 115:1.0 244:1.0 
317.1428676444708 1:0.3333333333333333 2:0.2 3:0.8888888888888888 4:0.019189765458422176 23:1.0 102:1.0 215:1.0 
8192.0 2:0.18888888888888888 3:0.9918032786885246 4:0.2601279317697228 57:1.0 102:1.0 215:1.0 
8192.0 1:0.3333333333333333 2:0.2 3:0.9417808219178082 4:0.6226012793176973 61:1.0 102:1.0 233:1.0 
8192.0 2:0.2777777777777778 3:0.9918032786885246 4:0.2601279317697228 57:1.0 102:1.0 215:1.0 
2.0440927267643048 2:0.4777777777777778 3:0.7636363636363637 4:0.11727078891257996 58:1.0 119:1.0 215:1.0 
8192.0 1:0.3333333333333333 2:0.1111111111111111 3:1.0 4:0.0042643923240938165 23:1.0 102:1.0 198:1.0 
8192.0 1:0.3333333333333333 2:0.2 3:1.0 4:0.0042643923240938165 23:1.0 102:1.0 197:1.0 
0.020545485499577052 2:0.2 3:0.8266129032258065 4:0.5287846481876333 61:1.0 102:1.0 249:1.0 
938.8561499905661 1:0.3333333333333333 2:0.23333333333333334 3:0.9417808219178082 4:0.6226012793176973 61:1.0 129:1.0 233:1.0 
27.299918281095128 1:0.3333333333333333 2:0.26666666666666666 3:0.8 4:0.010660980810234541 57:1.0 137:1.0 215:1.0 
8159.524684342607 1:0.3333333333333333 3:0.7058823529411765 4:0.07249466950959488 61:1.0 181:1.0 217:1.0 
800.0614007759316 1:0.3333333333333333 2:0.24444444444444444 3:1.0 4:0.0042643923240938165 23:1.0 181:1.0 198:1.0 
33.28514942040487 1:0.3333333333333333 2:0.05555555555555555 3:0.7058823529411765 4:0.07249466950959488 61:1.0 108:1.0 198:1.0 
443.61534622425955 1:0.3333333333333333 2:0.25555555555555554 3:1.0 4:0.03624733475479744 23:1.0 101:1.0 215:1.0 
8192.0 1:0.3333333333333333 2:0.25555555555555554 3:0.8429752066115702 4:0.2579957356076759 61:1.0 181:1.0 233:1.0 
2589.2080237799096 1:0.3333333333333333 2:0.06666666666666667 3:0.8888888888888888 4:0.019189765458422176 23:1.0 102:1.0 215:1.0 
8107.0030919842475 1:0.3333333333333333 3:0.4744897959183674 4:0.835820895522388 61:1.0 181:1.0 233:1.0 
8192.0 1:0.3333333333333333 2:0.2111111111111111 3:0.4744897959183674 4:0.835820895522388 61:1.0 119:1.0 233:1.0 
2886.9405094726944 1:0.3333333333333333 2:0.14444444444444443 3:0.9801980198019802 4:0.21535181236673773 22:1.0 121:1.0 249:1.0 
8154.854937051477 1:0.3333333333333333 3:0.9164265129682997 4:0.7398720682302772 61:1.0 181:1.0 233:1.0 
111.64189132986232 1:0.3333333333333333 2:0.17777777777777778 3:0.5833333333333334 4:0.0255863539445629 41:1.0 119:1.0 233:1.0 
662.1010082297521 2:0.03333333333333333 3:0.875 4:0.0511727078891258 23:1.0 119:1.0 204:1.0 
113.68243186198885 1:0.3333333333333333 2:0.24444444444444444 3:0.9024390243902439 4:0.08742004264392324 23:1.0 119:1.0 233:1.0 
3835.836922907506 2:0.16666666666666666 3:0.6578947368421053 4:0.16204690831556504 57:1.0 118:1.0 215:1.0 
7870.846724362993 2:0.1111111111111111 3:0.8266129032258065 4:0.5287846481876333 61:1.0 102:1.0 249:1.0 
948.9490898425265 1:0.3333333333333333 2:0.2 3:0.9285714285714286 4:0.05970149253731343 61:1.0 102:1.0 233:1.0 
8192.0 1:0.3333333333333333 3:0.9164265129682997 4:0.7398720682302772 61:1.0 181:1.0 233:1.0 
8192.0 2:0.1 3:0.5467980295566502 4:0.43283582089552236 57:1.0 102:1.0 215:1.0 
82.15738249441384 1:0.3333333333333333 2:0.32222222222222224 3:0.6 4:0.010660980810234541 6:1.0 101:1.0 277:1.0 
0.903408435912209 2:0.32222222222222224 3:0.875 4:0.0511727078891258 23:1.0 119:1.0 204:1.0 
19.36954206814007 1:0.3333333333333333 2:0.011111111111111112 3:1.0 4:0.0042643923240938165 57:1.0 153:1.0 215:1.0 
1834.5596035641195 1:0.3333333333333333 2:0.1 3:1.0 4:0.03624733475479744 23:1.0 153:1.0 215:1.0 
4.9129908580166415 3:0.4418604651162791 4:0.5501066098081023 61:1.0 181:1.0 204:1.0 
3.354103152677221 2:0.1 3:0.4444444444444444 4:0.019189765458422176 57:1.0 103:1.0 215:1.0 
2.953121472287541 1:0.3333333333333333 2:0.32222222222222224 3:0.9007633587786259 4:0.279317697228145 61:1.0 103:1.0 204:1.0 
8192.0 2:0.17777777777777778 3:0.8857142857142857 4:0.07462686567164178 57:1.0 102:1.0 215:1.0 
7952.457825515682 1:0.3333333333333333 2:0.03333333333333333 3:0.4744897959183674 4:0.835820895522388 61:1.0 119:1.0 198:1.0 
6953.241813980424 1:0.3333333333333333 2:0.14444444444444443 3:0.967741935483871 4:0.06609808102345416 61:1.0 102:1.0 215:1.0 
4.279743951232617 2:0.3888888888888889 3:0.8857142857142857 4:0.07462686567164178 57:1.0 102:1.0 215:1.0 
2714.6078825829227 2:0.08888888888888889 3:0.8266129032258065 4:0.5287846481876333 61:1.0 119:1.0 215:1.0 
29.530381382807192 1:0.3333333333333333 2:0.2111111111111111 3:0.9417808219178082 4:0.6226012793176973 61:1.0 129:1.0 277:1.0 
8192.0 2:0.25555555555555554 3:0.9918032786885246 4:0.2601279317697228 57:1.0 102:1.0 250:1.0 
0.3940443544993574 1:0.3333333333333333 2:0.3888888888888889 3:0.8888888888888888 4:0.019189765458422176 23:1.0 108:1.0 198:1.0 
3.6469469759659034E-4 3:0.4418604651162791 4:0.5501066098081023 61:1.0 181:1.0 250:1.0 
23.25765275984861 1:0.3333333333333333 3:0.7058823529411765 4:0.07249466950959488 61:1.0 181:1.0 197:1.0 
2712.3613738826457 1:0.3333333333333333 2:0.3333333333333333 3:0.9417808219178082 4:0.6226012793176973 61:1.0 119:1.0 277:1.0 
2313.6615373995787 1:0.3333333333333333 2:0.5 3:0.8 4:0.010660980810234541 57:1.0 102:1.0 215:1.0 
6440.223648617416 1:0.3333333333333333 3:0.6666666666666666 4:0.006396588486140725 61:1.0 181:1.0 215:1.0 
1.5088453379838787 1:0.3333333333333333 2:0.1 3:0.9801980198019802 4:0.21535181236673773 22:1.0 102:1.0 198:1.0 
3536.163355937782 2:0.14444444444444443 3:0.8857142857142857 4:0.07462686567164178 57:1.0 102:1.0 215:1.0 
6337.2089500907 2:0.18888888888888888 3:0.6956521739130435 4:0.09808102345415778 57:1.0 181:1.0 215:1.0 
2236.9054366889877 1:0.3333333333333333 2:0.15555555555555556 3:1.0 4:0.03624733475479744 23:1.0 102:1.0 215:1.0 
9.022569909778953 1:0.3333333333333333 2:0.18888888888888888 3:1.0 4:0.008528784648187633 23:1.0 101:1.0 204:1.0 
96.80902819453286 1:0.3333333333333333 2:0.14444444444444443 3:0.75 4:0.008528784648187633 23:1.0 181:1.0 233:1.0 
8192.0 2:0.14444444444444443 3:0.6578947368421053 4:0.16204690831556504 57:1.0 102:1.0 215:1.0 
4845.6378875553555 2:0.28888888888888886 3:0.9918032786885246 4:0.2601279317697228 57:1.0 102:1.0 215:1.0 
8192.0 2:0.1111111111111111 3:0.8266129032258065 4:0.5287846481876333 61:1.0 119:1.0 215:1.0 
3757.104417077501 1:0.3333333333333333 3:0.7692307692307693 4:0.02771855010660981 57:1.0 181:1.0 215:1.0 
7462.5625224851965 1:0.3333333333333333 3:1.0 4:0.0021321961620469083 23:1.0 181:1.0 204:1.0 
312.55911507230826 1:0.3333333333333333 3:0.87 4:0.21321961620469082 41:1.0 181:1.0 244:1.0 
599.8424065809697 2:0.45555555555555555 3:0.6578947368421053 4:0.16204690831556504 57:1.0 102:1.0 215:1.0 
18.68976075596385 1:0.3333333333333333 2:0.022222222222222223 3:1.0 4:0.06183368869936034 22:1.0 119:1.0 199:1.0 
5351.891790465387 1:0.3333333333333333 2:0.4111111111111111 3:0.9007633587786259 4:0.279317697228145 61:1.0 102:1.0 215:1.0 
2149.409751091347 2:0.1111111111111111 3:0.4418604651162791 4:0.5501066098081023 61:1.0 119:1.0 215:1.0 
124.36015826064062 2:0.05555555555555555 3:0.6578947368421053 4:0.16204690831556504 57:1.0 148:1.0 215:1.0 
1426.4148088072309 1:0.3333333333333333 2:0.5222222222222223 3:1.0 4:0.010660980810234541 19:1.0 119:1.0 249:1.0 
895.4508243528368 2:0.18888888888888888 3:0.5467980295566502 4:0.43283582089552236 57:1.0 148:1.0 249:1.0 
2.4827494362073086 1:0.3333333333333333 2:0.5 3:0.5333333333333333 4:0.031982942430703626 6:1.0 101:1.0 211:1.0 
8192.0 1:0.3333333333333333 3:0.9164265129682997 4:0.7398720682302772 61:1.0 181:1.0 204:1.0 
4170.655454824131 1:0.3333333333333333 2:0.13333333333333333 3:0.4744897959183674 4:0.835820895522388 61:1.0 119:1.0 204:1.0 
8192.0 1:0.3333333333333333 3:0.9164265129682997 4:0.7398720682302772 61:1.0 181:1.0 204:1.0 
3.456918545402481 1:0.3333333333333333 2:0.18888888888888888 3:0.5555555555555556 4:0.03837953091684435 61:1.0 157:1.0 244:1.0 
70.45891395235853 1:0.3333333333333333 2:0.3888888888888889 3:0.8888888888888888 4:0.019189765458422176 23:1.0 102:1.0 250:1.0 
8192.0 1:0.3333333333333333 3:0.9 4:0.29850746268656714 61:1.0 181:1.0 211:1.0 
4083.7434203085963 2:0.1111111111111111 3:0.8135593220338984 4:0.1257995735607676 23:1.0 119:1.0 198:1.0 
8192.0 3:0.8484848484848485 4:0.07036247334754797 58:1.0 181:1.0 215:1.0 
7.115490767097367 2:0.16666666666666666 3:0.8484848484848485 4:0.07036247334754797 58:1.0 103:1.0 198:1.0 
8192.0 1:0.3333333333333333 2:0.08888888888888889 3:0.9 4:0.29850746268656714 61:1.0 102:1.0 215:1.0 
1028.0673930769092 2:0.15555555555555556 3:0.4418604651162791 4:0.5501066098081023 61:1.0 119:1.0 250:1.0 
8192.0 1:0.3333333333333333 2:0.2 3:0.8677248677248677 4:0.40298507462686567 61:1.0 119:1.0 215:1.0 
22.733205128734795 2:0.011111111111111112 3:0.5467980295566502 4:0.43283582089552236 57:1.0 137:1.0 215:1.0 
8192.0 1:0.3333333333333333 2:0.07777777777777778 3:0.9007633587786259 4:0.279317697228145 61:1.0 102:1.0 198:1.0 
7.240758787862093 1:0.3333333333333333 2:0.25555555555555554 3:0.9007633587786259 4:0.279317697228145 61:1.0 103:1.0 198:1.0 
0.9960268875501825 1:0.6666666666666666 2:0.4 3:1.0 4:0.0021321961620469083 61:1.0 101:1.0 198:1.0 
7129.657150538391 2:0.36666666666666664 3:0.8266129032258065 4:0.5287846481876333 61:1.0 181:1.0 250:1.0 
2413.064518838341 1:0.3333333333333333 2:0.23333333333333334 3:0.9285714285714286 4:0.05970149253731343 61:1.0 181:1.0 215:1.0 
6.463937785688916 1:0.3333333333333333 2:0.15555555555555556 3:0.9417808219178082 4:0.6226012793176973 61:1.0 181:1.0 244:1.0 
5745.956165686115 2:0.08888888888888889 3:0.6956521739130435 4:0.09808102345415778 57:1.0 102:1.0 215:1.0 
3847.442903727581 1:0.3333333333333333 2:0.1 3:1.0 4:0.01279317697228145 23:1.0 153:1.0 197:1.0 
8192.0 1:0.3333333333333333 2:0.2 3:0.9417808219178082 4:0.6226012793176973 61:1.0 102:1.0 250:1.0 
1797.0607059563054 2:0.4111111111111111 3:0.4418604651162791 4:0.5501066098081023 61:1.0 102:1.0 215:1.0 
2918.3565656037877 2:0.45555555555555555 3:0.6578947368421053 4:0.16204690831556504 57:1.0 181:1.0 215:1.0 
126.72950785079304 1:0.3333333333333333 2:0.43333333333333335 3:0.9285714285714286 4:0.05970149253731343 61:1.0 102:1.0 198:1.0 
8192.0 1:0.3333333333333333 3:0.9164265129682997 4:0.7398720682302772 61:1.0 181:1.0 250:1.0 
297.06249782776763 1:0.3333333333333333 2:0.3111111111111111 3:0.9417808219178082 4:0.6226012793176973 61:1.0 102:1.0 198:1.0 
849.5462766303214 1:0.3333333333333333 3:0.5714285714285714 4:0.014925373134328358 61:1.0 181:1.0 233:1.0 
45.948989069744236 1:0.3333333333333333 2:0.1111111111111111 3:0.9007633587786259 4:0.279317697228145 61:1.0 102:1.0 214:1.0 
131.96367229347305 1:0.3333333333333333 2:0.2222222222222222 3:0.6 4:0.021321961620469083 61:1.0 119:1.0 233:1.0 
1046.887834315329 1:0.3333333333333333 2:0.2222222222222222 3:0.9007633587786259 4:0.279317697228145 61:1.0 102:1.0 204:1.0 
8189.992894484073 1:0.3333333333333333 3:0.7058823529411765 4:0.07249466950959488 61:1.0 181:1.0 253:1.0 
0.2641779448475291 2:0.022222222222222223 3:0.8266129032258065 4:0.5287846481876333 61:1.0 157:1.0 215:1.0 
161.0479916221894 2:0.26666666666666666 3:0.8135593220338984 4:0.1257995735607676 23:1.0 181:1.0 233:1.0 
8192.0 1:0.3333333333333333 3:0.9 4:0.29850746268656714 61:1.0 181:1.0 233:1.0 
7408.584177412272 2:0.24444444444444444 3:0.6578947368421053 4:0.16204690831556504 57:1.0 137:1.0 215:1.0 
10.612634722250347 2:0.5777777777777777 3:0.4444444444444444 4:0.019189765458422176 57:1.0 101:1.0 215:1.0 
8120.461748648201 1:0.3333333333333333 2:0.25555555555555554 3:0.8677248677248677 4:0.40298507462686567 61:1.0 181:1.0 215:1.0 
2568.659084585432 1:0.3333333333333333 2:0.044444444444444446 3:1.0 4:0.010660980810234541 23:1.0 119:1.0 215:1.0 
0.038546814860813385 1:0.3333333333333333 2:0.13333333333333333 3:0.9 4:0.29850746268656714 61:1.0 119:1.0 233:1.0 
28.69443603219671 1:0.3333333333333333 2:0.3111111111111111 3:1.0 4:0.014925373134328358 22:1.0 119:1.0 244:1.0 
3.515635541105655 1:0.3333333333333333 2:0.2777777777777778 3:1.0 6:1.0 154:1.0 250:1.0 
8192.0 1:0.3333333333333333 2:0.16666666666666666 3:0.7692307692307693 4:0.16631130063965885 61:1.0 102:1.0 249:1.0 
8192.0 1:0.3333333333333333 3:0.4744897959183674 4:0.835820895522388 61:1.0 181:1.0 204:1.0 
894.9453614134193 1:0.3333333333333333 2:0.05555555555555555 3:0.6666666666666666 4:0.006396588486140725 57:1.0 102:1.0 215:1.0 
5.188108254164206 1:0.3333333333333333 2:0.1 3:1.0 4:0.0021321961620469083 22:1.0 119:1.0 211:1.0 
331.7703975178474 2:0.05555555555555555 3:0.9918032786885246 4:0.2601279317697228 57:1.0 102:1.0 215:1.0 
8192.0 2:0.24444444444444444 3:0.4418604651162791 4:0.5501066098081023 61:1.0 102:1.0 249:1.0 
310.4043147718217 1:0.3333333333333333 2:0.36666666666666664 3:0.75 4:0.008528784648187633 23:1.0 119:1.0 215:1.0 
1.7587332029756741 1:0.3333333333333333 2:0.4111111111111111 3:0.75 4:0.017057569296375266 57:1.0 119:1.0 244:1.0 
8192.0 1:0.3333333333333333 2:0.26666666666666666 3:0.9477611940298507 4:0.2857142857142857 61:1.0 102:1.0 215:1.0 
23.336207859561796 1:0.3333333333333333 2:0.17777777777777778 3:0.9444444444444444 4:0.03837953091684435 22:1.0 119:1.0 215:1.0 
1.6733518388973323 1:0.3333333333333333 2:0.7333333333333333 3:1.0 4:0.0021321961620469083 23:1.0 119:1.0 217:1.0 
8192.0 2:0.18888888888888888 3:0.5467980295566502 4:0.43283582089552236 57:1.0 137:1.0 215:1.0 
7053.23011254452 1:0.3333333333333333 2:0.24444444444444444 3:0.9801980198019802 4:0.21535181236673773 22:1.0 102:1.0 249:1.0 
39.02127159423162 1:0.3333333333333333 3:0.9417808219178082 4:0.6226012793176973 61:1.0 181:1.0 250:1.0 
128.12238849949563 1:0.3333333333333333 2:0.36666666666666664 3:0.9164265129682997 4:0.7398720682302772 61:1.0 181:1.0 215:1.0 
25.32734194255302 1:0.3333333333333333 2:0.16666666666666666 3:1.0 4:0.006396588486140725 57:1.0 119:1.0 244:1.0 
8192.0 1:0.3333333333333333 3:0.9164265129682997 4:0.7398720682302772 61:1.0 181:1.0 233:1.0 
2309.807948698636 1:0.3333333333333333 2:0.2 3:1.0 4:0.008528784648187633 23:1.0 153:1.0 197:1.0 
1682.3919614179003 1:0.3333333333333333 2:0.23333333333333334 3:1.0 4:0.008528784648187633 23:1.0 118:1.0 233:1.0 
54.96367773195576 1:0.3333333333333333 2:0.45555555555555555 3:0.9007633587786259 4:0.279317697228145 61:1.0 121:1.0 215:1.0 
10.566074183641565 2:0.17777777777777778 3:0.8135593220338984 4:0.1257995735607676 23:1.0 121:1.0 198:1.0 
31.786225668807013 1:0.3333333333333333 2:0.3111111111111111 3:1.0 4:0.0042643923240938165 57:1.0 118:1.0 249:1.0 
2359.023691806193 1:0.3333333333333333 2:0.14444444444444443 3:0.8677248677248677 4:0.40298507462686567 61:1.0 119:1.0 215:1.0 
8192.0 1:0.3333333333333333 3:0.9164265129682997 4:0.7398720682302772 61:1.0 181:1.0 233:1.0 
8192.0 1:0.3333333333333333 2:0.2222222222222222 3:0.8677248677248677 4:0.40298507462686567 61:1.0 119:1.0 215:1.0 
3697.75621863242 2:0.34444444444444444 3:0.9918032786885246 4:0.2601279317697228 57:1.0 157:1.0 249:1.0 
145.4322785639242 1:0.3333333333333333 2:0.1111111111111111 3:0.9164265129682997 4:0.7398720682302772 61:1.0 102:1.0 233:1.0 
8192.0 2:0.05555555555555555 3:0.96 4:0.10660980810234541 61:1.0 102:1.0 198:1.0 
48.660772085787436 1:0.3333333333333333 3:0.9417808219178082 4:0.6226012793176973 61:1.0 181:1.0 199:1.0 
8192.0 2:0.3 3:0.8266129032258065 4:0.5287846481876333 61:1.0 101:1.0 215:1.0 
8192.0 1:0.3333333333333333 3:0.4744897959183674 4:0.835820895522388 61:1.0 181:1.0 199:1.0 
153.0807740113628 1:0.3333333333333333 2:0.32222222222222224 3:0.875 4:0.06823027718550106 23:1.0 119:1.0 197:1.0 
129.74687060630458 1:0.3333333333333333 2:0.2 3:1.0 4:0.006396588486140725 57:1.0 102:1.0 249:1.0 
259.5740414222991 1:0.3333333333333333 2:0.2 3:0.9024390243902439 4:0.08742004264392324 23:1.0 102:1.0 250:1.0 
8191.161893331626 1:0.3333333333333333 3:0.3953488372093023 4:0.09168443496801706 58:1.0 181:1.0 215:1.0 
0.895338764337408 1:0.3333333333333333 2:0.3111111111111111 3:1.0 4:0.0021321961620469083 41:1.0 119:1.0 215:1.0 
8192.0 1:0.3333333333333333 3:0.9164265129682997 4:0.7398720682302772 61:1.0 181:1.0 198:1.0 
5812.65862953265 1:0.3333333333333333 2:0.3111111111111111 3:0.9477611940298507 4:0.2857142857142857 61:1.0 181:1.0 249:1.0 
126.06342295523109 2:0.36666666666666664 3:0.8135593220338984 4:0.1257995735607676 23:1.0 119:1.0 244:1.0 
66.56298942663464 1:0.3333333333333333 2:0.12222222222222222 3:0.9801980198019802 4:0.21535181236673773 22:1.0 102:1.0 215:1.0 
196.20575846116134 1:0.3333333333333333 2:0.14444444444444443 3:1.0 4:0.0042643923240938165 23:1.0 118:1.0 198:1.0 
470.3139497040199 1:0.3333333333333333 2:0.2 3:0.9306930693069307 4:0.21535181236673773 61:1.0 181:1.0 249:1.0 
57.40342468651441 1:0.3333333333333333 3:0.7058823529411765 4:0.07249466950959488 61:1.0 181:1.0 198:1.0 
12.36081054891358 1:0.3333333333333333 2:0.18888888888888888 3:0.9306930693069307 4:0.21535181236673773 61:1.0 129:1.0 249:1.0 
0.42680301175225227 1:0.3333333333333333 3:0.9 4:0.29850746268656714 61:1.0 181:1.0 204:1.0 
1420.931778612049 1:0.3333333333333333 2:0.011111111111111112 3:0.875 4:0.06823027718550106 23:1.0 119:1.0 198:1.0 
163.38870598564463 2:0.18888888888888888 3:0.8135593220338984 4:0.1257995735607676 23:1.0 119:1.0 244:1.0 
37.39184184537766 1:0.3333333333333333 2:0.2777777777777778 3:0.9007633587786259 4:0.279317697228145 61:1.0 181:1.0 204:1.0 
26.613900284859966 1:0.3333333333333333 2:0.3 3:0.9801980198019802 4:0.21535181236673773 22:1.0 119:1.0 249:1.0 
53.77942735905799 1:0.3333333333333333 3:0.9791666666666666 4:0.1023454157782516 61:1.0 181:1.0 204:1.0 
7399.940398058254 2:0.07777777777777778 3:0.6578947368421053 4:0.16204690831556504 57:1.0 102:1.0 215:1.0 
7436.8203850374175 1:0.3333333333333333 2:0.1 3:0.3333333333333333 4:0.006396588486140725 23:1.0 119:1.0 249:1.0 
6430.1509465153085 2:0.32222222222222224 3:0.6578947368421053 4:0.16204690831556504 57:1.0 102:1.0 249:1.0 
3781.082535527663 1:0.3333333333333333 2:0.16666666666666666 3:0.3333333333333333 4:0.006396588486140725 23:1.0 119:1.0 215:1.0 
8192.0 1:0.3333333333333333 2:0.08888888888888889 3:0.4744897959183674 4:0.835820895522388 61:1.0 102:1.0 198:1.0 
8192.0 2:0.13333333333333333 3:0.4418604651162791 4:0.5501066098081023 61:1.0 102:1.0 215:1.0 
5536.7867059212285 1:0.3333333333333333 2:0.16666666666666666 3:0.875 4:0.06823027718550106 23:1.0 119:1.0 198:1.0 
1414.6530287035123 2:0.022222222222222223 3:0.5467980295566502 4:0.43283582089552236 57:1.0 102:1.0 215:1.0 
7231.481256328703 1:0.3333333333333333 2:0.022222222222222223 3:0.875 4:0.06823027718550106 23:1.0 102:1.0 244:1.0 
8192.0 2:0.23333333333333334 3:0.4418604651162791 4:0.5501066098081023 61:1.0 119:1.0 249:1.0 
1.966444714770659 1:0.3333333333333333 2:0.23333333333333334 3:0.9417808219178082 4:0.6226012793176973 61:1.0 119:1.0 204:1.0 
8192.0 2:0.3 3:0.9918032786885246 4:0.2601279317697228 57:1.0 102:1.0 249:1.0 
6539.895227194422 1:0.3333333333333333 2:0.17777777777777778 3:1.0 4:0.0042643923240938165 23:1.0 118:1.0 233:1.0 
7573.468203601737 2:0.4777777777777778 3:0.6578947368421053 4:0.16204690831556504 57:1.0 102:1.0 215:1.0 
110.4975769558049 2:0.18888888888888888 3:0.8266129032258065 4:0.5287846481876333 61:1.0 108:1.0 215:1.0 
2.0156498993152048 2:0.12222222222222222 3:0.96 4:0.10660980810234541 61:1.0 102:1.0 250:1.0 
0.16348591182243988 1:0.3333333333333333 2:0.26666666666666666 3:0.8888888888888888 4:0.019189765458422176 23:1.0 157:1.0 198:1.0 
3200.2353305951556 2:0.25555555555555554 3:0.6956521739130435 4:0.09808102345415778 57:1.0 118:1.0 215:1.0 
135.35200832459188 1:0.3333333333333333 2:0.13333333333333333 3:0.9 4:0.29850746268656714 61:1.0 119:1.0 233:1.0 
12.428120908664615 1:0.3333333333333333 2:0.36666666666666664 3:0.9915254237288136 4:0.2515991471215352 57:1.0 137:1.0 249:1.0 
8164.447777271617 1:0.3333333333333333 3:1.0 4:0.0021321961620469083 23:1.0 181:1.0 244:1.0 
1.1120320332391325 1:0.3333333333333333 2:0.14444444444444443 3:0.9417808219178082 4:0.6226012793176973 61:1.0 102:1.0 199:1.0 
3436.494611128873 2:0.2111111111111111 3:0.6578947368421053 4:0.16204690831556504 57:1.0 102:1.0 249:1.0 
556.7571348755145 1:0.3333333333333333 2:0.24444444444444444 3:1.0 23:1.0 153:1.0 277:1.0 
0.007886818065783757 1:0.3333333333333333 2:0.07777777777777778 3:1.0 4:0.0042643923240938165 57:1.0 119:1.0 226:1.0 
5191.87717575084 1:0.3333333333333333 2:0.25555555555555554 3:0.9285714285714286 4:0.05970149253731343 61:1.0 119:1.0 215:1.0 
948.2005886377349 1:0.3333333333333333 2:0.07777777777777778 3:0.9285714285714286 4:0.05970149253731343 61:1.0 102:1.0 215:1.0 
2785.651190500972 1:0.3333333333333333 2:0.07777777777777778 3:0.9285714285714286 4:0.05970149253731343 61:1.0 119:1.0 215:1.0 
8192.0 1:0.3333333333333333 2:0.2777777777777778 3:0.9024390243902439 4:0.08742004264392324 23:1.0 102:1.0 233:1.0 
8175.553165770558 2:0.5555555555555556 3:0.8857142857142857 4:0.07462686567164178 57:1.0 137:1.0 215:1.0 
14.170764655582124 1:0.3333333333333333 2:0.1111111111111111 3:0.8 4:0.010660980810234541 57:1.0 121:1.0 215:1.0 
2028.4580829357606 1:0.3333333333333333 2:0.08888888888888889 3:0.4744897959183674 4:0.835820895522388 61:1.0 119:1.0 233:1.0 
4225.934014677978 2:0.4 3:0.8266129032258065 4:0.5287846481876333 61:1.0 121:1.0 249:1.0 
0.499534654404571 1:0.3333333333333333 2:0.07777777777777778 3:1.0 4:0.0042643923240938165 57:1.0 119:1.0 226:1.0 
4074.9675426168533 1:0.3333333333333333 2:0.18888888888888888 3:0.7692307692307693 4:0.16631130063965885 61:1.0 181:1.0 277:1.0 
9.810550078379038 1:0.3333333333333333 2:0.5 3:0.9007633587786259 4:0.279317697228145 61:1.0 137:1.0 215:1.0 
8192.0 1:0.3333333333333333 2:0.1 3:0.9285714285714286 4:0.05970149253731343 61:1.0 119:1.0 250:1.0 
3276.7320824249528 1:0.3333333333333333 2:0.18888888888888888 3:1.0 4:0.0021321961620469083 23:1.0 157:1.0 197:1.0 
8192.0 2:0.07777777777777778 3:0.5467980295566502 4:0.43283582089552236 57:1.0 137:1.0 215:1.0 
28.278078055055648 1:0.3333333333333333 2:0.4111111111111111 3:0.9007633587786259 4:0.279317697228145 61:1.0 118:1.0 233:1.0 
214.39029900565896 1:0.3333333333333333 2:0.24444444444444444 3:0.9007633587786259 4:0.279317697228145 61:1.0 137:1.0 215:1.0 
8192.0 1:0.3333333333333333 3:0.7058823529411765 4:0.07249466950959488 61:1.0 181:1.0 199:1.0 
65.20257915916736 1:0.3333333333333333 2:0.2 3:0.9417808219178082 4:0.6226012793176973 61:1.0 101:1.0 215:1.0 
1136.446659405485 2:0.06666666666666667 3:0.5467980295566502 4:0.43283582089552236 57:1.0 137:1.0 215:1.0 
0.10735570624214344 1:0.3333333333333333 3:0.5 4:0.0042643923240938165 57:1.0 181:1.0 204:1.0 
8192.0 2:0.34444444444444444 3:0.9530916844349681 4:1.0 61:1.0 102:1.0 250:1.0 
7566.587532412053 2:0.18888888888888888 3:0.6956521739130435 4:0.09808102345415778 57:1.0 102:1.0 215:1.0 
1922.7890218601042 2:0.12222222222222222 3:0.8266129032258065 4:0.5287846481876333 61:1.0 119:1.0 249:1.0 
8192.0 2:0.2 3:0.8266129032258065 4:0.5287846481876333 61:1.0 119:1.0 249:1.0 
6331.303547826108 2:0.17777777777777778 3:0.96 4:0.10660980810234541 61:1.0 102:1.0 215:1.0 
6311.089005413469 2:0.07777777777777778 3:0.5467980295566502 4:0.43283582089552236 57:1.0 102:1.0 215:1.0 
8192.0 2:0.35555555555555557 3:0.5467980295566502 4:0.43283582089552236 57:1.0 102:1.0 250:1.0 
1014.6981277496446 2:0.08888888888888889 3:0.6956521739130435 4:0.09808102345415778 57:1.0 129:1.0 225:1.0 
129.80956009026812 2:0.16666666666666666 3:1.0 4:0.11300639658848614 57:1.0 153:1.0 215:1.0 
8192.0 2:0.35555555555555557 3:0.4444444444444444 4:0.019189765458422176 57:1.0 102:1.0 215:1.0 
199.1338096939773 1:0.3333333333333333 2:0.37777777777777777 3:1.0 4:0.006396588486140725 22:1.0 119:1.0 249:1.0 
3031.8665746299434 2:0.32222222222222224 3:0.4418604651162791 4:0.5501066098081023 61:1.0 102:1.0 215:1.0 
6445.841936405145 2:0.17777777777777778 3:0.5467980295566502 4:0.43283582089552236 57:1.0 102:1.0 249:1.0 
190.06006493264687 1:0.3333333333333333 3:1.0 4:0.0021321961620469083 23:1.0 181:1.0 249:1.0 
223.1009411924805 2:0.16666666666666666 3:0.9918032786885246 4:0.2601279317697228 57:1.0 102:1.0 249:1.0 
1.875412472877482 2:0.1111111111111111 3:0.9530916844349681 4:1.0 61:1.0 129:1.0 211:1.0 
2712.3561587719905 2:0.3 3:0.5467980295566502 4:0.43283582089552236 57:1.0 181:1.0 249:1.0 
3141.369011117042 2:0.15555555555555556 3:0.6956521739130435 4:0.09808102345415778 57:1.0 181:1.0 215:1.0 
2559.310111992789 2:0.16666666666666666 3:0.95 4:0.08528784648187633 61:1.0 102:1.0 215:1.0 
3.56614253536359 2:0.011111111111111112 3:1.0 61:1.0 137:1.0 215:1.0 
8192.0 2:0.34444444444444444 3:0.4444444444444444 4:0.019189765458422176 57:1.0 102:1.0 215:1.0 
1.3181718436427565 2:0.23333333333333334 3:0.96 4:0.10660980810234541 61:1.0 102:1.0 233:1.0 
8076.535845835722 2:0.35555555555555557 3:0.8266129032258065 4:0.5287846481876333 61:1.0 121:1.0 215:1.0 
8192.0 2:0.17777777777777778 3:0.9918032786885246 4:0.2601279317697228 57:1.0 181:1.0 215:1.0 
0.7400485392774238 1:0.3333333333333333 2:0.15555555555555556 3:0.4 4:0.031982942430703626 61:1.0 108:1.0 215:1.0 
3.929389534081085 1:0.3333333333333333 2:0.24444444444444444 3:1.0 4:0.01279317697228145 23:1.0 129:1.0 198:1.0 
0.2963734057327119 1:0.3333333333333333 3:0.75 4:0.017057569296375266 57:1.0 181:1.0 233:1.0 
3158.5068325069783 2:0.4444444444444444 3:0.8857142857142857 4:0.07462686567164178 57:1.0 102:1.0 215:1.0 
254.91770696937596 2:0.2 3:0.4418604651162791 4:0.5501066098081023 61:1.0 119:1.0 217:1.0 
50.78184054799004 2:0.16666666666666666 3:0.8857142857142857 4:0.07462686567164178 57:1.0 148:1.0 215:1.0 
1743.8973745981025 2:0.1 3:0.96 4:0.10660980810234541 61:1.0 102:1.0 249:1.0 
4418.841265567778 2:0.32222222222222224 3:0.5467980295566502 4:0.43283582089552236 57:1.0 102:1.0 250:1.0 
0.49812665815712054 2:0.4111111111111111 3:0.4418604651162791 4:0.5501066098081023 61:1.0 119:1.0 214:1.0 
7241.37494402718 2:0.05555555555555555 3:0.5467980295566502 4:0.43283582089552236 57:1.0 157:1.0 215:1.0 
0.0011631015202095952 3:0.9530916844349681 4:1.0 61:1.0 181:1.0 250:1.0 
0.08863668945061971 1:0.3333333333333333 2:0.7444444444444445 3:1.0 4:0.0021321961620469083 57:1.0 102:1.0 225:1.0 
203.7606234731578 1:0.3333333333333333 2:0.044444444444444446 3:0.875 4:0.017057569296375266 23:1.0 119:1.0 198:1.0 
8192.0 2:0.07777777777777778 3:0.96 4:0.10660980810234541 61:1.0 102:1.0 198:1.0 
7257.080953775604 1:0.3333333333333333 2:0.12222222222222222 3:0.8571428571428571 4:0.04477611940298507 23:1.0 102:1.0 198:1.0 
52.770494367897875 2:0.15555555555555556 3:0.96 4:0.10660980810234541 61:1.0 119:1.0 215:1.0 
0.22368171930360264 2:0.4666666666666667 3:0.96 4:0.10660980810234541 61:1.0 102:1.0 204:1.0 
7790.392699550739 3:0.7636363636363637 4:0.11727078891257996 58:1.0 181:1.0 233:1.0 
2058.5793971404755 2:0.3333333333333333 3:0.6578947368421053 4:0.16204690831556504 57:1.0 181:1.0 215:1.0 
8192.0 1:0.3333333333333333 3:0.8676470588235294 4:0.2899786780383795 58:1.0 181:1.0 215:1.0 
1.754822403603351 1:0.3333333333333333 3:0.5416666666666666 4:0.0511727078891258 61:1.0 181:1.0 198:1.0 
217.39601011732123 1:0.3333333333333333 3:0.4 4:0.031982942430703626 61:1.0 181:1.0 233:1.0 
0.37017582419974243 1:0.3333333333333333 2:0.3 3:0.7777777777777778 4:0.019189765458422176 57:1.0 137:1.0 249:1.0 
5.7124470738830055 1:0.3333333333333333 2:0.45555555555555555 3:0.9915254237288136 4:0.2515991471215352 57:1.0 102:1.0 198:1.0 
5.956605835711626 2:0.3111111111111111 3:0.9918032786885246 4:0.2601279317697228 57:1.0 101:1.0 215:1.0 
111.69929051488816 2:0.13333333333333333 3:0.4418604651162791 4:0.5501066098081023 61:1.0 130:1.0 215:1.0 
2.1872161104853642 1:0.3333333333333333 2:0.18888888888888888 3:0.7142857142857143 4:0.014925373134328358 61:1.0 101:1.0 250:1.0 
64.79259944039744 1:0.3333333333333333 3:1.0 4:0.0042643923240938165 19:1.0 181:1.0 199:1.0 
483.74011976935356 1:0.3333333333333333 2:0.26666666666666666 3:1.0 4:0.010660980810234541 19:1.0 102:1.0 199:1.0 
0.9282505053086407 2:0.044444444444444446 3:0.8857142857142857 4:0.07462686567164178 57:1.0 181:1.0 244:1.0 
262.46893347882707 1:0.3333333333333333 2:0.1111111111111111 3:0.9791666666666666 4:0.1023454157782516 61:1.0 181:1.0 277:1.0 
803.8123854389006 1:0.3333333333333333 2:0.28888888888888886 3:1.0 57:1.0 101:1.0 215:1.0 
21.597897509603314 2:0.2777777777777778 3:0.9918032786885246 4:0.2601279317697228 57:1.0 129:1.0 249:1.0 
6655.124112136545 2:0.03333333333333333 3:0.5467980295566502 4:0.43283582089552236 57:1.0 137:1.0 215:1.0 
286.73608680856705 3:0.6578947368421053 4:0.16204690831556504 57:1.0 181:1.0 249:1.0 
1200.7983458944425 2:0.35555555555555557 3:0.4418604651162791 4:0.5501066098081023 61:1.0 119:1.0 215:1.0 
44.697906811555654 2:0.08888888888888889 3:0.8857142857142857 4:0.07462686567164178 57:1.0 119:1.0 215:1.0 
8192.0 1:0.3333333333333333 3:0.8 4:0.053304904051172705 61:1.0 181:1.0 198:1.0 
9.315919186374632 1:0.3333333333333333 2:0.2222222222222222 3:0.4 4:0.031982942430703626 61:1.0 102:1.0 244:1.0 
12.447817886097512 2:0.08888888888888889 3:0.5467980295566502 4:0.43283582089552236 57:1.0 101:1.0 215:1.0 
7906.902429475636 1:0.3333333333333333 2:0.37777777777777777 3:0.8 4:0.010660980810234541 57:1.0 102:1.0 215:1.0 
3258.1218982820974 2:0.2 3:0.5467980295566502 4:0.43283582089552236 57:1.0 121:1.0 215:1.0 
0.12675502513760512 1:0.3333333333333333 3:0.3953488372093023 4:0.09168443496801706 58:1.0 181:1.0 197:1.0 
2821.0304691365905 1:0.3333333333333333 2:0.18888888888888888 3:1.0 4:0.0021321961620469083 23:1.0 102:1.0 198:1.0 
772.997427655534 2:0.17777777777777778 3:0.5467980295566502 4:0.43283582089552236 57:1.0 102:1.0 249:1.0 
2930.326511116306 2:0.4 3:1.0 4:0.11300639658848614 57:1.0 181:1.0 215:1.0 
613.2627698026856 2:0.1111111111111111 3:0.9285714285714286 4:0.029850746268656716 61:1.0 181:1.0 225:1.0 
958.6312704342064 2:0.23333333333333334 3:0.8266129032258065 4:0.5287846481876333 61:1.0 121:1.0 249:1.0 
39.96896768308963 2:0.2777777777777778 3:0.9530916844349681 4:1.0 61:1.0 119:1.0 211:1.0 
14.895352002604865 2:0.7444444444444445 3:0.9918032786885246 4:0.2601279317697228 57:1.0 181:1.0 215:1.0 
2024.8484180359446 2:0.13333333333333333 3:0.6578947368421053 4:0.16204690831556504 57:1.0 102:1.0 215:1.0 
169.21342475340978 3:0.9530916844349681 4:1.0 61:1.0 181:1.0 233:1.0 
180.0705028563607 1:0.3333333333333333 2:0.18888888888888888 3:1.0 4:0.0042643923240938165 19:1.0 119:1.0 250:1.0 
28.82257195204984 1:0.3333333333333333 2:0.14444444444444443 3:0.9801980198019802 4:0.21535181236673773 22:1.0 148:1.0 249:1.0 
58.604820151631216 1:0.3333333333333333 2:0.3888888888888889 3:0.875 4:0.017057569296375266 23:1.0 181:1.0 204:1.0 
969.0396816294016 1:0.3333333333333333 3:0.5416666666666666 4:0.0511727078891258 61:1.0 181:1.0 215:1.0 
8192.0 2:0.2 3:0.9530916844349681 4:1.0 61:1.0 102:1.0 215:1.0 
8192.0 2:0.2 3:0.8135593220338984 4:0.1257995735607676 23:1.0 102:1.0 198:1.0 
366.74288254338086 1:0.3333333333333333 2:0.1 3:0.875 4:0.017057569296375266 23:1.0 181:1.0 233:1.0 
308.6540185052115 2:0.2777777777777778 3:0.9285714285714286 4:0.029850746268656716 61:1.0 181:1.0 225:1.0 
0.4598808560762132 3:0.9530916844349681 4:1.0 61:1.0 181:1.0 250:1.0 
8192.0 1:0.3333333333333333 3:0.8181818181818182 4:0.09381663113006397 61:1.0 181:1.0 211:1.0 
8178.841488552825 1:0.3333333333333333 3:0.5416666666666666 4:0.0511727078891258 61:1.0 181:1.0 246:1.0 
39.63180789691626 2:0.07777777777777778 3:0.9530916844349681 4:1.0 61:1.0 129:1.0 197:1.0 
1413.0720572322753 2:0.3111111111111111 3:0.96 4:0.10660980810234541 61:1.0 102:1.0 215:1.0 
8192.0 1:0.3333333333333333 3:0.4744897959183674 4:0.835820895522388 61:1.0 181:1.0 250:1.0 
1377.2437913429949 1:0.3333333333333333 2:0.3111111111111111 3:1.0 4:0.03624733475479744 23:1.0 119:1.0 198:1.0 
8192.0 2:0.1 3:0.8266129032258065 4:0.5287846481876333 61:1.0 102:1.0 215:1.0 
17.0809516450893 1:0.3333333333333333 2:0.2 3:0.8632478632478633 4:0.24946695095948826 61:1.0 103:1.0 215:1.0 
1.1968946088857 2:0.35555555555555557 3:0.4444444444444444 4:0.019189765458422176 57:1.0 103:1.0 249:1.0 
521.2649155824331 1:0.3333333333333333 2:0.16666666666666666 3:0.9915254237288136 4:0.2515991471215352 57:1.0 181:1.0 249:1.0 
8190.480764632452 1:0.3333333333333333 3:0.3953488372093023 4:0.09168443496801706 58:1.0 181:1.0 253:1.0 
8192.0 1:0.3333333333333333 3:0.8 4:0.053304904051172705 61:1.0 181:1.0 198:1.0 
388.14949498232943 1:0.3333333333333333 3:0.9417808219178082 4:0.6226012793176973 61:1.0 181:1.0 233:1.0 
7055.982735969806 2:0.08888888888888889 3:0.8857142857142857 4:0.07462686567164178 57:1.0 119:1.0 215:1.0 
168.42185664119657 2:0.3333333333333333 3:0.8135593220338984 4:0.1257995735607676 23:1.0 102:1.0 233:1.0 
8192.0 1:0.3333333333333333 3:0.9 4:0.29850746268656714 61:1.0 181:1.0 213:1.0 
8192.0 2:0.12222222222222222 3:0.5467980295566502 4:0.43283582089552236 57:1.0 181:1.0 215:1.0 
313.13126068702746 2:0.3 3:1.0 4:0.11300639658848614 57:1.0 102:1.0 225:1.0 
96.58111617297992 1:0.3333333333333333 2:0.2222222222222222 3:1.0 4:0.03624733475479744 23:1.0 119:1.0 277:1.0 
11.93145966905273 2:0.14444444444444443 3:0.4418604651162791 4:0.5501066098081023 61:1.0 119:1.0 233:1.0 
21.099073378972363 2:0.17777777777777778 3:1.0 4:0.11300639658848614 57:1.0 137:1.0 215:1.0 
8192.0 2:0.18888888888888888 3:0.8857142857142857 4:0.07462686567164178 57:1.0 181:1.0 215:1.0 
8110.244684149922 1:0.3333333333333333 2:0.25555555555555554 3:1.0 4:0.0042643923240938165 19:1.0 119:1.0 198:1.0 
8192.0 1:0.3333333333333333 2:0.18888888888888888 3:0.7692307692307693 4:0.16631130063965885 61:1.0 102:1.0 249:1.0 
8192.0 1:0.3333333333333333 2:0.2222222222222222 3:1.0 4:0.0021321961620469083 23:1.0 153:1.0 197:1.0 
3414.113096907275 2:0.15555555555555556 3:0.9530916844349681 4:1.0 61:1.0 102:1.0 249:1.0 
525.7533264765204 1:0.3333333333333333 2:0.3888888888888889 3:0.5416666666666666 4:0.0511727078891258 61:1.0 102:1.0 215:1.0 
0.1341748846701885 1:0.3333333333333333 2:0.12222222222222222 3:1.0 4:0.014925373134328358 22:1.0 102:1.0 253:1.0 
5.79730418912719 1:0.3333333333333333 2:0.05555555555555555 3:1.0 4:0.06183368869936034 22:1.0 148:1.0 249:1.0 
2714.907549958771 1:0.3333333333333333 2:0.13333333333333333 3:0.8181818181818182 4:0.09381663113006397 61:1.0 102:1.0 198:1.0 
733.4123591613469 1:0.3333333333333333 3:1.0 4:0.0511727078891258 23:1.0 181:1.0 204:1.0 
5197.013283614549 2:0.34444444444444444 3:0.5467980295566502 4:0.43283582089552236 57:1.0 137:1.0 249:1.0 
343.9864057062661 2:0.08888888888888889 3:0.6956521739130435 4:0.09808102345415778 57:1.0 102:1.0 215:1.0 
0.4087874855933231 1:0.3333333333333333 3:0.3953488372093023 4:0.09168443496801706 58:1.0 181:1.0 198:1.0 
835.750789495844 2:0.4222222222222222 3:0.5467980295566502 4:0.43283582089552236 57:1.0 118:1.0 215:1.0 
5555.502947155618 2:0.14444444444444443 3:0.5467980295566502 4:0.43283582089552236 57:1.0 103:1.0 215:1.0 
356.44446994757175 1:0.3333333333333333 2:0.3111111111111111 3:0.9477611940298507 4:0.2857142857142857 61:1.0 181:1.0 197:1.0 
8192.0 2:0.3 3:0.9530916844349681 4:1.0 61:1.0 102:1.0 253:1.0 
1.1952572760215248 1:0.3333333333333333 2:0.5888888888888889 3:0.8 4:0.010660980810234541 57:1.0 115:1.0 215:1.0 
183.2416212013747 1:0.3333333333333333 2:0.05555555555555555 3:0.5 4:0.0042643923240938165 23:1.0 119:1.0 215:1.0 
422.8430934442119 2:0.12222222222222222 3:0.875 4:0.0511727078891258 23:1.0 119:1.0 233:1.0 
5614.680358384877 2:0.1 3:0.9530916844349681 4:1.0 61:1.0 181:1.0 215:1.0 
5777.270001471361 1:0.3333333333333333 2:0.12222222222222222 3:0.9007633587786259 4:0.279317697228145 61:1.0 181:1.0 215:1.0 
0.864429991080128 1:0.3333333333333333 2:0.1111111111111111 3:0.967741935483871 4:0.06609808102345416 61:1.0 119:1.0 230:1.0 
1624.488158791122 1:0.3333333333333333 2:0.14444444444444443 3:0.9477611940298507 4:0.2857142857142857 61:1.0 181:1.0 197:1.0 
3.342365495441511 2:0.28888888888888886 3:0.5467980295566502 4:0.43283582089552236 57:1.0 115:1.0 250:1.0 
1.7059835321163723 3:0.5467980295566502 4:0.43283582089552236 57:1.0 181:1.0 253:1.0 
8139.317447390856 2:0.08888888888888889 3:0.9918032786885246 4:0.2601279317697228 57:1.0 102:1.0 249:1.0 
65.60981553998064 2:0.1 3:1.0 4:0.0021321961620469083 57:1.0 153:1.0 215:1.0 
0.6352289836698267 1:0.3333333333333333 3:0.5416666666666666 4:0.0511727078891258 61:1.0 181:1.0 215:1.0 
8192.0 2:0.2222222222222222 3:0.9918032786885246 4:0.2601279317697228 57:1.0 102:1.0 249:1.0 
8192.0 2:0.18888888888888888 3:1.0 4:0.11300639658848614 57:1.0 181:1.0 215:1.0 
75.21451605508551 2:0.6333333333333333 3:0.9918032786885246 4:0.2601279317697228 57:1.0 181:1.0 249:1.0 
0.0019514828402020887 3:0.9918032786885246 4:0.2601279317697228 57:1.0 181:1.0 249:1.0 
3.484443616567622 1:0.3333333333333333 2:0.011111111111111112 3:0.7777777777777778 4:0.03837953091684435 57:1.0 153:1.0 215:1.0 
3287.2173461990565 2:0.14444444444444443 3:0.4418604651162791 4:0.5501066098081023 61:1.0 102:1.0 215:1.0 
246.02963633518166 1:0.3333333333333333 3:0.8632478632478633 4:0.24946695095948826 61:1.0 181:1.0 233:1.0 
1215.7143921110169 1:0.3333333333333333 2:0.2 3:1.0 4:0.0021321961620469083 41:1.0 101:1.0 215:1.0 
8192.0 1:0.3333333333333333 3:0.9 4:0.29850746268656714 61:1.0 181:1.0 244:1.0 
8192.0 3:0.95 4:0.08528784648187633 61:1.0 181:1.0 215:1.0 
8192.0 1:0.3333333333333333 3:0.9164265129682997 4:0.7398720682302772 61:1.0 181:1.0 215:1.0 
0.713768035658549 3:0.9530916844349681 4:1.0 61:1.0 181:1.0 204:1.0 
1527.6700011801138 2:0.12222222222222222 3:0.9918032786885246 4:0.2601279317697228 57:1.0 103:1.0 215:1.0 
3.3757399874448453 2:0.28888888888888886 3:0.9530916844349681 4:1.0 61:1.0 181:1.0 277:1.0 
2.243707407017832 1:0.3333333333333333 2:0.4 3:0.9164265129682997 4:0.7398720682302772 61:1.0 148:1.0 215:1.0 
6159.612962742913 1:0.3333333333333333 2:0.044444444444444446 3:0.4744897959183674 4:0.835820895522388 61:1.0 153:1.0 198:1.0 
7844.3563701484445 1:0.3333333333333333 2:0.03333333333333333 3:0.4744897959183674 4:0.835820895522388 61:1.0 119:1.0 198:1.0 
68.23073003906597 1:0.3333333333333333 2:0.4111111111111111 3:1.0 23:1.0 118:1.0 277:1.0 
4.198111176816817 1:0.3333333333333333 2:0.16666666666666666 3:0.4744897959183674 4:0.835820895522388 61:1.0 157:1.0 213:1.0 
2.3234165117283476 2:0.12222222222222222 3:0.5467980295566502 4:0.43283582089552236 57:1.0 102:1.0 215:1.0 
8192.0 2:0.06666666666666667 3:0.96 4:0.10660980810234541 61:1.0 102:1.0 198:1.0 
176.40484206963242 1:0.3333333333333333 2:0.2 3:0.7692307692307693 4:0.02771855010660981 61:1.0 181:1.0 249:1.0 
75.19225044738978 1:0.3333333333333333 2:0.2777777777777778 3:0.9024390243902439 4:0.08742004264392324 23:1.0 181:1.0 215:1.0 
1140.0760036971815 2:0.4111111111111111 3:0.8857142857142857 4:0.07462686567164178 57:1.0 102:1.0 215:1.0 
60.013743431786885 2:0.1111111111111111 3:0.6956521739130435 4:0.09808102345415778 57:1.0 129:1.0 215:1.0 
8185.0769671072885 1:0.3333333333333333 2:0.05555555555555555 3:0.875 4:0.017057569296375266 23:1.0 102:1.0 249:1.0 
