svm_type c_svc
kernel_type rbf
gamma 0.0078125
nr_class 2
total_sv 7452
rho -117.00410657033139
label 0 1
nr_sv 6149 1303
SV
2048.0 1:0.3333333333333333 2:0.07777777777777778 3:1.0 4:0.008528784648187633 23:1.0 102:1.0 244:1.0 
2048.0 1:0.3333333333333333 2:0.37777777777777777 3:1.0 4:0.0021321961620469083 23:1.0 119:1.0 204:1.0 
2048.0 1:0.3333333333333333 2:0.35555555555555557 3:1.0 4:0.008528784648187633 23:1.0 115:1.0 215:1.0 
2048.0 1:0.3333333333333333 3:0.31249999999999994 4:0.0511727078891258 61:1.0 181:1.0 215:1.0 
963.532398787408 2:0.1111111111111111 3:0.9877049180327867 4:0.2601279317697228 57:1.0 157:1.0 225:1.0 
2048.0 1:0.3333333333333333 2:0.18888888888888888 3:1.0 4:0.008528784648187633 23:1.0 115:1.0 215:1.0 
2048.0 1:0.3333333333333333 2:0.26666666666666666 3:1.0 4:0.006396588486140725 6:1.0 101:1.0 277:1.0 
2048.0 2:0.1 3:0.32019704433497537 4:0.43283582089552236 57:1.0 102:1.0 215:1.0 
2048.0 1:0.3333333333333333 2:0.4 3:1.0 4:0.06396588486140725 23:1.0 102:1.0 244:1.0 
2048.0 1:0.3333333333333333 3:0.09302325581395347 4:0.09168443496801706 58:1.0 181:1.0 215:1.0 
2048.0 2:0.23333333333333334 3:0.32019704433497537 4:0.43283582089552236 57:1.0 153:1.0 249:1.0 
510.9277294016785 2:0.16666666666666666 3:0.16279069767441862 4:0.5501066098081023 61:1.0 128:1.0 215:1.0 
2048.0 1:0.3333333333333333 2:0.3 3:0.7391304347826086 4:0.04904051172707889 61:1.0 181:1.0 197:1.0 
2048.0 1:0.3333333333333333 2:0.34444444444444444 3:1.0 4:0.008528784648187633 23:1.0 101:1.0 199:1.0 
2048.0 2:0.5 3:0.32019704433497537 4:0.43283582089552236 57:1.0 181:1.0 215:1.0 
1290.5868185094973 2:0.03333333333333333 3:0.7399193548387097 4:0.5287846481876333 61:1.0 115:1.0 249:1.0 
2048.0 1:0.3333333333333333 2:0.044444444444444446 3:0.6538461538461539 4:0.16631130063965885 61:1.0 119:1.0 249:1.0 
2048.0 1:0.3333333333333333 2:0.03333333333333333 3:1.0 4:0.0021321961620469083 19:1.0 103:1.0 249:1.0 
1765.3804904782007 2:0.03333333333333333 3:0.7399193548387097 4:0.5287846481876333 61:1.0 115:1.0 249:1.0 
2048.0 1:0.3333333333333333 2:0.2111111111111111 3:0.9216417910447761 4:0.2857142857142857 61:1.0 181:1.0 249:1.0 
2048.0 1:0.3333333333333333 2:0.4777777777777778 3:1.0 4:0.0021321961620469083 57:1.0 181:1.0 233:1.0 
2048.0 1:0.3333333333333333 2:0.011111111111111112 3:0.5714285714285714 4:0.014925373134328358 61:1.0 137:1.0 215:1.0 
2048.0 1:0.3333333333333333 2:0.14444444444444443 3:0.6538461538461539 4:0.16631130063965885 61:1.0 102:1.0 249:1.0 
2048.0 2:0.16666666666666666 3:0.32019704433497537 4:0.43283582089552236 57:1.0 157:1.0 215:1.0 
2048.0 1:0.3333333333333333 2:0.13333333333333333 3:1.0 19:1.0 119:1.0 249:1.0 
205.5772199479688 1:0.3333333333333333 2:0.3333333333333333 3:1.0 4:0.014925373134328358 22:1.0 148:1.0 244:1.0 
2048.0 2:0.37777777777777777 3:0.32019704433497537 4:0.43283582089552236 57:1.0 148:1.0 215:1.0 
2048.0 1:0.3333333333333333 2:0.4111111111111111 3:1.0 4:0.0042643923240938165 57:1.0 148:1.0 215:1.0 
2048.0 2:0.7111111111111111 3:0.7399193548387097 4:0.5287846481876333 61:1.0 101:1.0 249:1.0 
2048.0 2:0.07777777777777778 3:0.32019704433497537 4:0.43283582089552236 57:1.0 103:1.0 215:1.0 
2048.0 1:0.3333333333333333 2:0.08888888888888889 3:0.9117647058823529 4:0.03624733475479744 23:1.0 153:1.0 250:1.0 
2048.0 1:0.3333333333333333 2:0.03333333333333333 3:1.0 4:0.06183368869936034 22:1.0 119:1.0 197:1.0 
2048.0 1:0.3333333333333333 3:0.9216417910447761 4:0.2857142857142857 61:1.0 181:1.0 198:1.0 
2048.0 2:0.2777777777777778 3:0.32019704433497537 4:0.43283582089552236 57:1.0 102:1.0 249:1.0 
2048.0 1:0.3333333333333333 2:0.12222222222222222 3:1.0 4:0.0042643923240938165 57:1.0 181:1.0 215:1.0 
2048.0 1:0.3333333333333333 2:0.3333333333333333 3:1.0 4:0.0021321961620469083 22:1.0 102:1.0 253:1.0 
2048.0 1:0.3333333333333333 2:0.24444444444444444 3:0.8014705882352942 4:0.2899786780383795 58:1.0 108:1.0 233:1.0 
2048.0 1:0.3333333333333333 2:0.3111111111111111 3:0.3571428571428571 4:0.014925373134328358 57:1.0 137:1.0 215:1.0 
2048.0 1:0.3333333333333333 2:0.26666666666666666 3:0.8015873015873015 4:0.40298507462686567 61:1.0 181:1.0 215:1.0 
2048.0 1:0.3333333333333333 2:0.5777777777777777 3:0.8511450381679388 4:0.279317697228145 61:1.0 181:1.0 215:1.0 
2048.0 1:0.3333333333333333 2:0.18888888888888888 3:0.7000000000000001 4:0.053304904051172705 61:1.0 137:1.0 215:1.0 
2048.0 1:0.3333333333333333 2:0.32222222222222224 3:1.0 4:0.0042643923240938165 58:1.0 181:1.0 249:1.0 
2048.0 1:0.3333333333333333 3:0.21173469387755106 4:0.835820895522388 61:1.0 181:1.0 233:1.0 
2048.0 1:0.3333333333333333 2:0.2222222222222222 3:0.7644628099173552 4:0.2579957356076759 61:1.0 101:1.0 249:1.0 
2048.0 1:0.3333333333333333 2:0.37777777777777777 3:0.7948717948717949 4:0.24946695095948826 61:1.0 181:1.0 233:1.0 
2048.0 1:0.3333333333333333 2:0.35555555555555557 3:0.8511450381679388 4:0.279317697228145 61:1.0 102:1.0 233:1.0 
2048.0 1:0.3333333333333333 2:0.08888888888888889 3:0.21173469387755106 4:0.835820895522388 61:1.0 153:1.0 198:1.0 
2048.0 1:0.3333333333333333 3:0.31249999999999994 4:0.0511727078891258 61:1.0 181:1.0 233:1.0 
2048.0 2:0.12222222222222222 3:0.9296375266524519 4:1.0 61:1.0 101:1.0 198:1.0 
2048.0 2:0.15555555555555556 3:0.9877049180327867 4:0.2601279317697228 57:1.0 102:1.0 249:1.0 
2048.0 1:0.3333333333333333 2:0.15555555555555556 3:0.9702970297029703 4:0.21535181236673773 22:1.0 121:1.0 249:1.0 
2048.0 1:0.3333333333333333 2:0.15555555555555556 3:0.49999999999999994 4:0.01279317697228145 6:1.0 119:1.0 215:1.0 
2048.0 1:0.3333333333333333 2:0.08888888888888889 3:0.21173469387755106 4:0.835820895522388 61:1.0 153:1.0 198:1.0 
2048.0 1:0.3333333333333333 3:1.0 4:0.0021321961620469083 58:1.0 181:1.0 198:1.0 
2048.0 1:0.3333333333333333 2:0.044444444444444446 3:1.0 23:1.0 102:1.0 217:1.0 
2048.0 1:0.3333333333333333 2:0.18888888888888888 3:0.9702970297029703 4:0.21535181236673773 22:1.0 102:1.0 244:1.0 
2048.0 1:0.3333333333333333 2:0.3111111111111111 3:0.21173469387755106 4:0.835820895522388 61:1.0 118:1.0 198:1.0 
2048.0 2:0.36666666666666664 3:0.16279069767441862 4:0.5501066098081023 61:1.0 113:1.0 214:1.0 
2048.0 1:0.3333333333333333 2:0.23333333333333334 3:1.0 4:0.0042643923240938165 57:1.0 102:1.0 250:1.0 
2048.0 1:0.3333333333333333 2:0.08888888888888889 3:1.0 4:0.0021321961620469083 57:1.0 103:1.0 215:1.0 
2048.0 1:0.3333333333333333 2:0.2111111111111111 3:0.8511450381679388 4:0.279317697228145 61:1.0 102:1.0 198:1.0 
2048.0 2:0.34444444444444444 3:0.16279069767441862 4:0.5501066098081023 61:1.0 181:1.0 198:1.0 
2048.0 1:0.3333333333333333 2:0.2 3:1.0 4:0.06396588486140725 23:1.0 102:1.0 197:1.0 
2048.0 1:0.3333333333333333 2:0.18888888888888888 3:0.9702970297029703 4:0.21535181236673773 22:1.0 102:1.0 244:1.0 
2048.0 1:0.3333333333333333 3:0.896039603960396 4:0.21535181236673773 61:1.0 181:1.0 253:1.0 
2048.0 2:0.3 3:0.16279069767441862 4:0.5501066098081023 61:1.0 102:1.0 249:1.0 
2048.0 1:0.3333333333333333 3:1.0 4:0.006396588486140725 57:1.0 181:1.0 215:1.0 
2048.0 1:0.3333333333333333 2:0.3 3:1.0 4:0.008528784648187633 23:1.0 102:1.0 197:1.0 
2048.0 1:0.3333333333333333 2:0.35555555555555557 3:1.0 4:0.006396588486140725 57:1.0 119:1.0 215:1.0 
2048.0 1:0.3333333333333333 2:0.37777777777777777 3:1.0 4:0.06396588486140725 23:1.0 153:1.0 244:1.0 
2048.0 1:0.3333333333333333 3:1.0 4:0.06396588486140725 23:1.0 181:1.0 244:1.0 
2048.0 2:0.03333333333333333 3:0.94 4:0.10660980810234541 61:1.0 108:1.0 215:1.0 
2048.0 1:0.3333333333333333 3:1.0 4:0.06396588486140725 23:1.0 181:1.0 197:1.0 
2048.0 1:0.3333333333333333 2:0.15555555555555556 3:0.9702970297029703 4:0.21535181236673773 22:1.0 102:1.0 250:1.0 
2048.0 1:0.3333333333333333 2:0.5111111111111111 3:0.8928571428571429 4:0.05970149253731343 61:1.0 102:1.0 215:1.0 
2048.0 2:0.5888888888888889 3:0.16279069767441862 4:0.5501066098081023 61:1.0 119:1.0 197:1.0 
2048.0 1:0.3333333333333333 2:0.12222222222222222 3:1.0 4:0.006396588486140725 57:1.0 108:1.0 215:1.0 
2048.0 1:0.3333333333333333 2:0.14444444444444443 3:1.0 4:0.06396588486140725 23:1.0 153:1.0 244:1.0 
2048.0 2:0.4222222222222222 3:0.48684210526315796 4:0.16204690831556504 57:1.0 102:1.0 215:1.0 
2048.0 1:0.3333333333333333 2:0.4666666666666667 3:1.0 23:1.0 119:1.0 250:1.0 
2048.0 1:0.3333333333333333 2:0.32222222222222224 3:0.8125 4:0.017057569296375266 23:1.0 181:1.0 204:1.0 
2048.0 2:0.03333333333333333 3:0.5434782608695652 4:0.09808102345415778 57:1.0 102:1.0 215:1.0 
2048.0 1:0.3333333333333333 2:0.14444444444444443 3:0.9117647058823529 4:0.03624733475479744 23:1.0 119:1.0 211:1.0 
2048.0 1:0.3333333333333333 2:0.08888888888888889 3:0.8536585365853657 4:0.08742004264392324 23:1.0 102:1.0 244:1.0 
2048.0 2:0.7333333333333333 3:0.8285714285714285 4:0.07462686567164178 57:1.0 102:1.0 215:1.0 
2048.0 1:0.3333333333333333 2:0.07777777777777778 3:0.8536585365853657 4:0.08742004264392324 23:1.0 102:1.0 204:1.0 
2048.0 1:0.3333333333333333 2:0.3 3:0.8536585365853657 4:0.08742004264392324 23:1.0 119:1.0 215:1.0 
2048.0 1:0.3333333333333333 2:0.4222222222222222 3:1.0 4:0.0021321961620469083 19:1.0 119:1.0 249:1.0 
2048.0 2:0.13333333333333333 3:0.9877049180327867 4:0.2601279317697228 57:1.0 181:1.0 253:1.0 
2048.0 1:0.3333333333333333 2:0.14444444444444443 3:0.21173469387755106 4:0.835820895522388 61:1.0 153:1.0 211:1.0 
2048.0 1:0.3333333333333333 2:0.4222222222222222 3:0.9702970297029703 4:0.21535181236673773 22:1.0 119:1.0 249:1.0 
2048.0 2:0.4444444444444444 3:0.9877049180327867 4:0.2601279317697228 57:1.0 118:1.0 249:1.0 
2048.0 2:0.5666666666666667 3:0.16279069767441862 4:0.5501066098081023 61:1.0 119:1.0 215:1.0 
2048.0 1:0.3333333333333333 2:0.8222222222222222 3:0.7644628099173552 4:0.2579957356076759 61:1.0 119:1.0 198:1.0 
2048.0 1:0.3333333333333333 2:0.25555555555555554 3:0.9702970297029703 4:0.21535181236673773 22:1.0 119:1.0 249:1.0 
2048.0 2:0.4 3:0.16279069767441862 4:0.5501066098081023 61:1.0 119:1.0 215:1.0 
2048.0 2:0.3 3:0.16279069767441862 4:0.5501066098081023 61:1.0 102:1.0 215:1.0 
2048.0 2:0.2111111111111111 3:0.32019704433497537 4:0.43283582089552236 57:1.0 102:1.0 225:1.0 
2048.0 1:0.3333333333333333 2:0.3 3:0.8049999999999998 4:0.21321961620469082 41:1.0 181:1.0 244:1.0 
2048.0 2:0.3333333333333333 3:0.7203389830508475 4:0.1257995735607676 23:1.0 157:1.0 198:1.0 
2048.0 1:0.3333333333333333 2:0.5222222222222223 3:0.8049999999999998 4:0.21321961620469082 41:1.0 181:1.0 244:1.0 
2048.0 1:0.3333333333333333 3:0.8746397694524494 4:0.7398720682302772 61:1.0 181:1.0 249:1.0 
2048.0 2:0.34444444444444444 3:1.0 4:0.0021321961620469083 57:1.0 102:1.0 215:1.0 
2048.0 1:0.3333333333333333 2:0.45555555555555555 3:0.9126712328767121 4:0.6226012793176973 61:1.0 181:1.0 198:1.0 
2048.0 2:0.5777777777777777 3:0.9877049180327867 4:0.2601279317697228 57:1.0 102:1.0 215:1.0 
2048.0 2:0.1 3:1.0 4:0.0021321961620469083 57:1.0 102:1.0 215:1.0 
2048.0 2:0.32222222222222224 3:0.9877049180327867 4:0.2601279317697228 57:1.0 102:1.0 215:1.0 
2048.0 1:0.3333333333333333 2:0.08888888888888889 3:0.6538461538461539 4:0.02771855010660981 61:1.0 121:1.0 215:1.0 
2048.0 3:0.16279069767441862 4:0.5501066098081023 61:1.0 181:1.0 250:1.0 
2048.0 2:0.18888888888888888 3:0.48684210526315796 4:0.16204690831556504 57:1.0 148:1.0 215:1.0 
2048.0 2:0.044444444444444446 3:0.6454545454545455 4:0.11727078891257996 58:1.0 102:1.0 215:1.0 
2048.0 1:0.3333333333333333 2:0.23333333333333334 3:1.0 4:0.010660980810234541 19:1.0 102:1.0 249:1.0 
2048.0 1:0.3333333333333333 3:1.0 4:0.0511727078891258 23:1.0 181:1.0 250:1.0 
2048.0 1:0.3333333333333333 2:0.17777777777777778 3:0.6538461538461539 4:0.02771855010660981 61:1.0 121:1.0 215:1.0 
2048.0 1:0.3333333333333333 2:0.23333333333333334 3:0.8928571428571429 4:0.05970149253731343 61:1.0 181:1.0 215:1.0 
2048.0 1:0.3333333333333333 2:0.3 3:1.0 4:0.014925373134328358 22:1.0 181:1.0 215:1.0 
2048.0 1:0.3333333333333333 3:1.0 4:0.0042643923240938165 58:1.0 181:1.0 197:1.0 
2048.0 1:0.3333333333333333 2:0.3111111111111111 3:0.8049999999999998 4:0.21321961620469082 41:1.0 119:1.0 197:1.0 
1951.4361718847188 1:0.3333333333333333 2:0.06666666666666667 3:0.8014705882352942 4:0.2899786780383795 58:1.0 115:1.0 215:1.0 
2048.0 1:0.3333333333333333 2:0.2 3:0.7000000000000001 4:0.010660980810234541 19:1.0 119:1.0 198:1.0 
2048.0 1:0.3333333333333333 3:0.31249999999999994 4:0.0511727078891258 61:1.0 181:1.0 197:1.0 
2048.0 2:0.05555555555555555 3:0.48684210526315796 4:0.16204690831556504 57:1.0 101:1.0 215:1.0 
2048.0 1:0.3333333333333333 2:0.4666666666666667 3:0.9126712328767121 4:0.6226012793176973 61:1.0 102:1.0 211:1.0 
2048.0 1:0.3333333333333333 2:0.6444444444444445 3:1.0 4:0.0042643923240938165 57:1.0 181:1.0 215:1.0 
2048.0 1:0.3333333333333333 2:0.3888888888888889 3:0.9702970297029703 4:0.21535181236673773 22:1.0 102:1.0 215:1.0 
2048.0 2:0.6 3:0.48684210526315796 4:0.16204690831556504 57:1.0 102:1.0 215:1.0 
2048.0 1:0.3333333333333333 2:0.6555555555555556 3:0.9166666666666666 4:0.03837953091684435 22:1.0 119:1.0 249:1.0 
2048.0 2:0.03333333333333333 3:0.32019704433497537 4:0.43283582089552236 57:1.0 119:1.0 249:1.0 
2048.0 3:0.16279069767441862 4:0.5501066098081023 61:1.0 181:1.0 233:1.0 
2048.0 1:0.3333333333333333 2:0.05555555555555555 3:1.0 4:0.03624733475479744 23:1.0 119:1.0 277:1.0 
2048.0 1:0.3333333333333333 2:0.4444444444444444 3:0.7000000000000001 4:0.010660980810234541 57:1.0 102:1.0 197:1.0 
2048.0 2:0.12222222222222222 3:0.48684210526315796 4:0.16204690831556504 57:1.0 137:1.0 215:1.0 
2048.0 1:0.3333333333333333 2:0.13333333333333333 4:0.006396588486140725 23:1.0 119:1.0 244:1.0 
2048.0 1:0.3333333333333333 2:0.2 3:0.6666666666666666 4:0.019189765458422176 57:1.0 181:1.0 250:1.0 
2048.0 1:0.3333333333333333 2:0.5666666666666667 3:0.3 4:0.031982942430703626 6:1.0 101:1.0 277:1.0 
2048.0 2:0.25555555555555554 3:0.48684210526315796 4:0.16204690831556504 57:1.0 121:1.0 250:1.0 
2048.0 1:0.3333333333333333 2:0.4444444444444444 3:0.7000000000000001 4:0.010660980810234541 57:1.0 102:1.0 215:1.0 
2048.0 1:0.3333333333333333 2:0.5666666666666667 3:0.3 4:0.031982942430703626 6:1.0 101:1.0 277:1.0 
2048.0 1:0.3333333333333333 2:0.3 3:0.9702970297029703 4:0.21535181236673773 22:1.0 102:1.0 277:1.0 
2048.0 1:0.3333333333333333 2:0.24444444444444444 3:1.0 4:0.029850746268656716 6:1.0 129:1.0 277:1.0 
2048.0 1:0.3333333333333333 2:0.15555555555555556 3:0.9126712328767121 4:0.6226012793176973 61:1.0 119:1.0 233:1.0 
2048.0 1:0.3333333333333333 2:0.2222222222222222 3:0.7000000000000001 4:0.010660980810234541 57:1.0 119:1.0 215:1.0 
2048.0 1:0.3333333333333333 2:0.2222222222222222 3:0.9126712328767121 4:0.6226012793176973 61:1.0 181:1.0 233:1.0 
2048.0 1:0.3333333333333333 3:0.33333333333333337 4:0.03837953091684435 61:1.0 181:1.0 199:1.0 
2048.0 1:0.3333333333333333 2:0.6 3:0.9166666666666666 4:0.03837953091684435 22:1.0 119:1.0 215:1.0 
2048.0 1:0.3333333333333333 2:0.08888888888888889 3:0.09302325581395347 4:0.09168443496801706 58:1.0 102:1.0 198:1.0 
2048.0 2:0.3 3:0.6454545454545455 4:0.11727078891257996 58:1.0 102:1.0 215:1.0 
2048.0 1:0.3333333333333333 2:0.05555555555555555 3:1.0 4:0.0042643923240938165 57:1.0 102:1.0 215:1.0 
2048.0 1:0.3333333333333333 2:0.1111111111111111 3:1.0 4:0.0042643923240938165 58:1.0 103:1.0 244:1.0 
2048.0 1:0.3333333333333333 2:0.08888888888888889 3:0.09302325581395347 4:0.09168443496801706 58:1.0 102:1.0 198:1.0 
2048.0 2:0.2222222222222222 3:0.48684210526315796 4:0.16204690831556504 57:1.0 181:1.0 215:1.0 
2048.0 1:0.3333333333333333 2:0.022222222222222223 3:0.31249999999999994 4:0.0511727078891258 61:1.0 118:1.0 250:1.0 
852.045680864437 1:0.3333333333333333 2:0.044444444444444446 3:1.0 4:0.0042643923240938165 58:1.0 157:1.0 211:1.0 
2048.0 1:0.3333333333333333 2:0.3 3:1.0 4:0.0042643923240938165 57:1.0 102:1.0 215:1.0 
2048.0 1:0.3333333333333333 2:0.4111111111111111 3:0.8511450381679388 4:0.279317697228145 61:1.0 118:1.0 204:1.0 
2048.0 1:0.3333333333333333 2:0.15555555555555556 3:1.0 4:0.0042643923240938165 57:1.0 108:1.0 215:1.0 
2048.0 1:0.3333333333333333 2:0.37777777777777777 3:0.6538461538461539 4:0.16631130063965885 61:1.0 181:1.0 250:1.0 
2048.0 2:0.5444444444444444 3:0.16279069767441862 4:0.5501066098081023 61:1.0 181:1.0 198:1.0 
2048.0 1:0.3333333333333333 3:0.6538461538461539 4:0.16631130063965885 61:1.0 181:1.0 250:1.0 
2048.0 1:0.3333333333333333 3:0.31249999999999994 4:0.0511727078891258 61:1.0 181:1.0 215:1.0 
2048.0 1:0.3333333333333333 2:0.044444444444444446 3:1.0 4:0.0042643923240938165 57:1.0 119:1.0 215:1.0 
2048.0 1:0.3333333333333333 2:0.08888888888888889 3:0.9126712328767121 4:0.6226012793176973 61:1.0 119:1.0 198:1.0 
2048.0 2:0.13333333333333333 3:0.7399193548387097 4:0.5287846481876333 61:1.0 102:1.0 215:1.0 
2048.0 1:0.3333333333333333 2:0.26666666666666666 3:0.9702970297029703 4:0.21535181236673773 22:1.0 102:1.0 249:1.0 
2048.0 2:0.28888888888888886 3:0.8285714285714285 4:0.07462686567164178 57:1.0 118:1.0 215:1.0 
2048.0 1:0.3333333333333333 2:0.08888888888888889 3:0.09302325581395347 4:0.09168443496801706 58:1.0 118:1.0 198:1.0 
2048.0 1:0.3333333333333333 2:0.13333333333333333 3:0.25 4:0.0042643923240938165 22:1.0 102:1.0 199:1.0 
2048.0 2:0.26666666666666666 3:0.9877049180327867 4:0.2601279317697228 57:1.0 137:1.0 215:1.0 
2048.0 2:0.2 3:0.7399193548387097 4:0.5287846481876333 61:1.0 157:1.0 215:1.0 
2048.0 1:0.3333333333333333 2:0.28888888888888886 3:0.39999999999999997 4:0.010660980810234541 6:1.0 101:1.0 277:1.0 
2048.0 1:0.3333333333333333 2:0.13333333333333333 3:0.9702970297029703 4:0.21535181236673773 22:1.0 119:1.0 249:1.0 
2048.0 1:0.3333333333333333 2:0.08888888888888889 4:0.006396588486140725 23:1.0 119:1.0 215:1.0 
2048.0 2:0.1111111111111111 3:0.7203389830508475 4:0.1257995735607676 23:1.0 119:1.0 211:1.0 
2048.0 1:0.3333333333333333 3:0.31249999999999994 4:0.0511727078891258 61:1.0 181:1.0 198:1.0 
2048.0 2:0.35555555555555557 3:0.7399193548387097 4:0.5287846481876333 61:1.0 121:1.0 215:1.0 
731.8951950696875 1:0.3333333333333333 2:0.5333333333333333 3:0.21173469387755106 4:0.835820895522388 61:1.0 157:1.0 217:1.0 
2048.0 2:0.6555555555555556 3:0.7203389830508475 4:0.1257995735607676 23:1.0 119:1.0 211:1.0 
2048.0 3:0.25 4:0.01279317697228145 58:1.0 181:1.0 217:1.0 
2048.0 2:0.36666666666666664 3:0.7399193548387097 4:0.5287846481876333 61:1.0 157:1.0 215:1.0 
2048.0 1:0.3333333333333333 3:0.21173469387755106 4:0.835820895522388 61:1.0 181:1.0 198:1.0 
2048.0 2:0.1111111111111111 3:0.16279069767441862 4:0.5501066098081023 61:1.0 102:1.0 215:1.0 
2048.0 1:0.3333333333333333 2:0.044444444444444446 3:1.0 4:0.006396588486140725 57:1.0 102:1.0 215:1.0 
2048.0 1:0.3333333333333333 2:0.16666666666666666 3:0.33333333333333337 4:0.03837953091684435 61:1.0 102:1.0 249:1.0 
2048.0 2:0.18888888888888888 3:0.32019704433497537 4:0.43283582089552236 57:1.0 157:1.0 215:1.0 
2048.0 1:0.3333333333333333 2:0.34444444444444444 3:0.8536585365853657 4:0.08742004264392324 23:1.0 102:1.0 197:1.0 
2048.0 1:0.3333333333333333 2:0.3888888888888889 3:0.8511450381679388 4:0.279317697228145 61:1.0 102:1.0 215:1.0 
2048.0 2:0.05555555555555555 3:0.6454545454545455 4:0.11727078891257996 58:1.0 119:1.0 198:1.0 
2048.0 2:0.05555555555555555 3:0.6454545454545455 4:0.11727078891257996 58:1.0 119:1.0 198:1.0 
2048.0 3:0.16279069767441862 4:0.5501066098081023 61:1.0 181:1.0 204:1.0 
2048.0 1:0.3333333333333333 2:0.17777777777777778 3:0.8049999999999998 4:0.21321961620469082 41:1.0 102:1.0 249:1.0 
2048.0 1:0.3333333333333333 2:0.2 3:1.0 4:0.0021321961620469083 57:1.0 137:1.0 250:1.0 
2048.0 2:0.05555555555555555 3:0.6454545454545455 4:0.11727078891257996 58:1.0 119:1.0 198:1.0 
2048.0 2:0.05555555555555555 3:0.6454545454545455 4:0.11727078891257996 58:1.0 119:1.0 198:1.0 
2048.0 2:0.05555555555555555 3:0.6454545454545455 4:0.11727078891257996 58:1.0 119:1.0 198:1.0 
2048.0 1:0.3333333333333333 3:0.8049999999999998 4:0.21321961620469082 41:1.0 181:1.0 249:1.0 
2048.0 1:0.3333333333333333 2:0.022222222222222223 3:1.0 4:0.0021321961620469083 57:1.0 137:1.0 250:1.0 
2048.0 2:0.07777777777777778 3:0.32019704433497537 4:0.43283582089552236 57:1.0 119:1.0 215:1.0 
2048.0 1:0.3333333333333333 2:0.4777777777777778 3:0.8746397694524494 4:0.7398720682302772 61:1.0 102:1.0 250:1.0 
2048.0 2:0.6222222222222222 3:0.8125 4:0.0511727078891258 23:1.0 119:1.0 199:1.0 
2048.0 1:0.3333333333333333 3:0.896039603960396 4:0.21535181236673773 61:1.0 181:1.0 199:1.0 
2048.0 1:0.3333333333333333 2:0.15555555555555556 3:0.9117647058823529 4:0.03624733475479744 23:1.0 134:1.0 215:1.0 
2048.0 1:0.3333333333333333 2:0.08888888888888889 3:0.8333333333333333 4:0.019189765458422176 23:1.0 118:1.0 198:1.0 
2048.0 2:0.28888888888888886 3:0.8125 4:0.0511727078891258 23:1.0 119:1.0 199:1.0 
2033.0862661810263 2:0.15555555555555556 3:0.16279069767441862 4:0.5501066098081023 61:1.0 103:1.0 249:1.0 
2048.0 1:0.3333333333333333 2:0.3111111111111111 3:1.0 4:0.008528784648187633 23:1.0 159:1.0 215:1.0 
2048.0 1:0.3333333333333333 3:0.5714285714285714 4:0.014925373134328358 61:1.0 181:1.0 215:1.0 
2048.0 2:0.14444444444444443 3:0.16279069767441862 4:0.5501066098081023 61:1.0 129:1.0 215:1.0 
2048.0 2:0.43333333333333335 3:1.0 4:0.11300639658848614 57:1.0 102:1.0 250:1.0 
2048.0 1:0.3333333333333333 3:0.8536585365853657 4:0.08742004264392324 23:1.0 181:1.0 197:1.0 
2048.0 1:0.3333333333333333 2:0.14444444444444443 3:0.8511450381679388 4:0.279317697228145 61:1.0 137:1.0 244:1.0 
2048.0 2:0.12222222222222222 3:1.0 4:0.11300639658848614 57:1.0 101:1.0 225:1.0 
2048.0 1:0.3333333333333333 3:0.7272727272727273 4:0.09381663113006397 61:1.0 181:1.0 215:1.0 
2048.0 2:0.05555555555555555 3:0.32019704433497537 4:0.43283582089552236 57:1.0 101:1.0 215:1.0 
2048.0 1:0.3333333333333333 2:0.23333333333333334 3:0.8511450381679388 4:0.279317697228145 61:1.0 137:1.0 244:1.0 
2048.0 2:0.12222222222222222 3:1.0 4:0.11300639658848614 57:1.0 101:1.0 225:1.0 
2048.0 2:0.37777777777777777 3:1.0 4:0.11300639658848614 57:1.0 102:1.0 215:1.0 
2048.0 1:0.3333333333333333 2:0.08888888888888889 3:0.8511450381679388 4:0.279317697228145 61:1.0 102:1.0 250:1.0 
2048.0 2:0.35555555555555557 3:1.0 4:0.11300639658848614 57:1.0 101:1.0 225:1.0 
1596.9435817111382 1:0.3333333333333333 2:0.15555555555555556 3:1.0 6:1.0 181:1.0 244:1.0 
2048.0 1:0.3333333333333333 2:0.16666666666666666 3:1.0 4:0.06396588486140725 23:1.0 129:1.0 244:1.0 
2048.0 1:0.3333333333333333 2:0.4888888888888889 3:0.21173469387755106 4:0.835820895522388 61:1.0 103:1.0 198:1.0 
2048.0 2:0.6 3:0.16279069767441862 4:0.5501066098081023 61:1.0 121:1.0 249:1.0 
2048.0 1:0.3333333333333333 2:0.12222222222222222 3:0.9702970297029703 4:0.21535181236673773 22:1.0 102:1.0 249:1.0 
2048.0 1:0.3333333333333333 2:0.14444444444444443 3:1.0 4:0.0042643923240938165 57:1.0 118:1.0 250:1.0 
2048.0 2:0.24444444444444444 3:0.32019704433497537 4:0.43283582089552236 57:1.0 137:1.0 215:1.0 
2048.0 2:0.4 3:0.8285714285714285 4:0.07462686567164178 57:1.0 121:1.0 215:1.0 
2048.0 1:0.3333333333333333 2:0.13333333333333333 3:0.9702970297029703 4:0.21535181236673773 22:1.0 119:1.0 277:1.0 
2048.0 1:0.3333333333333333 2:0.16666666666666666 3:1.0 4:0.0042643923240938165 57:1.0 181:1.0 215:1.0 
2048.0 1:0.3333333333333333 2:0.4111111111111111 3:1.0 4:0.06396588486140725 23:1.0 119:1.0 211:1.0 
2048.0 1:0.3333333333333333 2:0.43333333333333335 3:1.0 4:0.010660980810234541 19:1.0 119:1.0 249:1.0 
2048.0 1:0.3333333333333333 2:0.5777777777777777 3:0.3 4:0.031982942430703626 6:1.0 134:1.0 277:1.0 
2048.0 1:0.3333333333333333 3:0.33333333333333337 4:0.03837953091684435 61:1.0 181:1.0 199:1.0 
354.90922047901876 2:0.05555555555555555 3:0.32019704433497537 4:0.43283582089552236 57:1.0 103:1.0 217:1.0 
2048.0 1:0.3333333333333333 2:0.15555555555555556 3:1.0 4:0.0042643923240938165 57:1.0 118:1.0 215:1.0 
2048.0 2:0.17777777777777778 3:0.16666666666666663 4:0.019189765458422176 57:1.0 108:1.0 250:1.0 
2048.0 1:0.3333333333333333 2:0.044444444444444446 3:0.3571428571428571 4:0.014925373134328358 57:1.0 119:1.0 250:1.0 
2048.0 1:0.3333333333333333 2:0.18888888888888888 3:0.3571428571428571 4:0.014925373134328358 57:1.0 113:1.0 250:1.0 
2048.0 3:0.16279069767441862 4:0.5501066098081023 61:1.0 181:1.0 198:1.0 
2048.0 1:0.3333333333333333 2:0.24444444444444444 3:0.896039603960396 4:0.21535181236673773 61:1.0 102:1.0 250:1.0 
2048.0 1:0.3333333333333333 2:0.35555555555555557 3:1.0 4:0.03624733475479744 23:1.0 102:1.0 250:1.0 
2048.0 1:0.3333333333333333 2:0.4666666666666667 3:0.3571428571428571 4:0.014925373134328358 57:1.0 119:1.0 250:1.0 
2048.0 1:0.3333333333333333 2:0.16666666666666666 3:1.0 4:0.0021321961620469083 23:1.0 148:1.0 204:1.0 
2048.0 1:0.3333333333333333 2:0.16666666666666666 3:1.0 4:0.0021321961620469083 23:1.0 148:1.0 204:1.0 
2048.0 1:0.3333333333333333 3:0.5714285714285714 4:0.04477611940298507 61:1.0 181:1.0 198:1.0 
2048.0 1:0.3333333333333333 2:0.06666666666666667 3:0.6538461538461539 4:0.02771855010660981 61:1.0 119:1.0 217:1.0 
2048.0 3:0.48684210526315796 4:0.16204690831556504 57:1.0 181:1.0 249:1.0 
2048.0 2:0.011111111111111112 3:0.32019704433497537 4:0.43283582089552236 57:1.0 181:1.0 250:1.0 
2048.0 2:0.022222222222222223 3:0.6454545454545455 4:0.11727078891257996 58:1.0 153:1.0 204:1.0 
2048.0 1:0.3333333333333333 2:0.3111111111111111 3:0.8049999999999998 4:0.21321961620469082 41:1.0 181:1.0 215:1.0 
2048.0 1:0.3333333333333333 2:0.6111111111111112 3:1.0 4:0.0021321961620469083 57:1.0 181:1.0 250:1.0 
2048.0 2:0.17777777777777778 3:0.16279069767441862 4:0.5501066098081023 61:1.0 181:1.0 198:1.0 
2048.0 2:0.25555555555555554 3:0.32019704433497537 4:0.43283582089552236 57:1.0 121:1.0 249:1.0 
2048.0 1:0.3333333333333333 2:0.022222222222222223 3:0.09302325581395347 4:0.09168443496801706 58:1.0 102:1.0 215:1.0 
2048.0 1:0.3333333333333333 2:0.2111111111111111 3:0.25 4:0.0042643923240938165 22:1.0 119:1.0 249:1.0 
2048.0 2:0.23333333333333334 3:0.48684210526315796 4:0.16204690831556504 57:1.0 118:1.0 249:1.0 
2048.0 2:0.044444444444444446 3:0.7203389830508475 4:0.1257995735607676 23:1.0 119:1.0 198:1.0 
2048.0 2:0.14444444444444443 3:1.0 4:0.11300639658848614 57:1.0 119:1.0 225:1.0 
2048.0 2:0.2111111111111111 3:0.48684210526315796 4:0.16204690831556504 57:1.0 181:1.0 215:1.0 
2048.0 2:0.24444444444444444 3:0.7203389830508475 4:0.1257995735607676 23:1.0 119:1.0 198:1.0 
2048.0 2:0.2111111111111111 3:0.7203389830508475 4:0.1257995735607676 23:1.0 119:1.0 198:1.0 
2048.0 2:0.3111111111111111 3:1.0 4:0.11300639658848614 57:1.0 119:1.0 225:1.0 
2048.0 2:0.4111111111111111 3:0.7203389830508475 4:0.1257995735607676 23:1.0 119:1.0 198:1.0 
2048.0 1:0.3333333333333333 2:0.6666666666666666 3:0.8015873015873015 4:0.40298507462686567 61:1.0 181:1.0 215:1.0 
2048.0 1:0.3333333333333333 2:0.25555555555555554 3:0.8511450381679388 4:0.279317697228145 61:1.0 119:1.0 197:1.0 
2048.0 1:0.3333333333333333 3:0.8014705882352942 4:0.2899786780383795 58:1.0 181:1.0 215:1.0 
2048.0 1:0.3333333333333333 2:0.13333333333333333 3:0.8015873015873015 4:0.40298507462686567 61:1.0 181:1.0 215:1.0 
2048.0 1:0.3333333333333333 2:0.3 3:0.8536585365853657 4:0.08742004264392324 23:1.0 102:1.0 206:1.0 
2048.0 2:0.4111111111111111 3:0.7399193548387097 4:0.5287846481876333 61:1.0 181:1.0 226:1.0 
2048.0 2:0.24444444444444444 3:0.16666666666666663 4:0.019189765458422176 57:1.0 102:1.0 250:1.0 
2048.0 1:0.3333333333333333 2:0.022222222222222223 3:0.3571428571428571 4:0.014925373134328358 57:1.0 157:1.0 199:1.0 
2048.0 2:0.1 3:0.32019704433497537 4:0.43283582089552236 57:1.0 102:1.0 215:1.0 
2048.0 3:0.7399193548387097 4:0.5287846481876333 61:1.0 181:1.0 249:1.0 
2048.0 2:0.23333333333333334 3:0.48684210526315796 4:0.16204690831556504 57:1.0 102:1.0 215:1.0 
2048.0 1:0.3333333333333333 2:0.24444444444444444 3:0.8536585365853657 4:0.08742004264392324 23:1.0 153:1.0 211:1.0 
2048.0 1:0.3333333333333333 2:0.24444444444444444 3:0.25 4:0.0042643923240938165 23:1.0 119:1.0 215:1.0 
2048.0 1:0.3333333333333333 2:0.2 3:0.8511450381679388 4:0.279317697228145 61:1.0 102:1.0 198:1.0 
2048.0 1:0.3333333333333333 2:0.5555555555555556 3:0.8511450381679388 4:0.279317697228145 61:1.0 102:1.0 198:1.0 
2048.0 2:0.15555555555555556 3:1.0 4:0.11300639658848614 57:1.0 157:1.0 215:1.0 
2048.0 1:0.3333333333333333 3:0.5714285714285714 4:0.014925373134328358 61:1.0 181:1.0 249:1.0 
2048.0 1:0.3333333333333333 2:0.03333333333333333 3:1.0 4:0.03624733475479744 23:1.0 153:1.0 215:1.0 
2048.0 1:0.3333333333333333 2:0.07777777777777778 3:0.6666666666666666 4:0.03837953091684435 57:1.0 119:1.0 215:1.0 
2048.0 1:0.3333333333333333 2:0.06666666666666667 3:1.0 4:0.03624733475479744 23:1.0 118:1.0 215:1.0 
2048.0 2:0.26666666666666666 3:0.9877049180327867 4:0.2601279317697228 57:1.0 118:1.0 249:1.0 
2048.0 1:0.3333333333333333 3:0.5714285714285714 4:0.014925373134328358 61:1.0 181:1.0 250:1.0 
2048.0 2:0.07777777777777778 3:0.32019704433497537 4:0.43283582089552236 57:1.0 181:1.0 250:1.0 
2048.0 1:0.3333333333333333 2:0.17777777777777778 3:1.0 4:0.0021321961620469083 57:1.0 102:1.0 215:1.0 
2048.0 2:0.011111111111111112 3:0.6454545454545455 4:0.11727078891257996 58:1.0 119:1.0 198:1.0 
41.049277415722514 2:0.16666666666666666 3:0.6454545454545455 4:0.11727078891257996 58:1.0 153:1.0 214:1.0 
2048.0 2:0.2 3:0.32019704433497537 4:0.43283582089552236 57:1.0 101:1.0 215:1.0 
2048.0 1:0.3333333333333333 2:0.4111111111111111 3:1.0 4:0.03624733475479744 23:1.0 102:1.0 225:1.0 
2048.0 2:0.08888888888888889 3:0.48684210526315796 4:0.16204690831556504 57:1.0 101:1.0 215:1.0 
2048.0 1:0.3333333333333333 2:0.2222222222222222 3:0.8049999999999998 4:0.21321961620469082 41:1.0 148:1.0 215:1.0 
2048.0 3:1.0 61:1.0 181:1.0 215:1.0 
2048.0 1:0.3333333333333333 3:0.8928571428571429 4:0.05970149253731343 61:1.0 181:1.0 250:1.0 
2048.0 1:0.3333333333333333 2:0.2222222222222222 3:0.8928571428571429 4:0.05970149253731343 61:1.0 181:1.0 250:1.0 
2048.0 2:0.08888888888888889 3:0.7399193548387097 4:0.5287846481876333 61:1.0 102:1.0 215:1.0 
2048.0 1:0.3333333333333333 2:0.12222222222222222 3:0.7948717948717949 4:0.24946695095948826 61:1.0 119:1.0 197:1.0 
2048.0 2:0.07777777777777778 3:0.32019704433497537 4:0.43283582089552236 57:1.0 102:1.0 249:1.0 
661.4163743459204 1:0.3333333333333333 2:0.07777777777777778 3:1.0 19:1.0 118:1.0 244:1.0 
2048.0 2:0.14444444444444443 3:0.5434782608695652 4:0.09808102345415778 57:1.0 148:1.0 215:1.0 
2048.0 1:0.3333333333333333 2:0.044444444444444446 3:0.31249999999999994 4:0.0511727078891258 61:1.0 102:1.0 249:1.0 
2048.0 2:0.2777777777777778 3:0.9877049180327867 4:0.2601279317697228 57:1.0 102:1.0 249:1.0 
2048.0 3:0.32019704433497537 4:0.43283582089552236 57:1.0 181:1.0 249:1.0 
2048.0 2:0.2 3:0.32019704433497537 4:0.43283582089552236 57:1.0 102:1.0 249:1.0 
2048.0 1:0.3333333333333333 2:0.1111111111111111 3:0.5714285714285714 4:0.014925373134328358 61:1.0 102:1.0 217:1.0 
1546.84833879822 1:0.3333333333333333 2:0.12222222222222222 3:1.0 4:0.0021321961620469083 19:1.0 118:1.0 204:1.0 
2048.0 2:0.15555555555555556 3:0.16279069767441862 4:0.5501066098081023 61:1.0 119:1.0 198:1.0 
2048.0 1:0.3333333333333333 2:0.26666666666666666 3:0.31249999999999994 4:0.0511727078891258 61:1.0 102:1.0 249:1.0 
2048.0 1:0.3333333333333333 2:0.03333333333333333 3:0.5714285714285714 4:0.014925373134328358 61:1.0 102:1.0 217:1.0 
2048.0 1:0.3333333333333333 2:0.15555555555555556 3:1.0 4:0.0042643923240938165 57:1.0 154:1.0 215:1.0 
1749.6406622583227 2:0.15555555555555556 3:0.32019704433497537 4:0.43283582089552236 57:1.0 148:1.0 255:1.0 
2048.0 2:0.07777777777777778 3:0.32019704433497537 4:0.43283582089552236 57:1.0 121:1.0 249:1.0 
2048.0 1:0.3333333333333333 3:0.5714285714285714 4:0.04477611940298507 61:1.0 181:1.0 215:1.0 
2048.0 2:0.1111111111111111 3:0.7203389830508475 4:0.1257995735607676 23:1.0 119:1.0 225:1.0 
2048.0 1:0.3333333333333333 2:0.2222222222222222 3:0.5714285714285714 4:0.04477611940298507 61:1.0 157:1.0 215:1.0 
2048.0 2:0.3333333333333333 3:0.7203389830508475 4:0.1257995735607676 23:1.0 119:1.0 225:1.0 
2048.0 3:0.6454545454545455 4:0.11727078891257996 58:1.0 102:1.0 215:1.0 
2048.0 3:0.25 4:0.01279317697228145 58:1.0 181:1.0 198:1.0 
2048.0 2:0.34444444444444444 3:0.5434782608695652 4:0.09808102345415778 57:1.0 102:1.0 244:1.0 
2048.0 2:0.32222222222222224 3:0.32019704433497537 4:0.43283582089552236 57:1.0 181:1.0 215:1.0 
2048.0 1:0.3333333333333333 3:0.5714285714285714 4:0.014925373134328358 61:1.0 181:1.0 215:1.0 
2048.0 2:0.1 3:0.48684210526315796 4:0.16204690831556504 57:1.0 137:1.0 215:1.0 
2048.0 1:0.3333333333333333 3:0.5714285714285714 4:0.014925373134328358 61:1.0 181:1.0 215:1.0 
2048.0 2:0.08888888888888889 3:0.48684210526315796 4:0.16204690831556504 57:1.0 137:1.0 215:1.0 
2048.0 2:0.23333333333333334 3:0.7399193548387097 4:0.5287846481876333 61:1.0 119:1.0 215:1.0 
2048.0 2:0.1 3:0.6454545454545455 4:0.11727078891257996 58:1.0 119:1.0 249:1.0 
2048.0 1:0.3333333333333333 2:0.3333333333333333 3:0.5714285714285714 4:0.014925373134328358 61:1.0 181:1.0 215:1.0 
2048.0 2:0.43333333333333335 3:0.48684210526315796 4:0.16204690831556504 57:1.0 137:1.0 215:1.0 
2048.0 1:0.3333333333333333 2:0.5 3:0.9872881355932204 4:0.2515991471215352 57:1.0 181:1.0 249:1.0 
2048.0 1:0.3333333333333333 2:0.23333333333333334 3:0.25 4:0.0042643923240938165 57:1.0 102:1.0 215:1.0 
2048.0 1:0.3333333333333333 2:0.17777777777777778 3:1.0 4:0.0042643923240938165 57:1.0 102:1.0 249:1.0 
2048.0 2:0.3333333333333333 3:0.9877049180327867 4:0.2601279317697228 57:1.0 119:1.0 215:1.0 
2048.0 2:0.3 3:0.32019704433497537 4:0.43283582089552236 57:1.0 119:1.0 215:1.0 
2048.0 1:0.3333333333333333 2:0.1111111111111111 3:1.0 4:0.0042643923240938165 57:1.0 129:1.0 225:1.0 
2048.0 1:0.3333333333333333 3:0.5714285714285714 4:0.04477611940298507 61:1.0 181:1.0 215:1.0 
2048.0 2:0.08888888888888889 3:0.32019704433497537 4:0.43283582089552236 57:1.0 121:1.0 225:1.0 
2048.0 2:0.08888888888888889 3:0.32019704433497537 4:0.43283582089552236 57:1.0 102:1.0 225:1.0 
2048.0 2:0.12222222222222222 3:0.48684210526315796 4:0.16204690831556504 57:1.0 119:1.0 215:1.0 
2048.0 1:0.3333333333333333 2:0.3333333333333333 3:1.0 23:1.0 119:1.0 215:1.0 
2048.0 1:0.3333333333333333 2:0.08888888888888889 3:0.5714285714285714 4:0.04477611940298507 61:1.0 121:1.0 215:1.0 
2048.0 2:0.17777777777777778 3:0.32019704433497537 4:0.43283582089552236 57:1.0 102:1.0 225:1.0 
2048.0 1:0.3333333333333333 3:0.5714285714285714 4:0.04477611940298507 61:1.0 181:1.0 215:1.0 
2048.0 2:0.08888888888888889 3:0.48684210526315796 4:0.16204690831556504 57:1.0 121:1.0 215:1.0 
2048.0 1:0.3333333333333333 2:0.13333333333333333 3:0.5714285714285714 4:0.04477611940298507 61:1.0 181:1.0 215:1.0 
2048.0 2:0.18888888888888888 3:0.48684210526315796 4:0.16204690831556504 57:1.0 121:1.0 215:1.0 
2048.0 1:0.3333333333333333 2:0.3888888888888889 3:0.6538461538461539 4:0.16631130063965885 61:1.0 121:1.0 270:1.0 
2048.0 1:0.3333333333333333 3:0.5714285714285714 4:0.04477611940298507 61:1.0 181:1.0 215:1.0 
2048.0 2:0.08888888888888889 3:0.48684210526315796 4:0.16204690831556504 57:1.0 121:1.0 215:1.0 
2048.0 1:0.3333333333333333 2:0.1111111111111111 3:0.9166666666666666 4:0.03837953091684435 22:1.0 102:1.0 226:1.0 
2048.0 1:0.3333333333333333 2:0.14444444444444443 3:1.0 4:0.0021321961620469083 23:1.0 148:1.0 204:1.0 
2048.0 1:0.3333333333333333 2:0.23333333333333334 3:1.0 4:0.0021321961620469083 19:1.0 153:1.0 197:1.0 
2048.0 2:0.15555555555555556 3:0.5434782608695652 4:0.09808102345415778 57:1.0 108:1.0 215:1.0 
2048.0 1:0.3333333333333333 2:0.2111111111111111 3:1.0 4:0.010660980810234541 19:1.0 148:1.0 250:1.0 
2048.0 1:0.3333333333333333 2:0.13333333333333333 3:0.39999999999999997 4:0.010660980810234541 6:1.0 101:1.0 215:1.0 
2048.0 2:0.1 3:0.48684210526315796 4:0.16204690831556504 57:1.0 102:1.0 250:1.0 
2048.0 2:0.2777777777777778 3:0.5434782608695652 4:0.09808102345415778 57:1.0 129:1.0 250:1.0 
2048.0 2:0.23333333333333334 3:0.32019704433497537 4:0.43283582089552236 57:1.0 102:1.0 215:1.0 
2048.0 1:0.3333333333333333 3:0.6538461538461539 4:0.16631130063965885 61:1.0 181:1.0 233:1.0 
255.7795887552101 1:0.3333333333333333 2:0.1 3:1.0 4:0.006396588486140725 6:1.0 181:1.0 226:1.0 
2048.0 1:0.3333333333333333 2:0.15555555555555556 3:1.0 4:0.0042643923240938165 23:1.0 129:1.0 198:1.0 
2048.0 2:0.022222222222222223 3:0.7203389830508475 4:0.1257995735607676 23:1.0 157:1.0 198:1.0 
2048.0 2:0.05555555555555555 3:1.0 4:0.11300639658848614 57:1.0 102:1.0 225:1.0 
2048.0 2:0.1 3:0.8285714285714285 4:0.07462686567164178 57:1.0 121:1.0 215:1.0 
2048.0 2:0.12222222222222222 3:0.6454545454545455 4:0.11727078891257996 58:1.0 119:1.0 215:1.0 
2048.0 1:0.3333333333333333 2:0.43333333333333335 3:1.0 4:0.0042643923240938165 23:1.0 153:1.0 277:1.0 
1464.0469355181522 2:0.6777777777777778 3:0.7203389830508475 4:0.1257995735607676 23:1.0 181:1.0 233:1.0 
2048.0 1:0.3333333333333333 2:0.28888888888888886 3:0.9117647058823529 4:0.03624733475479744 23:1.0 119:1.0 233:1.0 
2048.0 1:0.3333333333333333 2:0.011111111111111112 3:0.8746397694524494 4:0.7398720682302772 61:1.0 181:1.0 215:1.0 
2048.0 2:0.16666666666666666 3:0.32019704433497537 4:0.43283582089552236 57:1.0 102:1.0 249:1.0 
2048.0 1:0.3333333333333333 3:0.9216417910447761 4:0.2857142857142857 61:1.0 181:1.0 198:1.0 
2048.0 1:0.3333333333333333 2:0.07777777777777778 3:1.0 4:0.0042643923240938165 57:1.0 118:1.0 215:1.0 
2048.0 1:0.3333333333333333 2:0.14444444444444443 3:0.8499999999999999 4:0.29850746268656714 61:1.0 157:1.0 198:1.0 
2048.0 2:0.16666666666666666 3:0.32019704433497537 4:0.43283582089552236 57:1.0 102:1.0 249:1.0 
2048.0 1:0.3333333333333333 2:0.2222222222222222 3:0.37500000000000006 4:0.0255863539445629 41:1.0 119:1.0 215:1.0 
2048.0 2:0.5222222222222223 3:0.6454545454545455 4:0.11727078891257996 58:1.0 181:1.0 198:1.0 
2048.0 2:0.08888888888888889 3:0.8285714285714285 4:0.07462686567164178 57:1.0 102:1.0 277:1.0 
2048.0 2:0.07777777777777778 3:1.0 4:0.11300639658848614 57:1.0 181:1.0 198:1.0 
2048.0 2:0.14444444444444443 3:0.8285714285714285 4:0.07462686567164178 57:1.0 103:1.0 215:1.0 
2048.0 2:0.5777777777777777 3:0.48684210526315796 4:0.16204690831556504 57:1.0 102:1.0 215:1.0 
2048.0 1:0.3333333333333333 2:0.2222222222222222 3:0.9702970297029703 4:0.21535181236673773 22:1.0 102:1.0 277:1.0 
616.1217697093364 2:0.1 3:0.6454545454545455 4:0.11727078891257996 58:1.0 102:1.0 198:1.0 
2048.0 2:0.4666666666666667 3:0.7203389830508475 4:0.1257995735607676 23:1.0 181:1.0 204:1.0 
2048.0 2:0.2 3:0.32019704433497537 4:0.43283582089552236 57:1.0 102:1.0 249:1.0 
2048.0 1:0.3333333333333333 2:0.3111111111111111 3:1.0 4:0.06396588486140725 23:1.0 102:1.0 198:1.0 
2048.0 1:0.3333333333333333 2:0.35555555555555557 3:0.3571428571428571 4:0.014925373134328358 57:1.0 119:1.0 197:1.0 
2048.0 2:0.5333333333333333 3:1.0 4:0.11300639658848614 57:1.0 101:1.0 225:1.0 
2048.0 1:0.3333333333333333 2:0.2 3:1.0 4:0.0042643923240938165 57:1.0 148:1.0 217:1.0 
2048.0 1:0.3333333333333333 2:0.2777777777777778 3:0.8499999999999999 4:0.29850746268656714 61:1.0 119:1.0 198:1.0 
2048.0 1:0.3333333333333333 2:0.06666666666666667 3:0.8333333333333333 4:0.019189765458422176 23:1.0 119:1.0 250:1.0 
2048.0 2:0.08888888888888889 3:0.8285714285714285 4:0.07462686567164178 57:1.0 121:1.0 215:1.0 
2048.0 2:0.18888888888888888 3:0.7203389830508475 4:0.1257995735607676 23:1.0 119:1.0 233:1.0 
2048.0 2:0.2111111111111111 3:0.32019704433497537 4:0.43283582089552236 57:1.0 119:1.0 249:1.0 
2048.0 1:0.3333333333333333 2:0.28888888888888886 4:0.006396588486140725 23:1.0 119:1.0 277:1.0 
2048.0 2:0.12222222222222222 3:0.6454545454545455 4:0.11727078891257996 58:1.0 103:1.0 233:1.0 
2048.0 2:0.28888888888888886 3:0.6454545454545455 4:0.11727078891257996 58:1.0 181:1.0 215:1.0 
2048.0 1:0.3333333333333333 3:0.5714285714285714 4:0.014925373134328358 61:1.0 181:1.0 215:1.0 
2048.0 2:0.12222222222222222 3:0.32019704433497537 4:0.43283582089552236 57:1.0 102:1.0 215:1.0 
2048.0 1:0.3333333333333333 3:0.49999999999999994 4:0.006396588486140725 57:1.0 181:1.0 215:1.0 
2048.0 1:0.3333333333333333 3:0.9117647058823529 4:0.03624733475479744 23:1.0 181:1.0 244:1.0 
1949.5065501915044 1:0.3333333333333333 2:0.06666666666666667 3:1.0 23:1.0 115:1.0 250:1.0 
2048.0 2:0.5777777777777777 3:0.94 4:0.10660980810234541 61:1.0 102:1.0 204:1.0 
2048.0 1:0.3333333333333333 3:0.6538461538461539 4:0.16631130063965885 61:1.0 181:1.0 204:1.0 
2048.0 2:0.4444444444444444 3:0.5434782608695652 4:0.09808102345415778 57:1.0 137:1.0 215:1.0 
2048.0 1:0.3333333333333333 2:0.06666666666666667 3:0.8499999999999999 4:0.29850746268656714 61:1.0 115:1.0 215:1.0 
2048.0 1:0.3333333333333333 2:0.03333333333333333 3:0.25 4:0.0042643923240938165 23:1.0 102:1.0 215:1.0 
2048.0 1:0.3333333333333333 2:0.03333333333333333 3:0.25 4:0.0042643923240938165 23:1.0 102:1.0 215:1.0 
2048.0 1:0.3333333333333333 2:0.28888888888888886 3:0.8333333333333333 4:0.019189765458422176 23:1.0 102:1.0 197:1.0 
2048.0 2:0.7222222222222222 3:0.8285714285714285 4:0.07462686567164178 57:1.0 102:1.0 215:1.0 
2048.0 1:0.3333333333333333 2:0.08888888888888889 3:0.25 4:0.0042643923240938165 22:1.0 119:1.0 250:1.0 
2048.0 1:0.3333333333333333 2:0.32222222222222224 3:0.9702970297029703 4:0.21535181236673773 22:1.0 102:1.0 277:1.0 
2048.0 2:0.4222222222222222 3:0.32019704433497537 4:0.43283582089552236 57:1.0 102:1.0 215:1.0 
2048.0 2:0.2222222222222222 3:0.48684210526315796 4:0.16204690831556504 57:1.0 119:1.0 215:1.0 
2048.0 1:0.3333333333333333 3:0.8333333333333333 4:0.019189765458422176 23:1.0 181:1.0 198:1.0 
2048.0 2:0.14444444444444443 3:0.7399193548387097 4:0.5287846481876333 61:1.0 181:1.0 249:1.0 
2048.0 2:0.13333333333333333 3:0.7399193548387097 4:0.5287846481876333 61:1.0 102:1.0 249:1.0 
2048.0 1:0.3333333333333333 2:0.18888888888888888 3:0.7857142857142855 4:0.05970149253731343 23:1.0 157:1.0 215:1.0 
2048.0 1:0.3333333333333333 2:0.2111111111111111 3:0.8536585365853657 4:0.08742004264392324 23:1.0 119:1.0 198:1.0 
2048.0 1:0.3333333333333333 3:0.33333333333333337 4:0.03837953091684435 61:1.0 181:1.0 215:1.0 
2048.0 1:0.3333333333333333 2:0.022222222222222223 3:0.7857142857142855 4:0.05970149253731343 23:1.0 157:1.0 249:1.0 
2048.0 1:0.3333333333333333 2:0.011111111111111112 3:0.33333333333333337 4:0.03837953091684435 61:1.0 181:1.0 215:1.0 
2048.0 1:0.3333333333333333 2:0.03333333333333333 3:0.7857142857142855 4:0.05970149253731343 23:1.0 157:1.0 215:1.0 
2048.0 1:0.3333333333333333 2:0.05555555555555555 3:0.8536585365853657 4:0.08742004264392324 23:1.0 119:1.0 198:1.0 
2048.0 2:0.03333333333333333 3:0.48684210526315796 4:0.16204690831556504 57:1.0 181:1.0 215:1.0 
2048.0 2:0.2111111111111111 3:0.16279069767441862 4:0.5501066098081023 61:1.0 181:1.0 198:1.0 
2048.0 2:0.24444444444444444 3:0.32019704433497537 4:0.43283582089552236 57:1.0 102:1.0 215:1.0 
2048.0 1:0.3333333333333333 2:0.011111111111111112 3:0.33333333333333337 4:0.03837953091684435 61:1.0 181:1.0 215:1.0 
2048.0 1:0.3333333333333333 2:0.03333333333333333 3:0.7857142857142855 4:0.05970149253731343 23:1.0 157:1.0 215:1.0 
2048.0 1:0.3333333333333333 2:0.05555555555555555 3:0.8536585365853657 4:0.08742004264392324 23:1.0 119:1.0 198:1.0 
2048.0 1:0.3333333333333333 2:0.18888888888888888 3:0.6666666666666666 4:0.019189765458422176 57:1.0 119:1.0 249:1.0 
2048.0 1:0.3333333333333333 2:0.044444444444444446 3:1.0 4:0.0042643923240938165 57:1.0 102:1.0 215:1.0 
2048.0 1:0.3333333333333333 2:0.1 3:1.0 4:0.010660980810234541 19:1.0 119:1.0 249:1.0 
2048.0 1:0.3333333333333333 2:0.13333333333333333 3:0.21173469387755106 4:0.835820895522388 61:1.0 153:1.0 244:1.0 
2048.0 2:0.2777777777777778 3:0.16279069767441862 4:0.5501066098081023 61:1.0 181:1.0 198:1.0 
2048.0 2:0.2222222222222222 3:0.48684210526315796 4:0.16204690831556504 57:1.0 102:1.0 215:1.0 
2048.0 1:0.3333333333333333 2:0.022222222222222223 3:0.8928571428571429 4:0.05970149253731343 61:1.0 102:1.0 215:1.0 
2048.0 1:0.3333333333333333 2:0.07777777777777778 3:0.7000000000000001 4:0.053304904051172705 61:1.0 102:1.0 244:1.0 
2048.0 1:0.3333333333333333 2:0.05555555555555555 3:0.9126712328767121 4:0.6226012793176973 61:1.0 153:1.0 224:1.0 
2048.0 2:0.14444444444444443 3:0.32019704433497537 4:0.43283582089552236 57:1.0 102:1.0 249:1.0 
2048.0 1:0.3333333333333333 2:0.45555555555555555 3:1.0 23:1.0 102:1.0 217:1.0 
2048.0 2:0.1111111111111111 3:0.94 4:0.10660980810234541 61:1.0 102:1.0 198:1.0 
2048.0 2:0.32222222222222224 3:0.48684210526315796 4:0.16204690831556504 57:1.0 102:1.0 249:1.0 
2048.0 2:0.28888888888888886 3:0.8125 4:0.0511727078891258 23:1.0 129:1.0 233:1.0 
2048.0 3:0.16279069767441862 4:0.5501066098081023 61:1.0 181:1.0 250:1.0 
2048.0 2:0.18888888888888888 3:0.32019704433497537 4:0.43283582089552236 57:1.0 103:1.0 215:1.0 
2048.0 1:0.3333333333333333 2:0.16666666666666666 3:0.9516129032258065 4:0.06609808102345416 61:1.0 101:1.0 214:1.0 
2048.0 1:0.3333333333333333 2:0.13333333333333333 3:1.0 4:0.0021321961620469083 57:1.0 102:1.0 217:1.0 
2048.0 2:0.05555555555555555 3:0.48684210526315796 4:0.16204690831556504 57:1.0 137:1.0 215:1.0 
2048.0 1:0.3333333333333333 2:0.14444444444444443 3:0.9516129032258065 4:0.13219616204690832 61:1.0 119:1.0 249:1.0 
2048.0 1:0.3333333333333333 2:0.17777777777777778 3:0.6538461538461539 4:0.02771855010660981 61:1.0 181:1.0 217:1.0 
2048.0 1:0.3333333333333333 2:0.4888888888888889 3:0.9516129032258065 4:0.13219616204690832 61:1.0 181:1.0 249:1.0 
2048.0 2:0.18888888888888888 3:0.48684210526315796 4:0.16204690831556504 57:1.0 113:1.0 215:1.0 
2048.0 1:0.3333333333333333 2:0.3111111111111111 3:0.7000000000000001 4:0.010660980810234541 57:1.0 137:1.0 215:1.0 
2048.0 2:0.18888888888888888 3:0.32019704433497537 4:0.43283582089552236 57:1.0 157:1.0 215:1.0 
2048.0 1:0.3333333333333333 2:0.16666666666666666 3:1.0 4:0.0021321961620469083 19:1.0 103:1.0 249:1.0 
2048.0 1:0.3333333333333333 3:0.31249999999999994 4:0.0511727078891258 61:1.0 181:1.0 215:1.0 
2048.0 2:0.14444444444444443 3:0.9296375266524519 4:1.0 61:1.0 102:1.0 250:1.0 
2048.0 3:0.9877049180327867 4:0.2601279317697228 57:1.0 181:1.0 226:1.0 
2048.0 1:0.3333333333333333 2:0.15555555555555556 3:0.9216417910447761 4:0.2857142857142857 61:1.0 181:1.0 249:1.0 
2048.0 1:0.3333333333333333 2:0.24444444444444444 3:0.49999999999999994 4:0.006396588486140725 57:1.0 119:1.0 215:1.0 
2048.0 1:0.3333333333333333 2:0.28888888888888886 3:1.0 4:0.006396588486140725 19:1.0 119:1.0 244:1.0 
2048.0 1:0.3333333333333333 2:0.3333333333333333 3:0.21173469387755106 4:0.835820895522388 61:1.0 148:1.0 215:1.0 
2048.0 2:0.6555555555555556 3:0.32019704433497537 4:0.43283582089552236 57:1.0 102:1.0 249:1.0 
2048.0 2:0.044444444444444446 3:0.48684210526315796 4:0.16204690831556504 57:1.0 102:1.0 215:1.0 
2048.0 2:0.2111111111111111 3:0.32019704433497537 4:0.43283582089552236 57:1.0 102:1.0 215:1.0 
2048.0 1:0.3333333333333333 2:0.4666666666666667 3:0.9702970297029703 4:0.21535181236673773 22:1.0 102:1.0 249:1.0 
2048.0 1:0.3333333333333333 2:0.6111111111111112 3:0.8928571428571429 4:0.05970149253731343 61:1.0 181:1.0 215:1.0 
2048.0 1:0.3333333333333333 2:0.6444444444444445 3:0.33333333333333337 4:0.03837953091684435 61:1.0 119:1.0 215:1.0 
2048.0 2:0.08888888888888889 3:0.48684210526315796 4:0.16204690831556504 57:1.0 118:1.0 198:1.0 
2048.0 2:0.15555555555555556 3:0.32019704433497537 4:0.43283582089552236 57:1.0 102:1.0 215:1.0 
2048.0 2:0.06666666666666667 3:0.32019704433497537 4:0.43283582089552236 57:1.0 102:1.0 199:1.0 
2048.0 1:0.3333333333333333 2:0.16666666666666666 3:0.8015873015873015 4:0.40298507462686567 61:1.0 102:1.0 198:1.0 
2048.0 2:0.7444444444444445 3:0.7399193548387097 4:0.5287846481876333 61:1.0 121:1.0 215:1.0 
2048.0 1:0.3333333333333333 2:0.07777777777777778 3:0.8928571428571429 4:0.05970149253731343 61:1.0 119:1.0 215:1.0 
2048.0 1:0.3333333333333333 2:0.1111111111111111 3:0.33333333333333337 4:0.03837953091684435 61:1.0 119:1.0 215:1.0 
2048.0 2:0.044444444444444446 3:0.48684210526315796 4:0.16204690831556504 57:1.0 102:1.0 215:1.0 
2048.0 2:0.5777777777777777 3:1.0 4:0.11300639658848614 57:1.0 118:1.0 249:1.0 
2048.0 2:0.2111111111111111 3:0.32019704433497537 4:0.43283582089552236 57:1.0 181:1.0 215:1.0 
2048.0 2:0.2111111111111111 3:0.32019704433497537 4:0.43283582089552236 57:1.0 181:1.0 217:1.0 
2048.0 2:0.23333333333333334 3:0.32019704433497537 4:0.43283582089552236 57:1.0 137:1.0 215:1.0 
2048.0 2:0.15555555555555556 3:0.48684210526315796 4:0.16204690831556504 57:1.0 148:1.0 215:1.0 
2048.0 1:0.3333333333333333 3:0.6666666666666666 4:0.019189765458422176 57:1.0 181:1.0 249:1.0 
2048.0 1:0.3333333333333333 2:0.23333333333333334 3:1.0 4:0.06396588486140725 23:1.0 102:1.0 244:1.0 
2048.0 1:0.3333333333333333 2:0.36666666666666664 3:0.8049999999999998 4:0.21321961620469082 41:1.0 181:1.0 244:1.0 
2048.0 1:0.3333333333333333 3:1.0 4:0.06396588486140725 23:1.0 181:1.0 244:1.0 
2048.0 1:0.3333333333333333 2:0.044444444444444446 3:0.7000000000000001 4:0.010660980810234541 19:1.0 119:1.0 277:1.0 
2048.0 1:0.3333333333333333 3:1.0 4:0.06396588486140725 23:1.0 181:1.0 244:1.0 
1929.557857935545 1:0.3333333333333333 2:0.2 3:0.8049999999999998 4:0.21321961620469082 41:1.0 121:1.0 244:1.0 
2048.0 1:0.3333333333333333 2:0.2 3:1.0 4:0.06396588486140725 23:1.0 119:1.0 244:1.0 
2048.0 1:0.3333333333333333 2:0.4111111111111111 3:0.8049999999999998 4:0.21321961620469082 41:1.0 181:1.0 244:1.0 
2048.0 2:0.2111111111111111 3:0.7203389830508475 4:0.1257995735607676 23:1.0 101:1.0 204:1.0 
2048.0 1:0.3333333333333333 2:0.23333333333333334 3:0.6538461538461539 4:0.16631130063965885 61:1.0 101:1.0 215:1.0 
2048.0 2:0.12222222222222222 3:0.6454545454545455 4:0.11727078891257996 58:1.0 102:1.0 215:1.0 
2048.0 1:0.3333333333333333 3:0.8499999999999999 4:0.29850746268656714 61:1.0 181:1.0 199:1.0 
2048.0 1:0.3333333333333333 2:0.05555555555555555 3:1.0 4:0.0042643923240938165 19:1.0 103:1.0 249:1.0 
2048.0 1:0.3333333333333333 2:0.18888888888888888 3:0.7948717948717949 4:0.24946695095948826 61:1.0 102:1.0 197:1.0 
2048.0 2:0.3111111111111111 3:0.32019704433497537 4:0.43283582089552236 57:1.0 115:1.0 215:1.0 
2048.0 1:0.3333333333333333 3:0.31249999999999994 4:0.0511727078891258 61:1.0 181:1.0 198:1.0 
2048.0 1:0.3333333333333333 2:0.044444444444444446 3:1.0 4:0.03624733475479744 23:1.0 102:1.0 249:1.0 
2048.0 1:0.3333333333333333 2:0.06666666666666667 3:1.0 4:0.0042643923240938165 57:1.0 119:1.0 215:1.0 
2048.0 1:0.3333333333333333 2:0.16666666666666666 3:0.896039603960396 4:0.21535181236673773 61:1.0 102:1.0 215:1.0 
2048.0 2:0.14444444444444443 3:0.32019704433497537 4:0.43283582089552236 57:1.0 137:1.0 249:1.0 
2048.0 2:0.24444444444444444 3:0.32019704433497537 4:0.43283582089552236 57:1.0 119:1.0 249:1.0 
2048.0 1:0.3333333333333333 2:0.4 3:0.6538461538461539 4:0.16631130063965885 61:1.0 181:1.0 233:1.0 
2048.0 2:0.4444444444444444 3:0.32019704433497537 4:0.43283582089552236 57:1.0 137:1.0 249:1.0 
2048.0 1:0.3333333333333333 3:1.0 4:0.014925373134328358 22:1.0 181:1.0 215:1.0 
2048.0 2:0.2 3:0.8285714285714285 4:0.07462686567164178 57:1.0 102:1.0 226:1.0 
2048.0 1:0.3333333333333333 3:0.896039603960396 4:0.21535181236673773 61:1.0 181:1.0 253:1.0 
2048.0 2:0.2 3:0.16279069767441862 4:0.5501066098081023 61:1.0 102:1.0 215:1.0 
2048.0 1:0.3333333333333333 2:0.2111111111111111 3:1.0 4:0.0042643923240938165 58:1.0 181:1.0 199:1.0 
2048.0 1:0.3333333333333333 3:0.896039603960396 4:0.21535181236673773 61:1.0 181:1.0 211:1.0 
2048.0 1:0.3333333333333333 2:0.06666666666666667 3:1.0 4:0.0042643923240938165 57:1.0 102:1.0 215:1.0 
2048.0 1:0.3333333333333333 2:0.25555555555555554 3:0.21173469387755106 4:0.835820895522388 61:1.0 102:1.0 225:1.0 
2048.0 2:0.37777777777777777 3:0.16279069767441862 4:0.5501066098081023 61:1.0 102:1.0 215:1.0 
2048.0 1:0.3333333333333333 2:0.4111111111111111 3:0.39999999999999997 4:0.010660980810234541 6:1.0 119:1.0 215:1.0 
2048.0 1:0.3333333333333333 2:0.43333333333333335 3:1.0 4:0.06396588486140725 23:1.0 102:1.0 244:1.0 
2048.0 1:0.3333333333333333 2:0.3333333333333333 3:0.9216417910447761 4:0.2857142857142857 61:1.0 181:1.0 233:1.0 
2048.0 1:0.3333333333333333 3:0.33333333333333337 4:0.03837953091684435 61:1.0 181:1.0 215:1.0 
2048.0 1:0.3333333333333333 3:0.49999999999999994 4:0.006396588486140725 58:1.0 181:1.0 199:1.0 
2048.0 2:0.18888888888888888 3:0.7399193548387097 4:0.5287846481876333 61:1.0 102:1.0 249:1.0 
2048.0 1:0.3333333333333333 2:0.25555555555555554 3:0.21173469387755106 4:0.835820895522388 61:1.0 102:1.0 233:1.0 
2048.0 1:0.3333333333333333 3:0.9126712328767121 4:0.6226012793176973 61:1.0 181:1.0 215:1.0 
2048.0 1:0.3333333333333333 2:0.1 3:0.8125 4:0.017057569296375266 23:1.0 129:1.0 198:1.0 
2048.0 2:0.14444444444444443 3:0.32019704433497537 4:0.43283582089552236 57:1.0 102:1.0 253:1.0 
2048.0 1:0.3333333333333333 2:0.15555555555555556 3:0.21173469387755106 4:0.835820895522388 61:1.0 153:1.0 215:1.0 
2048.0 1:0.3333333333333333 2:0.25555555555555554 3:0.9117647058823529 4:0.03624733475479744 23:1.0 181:1.0 215:1.0 
2048.0 1:0.3333333333333333 3:0.8499999999999999 4:0.29850746268656714 61:1.0 181:1.0 233:1.0 
2048.0 2:0.18888888888888888 3:0.7399193548387097 4:0.5287846481876333 61:1.0 181:1.0 215:1.0 
2048.0 2:0.18888888888888888 3:0.7399193548387097 4:0.5287846481876333 61:1.0 181:1.0 215:1.0 
2048.0 2:0.011111111111111112 3:0.48684210526315796 4:0.16204690831556504 57:1.0 137:1.0 215:1.0 
2048.0 1:0.3333333333333333 2:0.15555555555555556 3:1.0 4:0.006396588486140725 57:1.0 102:1.0 215:1.0 
2048.0 1:0.3333333333333333 2:0.4444444444444444 3:0.8014705882352942 4:0.2899786780383795 58:1.0 102:1.0 215:1.0 
2048.0 1:0.3333333333333333 2:0.08888888888888889 3:0.8125 4:0.017057569296375266 23:1.0 129:1.0 198:1.0 
2048.0 2:0.13333333333333333 3:0.32019704433497537 4:0.43283582089552236 57:1.0 102:1.0 253:1.0 
2048.0 1:0.3333333333333333 2:0.14444444444444443 3:0.21173469387755106 4:0.835820895522388 61:1.0 153:1.0 215:1.0 
2048.0 1:0.3333333333333333 2:0.4666666666666667 3:1.0 4:0.014925373134328358 22:1.0 118:1.0 233:1.0 
2048.0 1:0.3333333333333333 2:0.06666666666666667 3:0.8049999999999998 4:0.21321961620469082 41:1.0 117:1.0 244:1.0 
2048.0 2:0.16666666666666666 3:0.32019704433497537 4:0.43283582089552236 57:1.0 137:1.0 215:1.0 
2048.0 1:0.3333333333333333 2:0.2 3:0.21173469387755106 4:0.835820895522388 61:1.0 102:1.0 215:1.0 
2048.0 3:0.9296375266524519 4:1.0 61:1.0 181:1.0 198:1.0 
2048.0 2:0.3 3:0.7399193548387097 4:0.5287846481876333 61:1.0 181:1.0 215:1.0 
2048.0 2:0.03333333333333333 3:0.94 4:0.10660980810234541 61:1.0 119:1.0 215:1.0 
2048.0 1:0.3333333333333333 2:0.14444444444444443 3:0.7857142857142855 4:0.05970149253731343 23:1.0 102:1.0 198:1.0 
2048.0 1:0.3333333333333333 2:0.044444444444444446 3:0.7857142857142855 4:0.05970149253731343 23:1.0 102:1.0 198:1.0 
2048.0 1:0.3333333333333333 2:0.12222222222222222 3:1.0 4:0.06396588486140725 23:1.0 102:1.0 198:1.0 
2048.0 2:0.18888888888888888 3:0.8285714285714285 4:0.07462686567164178 57:1.0 129:1.0 215:1.0 
2048.0 1:0.3333333333333333 2:0.4111111111111111 3:0.7391304347826086 4:0.04904051172707889 61:1.0 181:1.0 198:1.0 
2048.0 2:0.5666666666666667 3:0.7399193548387097 4:0.5287846481876333 61:1.0 181:1.0 215:1.0 
2048.0 2:0.022222222222222223 3:0.32019704433497537 4:0.43283582089552236 57:1.0 102:1.0 215:1.0 
2048.0 1:0.3333333333333333 2:0.13333333333333333 3:0.8536585365853657 4:0.08742004264392324 23:1.0 102:1.0 198:1.0 
2048.0 2:0.4777777777777778 3:0.94 4:0.10660980810234541 61:1.0 119:1.0 198:1.0 
2048.0 3:0.16279069767441862 4:0.5501066098081023 61:1.0 181:1.0 198:1.0 
2048.0 2:0.32222222222222224 3:0.16279069767441862 4:0.5501066098081023 61:1.0 121:1.0 198:1.0 
2048.0 1:0.3333333333333333 2:0.2111111111111111 3:0.9216417910447761 4:0.2857142857142857 61:1.0 181:1.0 199:1.0 
2048.0 2:0.07777777777777778 3:0.94 4:0.10660980810234541 61:1.0 119:1.0 198:1.0 
2048.0 1:0.3333333333333333 2:0.07777777777777778 3:1.0 4:0.008528784648187633 23:1.0 121:1.0 197:1.0 
2048.0 2:0.13333333333333333 3:0.48684210526315796 4:0.16204690831556504 57:1.0 102:1.0 225:1.0 
2048.0 1:0.3333333333333333 2:0.2 3:0.21173469387755106 4:0.835820895522388 61:1.0 153:1.0 211:1.0 
2048.0 1:0.3333333333333333 2:0.2222222222222222 3:0.8511450381679388 4:0.279317697228145 61:1.0 102:1.0 215:1.0 
2048.0 2:0.6333333333333333 3:0.8125 4:0.0511727078891258 23:1.0 102:1.0 198:1.0 
2048.0 2:0.07777777777777778 3:0.48684210526315796 4:0.16204690831556504 57:1.0 102:1.0 215:1.0 
2048.0 3:0.7399193548387097 4:0.5287846481876333 61:1.0 181:1.0 215:1.0 
2048.0 1:0.3333333333333333 2:0.03333333333333333 3:1.0 4:0.06396588486140725 23:1.0 119:1.0 225:1.0 
2048.0 2:0.1 3:0.32019704433497537 4:0.43283582089552236 57:1.0 102:1.0 215:1.0 
2048.0 1:0.3333333333333333 2:0.13333333333333333 3:0.31249999999999994 4:0.0511727078891258 61:1.0 181:1.0 215:1.0 
2048.0 1:0.3333333333333333 2:0.17777777777777778 3:1.0 4:0.06396588486140725 23:1.0 119:1.0 225:1.0 
2048.0 1:0.3333333333333333 2:0.3 3:1.0 4:0.0042643923240938165 57:1.0 102:1.0 215:1.0 
2048.0 2:0.13333333333333333 3:0.48684210526315796 4:0.16204690831556504 57:1.0 181:1.0 225:1.0 
2048.0 2:0.25555555555555554 3:0.7399193548387097 4:0.5287846481876333 61:1.0 181:1.0 215:1.0 
2048.0 1:0.3333333333333333 2:0.28888888888888886 3:1.0 4:0.06396588486140725 23:1.0 119:1.0 225:1.0 
2048.0 2:0.36666666666666664 3:0.32019704433497537 4:0.43283582089552236 57:1.0 181:1.0 215:1.0 
2048.0 2:0.23333333333333334 3:0.8285714285714285 4:0.07462686567164178 57:1.0 102:1.0 225:1.0 
2048.0 1:0.3333333333333333 2:0.2222222222222222 3:0.9872881355932204 4:0.2515991471215352 57:1.0 119:1.0 249:1.0 
2048.0 3:0.16279069767441862 4:0.5501066098081023 61:1.0 181:1.0 250:1.0 
2048.0 2:0.12222222222222222 3:0.48684210526315796 4:0.16204690831556504 57:1.0 102:1.0 249:1.0 
2048.0 2:0.12222222222222222 3:0.48684210526315796 4:0.16204690831556504 57:1.0 119:1.0 215:1.0 
2048.0 1:0.3333333333333333 2:0.23333333333333334 3:0.8511450381679388 4:0.279317697228145 61:1.0 102:1.0 249:1.0 
2048.0 1:0.3333333333333333 3:0.8125 4:0.017057569296375266 23:1.0 181:1.0 198:1.0 
2048.0 2:0.08888888888888889 3:0.8125 4:0.0511727078891258 23:1.0 129:1.0 217:1.0 
2048.0 1:0.3333333333333333 2:0.2 3:1.0 4:0.014925373134328358 22:1.0 118:1.0 233:1.0 
2048.0 2:0.18888888888888888 3:0.48684210526315796 4:0.16204690831556504 57:1.0 102:1.0 249:1.0 
2048.0 2:0.022222222222222223 3:0.48684210526315796 4:0.16204690831556504 57:1.0 102:1.0 215:1.0 
2048.0 1:0.3333333333333333 2:0.5555555555555556 3:1.0 4:0.006396588486140725 57:1.0 137:1.0 215:1.0 
2048.0 1:0.3333333333333333 3:0.6666666666666666 4:0.019189765458422176 57:1.0 181:1.0 215:1.0 
2048.0 2:0.36666666666666664 3:0.32019704433497537 4:0.43283582089552236 57:1.0 102:1.0 249:1.0 
2048.0 1:0.3333333333333333 3:0.31249999999999994 4:0.0511727078891258 61:1.0 181:1.0 198:1.0 
2048.0 1:0.3333333333333333 2:0.17777777777777778 3:0.896039603960396 4:0.21535181236673773 61:1.0 129:1.0 214:1.0 
2048.0 1:0.3333333333333333 3:0.31249999999999994 4:0.0511727078891258 61:1.0 181:1.0 211:1.0 
2048.0 1:0.3333333333333333 2:0.08888888888888889 3:0.896039603960396 4:0.21535181236673773 61:1.0 136:1.0 211:1.0 
2048.0 1:0.3333333333333333 3:0.896039603960396 4:0.21535181236673773 61:1.0 181:1.0 253:1.0 
1611.638227882369 1:0.3333333333333333 2:0.022222222222222223 3:0.7499999999999999 4:0.01279317697228145 61:1.0 157:1.0 209:1.0 
2048.0 1:0.3333333333333333 3:0.896039603960396 4:0.21535181236673773 61:1.0 181:1.0 211:1.0 
2048.0 1:0.3333333333333333 3:0.7272727272727273 4:0.09381663113006397 61:1.0 181:1.0 215:1.0 
2048.0 2:0.2777777777777778 3:0.48684210526315796 4:0.16204690831556504 57:1.0 102:1.0 215:1.0 
2048.0 1:0.3333333333333333 3:0.896039603960396 4:0.21535181236673773 61:1.0 181:1.0 250:1.0 
2048.0 1:0.3333333333333333 2:0.022222222222222223 3:0.3571428571428571 4:0.014925373134328358 58:1.0 157:1.0 198:1.0 
2048.0 2:0.3 3:0.16279069767441862 4:0.5501066098081023 61:1.0 102:1.0 233:1.0 
2048.0 1:0.3333333333333333 3:0.896039603960396 4:0.21535181236673773 61:1.0 181:1.0 233:1.0 
2048.0 1:0.3333333333333333 3:0.7000000000000001 4:0.053304904051172705 61:1.0 181:1.0 215:1.0 
2048.0 1:0.3333333333333333 2:0.08888888888888889 3:1.0 4:0.006396588486140725 57:1.0 102:1.0 249:1.0 
2048.0 1:0.3333333333333333 2:0.1 3:1.0 4:0.0042643923240938165 57:1.0 119:1.0 244:1.0 
2048.0 1:0.3333333333333333 3:0.896039603960396 4:0.21535181236673773 61:1.0 181:1.0 250:1.0 
2048.0 1:0.3333333333333333 2:0.06666666666666667 3:0.9702970297029703 4:0.21535181236673773 22:1.0 103:1.0 249:1.0 
2048.0 1:0.3333333333333333 2:0.08888888888888889 3:1.0 4:0.0042643923240938165 57:1.0 118:1.0 215:1.0 
2048.0 2:0.26666666666666666 3:1.0 4:0.03624733475479744 23:1.0 102:1.0 249:1.0 
2048.0 1:0.3333333333333333 3:0.625 4:0.05970149253731343 61:1.0 181:1.0 215:1.0 
2048.0 1:0.3333333333333333 3:0.5588235294117647 4:0.07249466950959488 61:1.0 181:1.0 215:1.0 
2048.0 1:0.3333333333333333 2:0.12222222222222222 3:0.896039603960396 4:0.21535181236673773 61:1.0 101:1.0 233:1.0 
2048.0 1:0.3333333333333333 2:0.05555555555555555 3:1.0 4:0.03624733475479744 23:1.0 102:1.0 215:1.0 
2048.0 1:0.3333333333333333 2:0.05555555555555555 3:1.0 4:0.03624733475479744 23:1.0 113:1.0 215:1.0 
2048.0 3:0.48684210526315796 4:0.16204690831556504 57:1.0 181:1.0 250:1.0 
2048.0 2:0.044444444444444446 3:0.48684210526315796 4:0.16204690831556504 57:1.0 102:1.0 215:1.0 
2048.0 1:0.3333333333333333 3:0.31249999999999994 4:0.0511727078891258 61:1.0 181:1.0 217:1.0 
2048.0 2:0.2111111111111111 3:0.7399193548387097 4:0.5287846481876333 61:1.0 181:1.0 215:1.0 
2048.0 2:0.34444444444444444 3:0.48684210526315796 4:0.16204690831556504 57:1.0 102:1.0 215:1.0 
2048.0 1:0.3333333333333333 2:0.03333333333333333 3:0.9702970297029703 4:0.21535181236673773 22:1.0 119:1.0 198:1.0 
2048.0 1:0.3333333333333333 2:0.12222222222222222 3:0.8333333333333333 4:0.019189765458422176 23:1.0 102:1.0 217:1.0 
2048.0 1:0.3333333333333333 2:0.23333333333333334 3:1.0 4:0.06396588486140725 23:1.0 137:1.0 197:1.0 
2048.0 1:0.3333333333333333 3:0.33333333333333337 4:0.03837953091684435 61:1.0 181:1.0 197:1.0 
2048.0 1:0.3333333333333333 2:0.05555555555555555 3:1.0 4:0.03624733475479744 23:1.0 102:1.0 250:1.0 
2048.0 1:0.3333333333333333 2:0.18888888888888888 3:1.0 4:0.01279317697228145 23:1.0 103:1.0 215:1.0 
2048.0 2:0.011111111111111112 3:0.16279069767441862 4:0.5501066098081023 61:1.0 181:1.0 211:1.0 
2048.0 1:0.3333333333333333 2:0.24444444444444444 3:0.6538461538461539 4:0.16631130063965885 61:1.0 157:1.0 233:1.0 
2048.0 2:0.43333333333333335 3:0.32019704433497537 4:0.43283582089552236 57:1.0 102:1.0 198:1.0 
2048.0 2:0.5 3:0.16279069767441862 4:0.5501066098081023 61:1.0 102:1.0 215:1.0 
2048.0 1:0.3333333333333333 2:0.2 3:0.896039603960396 4:0.21535181236673773 61:1.0 102:1.0 199:1.0 
2048.0 1:0.3333333333333333 2:0.32222222222222224 3:0.8746397694524494 4:0.7398720682302772 61:1.0 119:1.0 217:1.0 
2048.0 1:0.3333333333333333 2:0.43333333333333335 3:1.0 4:0.0021321961620469083 57:1.0 119:1.0 233:1.0 
2048.0 2:0.26666666666666666 3:0.8285714285714285 4:0.07462686567164178 57:1.0 118:1.0 215:1.0 
1256.1844252020203 2:0.4 3:0.48684210526315796 4:0.16204690831556504 57:1.0 137:1.0 198:1.0 
711.724369302197 2:0.2777777777777778 3:0.32019704433497537 4:0.43283582089552236 57:1.0 115:1.0 233:1.0 
2048.0 1:0.3333333333333333 2:0.044444444444444446 3:0.9702970297029703 4:0.21535181236673773 22:1.0 102:1.0 199:1.0 
2048.0 1:0.3333333333333333 2:0.25555555555555554 3:0.7000000000000001 4:0.010660980810234541 19:1.0 154:1.0 215:1.0 
2048.0 2:0.6 3:0.48684210526315796 4:0.16204690831556504 57:1.0 102:1.0 215:1.0 
2048.0 1:0.3333333333333333 2:0.044444444444444446 3:0.7000000000000001 4:0.010660980810234541 19:1.0 119:1.0 244:1.0 
2048.0 1:0.3333333333333333 3:0.8746397694524494 4:0.7398720682302772 61:1.0 181:1.0 217:1.0 
2048.0 1:0.3333333333333333 2:0.1111111111111111 3:1.0 4:0.0021321961620469083 57:1.0 119:1.0 233:1.0 
2048.0 2:0.18888888888888888 3:1.0 4:0.11300639658848614 57:1.0 119:1.0 244:1.0 
2048.0 1:0.3333333333333333 3:0.896039603960396 4:0.21535181236673773 61:1.0 181:1.0 199:1.0 
2048.0 1:0.3333333333333333 2:0.12222222222222222 3:0.8746397694524494 4:0.7398720682302772 61:1.0 119:1.0 217:1.0 
2048.0 1:0.3333333333333333 2:0.23333333333333334 3:1.0 4:0.0021321961620469083 57:1.0 119:1.0 233:1.0 
2048.0 2:0.3111111111111111 3:1.0 4:0.11300639658848614 57:1.0 119:1.0 244:1.0 
2048.0 1:0.3333333333333333 2:0.044444444444444446 3:0.7000000000000001 4:0.010660980810234541 19:1.0 102:1.0 249:1.0 
2048.0 2:0.23333333333333334 3:0.32019704433497537 4:0.43283582089552236 57:1.0 102:1.0 249:1.0 
2048.0 1:0.3333333333333333 2:0.022222222222222223 3:1.0 4:0.03624733475479744 23:1.0 102:1.0 233:1.0 
2048.0 1:0.3333333333333333 2:0.08888888888888889 3:0.21173469387755106 4:0.835820895522388 61:1.0 102:1.0 215:1.0 
2048.0 2:0.23333333333333334 3:0.16279069767441862 4:0.5501066098081023 61:1.0 102:1.0 215:1.0 
2048.0 2:0.4777777777777778 3:0.16279069767441862 4:0.5501066098081023 61:1.0 102:1.0 215:1.0 
2048.0 2:0.12222222222222222 3:0.9296375266524519 4:1.0 61:1.0 102:1.0 249:1.0 
2048.0 2:0.13333333333333333 3:0.9877049180327867 4:0.2601279317697228 57:1.0 157:1.0 215:1.0 
2048.0 1:0.3333333333333333 2:0.15555555555555556 3:1.0 4:0.0042643923240938165 57:1.0 119:1.0 215:1.0 
2048.0 2:0.18888888888888888 3:0.16279069767441862 4:0.5501066098081023 61:1.0 119:1.0 215:1.0 
1801.5478764855213 1:0.3333333333333333 2:0.24444444444444444 3:0.7000000000000001 4:0.010660980810234541 19:1.0 159:1.0 233:1.0 
2048.0 2:0.32222222222222224 3:0.32019704433497537 4:0.43283582089552236 57:1.0 102:1.0 250:1.0 
2048.0 3:0.16279069767441862 4:0.5501066098081023 61:1.0 181:1.0 198:1.0 
2048.0 1:0.3333333333333333 2:0.15555555555555556 3:0.7000000000000001 4:0.010660980810234541 19:1.0 102:1.0 249:1.0 
2048.0 2:0.3111111111111111 3:0.16279069767441862 4:0.5501066098081023 61:1.0 181:1.0 198:1.0 
2048.0 2:0.35555555555555557 3:0.32019704433497537 4:0.43283582089552236 57:1.0 102:1.0 249:1.0 
2048.0 1:0.3333333333333333 2:0.45555555555555555 3:0.9166666666666666 4:0.03837953091684435 61:1.0 181:1.0 215:1.0 
2048.0 1:0.3333333333333333 2:0.15555555555555556 3:0.21173469387755106 4:0.835820895522388 61:1.0 118:1.0 198:1.0 
2048.0 1:0.3333333333333333 2:0.34444444444444444 3:0.39999999999999997 4:0.010660980810234541 6:1.0 121:1.0 215:1.0 
2048.0 1:0.3333333333333333 2:0.36666666666666664 3:1.0 4:0.06396588486140725 23:1.0 102:1.0 244:1.0 
2048.0 1:0.3333333333333333 2:0.4666666666666667 3:1.0 4:0.014925373134328358 22:1.0 119:1.0 215:1.0 
2048.0 1:0.3333333333333333 2:0.044444444444444446 3:0.8333333333333333 4:0.019189765458422176 23:1.0 102:1.0 215:1.0 
2048.0 1:0.3333333333333333 2:0.044444444444444446 3:0.7000000000000001 4:0.010660980810234541 19:1.0 102:1.0 249:1.0 
2048.0 2:0.2 3:0.16279069767441862 4:0.5501066098081023 61:1.0 181:1.0 198:1.0 
2048.0 2:0.24444444444444444 3:0.32019704433497537 4:0.43283582089552236 57:1.0 102:1.0 249:1.0 
2048.0 1:0.3333333333333333 2:0.1111111111111111 3:0.8015873015873015 4:0.40298507462686567 61:1.0 119:1.0 215:1.0 
2048.0 1:0.3333333333333333 2:0.022222222222222223 3:0.31249999999999994 4:0.0511727078891258 61:1.0 102:1.0 249:1.0 
2048.0 2:0.2222222222222222 3:0.8285714285714285 4:0.07462686567164178 57:1.0 119:1.0 215:1.0 
2048.0 1:0.3333333333333333 2:0.06666666666666667 3:0.25 4:0.0042643923240938165 22:1.0 102:1.0 215:1.0 
2048.0 1:0.3333333333333333 2:0.2 3:0.8015873015873015 4:0.40298507462686567 61:1.0 119:1.0 215:1.0 
2048.0 3:0.16279069767441862 4:0.5501066098081023 61:1.0 181:1.0 214:1.0 
2048.0 1:0.3333333333333333 2:0.2777777777777778 3:0.7948717948717949 4:0.24946695095948826 61:1.0 174:1.0 215:1.0 
1445.7682561607146 1:0.3333333333333333 2:0.32222222222222224 3:1.0 4:0.0042643923240938165 19:1.0 153:1.0 197:1.0 
2048.0 2:0.3333333333333333 3:0.5434782608695652 4:0.09808102345415778 57:1.0 101:1.0 215:1.0 
2048.0 2:0.23333333333333334 3:0.32019704433497537 4:0.43283582089552236 57:1.0 102:1.0 249:1.0 
2048.0 3:0.9296375266524519 4:1.0 61:1.0 181:1.0 217:1.0 
2048.0 1:0.3333333333333333 2:0.45555555555555555 3:0.9516129032258065 4:0.06609808102345416 61:1.0 102:1.0 211:1.0 
2048.0 1:0.3333333333333333 2:0.5555555555555556 3:0.9872881355932204 4:0.2515991471215352 57:1.0 181:1.0 255:1.0 
2048.0 1:0.3333333333333333 2:0.6111111111111112 3:1.0 4:0.0042643923240938165 57:1.0 137:1.0 250:1.0 
2048.0 2:0.8111111111111111 3:0.16279069767441862 4:0.5501066098081023 61:1.0 102:1.0 214:1.0 
2048.0 3:0.16279069767441862 4:0.5501066098081023 61:1.0 181:1.0 249:1.0 
2048.0 2:0.1111111111111111 3:0.5434782608695652 4:0.09808102345415778 57:1.0 101:1.0 215:1.0 
2048.0 1:0.3333333333333333 2:0.23333333333333334 3:1.0 4:0.010660980810234541 19:1.0 119:1.0 249:1.0 
2048.0 1:0.3333333333333333 3:0.31249999999999994 4:0.0511727078891258 61:1.0 181:1.0 198:1.0 
2048.0 1:0.3333333333333333 2:0.32222222222222224 3:0.21173469387755106 4:0.835820895522388 61:1.0 119:1.0 198:1.0 
2048.0 2:0.4888888888888889 3:0.9296375266524519 4:1.0 61:1.0 102:1.0 198:1.0 
2048.0 2:0.5333333333333333 3:0.48684210526315796 4:0.16204690831556504 57:1.0 102:1.0 215:1.0 
2048.0 1:0.3333333333333333 2:0.5555555555555556 3:0.8333333333333333 4:0.019189765458422176 23:1.0 119:1.0 204:1.0 
2048.0 1:0.3333333333333333 3:0.5588235294117647 4:0.07249466950959488 61:1.0 181:1.0 255:1.0 
2048.0 1:0.3333333333333333 2:0.25555555555555554 3:0.9126712328767121 4:0.6226012793176973 61:1.0 101:1.0 215:1.0 
2048.0 1:0.3333333333333333 2:0.3 3:1.0 4:0.006396588486140725 57:1.0 119:1.0 249:1.0 
2048.0 2:0.08888888888888889 3:0.48684210526315796 4:0.16204690831556504 57:1.0 102:1.0 215:1.0 
2048.0 1:0.3333333333333333 2:0.2111111111111111 3:0.9117647058823529 4:0.03624733475479744 23:1.0 102:1.0 233:1.0 
2048.0 1:0.3333333333333333 3:0.7272727272727273 4:0.09381663113006397 61:1.0 181:1.0 233:1.0 
2048.0 2:0.12222222222222222 3:0.32019704433497537 4:0.43283582089552236 57:1.0 102:1.0 215:1.0 
2048.0 2:0.18888888888888888 3:0.8285714285714285 4:0.07462686567164178 57:1.0 148:1.0 215:1.0 
2048.0 2:0.2111111111111111 3:0.48684210526315796 4:0.16204690831556504 57:1.0 101:1.0 215:1.0 
2048.0 2:0.2111111111111111 3:0.48684210526315796 4:0.16204690831556504 57:1.0 102:1.0 225:1.0 
2048.0 2:0.011111111111111112 3:0.32019704433497537 4:0.43283582089552236 57:1.0 137:1.0 215:1.0 
1336.5553950426395 1:0.3333333333333333 2:0.022222222222222223 3:0.7857142857142855 4:0.04477611940298507 23:1.0 153:1.0 217:1.0 
2048.0 2:0.1 3:1.0 4:0.11300639658848614 57:1.0 121:1.0 215:1.0 
2048.0 1:0.3333333333333333 2:0.16666666666666666 3:0.49999999999999994 4:0.0767590618336887 57:1.0 101:1.0 215:1.0 
2048.0 1:0.3333333333333333 2:0.23333333333333334 3:1.0 4:0.0021321961620469083 19:1.0 102:1.0 249:1.0 
2048.0 1:0.3333333333333333 3:0.7272727272727273 4:0.09381663113006397 61:1.0 181:1.0 215:1.0 
2048.0 2:0.03333333333333333 3:0.32019704433497537 4:0.43283582089552236 57:1.0 119:1.0 249:1.0 
2048.0 3:0.16279069767441862 4:0.5501066098081023 61:1.0 181:1.0 249:1.0 
2048.0 2:0.2777777777777778 3:0.48684210526315796 4:0.16204690831556504 57:1.0 102:1.0 215:1.0 
2048.0 1:0.3333333333333333 3:1.0 4:0.0021321961620469083 57:1.0 181:1.0 249:1.0 
2048.0 2:0.022222222222222223 3:0.32019704433497537 4:0.43283582089552236 57:1.0 153:1.0 215:1.0 
2048.0 1:0.3333333333333333 2:0.12222222222222222 3:0.21173469387755106 4:0.835820895522388 61:1.0 102:1.0 233:1.0 
2048.0 2:0.2222222222222222 3:0.6454545454545455 4:0.11727078891257996 58:1.0 181:1.0 215:1.0 
2048.0 3:0.7399193548387097 4:0.5287846481876333 61:1.0 181:1.0 250:1.0 
2048.0 2:0.14444444444444443 3:0.8125 4:0.0511727078891258 23:1.0 102:1.0 198:1.0 
2048.0 2:0.4444444444444444 3:0.8125 4:0.0511727078891258 23:1.0 119:1.0 198:1.0 
2048.0 1:0.3333333333333333 2:0.6111111111111112 3:0.8511450381679388 4:0.279317697228145 61:1.0 102:1.0 250:1.0 
2048.0 1:0.3333333333333333 3:0.896039603960396 4:0.21535181236673773 61:1.0 181:1.0 215:1.0 
2048.0 2:0.2 3:0.32019704433497537 4:0.43283582089552236 57:1.0 102:1.0 249:1.0 
2048.0 2:0.2777777777777778 3:0.7399193548387097 4:0.5287846481876333 61:1.0 119:1.0 215:1.0 
2048.0 1:0.3333333333333333 3:0.31249999999999994 4:0.0511727078891258 61:1.0 181:1.0 217:1.0 
2048.0 1:0.3333333333333333 2:0.07777777777777778 3:0.896039603960396 4:0.21535181236673773 61:1.0 102:1.0 215:1.0 
2048.0 2:0.2777777777777778 3:0.32019704433497537 4:0.43283582089552236 57:1.0 102:1.0 249:1.0 
2048.0 1:0.3333333333333333 2:0.4222222222222222 3:0.8015873015873015 4:0.40298507462686567 61:1.0 181:1.0 250:1.0 
500.79338419095933 2:0.5444444444444444 3:0.6454545454545455 4:0.11727078891257996 58:1.0 181:1.0 215:1.0 
2048.0 1:0.3333333333333333 2:0.08888888888888889 3:0.8511450381679388 4:0.279317697228145 61:1.0 102:1.0 225:1.0 
2048.0 2:0.18888888888888888 3:0.48684210526315796 4:0.16204690831556504 57:1.0 181:1.0 215:1.0 
2048.0 1:0.3333333333333333 2:0.1111111111111111 3:0.9702970297029703 4:0.21535181236673773 22:1.0 119:1.0 249:1.0 
2048.0 2:0.2 3:0.8285714285714285 4:0.07462686567164178 57:1.0 102:1.0 215:1.0 
2048.0 1:0.3333333333333333 3:0.8499999999999999 4:0.29850746268656714 61:1.0 181:1.0 211:1.0 
2048.0 2:0.3111111111111111 3:0.48684210526315796 4:0.16204690831556504 57:1.0 137:1.0 215:1.0 
2048.0 1:0.3333333333333333 2:0.32222222222222224 3:1.0 4:0.06396588486140725 23:1.0 153:1.0 197:1.0 
2048.0 1:0.3333333333333333 3:0.8499999999999999 4:0.29850746268656714 61:1.0 181:1.0 198:1.0 
2048.0 1:0.3333333333333333 2:0.13333333333333333 3:0.8125 4:0.06823027718550106 23:1.0 102:1.0 197:1.0 
2048.0 1:0.3333333333333333 2:0.2777777777777778 3:1.0 4:0.01279317697228145 23:1.0 181:1.0 197:1.0 
2048.0 2:0.13333333333333333 3:0.8285714285714285 4:0.07462686567164178 57:1.0 118:1.0 249:1.0 
2048.0 1:0.3333333333333333 2:0.26666666666666666 3:1.0 4:0.0021321961620469083 57:1.0 101:1.0 253:1.0 
2048.0 1:0.3333333333333333 2:0.28888888888888886 3:0.21173469387755106 4:0.835820895522388 61:1.0 153:1.0 197:1.0 
2048.0 2:0.37777777777777777 3:0.16279069767441862 4:0.5501066098081023 61:1.0 102:1.0 215:1.0 
2048.0 1:0.3333333333333333 2:0.3 3:0.8499999999999999 4:0.29850746268656714 61:1.0 118:1.0 198:1.0 
2048.0 1:0.3333333333333333 2:0.4444444444444444 3:0.8125 4:0.06823027718550106 23:1.0 102:1.0 197:1.0 
2048.0 1:0.3333333333333333 2:0.5888888888888889 3:1.0 4:0.01279317697228145 23:1.0 181:1.0 197:1.0 
2048.0 1:0.3333333333333333 2:0.044444444444444446 3:0.7857142857142855 4:0.04477611940298507 23:1.0 119:1.0 233:1.0 
2048.0 2:0.14444444444444443 3:0.32019704433497537 4:0.43283582089552236 57:1.0 137:1.0 215:1.0 
2048.0 2:0.14444444444444443 3:0.32019704433497537 4:0.43283582089552236 57:1.0 181:1.0 215:1.0 
2048.0 1:0.3333333333333333 3:0.21173469387755106 4:0.835820895522388 61:1.0 181:1.0 233:1.0 
2048.0 2:0.05555555555555555 3:0.8285714285714285 4:0.07462686567164178 57:1.0 119:1.0 215:1.0 
2048.0 2:0.07777777777777778 3:0.8125 4:0.0511727078891258 23:1.0 119:1.0 233:1.0 
2048.0 1:0.3333333333333333 2:0.07777777777777778 3:1.0 23:1.0 119:1.0 233:1.0 
2048.0 1:0.3333333333333333 2:0.07777777777777778 3:0.33333333333333337 4:0.03837953091684435 61:1.0 119:1.0 244:1.0 
2048.0 1:0.3333333333333333 2:0.4 3:1.0 4:0.006396588486140725 57:1.0 102:1.0 250:1.0 
2048.0 2:0.022222222222222223 3:0.48684210526315796 4:0.16204690831556504 57:1.0 137:1.0 215:1.0 
2048.0 2:0.022222222222222223 3:0.48684210526315796 4:0.16204690831556504 57:1.0 181:1.0 215:1.0 
2048.0 1:0.3333333333333333 2:0.06666666666666667 3:0.21173469387755106 4:0.835820895522388 61:1.0 181:1.0 211:1.0 
2048.0 1:0.3333333333333333 2:0.06666666666666667 3:0.21173469387755106 4:0.835820895522388 61:1.0 181:1.0 233:1.0 
2048.0 1:0.3333333333333333 2:0.05555555555555555 3:0.8125 4:0.06823027718550106 23:1.0 119:1.0 215:1.0 
2048.0 3:0.16279069767441862 4:0.5501066098081023 61:1.0 181:1.0 198:1.0 
2048.0 1:0.3333333333333333 3:0.21173469387755106 4:0.835820895522388 61:1.0 181:1.0 211:1.0 
2048.0 1:0.3333333333333333 3:0.21173469387755106 4:0.835820895522388 61:1.0 181:1.0 233:1.0 
1874.628201446547 1:0.3333333333333333 2:0.1111111111111111 3:0.37500000000000006 4:0.0255863539445629 41:1.0 129:1.0 233:1.0 
1364.9996135093115 2:0.5777777777777777 3:0.48684210526315796 4:0.16204690831556504 57:1.0 113:1.0 215:1.0 
2048.0 1:0.3333333333333333 3:0.7857142857142855 4:0.05970149253731343 23:1.0 181:1.0 198:1.0 
2048.0 1:0.3333333333333333 2:0.2222222222222222 3:0.6666666666666666 4:0.019189765458422176 57:1.0 102:1.0 215:1.0 
2048.0 2:0.25555555555555554 3:0.48684210526315796 4:0.16204690831556504 57:1.0 102:1.0 215:1.0 
2048.0 1:0.3333333333333333 2:0.12222222222222222 3:0.8511450381679388 4:0.279317697228145 61:1.0 102:1.0 198:1.0 
2048.0 1:0.3333333333333333 2:0.45555555555555555 3:0.7857142857142855 4:0.05970149253731343 23:1.0 181:1.0 198:1.0 
2048.0 2:0.03333333333333333 3:0.48684210526315796 4:0.16204690831556504 57:1.0 113:1.0 215:1.0 
2048.0 1:0.3333333333333333 2:0.16666666666666666 3:0.7857142857142855 4:0.05970149253731343 23:1.0 118:1.0 198:1.0 
2048.0 2:0.2111111111111111 3:0.16279069767441862 4:0.5501066098081023 61:1.0 181:1.0 217:1.0 
2048.0 2:0.25555555555555554 3:0.32019704433497537 4:0.43283582089552236 57:1.0 113:1.0 250:1.0 
2048.0 1:0.3333333333333333 2:0.4888888888888889 3:0.9516129032258065 4:0.13219616204690832 61:1.0 119:1.0 215:1.0 
2048.0 1:0.3333333333333333 2:0.23333333333333334 3:0.8333333333333333 4:0.019189765458422176 23:1.0 119:1.0 197:1.0 
2048.0 2:0.1111111111111111 3:1.0 4:0.11300639658848614 57:1.0 102:1.0 215:1.0 
2048.0 2:0.044444444444444446 3:0.7399193548387097 4:0.5287846481876333 61:1.0 103:1.0 215:1.0 
2048.0 1:0.3333333333333333 2:0.2 3:0.39999999999999997 4:0.021321961620469083 61:1.0 102:1.0 198:1.0 
2048.0 1:0.3333333333333333 2:0.36666666666666664 3:0.9702970297029703 4:0.21535181236673773 22:1.0 119:1.0 277:1.0 
2048.0 2:0.24444444444444444 3:0.32019704433497537 4:0.43283582089552236 57:1.0 113:1.0 250:1.0 
2048.0 1:0.3333333333333333 3:1.0 4:0.010660980810234541 57:1.0 181:1.0 215:1.0 
2048.0 2:0.5111111111111111 3:0.32019704433497537 4:0.43283582089552236 57:1.0 121:1.0 215:1.0 
2048.0 1:0.3333333333333333 2:0.08888888888888889 3:1.0 4:0.008528784648187633 23:1.0 102:1.0 214:1.0 
2048.0 1:0.3333333333333333 2:0.3111111111111111 3:0.39999999999999997 4:0.010660980810234541 6:1.0 119:1.0 277:1.0 
2048.0 1:0.3333333333333333 2:0.35555555555555557 3:1.0 23:1.0 119:1.0 215:1.0 
2048.0 1:0.3333333333333333 2:0.13333333333333333 3:1.0 4:0.0042643923240938165 57:1.0 113:1.0 215:1.0 
2048.0 1:0.3333333333333333 2:0.3 3:1.0 4:0.01279317697228145 22:1.0 148:1.0 250:1.0 
2048.0 1:0.3333333333333333 3:0.896039603960396 4:0.21535181236673773 61:1.0 181:1.0 199:1.0 
2048.0 2:0.32222222222222224 3:0.48684210526315796 4:0.16204690831556504 57:1.0 119:1.0 215:1.0 
2048.0 2:0.5888888888888889 3:0.7399193548387097 4:0.5287846481876333 61:1.0 137:1.0 215:1.0 
2048.0 1:0.3333333333333333 2:0.6222222222222222 3:0.8536585365853657 4:0.08742004264392324 23:1.0 119:1.0 250:1.0 
1882.1845794912913 1:0.3333333333333333 2:0.8888888888888888 3:0.39999999999999997 4:0.010660980810234541 6:1.0 119:1.0 277:1.0 
2048.0 3:0.16279069767441862 4:0.5501066098081023 61:1.0 181:1.0 215:1.0 
2048.0 2:0.1111111111111111 3:0.32019704433497537 4:0.43283582089552236 57:1.0 102:1.0 215:1.0 
2048.0 1:0.3333333333333333 2:0.12222222222222222 3:1.0 4:0.03624733475479744 23:1.0 153:1.0 217:1.0 
2048.0 2:0.2111111111111111 3:0.32019704433497537 4:0.43283582089552236 57:1.0 137:1.0 249:1.0 
2048.0 1:0.3333333333333333 2:0.1111111111111111 3:1.0 4:0.0021321961620469083 19:1.0 119:1.0 198:1.0 
2048.0 1:0.3333333333333333 2:0.43333333333333335 3:0.8333333333333333 4:0.019189765458422176 23:1.0 119:1.0 250:1.0 
2048.0 2:0.5 3:0.32019704433497537 4:0.43283582089552236 57:1.0 102:1.0 215:1.0 
2048.0 1:0.3333333333333333 2:0.4444444444444444 3:0.9126712328767121 4:0.6226012793176973 61:1.0 181:1.0 249:1.0 
2048.0 3:0.16279069767441862 4:0.5501066098081023 61:1.0 181:1.0 233:1.0 
1069.4212314237488 2:0.2222222222222222 3:0.9877049180327867 4:0.2601279317697228 57:1.0 157:1.0 249:1.0 
186.351477151137 1:0.6666666666666666 2:0.08888888888888889 3:1.0 4:0.006396588486140725 5:1.0 113:1.0 249:1.0 
2048.0 2:0.12222222222222222 3:0.32019704433497537 4:0.43283582089552236 57:1.0 101:1.0 249:1.0 
807.2801223982078 1:0.6666666666666666 2:0.5222222222222223 3:1.0 4:0.006396588486140725 5:1.0 102:1.0 217:1.0 
2048.0 3:0.32019704433497537 4:0.43283582089552236 57:1.0 181:1.0 249:1.0 
2048.0 2:0.13333333333333333 3:0.48684210526315796 4:0.16204690831556504 57:1.0 181:1.0 250:1.0 
2048.0 1:0.3333333333333333 2:0.3111111111111111 3:0.9516129032258065 4:0.06609808102345416 61:1.0 137:1.0 225:1.0 
2048.0 1:0.3333333333333333 2:0.4777777777777778 3:1.0 4:0.006396588486140725 57:1.0 181:1.0 249:1.0 
2048.0 2:0.022222222222222223 3:0.48684210526315796 4:0.16204690831556504 57:1.0 102:1.0 198:1.0 
2048.0 2:0.32222222222222224 3:0.32019704433497537 4:0.43283582089552236 57:1.0 181:1.0 215:1.0 
2048.0 2:0.1 3:0.5434782608695652 4:0.09808102345415778 57:1.0 118:1.0 215:1.0 
2048.0 1:0.3333333333333333 2:0.06666666666666667 3:0.6538461538461539 4:0.16631130063965885 61:1.0 103:1.0 215:1.0 
2048.0 2:0.1 3:1.0 4:0.11300639658848614 57:1.0 119:1.0 244:1.0 
2048.0 2:0.14444444444444443 3:0.9296375266524519 4:1.0 61:1.0 119:1.0 215:1.0 
2048.0 1:0.3333333333333333 2:0.36666666666666664 3:1.0 4:0.008528784648187633 61:1.0 153:1.0 198:1.0 
2048.0 2:0.4222222222222222 3:0.8125 4:0.0511727078891258 23:1.0 102:1.0 233:1.0 
2048.0 1:0.3333333333333333 3:0.9126712328767121 4:0.6226012793176973 61:1.0 181:1.0 253:1.0 
2048.0 1:0.3333333333333333 2:0.022222222222222223 3:0.8499999999999999 4:0.29850746268656714 61:1.0 157:1.0 233:1.0 
2048.0 1:0.3333333333333333 2:0.15555555555555556 3:0.31249999999999994 4:0.0511727078891258 61:1.0 129:1.0 233:1.0 
2048.0 1:0.3333333333333333 3:0.21173469387755106 4:0.835820895522388 61:1.0 181:1.0 233:1.0 
1331.4657069176992 1:0.3333333333333333 2:0.03333333333333333 3:0.9516129032258065 4:0.06609808102345416 61:1.0 137:1.0 225:1.0 
2048.0 1:0.3333333333333333 2:0.2 3:1.0 4:0.006396588486140725 57:1.0 181:1.0 249:1.0 
2048.0 2:0.4222222222222222 3:0.7399193548387097 4:0.5287846481876333 61:1.0 137:1.0 215:1.0 
2048.0 1:0.3333333333333333 3:0.7000000000000001 4:0.053304904051172705 61:1.0 181:1.0 215:1.0 
2048.0 2:0.08888888888888889 3:0.32019704433497537 4:0.43283582089552236 57:1.0 102:1.0 249:1.0 
2048.0 1:0.3333333333333333 2:0.17777777777777778 3:0.9117647058823529 4:0.03624733475479744 23:1.0 121:1.0 233:1.0 
2048.0 2:0.4222222222222222 3:0.32019704433497537 4:0.43283582089552236 57:1.0 102:1.0 215:1.0 
2048.0 2:0.5222222222222223 3:0.48684210526315796 4:0.16204690831556504 57:1.0 102:1.0 198:1.0 
2048.0 2:0.08888888888888889 3:0.32019704433497537 4:0.43283582089552236 57:1.0 102:1.0 249:1.0 
2048.0 2:0.3 3:0.48684210526315796 4:0.16204690831556504 57:1.0 102:1.0 215:1.0 
2048.0 2:0.28888888888888886 3:0.48684210526315796 4:0.16204690831556504 57:1.0 102:1.0 198:1.0 
2048.0 2:0.3888888888888889 3:0.16279069767441862 4:0.5501066098081023 61:1.0 119:1.0 214:1.0 
2048.0 1:0.3333333333333333 2:0.25555555555555554 3:1.0 4:0.0042643923240938165 57:1.0 102:1.0 215:1.0 
2048.0 3:0.8125 4:0.0511727078891258 23:1.0 181:1.0 249:1.0 
2048.0 2:0.05555555555555555 3:0.9296375266524519 4:1.0 61:1.0 119:1.0 215:1.0 
2048.0 1:0.3333333333333333 2:0.2777777777777778 3:1.0 4:0.008528784648187633 61:1.0 153:1.0 198:1.0 
2048.0 2:0.3333333333333333 3:0.8125 4:0.0511727078891258 23:1.0 102:1.0 233:1.0 
2048.0 1:0.3333333333333333 2:0.4 3:1.0 4:0.0021321961620469083 57:1.0 101:1.0 215:1.0 
2048.0 1:0.3333333333333333 3:0.896039603960396 4:0.21535181236673773 61:1.0 181:1.0 249:1.0 
2048.0 2:0.12222222222222222 3:0.9877049180327867 4:0.2601279317697228 57:1.0 159:1.0 249:1.0 
2048.0 1:0.3333333333333333 2:0.022222222222222223 3:0.9702970297029703 4:0.21535181236673773 22:1.0 119:1.0 225:1.0 
2048.0 1:0.3333333333333333 2:0.13333333333333333 3:0.6538461538461539 4:0.16631130063965885 61:1.0 102:1.0 215:1.0 
2048.0 1:0.3333333333333333 2:0.022222222222222223 3:0.21173469387755106 4:0.835820895522388 61:1.0 102:1.0 198:1.0 
2048.0 2:0.17777777777777778 3:0.48684210526315796 4:0.16204690831556504 57:1.0 118:1.0 215:1.0 
2048.0 2:0.3111111111111111 3:0.32019704433497537 4:0.43283582089552236 57:1.0 102:1.0 249:1.0 
2048.0 1:0.3333333333333333 2:0.13333333333333333 3:0.9216417910447761 4:0.2857142857142857 61:1.0 181:1.0 233:1.0 
2048.0 2:0.18888888888888888 3:0.48684210526315796 4:0.16204690831556504 57:1.0 118:1.0 215:1.0 
2048.0 1:0.3333333333333333 2:0.3333333333333333 3:1.0 4:0.06396588486140725 23:1.0 119:1.0 211:1.0 
2048.0 2:0.3888888888888889 3:0.9877049180327867 4:0.2601279317697228 57:1.0 137:1.0 226:1.0 
2048.0 1:0.3333333333333333 2:0.14444444444444443 3:0.3571428571428571 4:0.014925373134328358 57:1.0 119:1.0 215:1.0 
2048.0 1:0.3333333333333333 2:0.14444444444444443 3:0.3571428571428571 4:0.014925373134328358 57:1.0 119:1.0 215:1.0 
2048.0 1:0.3333333333333333 2:0.044444444444444446 3:1.0 4:0.0021321961620469083 57:1.0 102:1.0 215:1.0 
2048.0 2:0.23333333333333334 3:0.8125 4:0.0511727078891258 23:1.0 108:1.0 198:1.0 
2048.0 1:0.3333333333333333 2:0.14444444444444443 3:0.3571428571428571 4:0.014925373134328358 57:1.0 119:1.0 215:1.0 
2048.0 1:0.3333333333333333 3:0.8536585365853657 4:0.08742004264392324 23:1.0 181:1.0 198:1.0 
2048.0 2:0.3333333333333333 3:0.9877049180327867 4:0.2601279317697228 57:1.0 148:1.0 215:1.0 
2048.0 2:0.1 3:0.48684210526315796 4:0.16204690831556504 57:1.0 118:1.0 215:1.0 
2048.0 1:0.3333333333333333 2:0.2111111111111111 3:1.0 4:0.008528784648187633 23:1.0 119:1.0 197:1.0 
2048.0 2:0.43333333333333335 3:0.16279069767441862 4:0.5501066098081023 61:1.0 119:1.0 249:1.0 
2048.0 2:0.5444444444444444 3:0.9877049180327867 4:0.2601279317697228 57:1.0 148:1.0 215:1.0 
2048.0 3:0.9296375266524519 4:1.0 61:1.0 181:1.0 233:1.0 
2048.0 1:0.3333333333333333 2:0.24444444444444444 3:0.9117647058823529 4:0.03624733475479744 23:1.0 119:1.0 215:1.0 
2048.0 1:0.3333333333333333 3:0.21173469387755106 4:0.835820895522388 61:1.0 181:1.0 233:1.0 
2048.0 1:0.3333333333333333 3:0.31249999999999994 4:0.0511727078891258 61:1.0 181:1.0 198:1.0 
2048.0 2:0.06666666666666667 3:0.9296375266524519 4:1.0 61:1.0 129:1.0 233:1.0 
2048.0 1:0.3333333333333333 2:0.32222222222222224 3:0.9117647058823529 4:0.03624733475479744 23:1.0 119:1.0 215:1.0 
2048.0 2:0.1 3:0.48684210526315796 4:0.16204690831556504 57:1.0 118:1.0 215:1.0 
2048.0 1:0.3333333333333333 2:0.2111111111111111 3:1.0 4:0.008528784648187633 23:1.0 119:1.0 197:1.0 
2048.0 2:0.4444444444444444 3:0.16279069767441862 4:0.5501066098081023 61:1.0 119:1.0 249:1.0 
2048.0 2:0.7333333333333333 3:0.9877049180327867 4:0.2601279317697228 57:1.0 102:1.0 249:1.0 
2048.0 3:0.16279069767441862 4:0.5501066098081023 61:1.0 181:1.0 249:1.0 
2048.0 2:0.14444444444444443 3:0.32019704433497537 4:0.43283582089552236 57:1.0 102:1.0 215:1.0 
2048.0 2:0.08888888888888889 3:0.9877049180327867 4:0.2601279317697228 57:1.0 102:1.0 249:1.0 
2048.0 1:0.3333333333333333 3:0.31249999999999994 4:0.0511727078891258 61:1.0 181:1.0 249:1.0 
2048.0 1:0.3333333333333333 2:0.12222222222222222 3:0.9126712328767121 4:0.6226012793176973 61:1.0 121:1.0 225:1.0 
2048.0 2:0.23333333333333334 3:0.9877049180327867 4:0.2601279317697228 57:1.0 102:1.0 249:1.0 
2048.0 3:0.48684210526315796 4:0.16204690831556504 57:1.0 181:1.0 215:1.0 
2048.0 2:0.3333333333333333 3:0.32019704433497537 4:0.43283582089552236 57:1.0 102:1.0 215:1.0 
2048.0 2:0.4444444444444444 3:0.16279069767441862 4:0.5501066098081023 61:1.0 129:1.0 215:1.0 
2048.0 1:0.3333333333333333 3:0.5714285714285714 4:0.014925373134328358 61:1.0 181:1.0 215:1.0 
2048.0 2:0.05555555555555555 3:0.6454545454545455 4:0.11727078891257996 58:1.0 181:1.0 225:1.0 
2048.0 2:0.08888888888888889 3:0.16279069767441862 4:0.5501066098081023 61:1.0 129:1.0 215:1.0 
2048.0 1:0.3333333333333333 2:0.37777777777777777 3:1.0 19:1.0 119:1.0 249:1.0 
319.23947019989777 2:0.4 3:1.0 4:0.11300639658848614 57:1.0 115:1.0 215:1.0 
2048.0 2:0.05555555555555555 3:0.8548387096774192 4:0.13219616204690832 23:1.0 102:1.0 225:1.0 
2048.0 2:0.28888888888888886 3:1.0 4:0.11300639658848614 57:1.0 118:1.0 215:1.0 
1210.9947174085246 1:0.3333333333333333 2:0.2222222222222222 3:0.39999999999999997 4:0.010660980810234541 6:1.0 119:1.0 199:1.0 
2048.0 1:0.3333333333333333 2:0.17777777777777778 3:0.7000000000000001 4:0.010660980810234541 57:1.0 103:1.0 215:1.0 
2048.0 1:0.3333333333333333 2:0.3111111111111111 3:0.8049999999999998 4:0.21321961620469082 41:1.0 181:1.0 244:1.0 
2048.0 3:0.5434782608695652 4:0.09808102345415778 57:1.0 181:1.0 215:1.0 
2048.0 2:0.13333333333333333 3:0.5434782608695652 4:0.09808102345415778 57:1.0 118:1.0 215:1.0 
2048.0 1:0.3333333333333333 2:0.13333333333333333 3:1.0 4:0.01279317697228145 23:1.0 102:1.0 197:1.0 
2048.0 2:0.23333333333333334 3:0.16279069767441862 4:0.5501066098081023 61:1.0 129:1.0 199:1.0 
2048.0 1:0.3333333333333333 3:0.31249999999999994 4:0.0511727078891258 61:1.0 181:1.0 199:1.0 
2048.0 1:0.3333333333333333 2:0.06666666666666667 3:1.0 4:0.0042643923240938165 57:1.0 102:1.0 215:1.0 
2048.0 2:0.13333333333333333 3:0.9877049180327867 4:0.2601279317697228 57:1.0 119:1.0 253:1.0 
2048.0 1:0.3333333333333333 2:0.3 3:1.0 4:0.0255863539445629 19:1.0 102:1.0 249:1.0 
643.0733396254643 1:0.3333333333333333 2:0.32222222222222224 3:0.6666666666666666 4:0.019189765458422176 57:1.0 115:1.0 249:1.0 
2048.0 2:0.5777777777777777 3:0.94 4:0.10660980810234541 61:1.0 129:1.0 198:1.0 
2048.0 1:0.3333333333333333 2:0.6666666666666666 3:0.9702970297029703 4:0.21535181236673773 22:1.0 121:1.0 249:1.0 
2048.0 1:0.3333333333333333 2:0.1111111111111111 3:0.8049999999999998 4:0.21321961620469082 41:1.0 119:1.0 244:1.0 
2048.0 1:0.3333333333333333 2:0.18888888888888888 3:1.0 4:0.014925373134328358 22:1.0 181:1.0 250:1.0 
2048.0 2:0.13333333333333333 3:0.48684210526315796 4:0.16204690831556504 57:1.0 102:1.0 215:1.0 
2048.0 2:0.07777777777777778 3:0.9877049180327867 4:0.2601279317697228 57:1.0 157:1.0 215:1.0 
399.07382517778495 2:0.3111111111111111 3:1.0 4:0.0021321961620469083 57:1.0 116:1.0 277:1.0 
2048.0 3:0.16279069767441862 4:0.5501066098081023 61:1.0 181:1.0 198:1.0 
2048.0 1:0.3333333333333333 3:1.0 4:0.0021321961620469083 58:1.0 181:1.0 233:1.0 
2048.0 1:0.3333333333333333 2:0.07777777777777778 3:0.7644628099173552 4:0.2579957356076759 61:1.0 102:1.0 249:1.0 
2048.0 2:0.3 3:0.48684210526315796 4:0.16204690831556504 57:1.0 181:1.0 215:1.0 
2048.0 1:0.3333333333333333 3:0.896039603960396 4:0.21535181236673773 61:1.0 181:1.0 249:1.0 
2048.0 2:0.1 3:0.8285714285714285 4:0.07462686567164178 57:1.0 102:1.0 215:1.0 
2048.0 1:0.3333333333333333 2:0.17777777777777778 3:1.0 4:0.0021321961620469083 19:1.0 119:1.0 198:1.0 
2048.0 1:0.3333333333333333 2:0.2222222222222222 3:1.0 4:0.0042643923240938165 57:1.0 102:1.0 225:1.0 
2048.0 2:0.3333333333333333 3:0.7399193548387097 4:0.5287846481876333 61:1.0 137:1.0 249:1.0 
2048.0 1:0.3333333333333333 2:0.45555555555555555 3:0.8049999999999998 4:0.21321961620469082 41:1.0 181:1.0 215:1.0 
2048.0 2:0.03333333333333333 3:0.32019704433497537 4:0.43283582089552236 57:1.0 177:1.0 215:1.0 
2048.0 1:0.3333333333333333 2:0.23333333333333334 3:1.0 4:0.0021321961620469083 57:1.0 119:1.0 250:1.0 
2048.0 1:0.3333333333333333 3:1.0 4:0.0021321961620469083 57:1.0 181:1.0 215:1.0 
2048.0 2:0.17777777777777778 3:0.32019704433497537 4:0.43283582089552236 57:1.0 177:1.0 215:1.0 
2048.0 1:0.3333333333333333 2:0.37777777777777777 3:1.0 4:0.0021321961620469083 57:1.0 119:1.0 250:1.0 
2048.0 1:0.3333333333333333 3:0.31249999999999994 4:0.0511727078891258 61:1.0 181:1.0 204:1.0 
2048.0 1:0.3333333333333333 2:0.13333333333333333 3:0.9126712328767121 4:0.6226012793176973 61:1.0 102:1.0 215:1.0 
2048.0 1:0.3333333333333333 3:0.5714285714285714 4:0.04477611940298507 61:1.0 181:1.0 215:1.0 
2048.0 1:0.3333333333333333 2:0.05555555555555555 3:0.6538461538461539 4:0.02771855010660981 61:1.0 102:1.0 198:1.0 
2048.0 1:0.3333333333333333 2:0.16666666666666666 3:1.0 4:0.0021321961620469083 57:1.0 121:1.0 215:1.0 
2048.0 1:0.3333333333333333 3:0.5714285714285714 4:0.04477611940298507 61:1.0 181:1.0 215:1.0 
2048.0 1:0.3333333333333333 2:0.05555555555555555 3:0.6538461538461539 4:0.02771855010660981 61:1.0 102:1.0 198:1.0 
2048.0 2:0.1111111111111111 3:0.32019704433497537 4:0.43283582089552236 57:1.0 103:1.0 215:1.0 
2048.0 1:0.3333333333333333 2:0.36666666666666664 3:0.8049999999999998 4:0.21321961620469082 41:1.0 119:1.0 197:1.0 
2048.0 1:0.3333333333333333 3:0.31249999999999994 4:0.0511727078891258 61:1.0 181:1.0 233:1.0 
2048.0 1:0.3333333333333333 2:0.1111111111111111 3:0.9126712328767121 4:0.6226012793176973 61:1.0 119:1.0 233:1.0 
2048.0 1:0.3333333333333333 2:0.14444444444444443 3:1.0 4:0.0021321961620469083 57:1.0 137:1.0 215:1.0 
264.60420382902026 1:0.3333333333333333 2:0.16666666666666666 3:0.9117647058823529 4:0.03624733475479744 23:1.0 153:1.0 233:1.0 
2048.0 2:0.5555555555555556 3:0.32019704433497537 4:0.43283582089552236 57:1.0 102:1.0 249:1.0 
2048.0 1:0.3333333333333333 2:0.2222222222222222 3:0.6538461538461539 4:0.16631130063965885 61:1.0 119:1.0 215:1.0 
2048.0 1:0.3333333333333333 3:1.0 4:0.06396588486140725 23:1.0 181:1.0 197:1.0 
2048.0 1:0.3333333333333333 2:0.03333333333333333 3:1.0 4:0.006396588486140725 57:1.0 101:1.0 244:1.0 
2048.0 1:0.3333333333333333 2:0.1 3:0.31249999999999994 4:0.0511727078891258 61:1.0 102:1.0 215:1.0 
2048.0 1:0.3333333333333333 2:0.2111111111111111 3:0.9126712328767121 4:0.6226012793176973 61:1.0 181:1.0 225:1.0 
2048.0 1:0.3333333333333333 2:0.022222222222222223 3:0.31249999999999994 4:0.0511727078891258 61:1.0 102:1.0 215:1.0 
2048.0 1:0.3333333333333333 2:0.12222222222222222 3:0.9126712328767121 4:0.6226012793176973 61:1.0 102:1.0 225:1.0 
2048.0 2:0.03333333333333333 3:0.32019704433497537 4:0.43283582089552236 57:1.0 108:1.0 215:1.0 
2048.0 1:0.3333333333333333 2:0.35555555555555557 3:1.0 4:0.06396588486140725 23:1.0 181:1.0 197:1.0 
1193.5986837720243 1:0.3333333333333333 2:0.3888888888888889 3:1.0 4:0.006396588486140725 57:1.0 101:1.0 244:1.0 
2048.0 2:0.2111111111111111 3:0.48684210526315796 4:0.16204690831556504 57:1.0 119:1.0 215:1.0 
2048.0 1:0.3333333333333333 2:0.23333333333333334 3:1.0 23:1.0 119:1.0 215:1.0 
2048.0 1:0.3333333333333333 2:0.2777777777777778 3:1.0 4:0.006396588486140725 57:1.0 101:1.0 244:1.0 
2048.0 1:0.3333333333333333 2:0.14444444444444443 3:0.7857142857142855 4:0.05970149253731343 23:1.0 118:1.0 244:1.0 
2048.0 2:0.23333333333333334 3:0.16279069767441862 4:0.5501066098081023 61:1.0 174:1.0 197:1.0 
2048.0 1:0.3333333333333333 2:0.25555555555555554 3:0.9702970297029703 4:0.21535181236673773 22:1.0 101:1.0 215:1.0 
2048.0 2:0.35555555555555557 3:0.48684210526315796 4:0.16204690831556504 57:1.0 102:1.0 215:1.0 
2048.0 1:0.3333333333333333 2:0.5222222222222223 3:0.9702970297029703 4:0.21535181236673773 22:1.0 102:1.0 215:1.0 
2048.0 3:0.32019704433497537 4:0.43283582089552236 57:1.0 181:1.0 249:1.0 
2048.0 2:0.1 3:0.32019704433497537 4:0.43283582089552236 57:1.0 102:1.0 215:1.0 
2048.0 1:0.3333333333333333 2:0.45555555555555555 3:1.0 4:0.06183368869936034 22:1.0 181:1.0 249:1.0 
2048.0 2:0.7222222222222222 3:0.16279069767441862 4:0.5501066098081023 61:1.0 181:1.0 197:1.0 
2048.0 2:0.7555555555555555 3:0.32019704433497537 4:0.43283582089552236 57:1.0 101:1.0 215:1.0 
2048.0 2:0.12222222222222222 3:0.32019704433497537 4:0.43283582089552236 57:1.0 148:1.0 215:1.0 
2048.0 1:0.3333333333333333 2:0.044444444444444446 3:0.9702970297029703 4:0.21535181236673773 22:1.0 102:1.0 244:1.0 
2048.0 1:0.3333333333333333 2:0.26666666666666666 3:0.9117647058823529 4:0.03624733475479744 23:1.0 137:1.0 215:1.0 
2048.0 2:0.1111111111111111 3:0.32019704433497537 4:0.43283582089552236 57:1.0 103:1.0 215:1.0 
2048.0 1:0.3333333333333333 2:0.18888888888888888 3:0.8015873015873015 4:0.40298507462686567 61:1.0 181:1.0 250:1.0 
2048.0 1:0.3333333333333333 2:0.45555555555555555 3:0.8333333333333333 4:0.019189765458422176 23:1.0 102:1.0 233:1.0 
2048.0 1:0.3333333333333333 2:0.2222222222222222 3:0.8746397694524494 4:0.7398720682302772 61:1.0 121:1.0 215:1.0 
2048.0 1:0.3333333333333333 2:0.022222222222222223 3:0.8015873015873015 4:0.40298507462686567 61:1.0 102:1.0 215:1.0 
2048.0 1:0.3333333333333333 2:0.06666666666666667 3:1.0 4:0.0042643923240938165 57:1.0 119:1.0 249:1.0 
2048.0 1:0.3333333333333333 2:0.23333333333333334 3:0.9117647058823529 4:0.03624733475479744 23:1.0 119:1.0 249:1.0 
2048.0 1:0.3333333333333333 2:0.15555555555555556 3:1.0 4:0.014925373134328358 22:1.0 181:1.0 250:1.0 
2048.0 3:0.16279069767441862 4:0.5501066098081023 61:1.0 181:1.0 233:1.0 
2048.0 1:0.3333333333333333 2:0.5 3:1.0 4:0.0042643923240938165 57:1.0 119:1.0 215:1.0 
2048.0 1:0.3333333333333333 2:0.16666666666666666 3:0.7857142857142855 4:0.05970149253731343 23:1.0 117:1.0 244:1.0 
2048.0 1:0.3333333333333333 2:0.36666666666666664 3:1.0 4:0.0042643923240938165 57:1.0 148:1.0 215:1.0 
2048.0 1:0.3333333333333333 2:0.06666666666666667 3:1.0 4:0.03624733475479744 23:1.0 102:1.0 215:1.0 
2048.0 1:0.3333333333333333 2:0.17777777777777778 3:0.9166666666666666 4:0.03837953091684435 22:1.0 119:1.0 249:1.0 
2048.0 1:0.3333333333333333 2:0.28888888888888886 3:0.8015873015873015 4:0.40298507462686567 61:1.0 119:1.0 215:1.0 
2048.0 1:0.3333333333333333 2:0.1111111111111111 3:0.8499999999999999 4:0.29850746268656714 61:1.0 119:1.0 246:1.0 
2048.0 1:0.3333333333333333 2:0.3 3:1.0 4:0.01279317697228145 23:1.0 153:1.0 197:1.0 
2048.0 2:0.05555555555555555 3:0.5434782608695652 4:0.09808102345415778 57:1.0 102:1.0 215:1.0 
2048.0 1:0.3333333333333333 2:0.17777777777777778 3:1.0 4:0.01279317697228145 23:1.0 153:1.0 197:1.0 
2048.0 1:0.3333333333333333 3:1.0 4:0.03624733475479744 23:1.0 181:1.0 215:1.0 
2048.0 1:0.3333333333333333 2:0.1111111111111111 3:0.9166666666666666 4:0.03837953091684435 22:1.0 119:1.0 249:1.0 
2048.0 2:0.2222222222222222 3:0.9877049180327867 4:0.2601279317697228 57:1.0 102:1.0 249:1.0 
2048.0 2:0.5111111111111111 3:0.16279069767441862 4:0.5501066098081023 61:1.0 181:1.0 197:1.0 
2048.0 1:0.3333333333333333 3:0.7857142857142855 4:0.05970149253731343 23:1.0 181:1.0 197:1.0 
2048.0 2:0.2111111111111111 3:0.32019704433497537 4:0.43283582089552236 57:1.0 102:1.0 215:1.0 
2048.0 1:0.3333333333333333 2:0.2222222222222222 3:0.9117647058823529 4:0.03624733475479744 23:1.0 153:1.0 215:1.0 
2048.0 1:0.3333333333333333 2:0.044444444444444446 3:0.21173469387755106 4:0.835820895522388 61:1.0 102:1.0 215:1.0 
2048.0 1:0.3333333333333333 2:0.08888888888888889 3:0.8015873015873015 4:0.40298507462686567 61:1.0 102:1.0 215:1.0 
2048.0 1:0.3333333333333333 3:0.896039603960396 4:0.21535181236673773 61:1.0 181:1.0 249:1.0 
2048.0 2:0.25555555555555554 3:1.0 4:0.11300639658848614 57:1.0 102:1.0 215:1.0 
2048.0 1:0.3333333333333333 2:0.3111111111111111 3:1.0 4:0.006396588486140725 57:1.0 102:1.0 249:1.0 
2048.0 1:0.3333333333333333 3:0.33333333333333337 4:0.03837953091684435 61:1.0 181:1.0 215:1.0 
1271.5973887267567 1:0.3333333333333333 2:0.022222222222222223 3:0.7857142857142855 4:0.05970149253731343 23:1.0 157:1.0 244:1.0 
1225.4166667983752 1:0.3333333333333333 2:0.12222222222222222 3:0.39999999999999997 4:0.010660980810234541 6:1.0 181:1.0 211:1.0 
2048.0 2:0.16666666666666666 3:0.8285714285714285 4:0.07462686567164178 57:1.0 115:1.0 249:1.0 
2048.0 2:0.2222222222222222 3:0.6454545454545455 4:0.11727078891257996 58:1.0 119:1.0 215:1.0 
2048.0 2:0.3888888888888889 3:0.8285714285714285 4:0.07462686567164178 57:1.0 137:1.0 215:1.0 
2048.0 1:0.3333333333333333 2:0.2777777777777778 3:0.8746397694524494 4:0.7398720682302772 61:1.0 181:1.0 215:1.0 
2048.0 3:0.94 4:0.10660980810234541 61:1.0 181:1.0 199:1.0 
