svm_type c_svc
kernel_type rbf
gamma 0.0078125
nr_class 2
total_sv 5040
rho -133.58594884356592
label 0 1
nr_sv 2652 2388
SV
16.29430687335724 1:0.3333333333333333 2:0.07777777777777778 3:1.0 4:0.0021321961620469083 22:1.0 108:1.0 253:1.0 
745.3949238605962 1:0.3333333333333333 2:0.1111111111111111 3:1.0 4:0.0021321961620469083 57:1.0 132:1.0 250:1.0 
2048.0 1:0.3333333333333333 2:0.2777777777777778 3:1.0 4:0.0021321961620469083 57:1.0 132:1.0 250:1.0 
2048.0 1:0.3333333333333333 2:0.4 3:1.0 4:0.06396588486140725 23:1.0 102:1.0 244:1.0 
2048.0 1:0.3333333333333333 2:0.24444444444444444 3:1.0 4:0.0042643923240938165 23:1.0 119:1.0 204:1.0 
308.3504137425432 1:0.3333333333333333 2:0.34444444444444444 3:1.0 4:0.008528784648187633 23:1.0 101:1.0 199:1.0 
2048.0 1:0.3333333333333333 2:0.2111111111111111 3:0.9477611940298507 4:0.2857142857142857 61:1.0 181:1.0 249:1.0 
2048.0 1:0.3333333333333333 2:0.14444444444444443 3:0.7692307692307693 4:0.16631130063965885 61:1.0 102:1.0 249:1.0 
2048.0 1:0.3333333333333333 2:0.044444444444444446 3:0.7692307692307693 4:0.16631130063965885 61:1.0 119:1.0 249:1.0 
2048.0 1:0.3333333333333333 3:0.3953488372093023 4:0.09168443496801706 58:1.0 181:1.0 215:1.0 
62.10179109207706 1:0.3333333333333333 2:0.011111111111111112 3:1.0 4:0.0021321961620469083 19:1.0 137:1.0 253:1.0 
2048.0 2:0.7111111111111111 3:0.8266129032258065 4:0.5287846481876333 61:1.0 101:1.0 249:1.0 
1035.339247643538 1:0.3333333333333333 2:0.03333333333333333 3:1.0 4:0.06183368869936034 22:1.0 119:1.0 197:1.0 
2048.0 1:0.3333333333333333 3:0.4744897959183674 4:0.835820895522388 61:1.0 181:1.0 233:1.0 
2048.0 1:0.3333333333333333 2:0.2222222222222222 3:0.8429752066115702 4:0.2579957356076759 61:1.0 101:1.0 249:1.0 
2048.0 1:0.3333333333333333 2:0.37777777777777777 3:0.8632478632478633 4:0.24946695095948826 61:1.0 181:1.0 233:1.0 
2048.0 1:0.3333333333333333 2:0.26666666666666666 3:0.8677248677248677 4:0.40298507462686567 61:1.0 181:1.0 215:1.0 
2048.0 1:0.3333333333333333 2:0.5777777777777777 3:0.9007633587786259 4:0.279317697228145 61:1.0 181:1.0 215:1.0 
277.1794784820826 1:0.3333333333333333 2:0.3333333333333333 3:1.0 4:0.0021321961620469083 22:1.0 102:1.0 253:1.0 
2048.0 1:0.3333333333333333 3:0.9477611940298507 4:0.2857142857142857 61:1.0 181:1.0 198:1.0 
2048.0 1:0.3333333333333333 2:0.35555555555555557 3:0.9007633587786259 4:0.279317697228145 61:1.0 102:1.0 233:1.0 
2048.0 1:0.3333333333333333 2:0.08888888888888889 3:0.4744897959183674 4:0.835820895522388 61:1.0 153:1.0 198:1.0 
2048.0 1:0.3333333333333333 2:0.15555555555555556 3:0.9801980198019802 4:0.21535181236673773 22:1.0 121:1.0 249:1.0 
2048.0 1:0.3333333333333333 2:0.08888888888888889 3:0.4744897959183674 4:0.835820895522388 61:1.0 153:1.0 198:1.0 
2048.0 2:0.12222222222222222 3:0.9530916844349681 4:1.0 61:1.0 101:1.0 198:1.0 
2048.0 2:0.15555555555555556 3:0.9918032786885246 4:0.2601279317697228 57:1.0 102:1.0 249:1.0 
2048.0 1:0.3333333333333333 2:0.011111111111111112 3:0.7692307692307693 4:0.16631130063965885 61:1.0 137:1.0 249:1.0 
2048.0 1:0.3333333333333333 2:0.2 3:1.0 4:0.06396588486140725 23:1.0 102:1.0 197:1.0 
2048.0 1:0.3333333333333333 3:1.0 4:0.0021321961620469083 58:1.0 181:1.0 198:1.0 
2048.0 1:0.3333333333333333 2:0.2111111111111111 3:0.9007633587786259 4:0.279317697228145 61:1.0 102:1.0 198:1.0 
2048.0 1:0.3333333333333333 2:0.18888888888888888 3:0.9801980198019802 4:0.21535181236673773 22:1.0 102:1.0 244:1.0 
2048.0 1:0.3333333333333333 2:0.3111111111111111 3:0.4744897959183674 4:0.835820895522388 61:1.0 118:1.0 198:1.0 
1080.694547413902 2:0.36666666666666664 3:0.4418604651162791 4:0.5501066098081023 61:1.0 113:1.0 214:1.0 
2048.0 1:0.3333333333333333 2:0.18888888888888888 3:0.9801980198019802 4:0.21535181236673773 22:1.0 102:1.0 244:1.0 
2048.0 1:0.3333333333333333 2:0.15555555555555556 3:0.9801980198019802 4:0.21535181236673773 22:1.0 102:1.0 250:1.0 
2048.0 1:0.3333333333333333 2:0.5111111111111111 3:0.9285714285714286 4:0.05970149253731343 61:1.0 102:1.0 215:1.0 
2048.0 1:0.3333333333333333 2:0.07777777777777778 3:0.9024390243902439 4:0.08742004264392324 23:1.0 102:1.0 204:1.0 
2048.0 1:0.3333333333333333 2:0.08888888888888889 3:0.9024390243902439 4:0.08742004264392324 23:1.0 102:1.0 244:1.0 
2048.0 2:0.3 3:0.4418604651162791 4:0.5501066098081023 61:1.0 102:1.0 215:1.0 
2048.0 1:0.3333333333333333 2:0.3 3:0.9024390243902439 4:0.08742004264392324 23:1.0 119:1.0 215:1.0 
2048.0 1:0.3333333333333333 2:0.25555555555555554 3:0.9801980198019802 4:0.21535181236673773 22:1.0 119:1.0 249:1.0 
2048.0 2:0.4 3:0.4418604651162791 4:0.5501066098081023 61:1.0 119:1.0 215:1.0 
2048.0 1:0.3333333333333333 2:0.4222222222222222 3:0.9801980198019802 4:0.21535181236673773 22:1.0 119:1.0 249:1.0 
2048.0 1:0.3333333333333333 2:0.8222222222222222 3:0.8429752066115702 4:0.2579957356076759 61:1.0 119:1.0 198:1.0 
18.311222264584767 1:0.3333333333333333 2:0.05555555555555555 3:1.0 4:0.0042643923240938165 41:1.0 108:1.0 244:1.0 
2048.0 1:0.3333333333333333 2:0.3 3:0.87 4:0.21321961620469082 41:1.0 181:1.0 244:1.0 
2048.0 1:0.3333333333333333 2:0.45555555555555555 3:0.9417808219178082 4:0.6226012793176973 61:1.0 181:1.0 198:1.0 
2048.0 2:0.5777777777777777 3:0.9918032786885246 4:0.2601279317697228 57:1.0 102:1.0 215:1.0 
2048.0 2:0.32222222222222224 3:0.9918032786885246 4:0.2601279317697228 57:1.0 102:1.0 215:1.0 
2048.0 1:0.3333333333333333 3:0.9164265129682997 4:0.7398720682302772 61:1.0 181:1.0 249:1.0 
2048.0 1:0.3333333333333333 2:0.08888888888888889 3:0.7692307692307693 4:0.02771855010660981 61:1.0 121:1.0 215:1.0 
2048.0 1:0.3333333333333333 2:0.17777777777777778 3:0.7692307692307693 4:0.02771855010660981 61:1.0 121:1.0 215:1.0 
428.84824443151575 1:0.3333333333333333 2:0.03333333333333333 3:0.75 4:0.008528784648187633 23:1.0 103:1.0 198:1.0 
2048.0 2:0.044444444444444446 3:0.7636363636363637 4:0.11727078891257996 58:1.0 102:1.0 215:1.0 
2048.0 1:0.3333333333333333 2:0.3111111111111111 3:0.87 4:0.21321961620469082 41:1.0 119:1.0 197:1.0 
2048.0 2:0.18888888888888888 3:0.6578947368421053 4:0.16204690831556504 57:1.0 148:1.0 215:1.0 
2048.0 1:0.3333333333333333 2:0.4666666666666667 3:0.9417808219178082 4:0.6226012793176973 61:1.0 102:1.0 211:1.0 
1648.555995086458 1:0.3333333333333333 2:0.3888888888888889 3:0.9801980198019802 4:0.21535181236673773 22:1.0 102:1.0 215:1.0 
350.3516555511452 1:0.3333333333333333 2:0.06666666666666667 3:0.8676470588235294 4:0.2899786780383795 58:1.0 115:1.0 215:1.0 
1002.1207821979519 1:0.3333333333333333 2:0.2 3:0.8 4:0.010660980810234541 19:1.0 119:1.0 198:1.0 
6.130782369567033 1:0.3333333333333333 2:0.1111111111111111 3:1.0 4:0.010660980810234541 23:1.0 103:1.0 249:1.0 
2048.0 2:0.12222222222222222 3:0.6578947368421053 4:0.16204690831556504 57:1.0 137:1.0 215:1.0 
2048.0 2:0.25555555555555554 3:0.6578947368421053 4:0.16204690831556504 57:1.0 121:1.0 250:1.0 
2048.0 1:0.3333333333333333 2:0.15555555555555556 3:0.9417808219178082 4:0.6226012793176973 61:1.0 119:1.0 233:1.0 
174.06334281696843 1:0.3333333333333333 2:0.022222222222222223 3:0.9411764705882353 4:0.03624733475479744 23:1.0 108:1.0 214:1.0 
112.513562661843 1:0.3333333333333333 2:0.3 3:0.9801980198019802 4:0.21535181236673773 22:1.0 102:1.0 277:1.0 
2048.0 1:0.3333333333333333 2:0.2222222222222222 3:0.9417808219178082 4:0.6226012793176973 61:1.0 181:1.0 233:1.0 
2048.0 1:0.3333333333333333 2:0.022222222222222223 3:0.5416666666666666 4:0.0511727078891258 61:1.0 118:1.0 250:1.0 
2048.0 1:0.3333333333333333 2:0.4111111111111111 3:0.9007633587786259 4:0.279317697228145 61:1.0 118:1.0 204:1.0 
2048.0 1:0.3333333333333333 2:0.13333333333333333 3:0.9801980198019802 4:0.21535181236673773 22:1.0 119:1.0 249:1.0 
2048.0 2:0.26666666666666666 3:0.9918032786885246 4:0.2601279317697228 57:1.0 137:1.0 215:1.0 
2048.0 1:0.3333333333333333 2:0.37777777777777777 3:0.7692307692307693 4:0.16631130063965885 61:1.0 181:1.0 250:1.0 
2048.0 1:0.3333333333333333 3:0.7692307692307693 4:0.16631130063965885 61:1.0 181:1.0 250:1.0 
2048.0 1:0.3333333333333333 2:0.08888888888888889 3:0.9417808219178082 4:0.6226012793176973 61:1.0 119:1.0 198:1.0 
2048.0 2:0.13333333333333333 3:0.8266129032258065 4:0.5287846481876333 61:1.0 102:1.0 215:1.0 
2048.0 1:0.3333333333333333 2:0.26666666666666666 3:0.9801980198019802 4:0.21535181236673773 22:1.0 102:1.0 249:1.0 
2048.0 2:0.35555555555555557 3:0.8266129032258065 4:0.5287846481876333 61:1.0 121:1.0 215:1.0 
1514.3491579600263 3:0.5 4:0.01279317697228145 58:1.0 181:1.0 217:1.0 
2048.0 1:0.3333333333333333 3:0.4744897959183674 4:0.835820895522388 61:1.0 181:1.0 198:1.0 
2048.0 2:0.1111111111111111 3:0.4418604651162791 4:0.5501066098081023 61:1.0 102:1.0 215:1.0 
2048.0 1:0.3333333333333333 2:0.16666666666666666 3:0.5555555555555556 4:0.03837953091684435 61:1.0 102:1.0 249:1.0 
2048.0 1:0.3333333333333333 2:0.34444444444444444 3:0.9024390243902439 4:0.08742004264392324 23:1.0 102:1.0 197:1.0 
2048.0 1:0.3333333333333333 2:0.17777777777777778 3:0.87 4:0.21321961620469082 41:1.0 102:1.0 249:1.0 
2048.0 1:0.3333333333333333 2:0.3888888888888889 3:0.9007633587786259 4:0.279317697228145 61:1.0 102:1.0 215:1.0 
1085.6968615590506 1:0.3333333333333333 2:0.3111111111111111 3:1.0 4:0.008528784648187633 23:1.0 159:1.0 215:1.0 
2048.0 1:0.3333333333333333 3:0.9306930693069307 4:0.21535181236673773 61:1.0 181:1.0 199:1.0 
1304.6725378251695 1:0.3333333333333333 2:0.15555555555555556 3:0.9411764705882353 4:0.03624733475479744 23:1.0 134:1.0 215:1.0 
2048.0 2:0.28888888888888886 3:0.875 4:0.0511727078891258 23:1.0 119:1.0 199:1.0 
155.58961003848287 1:0.3333333333333333 2:0.1111111111111111 3:1.0 4:0.0021321961620469083 19:1.0 103:1.0 255:1.0 
2048.0 1:0.3333333333333333 2:0.28888888888888886 3:1.0 4:0.0021321961620469083 57:1.0 119:1.0 249:1.0 
2048.0 1:0.3333333333333333 2:0.4777777777777778 3:0.9164265129682997 4:0.7398720682302772 61:1.0 102:1.0 250:1.0 
2048.0 1:0.3333333333333333 3:0.8181818181818182 4:0.09381663113006397 61:1.0 181:1.0 215:1.0 
2048.0 1:0.3333333333333333 2:0.08888888888888889 3:0.9007633587786259 4:0.279317697228145 61:1.0 102:1.0 250:1.0 
2002.6862109212116 2:0.35555555555555557 3:1.0 4:0.11300639658848614 57:1.0 101:1.0 225:1.0 
1029.35090191349 1:0.3333333333333333 2:0.23333333333333334 3:0.9007633587786259 4:0.279317697228145 61:1.0 137:1.0 244:1.0 
265.8153292259627 1:0.3333333333333333 2:0.022222222222222223 3:1.0 4:0.0021321961620469083 23:1.0 157:1.0 199:1.0 
1305.5155715170793 2:0.12222222222222222 3:1.0 4:0.11300639658848614 57:1.0 101:1.0 225:1.0 
2048.0 1:0.3333333333333333 3:0.9024390243902439 4:0.08742004264392324 23:1.0 181:1.0 197:1.0 
2048.0 1:0.3333333333333333 2:0.14444444444444443 3:0.9007633587786259 4:0.279317697228145 61:1.0 137:1.0 244:1.0 
2048.0 1:0.3333333333333333 2:0.12222222222222222 3:0.9801980198019802 4:0.21535181236673773 22:1.0 102:1.0 249:1.0 
1548.2273071490933 1:0.3333333333333333 2:0.14444444444444443 3:1.0 4:0.0042643923240938165 57:1.0 118:1.0 250:1.0 
2048.0 1:0.3333333333333333 2:0.4888888888888889 3:0.4744897959183674 4:0.835820895522388 61:1.0 103:1.0 198:1.0 
2048.0 1:0.3333333333333333 2:0.16666666666666666 3:1.0 4:0.06396588486140725 23:1.0 129:1.0 244:1.0 
2048.0 1:0.3333333333333333 2:0.2777777777777778 3:0.6666666666666666 4:0.006396588486140725 61:1.0 119:1.0 250:1.0 
1291.3357523932325 2:0.05555555555555555 3:0.5467980295566502 4:0.43283582089552236 57:1.0 103:1.0 217:1.0 
2048.0 1:0.3333333333333333 2:0.13333333333333333 3:0.9801980198019802 4:0.21535181236673773 22:1.0 119:1.0 277:1.0 
2048.0 1:0.3333333333333333 2:0.4111111111111111 3:1.0 4:0.06396588486140725 23:1.0 119:1.0 211:1.0 
1744.9356322484182 1:0.3333333333333333 2:0.5777777777777777 3:0.5333333333333333 4:0.031982942430703626 6:1.0 134:1.0 277:1.0 
2048.0 1:0.3333333333333333 2:0.24444444444444444 3:0.9306930693069307 4:0.21535181236673773 61:1.0 102:1.0 250:1.0 
864.9941378756936 1:0.3333333333333333 2:0.35555555555555557 3:1.0 4:0.03624733475479744 23:1.0 102:1.0 250:1.0 
2048.0 1:0.3333333333333333 3:0.7142857142857143 4:0.04477611940298507 61:1.0 181:1.0 198:1.0 
2048.0 1:0.3333333333333333 2:0.06666666666666667 3:0.7692307692307693 4:0.02771855010660981 61:1.0 119:1.0 217:1.0 
1600.3229369337807 2:0.17777777777777778 3:0.4418604651162791 4:0.5501066098081023 61:1.0 181:1.0 198:1.0 
2048.0 1:0.3333333333333333 2:0.3111111111111111 3:0.87 4:0.21321961620469082 41:1.0 181:1.0 215:1.0 
2048.0 1:0.3333333333333333 2:0.13333333333333333 3:0.8677248677248677 4:0.40298507462686567 61:1.0 181:1.0 215:1.0 
1725.042048398606 1:0.3333333333333333 2:0.3 3:0.9024390243902439 4:0.08742004264392324 23:1.0 102:1.0 206:1.0 
2048.0 2:0.4111111111111111 3:0.8266129032258065 4:0.5287846481876333 61:1.0 181:1.0 226:1.0 
1133.2917336428245 1:0.3333333333333333 2:0.08888888888888889 3:1.0 6:1.0 154:1.0 215:1.0 
2048.0 1:0.3333333333333333 2:0.25555555555555554 3:0.9007633587786259 4:0.279317697228145 61:1.0 119:1.0 197:1.0 
2048.0 1:0.3333333333333333 2:0.022222222222222223 3:0.5714285714285714 4:0.014925373134328358 57:1.0 157:1.0 199:1.0 
2048.0 1:0.3333333333333333 2:0.16666666666666666 3:1.0 4:0.0042643923240938165 61:1.0 119:1.0 215:1.0 
1662.9675438478716 2:0.2111111111111111 3:0.8135593220338984 4:0.1257995735607676 23:1.0 119:1.0 198:1.0 
2048.0 1:0.3333333333333333 2:0.6666666666666666 3:0.8677248677248677 4:0.40298507462686567 61:1.0 181:1.0 215:1.0 
2048.0 1:0.3333333333333333 3:0.8676470588235294 4:0.2899786780383795 58:1.0 181:1.0 215:1.0 
2048.0 2:0.24444444444444444 3:0.8135593220338984 4:0.1257995735607676 23:1.0 119:1.0 198:1.0 
1645.060335967893 2:0.15555555555555556 3:1.0 4:0.11300639658848614 57:1.0 157:1.0 215:1.0 
2048.0 1:0.3333333333333333 2:0.2 3:0.9007633587786259 4:0.279317697228145 61:1.0 102:1.0 198:1.0 
2048.0 1:0.3333333333333333 2:0.5555555555555556 3:0.9007633587786259 4:0.279317697228145 61:1.0 102:1.0 198:1.0 
2048.0 3:0.8266129032258065 4:0.5287846481876333 61:1.0 181:1.0 249:1.0 
1165.5369656494809 1:0.3333333333333333 2:0.17777777777777778 3:1.0 4:0.0021321961620469083 57:1.0 102:1.0 215:1.0 
1838.569029895161 1:0.3333333333333333 2:0.06666666666666667 3:1.0 4:0.03624733475479744 23:1.0 118:1.0 215:1.0 
2048.0 2:0.26666666666666666 3:0.9918032786885246 4:0.2601279317697228 57:1.0 118:1.0 249:1.0 
606.7725003662512 1:0.3333333333333333 2:0.08888888888888889 3:1.0 4:0.0021321961620469083 6:1.0 110:1.0 253:1.0 
2048.0 2:0.2 3:0.5467980295566502 4:0.43283582089552236 57:1.0 101:1.0 215:1.0 
2048.0 1:0.3333333333333333 2:0.2222222222222222 3:0.87 4:0.21321961620469082 41:1.0 148:1.0 215:1.0 
2048.0 2:0.08888888888888889 3:0.8266129032258065 4:0.5287846481876333 61:1.0 102:1.0 215:1.0 
2048.0 1:0.3333333333333333 2:0.12222222222222222 3:0.8632478632478633 4:0.24946695095948826 61:1.0 119:1.0 197:1.0 
2048.0 1:0.3333333333333333 2:0.18888888888888888 3:0.4 4:0.031982942430703626 61:1.0 101:1.0 197:1.0 
2048.0 1:0.3333333333333333 2:0.36666666666666664 3:0.8333333333333334 4:0.03837953091684435 57:1.0 102:1.0 249:1.0 
1778.397355597498 1:0.3333333333333333 2:0.06666666666666667 3:1.0 4:0.006396588486140725 19:1.0 102:1.0 244:1.0 
2048.0 1:0.3333333333333333 2:0.03333333333333333 3:0.7142857142857143 4:0.014925373134328358 61:1.0 102:1.0 217:1.0 
2048.0 2:0.15555555555555556 3:0.4418604651162791 4:0.5501066098081023 61:1.0 119:1.0 198:1.0 
2048.0 1:0.3333333333333333 2:0.26666666666666666 3:0.5416666666666666 4:0.0511727078891258 61:1.0 102:1.0 249:1.0 
545.2004512559648 1:0.3333333333333333 2:0.12222222222222222 3:1.0 4:0.0021321961620469083 19:1.0 118:1.0 204:1.0 
326.39997925039705 1:0.3333333333333333 2:0.044444444444444446 3:0.5416666666666666 4:0.0511727078891258 61:1.0 102:1.0 249:1.0 
2048.0 2:0.2777777777777778 3:0.9918032786885246 4:0.2601279317697228 57:1.0 102:1.0 249:1.0 
2048.0 1:0.3333333333333333 2:0.1111111111111111 3:0.7142857142857143 4:0.014925373134328358 61:1.0 102:1.0 217:1.0 
2048.0 3:0.7636363636363637 4:0.11727078891257996 58:1.0 102:1.0 215:1.0 
278.2670446755217 2:0.15555555555555556 3:0.5467980295566502 4:0.43283582089552236 57:1.0 148:1.0 255:1.0 
2048.0 1:0.3333333333333333 2:0.26666666666666666 3:1.0 4:0.010660980810234541 19:1.0 102:1.0 197:1.0 
2048.0 2:0.1 3:0.6578947368421053 4:0.16204690831556504 57:1.0 137:1.0 215:1.0 
1846.9279879581188 1:0.3333333333333333 2:0.17777777777777778 3:1.0 4:0.0042643923240938165 57:1.0 102:1.0 249:1.0 
2048.0 2:0.3333333333333333 3:0.9918032786885246 4:0.2601279317697228 57:1.0 119:1.0 215:1.0 
2048.0 1:0.3333333333333333 2:0.5 3:0.9915254237288136 4:0.2515991471215352 57:1.0 181:1.0 249:1.0 
2048.0 2:0.23333333333333334 3:0.8266129032258065 4:0.5287846481876333 61:1.0 119:1.0 215:1.0 
2048.0 1:0.3333333333333333 2:0.3888888888888889 3:0.7692307692307693 4:0.16631130063965885 61:1.0 121:1.0 270:1.0 
2048.0 2:0.08888888888888889 3:0.5467980295566502 4:0.43283582089552236 57:1.0 121:1.0 225:1.0 
2048.0 1:0.3333333333333333 2:0.08888888888888889 3:0.7142857142857143 4:0.04477611940298507 61:1.0 121:1.0 215:1.0 
2048.0 1:0.3333333333333333 2:0.1111111111111111 3:0.9444444444444444 4:0.03837953091684435 22:1.0 102:1.0 226:1.0 
2048.0 1:0.3333333333333333 2:0.2222222222222222 3:0.8333333333333334 4:0.03837953091684435 57:1.0 119:1.0 215:1.0 
2048.0 2:0.23333333333333334 3:0.5467980295566502 4:0.43283582089552236 57:1.0 102:1.0 215:1.0 
2048.0 2:0.2777777777777778 3:0.6956521739130435 4:0.09808102345415778 57:1.0 129:1.0 250:1.0 
2048.0 1:0.3333333333333333 3:0.7692307692307693 4:0.16631130063965885 61:1.0 181:1.0 233:1.0 
2048.0 2:0.1 3:0.8857142857142857 4:0.07462686567164178 57:1.0 121:1.0 215:1.0 
2048.0 1:0.3333333333333333 2:0.28888888888888886 3:1.0 4:0.017057569296375266 23:1.0 118:1.0 277:1.0 
2048.0 1:0.3333333333333333 2:0.011111111111111112 3:0.9164265129682997 4:0.7398720682302772 61:1.0 181:1.0 215:1.0 
146.01268272637793 1:0.3333333333333333 2:0.06666666666666667 3:0.75 4:0.008528784648187633 23:1.0 121:1.0 198:1.0 
2048.0 1:0.3333333333333333 3:0.9477611940298507 4:0.2857142857142857 61:1.0 181:1.0 198:1.0 
77.65075976285766 1:0.3333333333333333 2:0.2222222222222222 3:0.9801980198019802 4:0.21535181236673773 22:1.0 102:1.0 277:1.0 
96.9989082560113 2:0.08888888888888889 3:0.8857142857142857 4:0.07462686567164178 57:1.0 102:1.0 277:1.0 
321.35382985508255 2:0.2 3:0.5467980295566502 4:0.43283582089552236 57:1.0 102:1.0 249:1.0 
982.8953553549503 1:0.3333333333333333 2:0.2 3:1.0 4:0.0042643923240938165 57:1.0 148:1.0 217:1.0 
2048.0 1:0.3333333333333333 2:0.3111111111111111 3:1.0 4:0.06396588486140725 23:1.0 102:1.0 198:1.0 
2048.0 2:0.18888888888888888 3:0.8135593220338984 4:0.1257995735607676 23:1.0 119:1.0 233:1.0 
910.8576646281815 2:0.08888888888888889 3:0.8857142857142857 4:0.07462686567164178 57:1.0 121:1.0 215:1.0 
2048.0 1:0.3333333333333333 2:0.2777777777777778 3:0.9 4:0.29850746268656714 61:1.0 119:1.0 198:1.0 
2048.0 2:0.2111111111111111 3:0.5467980295566502 4:0.43283582089552236 57:1.0 119:1.0 249:1.0 
2048.0 2:0.5777777777777777 3:0.96 4:0.10660980810234541 61:1.0 102:1.0 204:1.0 
2048.0 2:0.28888888888888886 3:0.7636363636363637 4:0.11727078891257996 58:1.0 181:1.0 215:1.0 
233.84615563121116 1:0.3333333333333333 2:0.2111111111111111 3:1.0 4:0.0042643923240938165 23:1.0 130:1.0 198:1.0 
2048.0 1:0.3333333333333333 2:0.06666666666666667 3:0.9 4:0.29850746268656714 61:1.0 115:1.0 215:1.0 
2048.0 2:0.14444444444444443 3:0.8266129032258065 4:0.5287846481876333 61:1.0 181:1.0 249:1.0 
2048.0 2:0.13333333333333333 3:0.8266129032258065 4:0.5287846481876333 61:1.0 102:1.0 249:1.0 
2048.0 2:0.24444444444444444 3:0.5467980295566502 4:0.43283582089552236 57:1.0 102:1.0 215:1.0 
2048.0 1:0.3333333333333333 2:0.05555555555555555 3:0.9024390243902439 4:0.08742004264392324 23:1.0 119:1.0 198:1.0 
2048.0 1:0.3333333333333333 2:0.05555555555555555 3:0.9024390243902439 4:0.08742004264392324 23:1.0 119:1.0 198:1.0 
1248.9030454610886 1:0.3333333333333333 2:0.18888888888888888 3:0.8571428571428571 4:0.05970149253731343 23:1.0 157:1.0 215:1.0 
2048.0 1:0.3333333333333333 2:0.2111111111111111 3:0.9024390243902439 4:0.08742004264392324 23:1.0 119:1.0 198:1.0 
2048.0 1:0.3333333333333333 2:0.1 3:1.0 4:0.010660980810234541 19:1.0 119:1.0 249:1.0 
2048.0 1:0.3333333333333333 2:0.18888888888888888 3:0.7777777777777778 4:0.019189765458422176 57:1.0 119:1.0 249:1.0 
2048.0 1:0.3333333333333333 2:0.07777777777777778 3:0.8 4:0.053304904051172705 61:1.0 102:1.0 244:1.0 
2048.0 1:0.3333333333333333 2:0.022222222222222223 3:0.9285714285714286 4:0.05970149253731343 61:1.0 102:1.0 215:1.0 
2048.0 1:0.3333333333333333 2:0.07777777777777778 3:0.6666666666666666 4:0.006396588486140725 61:1.0 150:1.0 244:1.0 
2048.0 1:0.3333333333333333 2:0.26666666666666666 3:0.8333333333333334 4:0.03837953091684435 57:1.0 102:1.0 215:1.0 
2003.4017831711917 1:0.3333333333333333 2:0.05555555555555555 3:0.9417808219178082 4:0.6226012793176973 61:1.0 153:1.0 224:1.0 
2048.0 2:0.1111111111111111 3:0.96 4:0.10660980810234541 61:1.0 102:1.0 198:1.0 
21.884695993429563 1:0.3333333333333333 2:0.4 3:0.375 4:0.017057569296375266 61:1.0 117:1.0 250:1.0 
2048.0 2:0.28888888888888886 3:0.875 4:0.0511727078891258 23:1.0 129:1.0 233:1.0 
2048.0 1:0.3333333333333333 2:0.16666666666666666 3:0.967741935483871 4:0.06609808102345416 61:1.0 101:1.0 214:1.0 
2048.0 1:0.3333333333333333 2:0.14444444444444443 3:0.967741935483871 4:0.13219616204690832 61:1.0 119:1.0 249:1.0 
453.7675652290443 1:0.3333333333333333 2:0.17777777777777778 3:0.7692307692307693 4:0.02771855010660981 61:1.0 181:1.0 217:1.0 
2048.0 2:0.18888888888888888 3:0.6578947368421053 4:0.16204690831556504 57:1.0 113:1.0 215:1.0 
2048.0 2:0.14444444444444443 3:0.9530916844349681 4:1.0 61:1.0 102:1.0 250:1.0 
2048.0 1:0.3333333333333333 2:0.3333333333333333 3:0.4744897959183674 4:0.835820895522388 61:1.0 148:1.0 215:1.0 
1.7435174319902496 1:0.3333333333333333 2:0.25555555555555554 3:1.0 4:0.0021321961620469083 52:1.0 102:1.0 214:1.0 
2048.0 3:0.9918032786885246 4:0.2601279317697228 57:1.0 181:1.0 226:1.0 
2048.0 1:0.3333333333333333 2:0.15555555555555556 3:0.9477611940298507 4:0.2857142857142857 61:1.0 181:1.0 249:1.0 
2048.0 2:0.7444444444444445 3:0.8266129032258065 4:0.5287846481876333 61:1.0 121:1.0 215:1.0 
2048.0 1:0.3333333333333333 2:0.07777777777777778 3:0.9285714285714286 4:0.05970149253731343 61:1.0 119:1.0 215:1.0 
2048.0 1:0.3333333333333333 2:0.1111111111111111 3:0.5555555555555556 4:0.03837953091684435 61:1.0 119:1.0 215:1.0 
2048.0 2:0.2111111111111111 3:0.5467980295566502 4:0.43283582089552236 57:1.0 102:1.0 215:1.0 
539.5192606903761 1:0.3333333333333333 2:0.4666666666666667 3:0.9801980198019802 4:0.21535181236673773 22:1.0 102:1.0 249:1.0 
2048.0 2:0.06666666666666667 3:0.5467980295566502 4:0.43283582089552236 57:1.0 102:1.0 199:1.0 
2048.0 1:0.3333333333333333 2:0.16666666666666666 3:0.8677248677248677 4:0.40298507462686567 61:1.0 102:1.0 198:1.0 
2048.0 2:0.2111111111111111 3:0.5467980295566502 4:0.43283582089552236 57:1.0 181:1.0 215:1.0 
2048.0 2:0.2111111111111111 3:0.5467980295566502 4:0.43283582089552236 57:1.0 181:1.0 217:1.0 
566.977579866643 2:0.15555555555555556 3:0.6578947368421053 4:0.16204690831556504 57:1.0 148:1.0 215:1.0 
1216.0425807189777 1:0.3333333333333333 3:1.0 4:0.06396588486140725 23:1.0 181:1.0 244:1.0 
1893.954416709107 1:0.3333333333333333 3:1.0 4:0.06396588486140725 23:1.0 181:1.0 244:1.0 
986.3515855881906 1:0.3333333333333333 2:0.2 3:0.87 4:0.21321961620469082 41:1.0 121:1.0 244:1.0 
402.2740993057444 1:0.3333333333333333 2:0.4111111111111111 3:0.87 4:0.21321961620469082 41:1.0 181:1.0 244:1.0 
2048.0 1:0.3333333333333333 2:0.23333333333333334 3:1.0 4:0.06396588486140725 23:1.0 102:1.0 244:1.0 
2048.0 1:0.3333333333333333 2:0.36666666666666664 3:0.87 4:0.21321961620469082 41:1.0 181:1.0 244:1.0 
2048.0 1:0.3333333333333333 2:0.23333333333333334 3:0.7692307692307693 4:0.16631130063965885 61:1.0 101:1.0 215:1.0 
1530.1603766473163 2:0.12222222222222222 3:0.7636363636363637 4:0.11727078891257996 58:1.0 102:1.0 215:1.0 
2048.0 2:0.2111111111111111 3:0.8135593220338984 4:0.1257995735607676 23:1.0 101:1.0 204:1.0 
2048.0 1:0.3333333333333333 3:0.9 4:0.29850746268656714 61:1.0 181:1.0 199:1.0 
2048.0 1:0.3333333333333333 2:0.18888888888888888 3:0.8632478632478633 4:0.24946695095948826 61:1.0 102:1.0 197:1.0 
2048.0 1:0.3333333333333333 2:0.4 3:0.7692307692307693 4:0.16631130063965885 61:1.0 181:1.0 233:1.0 
2048.0 2:0.24444444444444444 3:0.5467980295566502 4:0.43283582089552236 57:1.0 119:1.0 249:1.0 
2048.0 1:0.3333333333333333 2:0.16666666666666666 3:0.9306930693069307 4:0.21535181236673773 61:1.0 102:1.0 215:1.0 
2048.0 1:0.3333333333333333 3:0.9306930693069307 4:0.21535181236673773 61:1.0 181:1.0 211:1.0 
2048.0 1:0.3333333333333333 2:0.25555555555555554 3:0.4744897959183674 4:0.835820895522388 61:1.0 102:1.0 225:1.0 
1747.3981240510664 2:0.37777777777777777 3:0.4418604651162791 4:0.5501066098081023 61:1.0 102:1.0 215:1.0 
2048.0 1:0.3333333333333333 2:0.43333333333333335 3:1.0 4:0.06396588486140725 23:1.0 102:1.0 244:1.0 
2048.0 2:0.2 3:0.4418604651162791 4:0.5501066098081023 61:1.0 102:1.0 215:1.0 
2048.0 1:0.3333333333333333 3:0.9417808219178082 4:0.6226012793176973 61:1.0 181:1.0 215:1.0 
2048.0 1:0.3333333333333333 2:0.3333333333333333 3:0.9477611940298507 4:0.2857142857142857 61:1.0 181:1.0 233:1.0 
1416.636272406279 1:0.3333333333333333 3:0.6666666666666666 4:0.006396588486140725 58:1.0 181:1.0 199:1.0 
2048.0 2:0.18888888888888888 3:0.8266129032258065 4:0.5287846481876333 61:1.0 102:1.0 249:1.0 
2048.0 1:0.3333333333333333 2:0.25555555555555554 3:0.4744897959183674 4:0.835820895522388 61:1.0 102:1.0 233:1.0 
2048.0 1:0.3333333333333333 2:0.4444444444444444 3:0.8676470588235294 4:0.2899786780383795 58:1.0 102:1.0 215:1.0 
2048.0 1:0.3333333333333333 2:0.06666666666666667 3:0.87 4:0.21321961620469082 41:1.0 117:1.0 244:1.0 
2048.0 1:0.3333333333333333 2:0.15555555555555556 3:1.0 4:0.006396588486140725 57:1.0 102:1.0 215:1.0 
2048.0 1:0.3333333333333333 2:0.2 3:0.8333333333333334 4:0.03837953091684435 57:1.0 102:1.0 215:1.0 
2048.0 2:0.18888888888888888 3:0.8266129032258065 4:0.5287846481876333 61:1.0 181:1.0 215:1.0 
2048.0 1:0.3333333333333333 3:0.9 4:0.29850746268656714 61:1.0 181:1.0 233:1.0 
2048.0 2:0.18888888888888888 3:0.8266129032258065 4:0.5287846481876333 61:1.0 181:1.0 215:1.0 
2048.0 2:0.03333333333333333 3:0.96 4:0.10660980810234541 61:1.0 119:1.0 215:1.0 
2048.0 1:0.3333333333333333 2:0.14444444444444443 3:0.8571428571428571 4:0.05970149253731343 23:1.0 102:1.0 198:1.0 
2048.0 3:0.9530916844349681 4:1.0 61:1.0 181:1.0 198:1.0 
2048.0 2:0.3 3:0.8266129032258065 4:0.5287846481876333 61:1.0 181:1.0 215:1.0 
2048.0 1:0.3333333333333333 2:0.2 3:0.4744897959183674 4:0.835820895522388 61:1.0 102:1.0 215:1.0 
2048.0 1:0.3333333333333333 2:0.044444444444444446 3:0.8571428571428571 4:0.05970149253731343 23:1.0 102:1.0 198:1.0 
2048.0 1:0.3333333333333333 2:0.12222222222222222 3:1.0 4:0.06396588486140725 23:1.0 102:1.0 198:1.0 
2048.0 2:0.18888888888888888 3:0.8857142857142857 4:0.07462686567164178 57:1.0 129:1.0 215:1.0 
2048.0 1:0.3333333333333333 2:0.13333333333333333 3:0.9024390243902439 4:0.08742004264392324 23:1.0 102:1.0 198:1.0 
2048.0 2:0.4777777777777778 3:0.96 4:0.10660980810234541 61:1.0 119:1.0 198:1.0 
2048.0 1:0.3333333333333333 2:0.2111111111111111 3:0.9477611940298507 4:0.2857142857142857 61:1.0 181:1.0 199:1.0 
2048.0 2:0.07777777777777778 3:0.96 4:0.10660980810234541 61:1.0 119:1.0 198:1.0 
119.18006982513532 3:0.4418604651162791 4:0.5501066098081023 61:1.0 181:1.0 198:1.0 
2048.0 2:0.32222222222222224 3:0.4418604651162791 4:0.5501066098081023 61:1.0 121:1.0 198:1.0 
160.3132994236742 1:0.3333333333333333 2:0.13333333333333333 3:1.0 19:1.0 103:1.0 211:1.0 
1178.0682535973096 1:0.3333333333333333 2:0.2 3:0.4744897959183674 4:0.835820895522388 61:1.0 153:1.0 211:1.0 
2048.0 1:0.3333333333333333 2:0.2222222222222222 3:0.9007633587786259 4:0.279317697228145 61:1.0 102:1.0 215:1.0 
2048.0 1:0.3333333333333333 2:0.2222222222222222 3:0.9915254237288136 4:0.2515991471215352 57:1.0 119:1.0 249:1.0 
2048.0 2:0.13333333333333333 3:0.6578947368421053 4:0.16204690831556504 57:1.0 181:1.0 225:1.0 
2048.0 2:0.25555555555555554 3:0.8266129032258065 4:0.5287846481876333 61:1.0 181:1.0 215:1.0 
2017.0563396526832 1:0.3333333333333333 2:0.28888888888888886 3:1.0 4:0.06396588486140725 23:1.0 119:1.0 225:1.0 
2048.0 3:0.8266129032258065 4:0.5287846481876333 61:1.0 181:1.0 215:1.0 
1799.203959959425 1:0.3333333333333333 2:0.2 3:1.0 4:0.014925373134328358 22:1.0 118:1.0 233:1.0 
1294.6563399505953 2:0.08888888888888889 3:0.875 4:0.0511727078891258 23:1.0 129:1.0 217:1.0 
2048.0 1:0.3333333333333333 2:0.5222222222222223 3:0.75 4:0.008528784648187633 23:1.0 102:1.0 233:1.0 
2048.0 1:0.3333333333333333 2:0.23333333333333334 3:0.9007633587786259 4:0.279317697228145 61:1.0 102:1.0 249:1.0 
2048.0 1:0.3333333333333333 3:0.8181818181818182 4:0.09381663113006397 61:1.0 181:1.0 215:1.0 
2048.0 1:0.3333333333333333 2:0.17777777777777778 3:0.9306930693069307 4:0.21535181236673773 61:1.0 129:1.0 214:1.0 
2048.0 1:0.3333333333333333 2:0.08888888888888889 3:0.9306930693069307 4:0.21535181236673773 61:1.0 136:1.0 211:1.0 
2048.0 1:0.3333333333333333 3:0.9306930693069307 4:0.21535181236673773 61:1.0 181:1.0 211:1.0 
339.35182136611866 2:0.011111111111111112 3:0.7636363636363637 4:0.11727078891257996 58:1.0 113:1.0 213:1.0 
2048.0 1:0.3333333333333333 3:0.7058823529411765 4:0.07249466950959488 61:1.0 181:1.0 215:1.0 
2048.0 1:0.3333333333333333 2:0.12222222222222222 3:0.9306930693069307 4:0.21535181236673773 61:1.0 101:1.0 233:1.0 
2048.0 1:0.3333333333333333 3:0.9306930693069307 4:0.21535181236673773 61:1.0 181:1.0 233:1.0 
2048.0 1:0.3333333333333333 3:0.9306930693069307 4:0.21535181236673773 61:1.0 181:1.0 250:1.0 
2048.0 2:0.3 3:0.4418604651162791 4:0.5501066098081023 61:1.0 102:1.0 233:1.0 
2048.0 1:0.3333333333333333 3:0.8 4:0.053304904051172705 61:1.0 181:1.0 215:1.0 
2048.0 1:0.3333333333333333 3:0.9306930693069307 4:0.21535181236673773 61:1.0 181:1.0 250:1.0 
2048.0 1:0.3333333333333333 2:0.06666666666666667 3:0.9801980198019802 4:0.21535181236673773 22:1.0 103:1.0 249:1.0 
1222.4354381202277 1:0.3333333333333333 3:0.75 4:0.05970149253731343 61:1.0 181:1.0 215:1.0 
2048.0 1:0.3333333333333333 2:0.03333333333333333 3:0.9801980198019802 4:0.21535181236673773 22:1.0 119:1.0 198:1.0 
2048.0 2:0.2111111111111111 3:0.8266129032258065 4:0.5287846481876333 61:1.0 181:1.0 215:1.0 
2048.0 1:0.3333333333333333 2:0.044444444444444446 3:0.9801980198019802 4:0.21535181236673773 22:1.0 102:1.0 199:1.0 
2048.0 1:0.3333333333333333 3:0.9306930693069307 4:0.21535181236673773 61:1.0 181:1.0 199:1.0 
2048.0 1:0.3333333333333333 2:0.12222222222222222 3:0.9164265129682997 4:0.7398720682302772 61:1.0 119:1.0 217:1.0 
2048.0 1:0.3333333333333333 2:0.2 3:0.9306930693069307 4:0.21535181236673773 61:1.0 102:1.0 199:1.0 
2048.0 1:0.3333333333333333 2:0.32222222222222224 3:0.9164265129682997 4:0.7398720682302772 61:1.0 119:1.0 217:1.0 
1083.8367251647267 2:0.4 3:0.6578947368421053 4:0.16204690831556504 57:1.0 137:1.0 198:1.0 
2048.0 2:0.011111111111111112 3:0.4418604651162791 4:0.5501066098081023 61:1.0 181:1.0 211:1.0 
1791.643765447558 1:0.3333333333333333 2:0.24444444444444444 3:0.7692307692307693 4:0.16631130063965885 61:1.0 157:1.0 233:1.0 
2048.0 2:0.43333333333333335 3:0.5467980295566502 4:0.43283582089552236 57:1.0 102:1.0 198:1.0 
2048.0 1:0.3333333333333333 3:0.9164265129682997 4:0.7398720682302772 61:1.0 181:1.0 217:1.0 
850.1393923252566 3:0.4418604651162791 4:0.5501066098081023 61:1.0 181:1.0 198:1.0 
2048.0 2:0.18888888888888888 3:0.4418604651162791 4:0.5501066098081023 61:1.0 119:1.0 215:1.0 
2048.0 2:0.32222222222222224 3:0.5467980295566502 4:0.43283582089552236 57:1.0 102:1.0 250:1.0 
2048.0 1:0.3333333333333333 2:0.15555555555555556 3:0.4744897959183674 4:0.835820895522388 61:1.0 118:1.0 198:1.0 
2048.0 1:0.3333333333333333 2:0.36666666666666664 3:1.0 4:0.06396588486140725 23:1.0 102:1.0 244:1.0 
2048.0 2:0.12222222222222222 3:0.9530916844349681 4:1.0 61:1.0 102:1.0 249:1.0 
2048.0 1:0.3333333333333333 2:0.15555555555555556 3:1.0 4:0.0042643923240938165 57:1.0 119:1.0 215:1.0 
2048.0 1:0.3333333333333333 2:0.08888888888888889 3:0.4744897959183674 4:0.835820895522388 61:1.0 102:1.0 215:1.0 
2048.0 2:0.23333333333333334 3:0.4418604651162791 4:0.5501066098081023 61:1.0 102:1.0 215:1.0 
2048.0 1:0.3333333333333333 2:0.23333333333333334 3:1.0 4:0.010660980810234541 19:1.0 119:1.0 249:1.0 
1785.2859294309158 1:0.3333333333333333 2:0.24444444444444444 3:0.5 4:0.008528784648187633 57:1.0 153:1.0 213:1.0 
2048.0 3:0.4418604651162791 4:0.5501066098081023 61:1.0 181:1.0 214:1.0 
2048.0 1:0.3333333333333333 2:0.2777777777777778 3:0.8632478632478633 4:0.24946695095948826 61:1.0 174:1.0 215:1.0 
2048.0 1:0.3333333333333333 2:0.32222222222222224 3:0.4744897959183674 4:0.835820895522388 61:1.0 119:1.0 198:1.0 
2048.0 2:0.4888888888888889 3:0.9530916844349681 4:1.0 61:1.0 102:1.0 198:1.0 
2048.0 3:0.9530916844349681 4:1.0 61:1.0 181:1.0 217:1.0 
2048.0 1:0.3333333333333333 2:0.45555555555555555 3:0.967741935483871 4:0.06609808102345416 61:1.0 102:1.0 211:1.0 
1017.6880160832301 1:0.3333333333333333 2:0.5555555555555556 3:0.9915254237288136 4:0.2515991471215352 57:1.0 181:1.0 255:1.0 
1490.6049215499133 2:0.8111111111111111 3:0.4418604651162791 4:0.5501066098081023 61:1.0 102:1.0 214:1.0 
2048.0 1:0.3333333333333333 2:0.1111111111111111 3:0.8677248677248677 4:0.40298507462686567 61:1.0 119:1.0 215:1.0 
2048.0 1:0.3333333333333333 2:0.2 3:0.8677248677248677 4:0.40298507462686567 61:1.0 119:1.0 215:1.0 
2048.0 2:0.2222222222222222 3:0.8857142857142857 4:0.07462686567164178 57:1.0 119:1.0 215:1.0 
2048.0 2:0.1 3:1.0 4:0.11300639658848614 57:1.0 121:1.0 215:1.0 
2048.0 1:0.3333333333333333 2:0.16666666666666666 3:0.6666666666666666 4:0.0767590618336887 57:1.0 101:1.0 215:1.0 
2048.0 1:0.3333333333333333 3:0.7058823529411765 4:0.07249466950959488 61:1.0 181:1.0 255:1.0 
2048.0 1:0.3333333333333333 2:0.25555555555555554 3:0.9417808219178082 4:0.6226012793176973 61:1.0 101:1.0 215:1.0 
2048.0 1:0.3333333333333333 2:0.3 3:1.0 4:0.006396588486140725 57:1.0 119:1.0 249:1.0 
2048.0 1:0.3333333333333333 3:0.8181818181818182 4:0.09381663113006397 61:1.0 181:1.0 215:1.0 
2048.0 1:0.3333333333333333 3:0.8181818181818182 4:0.09381663113006397 61:1.0 181:1.0 233:1.0 
1113.8587576785194 2:0.18888888888888888 3:0.8857142857142857 4:0.07462686567164178 57:1.0 148:1.0 215:1.0 
2048.0 1:0.3333333333333333 2:0.12222222222222222 3:0.4744897959183674 4:0.835820895522388 61:1.0 102:1.0 233:1.0 
2048.0 2:0.2222222222222222 3:0.7636363636363637 4:0.11727078891257996 58:1.0 181:1.0 215:1.0 
2048.0 3:0.8266129032258065 4:0.5287846481876333 61:1.0 181:1.0 250:1.0 
2048.0 1:0.3333333333333333 2:0.6111111111111112 3:0.9007633587786259 4:0.279317697228145 61:1.0 102:1.0 250:1.0 
2048.0 1:0.3333333333333333 3:0.9306930693069307 4:0.21535181236673773 61:1.0 181:1.0 215:1.0 
1232.7093704104927 2:0.2 3:0.5467980295566502 4:0.43283582089552236 57:1.0 102:1.0 249:1.0 
2048.0 2:0.2777777777777778 3:0.8266129032258065 4:0.5287846481876333 61:1.0 119:1.0 215:1.0 
2048.0 1:0.3333333333333333 2:0.08888888888888889 3:0.9007633587786259 4:0.279317697228145 61:1.0 102:1.0 225:1.0 
2048.0 1:0.3333333333333333 2:0.07777777777777778 3:0.9306930693069307 4:0.21535181236673773 61:1.0 102:1.0 215:1.0 
2048.0 1:0.3333333333333333 2:0.4222222222222222 3:0.8677248677248677 4:0.40298507462686567 61:1.0 181:1.0 250:1.0 
370.3380320586241 2:0.5444444444444444 3:0.7636363636363637 4:0.11727078891257996 58:1.0 181:1.0 215:1.0 
2048.0 1:0.3333333333333333 3:0.9 4:0.29850746268656714 61:1.0 181:1.0 198:1.0 
2048.0 2:0.37777777777777777 3:0.4418604651162791 4:0.5501066098081023 61:1.0 102:1.0 215:1.0 
2048.0 1:0.3333333333333333 2:0.3 3:0.9 4:0.29850746268656714 61:1.0 118:1.0 198:1.0 
2048.0 1:0.3333333333333333 3:0.9 4:0.29850746268656714 61:1.0 181:1.0 211:1.0 
1477.0758894723474 1:0.3333333333333333 2:0.32222222222222224 3:1.0 4:0.06396588486140725 23:1.0 153:1.0 197:1.0 
2048.0 1:0.3333333333333333 2:0.1111111111111111 3:0.9801980198019802 4:0.21535181236673773 22:1.0 119:1.0 249:1.0 
2048.0 1:0.3333333333333333 3:0.4744897959183674 4:0.835820895522388 61:1.0 181:1.0 233:1.0 
2048.0 2:0.05555555555555555 3:0.8857142857142857 4:0.07462686567164178 57:1.0 119:1.0 215:1.0 
2048.0 1:0.3333333333333333 2:0.07777777777777778 3:0.5555555555555556 4:0.03837953091684435 61:1.0 119:1.0 244:1.0 
2048.0 2:0.14444444444444443 3:0.5467980295566502 4:0.43283582089552236 57:1.0 181:1.0 215:1.0 
393.8882048800061 3:0.4418604651162791 4:0.5501066098081023 61:1.0 181:1.0 198:1.0 
2048.0 1:0.3333333333333333 2:0.06666666666666667 3:0.4744897959183674 4:0.835820895522388 61:1.0 181:1.0 211:1.0 
2048.0 1:0.3333333333333333 2:0.14444444444444443 3:0.4744897959183674 4:0.835820895522388 61:1.0 181:1.0 233:1.0 
2048.0 1:0.3333333333333333 3:0.4744897959183674 4:0.835820895522388 61:1.0 181:1.0 211:1.0 
2048.0 1:0.3333333333333333 2:0.07777777777777778 3:0.4744897959183674 4:0.835820895522388 61:1.0 181:1.0 233:1.0 
2048.0 1:0.3333333333333333 2:0.12222222222222222 3:0.9007633587786259 4:0.279317697228145 61:1.0 102:1.0 198:1.0 
2048.0 1:0.3333333333333333 3:0.8571428571428571 4:0.05970149253731343 23:1.0 181:1.0 198:1.0 
2048.0 1:0.3333333333333333 2:0.2222222222222222 3:0.7777777777777778 4:0.019189765458422176 57:1.0 102:1.0 215:1.0 
2048.0 1:0.3333333333333333 2:0.4888888888888889 3:0.967741935483871 4:0.13219616204690832 61:1.0 119:1.0 215:1.0 
2048.0 2:0.24444444444444444 3:0.5467980295566502 4:0.43283582089552236 57:1.0 113:1.0 250:1.0 
2048.0 1:0.3333333333333333 2:0.36666666666666664 3:0.9801980198019802 4:0.21535181236673773 22:1.0 119:1.0 277:1.0 
2048.0 2:0.044444444444444446 3:0.8266129032258065 4:0.5287846481876333 61:1.0 103:1.0 215:1.0 
2048.0 1:0.3333333333333333 2:0.2 3:0.6 4:0.021321961620469083 61:1.0 102:1.0 198:1.0 
2048.0 2:0.2111111111111111 3:0.4418604651162791 4:0.5501066098081023 61:1.0 181:1.0 217:1.0 
951.7591459348204 2:0.25555555555555554 3:0.5467980295566502 4:0.43283582089552236 57:1.0 113:1.0 250:1.0 
276.4191266323836 1:0.3333333333333333 2:0.08888888888888889 3:1.0 4:0.008528784648187633 23:1.0 102:1.0 214:1.0 
2048.0 1:0.3333333333333333 3:0.9306930693069307 4:0.21535181236673773 61:1.0 181:1.0 199:1.0 
2048.0 1:0.3333333333333333 2:0.6222222222222222 3:0.9024390243902439 4:0.08742004264392324 23:1.0 119:1.0 250:1.0 
828.6162626782306 1:0.3333333333333333 2:0.3 3:1.0 4:0.01279317697228145 22:1.0 148:1.0 250:1.0 
2048.0 1:0.3333333333333333 2:0.4444444444444444 3:0.9417808219178082 4:0.6226012793176973 61:1.0 181:1.0 249:1.0 
2048.0 1:0.3333333333333333 2:0.12222222222222222 3:1.0 4:0.03624733475479744 23:1.0 153:1.0 217:1.0 
2048.0 2:0.2111111111111111 3:0.5467980295566502 4:0.43283582089552236 57:1.0 137:1.0 249:1.0 
783.6326801228224 1:0.6666666666666666 2:0.08888888888888889 3:1.0 4:0.006396588486140725 5:1.0 113:1.0 249:1.0 
2048.0 1:0.6666666666666666 2:0.5222222222222223 3:1.0 4:0.006396588486140725 5:1.0 102:1.0 217:1.0 
2048.0 1:0.3333333333333333 3:0.4744897959183674 4:0.835820895522388 61:1.0 181:1.0 233:1.0 
2048.0 1:0.3333333333333333 2:0.06666666666666667 3:0.7692307692307693 4:0.16631130063965885 61:1.0 103:1.0 215:1.0 
2048.0 2:0.14444444444444443 3:0.9530916844349681 4:1.0 61:1.0 119:1.0 215:1.0 
202.22360448558396 2:0.35555555555555557 3:0.6578947368421053 4:0.16204690831556504 57:1.0 118:1.0 253:1.0 
2048.0 2:0.4222222222222222 3:0.875 4:0.0511727078891258 23:1.0 102:1.0 233:1.0 
1043.8030516649264 2:0.12222222222222222 3:0.9918032786885246 4:0.2601279317697228 57:1.0 159:1.0 249:1.0 
2048.0 1:0.3333333333333333 2:0.25555555555555554 3:1.0 4:0.0042643923240938165 57:1.0 102:1.0 215:1.0 
2048.0 1:0.3333333333333333 2:0.17777777777777778 3:0.9411764705882353 4:0.03624733475479744 23:1.0 121:1.0 233:1.0 
2048.0 2:0.05555555555555555 3:0.9530916844349681 4:1.0 61:1.0 119:1.0 215:1.0 
2048.0 1:0.3333333333333333 3:0.8 4:0.053304904051172705 61:1.0 181:1.0 215:1.0 
2048.0 1:0.3333333333333333 3:0.9306930693069307 4:0.21535181236673773 61:1.0 181:1.0 249:1.0 
2048.0 1:0.3333333333333333 3:0.9417808219178082 4:0.6226012793176973 61:1.0 181:1.0 253:1.0 
2048.0 1:0.3333333333333333 2:0.15555555555555556 3:0.5416666666666666 4:0.0511727078891258 61:1.0 129:1.0 233:1.0 
2048.0 1:0.3333333333333333 2:0.022222222222222223 3:0.4744897959183674 4:0.835820895522388 61:1.0 102:1.0 198:1.0 
2048.0 2:0.17777777777777778 3:0.6578947368421053 4:0.16204690831556504 57:1.0 118:1.0 215:1.0 
2048.0 1:0.3333333333333333 2:0.13333333333333333 3:0.9477611940298507 4:0.2857142857142857 61:1.0 181:1.0 233:1.0 
2048.0 2:0.18888888888888888 3:0.6578947368421053 4:0.16204690831556504 57:1.0 118:1.0 215:1.0 
746.784771330862 1:0.3333333333333333 2:0.3333333333333333 3:1.0 4:0.06396588486140725 23:1.0 119:1.0 211:1.0 
2048.0 1:0.3333333333333333 2:0.13333333333333333 3:0.7692307692307693 4:0.16631130063965885 61:1.0 102:1.0 215:1.0 
2048.0 1:0.3333333333333333 2:0.022222222222222223 3:0.9801980198019802 4:0.21535181236673773 22:1.0 119:1.0 225:1.0 
1741.0307127695512 2:0.3888888888888889 3:0.9918032786885246 4:0.2601279317697228 57:1.0 137:1.0 226:1.0 
2048.0 2:0.4444444444444444 3:0.4418604651162791 4:0.5501066098081023 61:1.0 119:1.0 249:1.0 
2048.0 1:0.3333333333333333 3:0.4744897959183674 4:0.835820895522388 61:1.0 181:1.0 233:1.0 
2048.0 2:0.06666666666666667 3:0.9530916844349681 4:1.0 61:1.0 129:1.0 233:1.0 
1641.0208910782915 1:0.3333333333333333 2:0.08888888888888889 3:0.8571428571428571 4:0.04477611940298507 23:1.0 137:1.0 198:1.0 
872.72455868876 1:0.3333333333333333 2:0.24444444444444444 3:0.9411764705882353 4:0.03624733475479744 23:1.0 119:1.0 215:1.0 
2048.0 2:0.43333333333333335 3:0.4418604651162791 4:0.5501066098081023 61:1.0 119:1.0 249:1.0 
2048.0 2:0.3333333333333333 3:0.9918032786885246 4:0.2601279317697228 57:1.0 148:1.0 215:1.0 
2048.0 1:0.3333333333333333 3:0.9024390243902439 4:0.08742004264392324 23:1.0 181:1.0 198:1.0 
2048.0 1:0.3333333333333333 2:0.12222222222222222 3:0.9417808219178082 4:0.6226012793176973 61:1.0 121:1.0 225:1.0 
2048.0 2:0.23333333333333334 3:0.9918032786885246 4:0.2601279317697228 57:1.0 102:1.0 249:1.0 
2048.0 2:0.022222222222222223 3:0.875 4:0.0511727078891258 23:1.0 157:1.0 215:1.0 
2048.0 2:0.05555555555555555 3:0.7636363636363637 4:0.11727078891257996 58:1.0 181:1.0 225:1.0 
2048.0 2:0.3333333333333333 3:0.5467980295566502 4:0.43283582089552236 57:1.0 102:1.0 215:1.0 
2048.0 2:0.08888888888888889 3:0.9918032786885246 4:0.2601279317697228 57:1.0 102:1.0 249:1.0 
2048.0 2:0.23333333333333334 3:0.4418604651162791 4:0.5501066098081023 61:1.0 129:1.0 199:1.0 
2048.0 1:0.3333333333333333 2:0.3111111111111111 3:0.87 4:0.21321961620469082 41:1.0 181:1.0 244:1.0 
2048.0 2:0.14444444444444443 3:0.6956521739130435 4:0.09808102345415778 57:1.0 157:1.0 215:1.0 
2048.0 2:0.13333333333333333 3:0.9918032786885246 4:0.2601279317697228 57:1.0 119:1.0 253:1.0 
2048.0 2:0.5777777777777777 3:0.96 4:0.10660980810234541 61:1.0 129:1.0 198:1.0 
1060.6839661129907 1:0.3333333333333333 2:0.6666666666666666 3:0.9801980198019802 4:0.21535181236673773 22:1.0 121:1.0 249:1.0 
2048.0 1:0.3333333333333333 2:0.1111111111111111 3:0.87 4:0.21321961620469082 41:1.0 119:1.0 244:1.0 
2048.0 1:0.3333333333333333 2:0.07777777777777778 3:0.8429752066115702 4:0.2579957356076759 61:1.0 102:1.0 249:1.0 
586.5975543257027 3:0.4418604651162791 4:0.5501066098081023 61:1.0 181:1.0 198:1.0 
1043.808325310215 2:0.07777777777777778 3:0.9918032786885246 4:0.2601279317697228 57:1.0 157:1.0 215:1.0 
53.66458186157531 2:0.3111111111111111 3:1.0 4:0.0021321961620469083 57:1.0 116:1.0 277:1.0 
2048.0 1:0.3333333333333333 3:0.9306930693069307 4:0.21535181236673773 61:1.0 181:1.0 249:1.0 
1983.4778970385428 1:0.3333333333333333 2:0.16666666666666666 3:1.0 4:0.0021321961620469083 57:1.0 121:1.0 215:1.0 
2048.0 1:0.3333333333333333 2:0.23333333333333334 3:1.0 4:0.0021321961620469083 57:1.0 119:1.0 250:1.0 
2048.0 1:0.3333333333333333 2:0.13333333333333333 3:0.9417808219178082 4:0.6226012793176973 61:1.0 102:1.0 215:1.0 
2048.0 2:0.17777777777777778 3:0.5467980295566502 4:0.43283582089552236 57:1.0 177:1.0 215:1.0 
2048.0 1:0.3333333333333333 2:0.37777777777777777 3:1.0 4:0.0021321961620469083 57:1.0 119:1.0 250:1.0 
2048.0 1:0.3333333333333333 2:0.05555555555555555 3:0.7692307692307693 4:0.02771855010660981 61:1.0 102:1.0 198:1.0 
2048.0 1:0.3333333333333333 2:0.05555555555555555 3:0.7692307692307693 4:0.02771855010660981 61:1.0 102:1.0 198:1.0 
2048.0 1:0.3333333333333333 2:0.1111111111111111 3:0.9417808219178082 4:0.6226012793176973 61:1.0 119:1.0 233:1.0 
291.0821602984183 1:0.3333333333333333 2:0.36666666666666664 3:0.87 4:0.21321961620469082 41:1.0 119:1.0 197:1.0 
2048.0 1:0.3333333333333333 2:0.2222222222222222 3:0.7692307692307693 4:0.16631130063965885 61:1.0 119:1.0 215:1.0 
2048.0 1:0.3333333333333333 2:0.022222222222222223 3:0.5416666666666666 4:0.0511727078891258 61:1.0 102:1.0 215:1.0 
2048.0 1:0.3333333333333333 2:0.12222222222222222 3:0.9417808219178082 4:0.6226012793176973 61:1.0 102:1.0 225:1.0 
2048.0 1:0.3333333333333333 2:0.1 3:0.5416666666666666 4:0.0511727078891258 61:1.0 102:1.0 215:1.0 
2048.0 1:0.3333333333333333 2:0.2111111111111111 3:0.9417808219178082 4:0.6226012793176973 61:1.0 181:1.0 225:1.0 
1793.5513842692262 2:0.03333333333333333 3:0.5467980295566502 4:0.43283582089552236 57:1.0 108:1.0 215:1.0 
1593.0500252960294 1:0.3333333333333333 2:0.25555555555555554 3:0.9801980198019802 4:0.21535181236673773 22:1.0 101:1.0 215:1.0 
482.66115322946723 2:0.16666666666666666 3:0.5467980295566502 4:0.43283582089552236 57:1.0 115:1.0 249:1.0 
2048.0 1:0.3333333333333333 2:0.044444444444444446 3:0.9801980198019802 4:0.21535181236673773 22:1.0 102:1.0 244:1.0 
2048.0 1:0.3333333333333333 2:0.18888888888888888 3:0.8677248677248677 4:0.40298507462686567 61:1.0 181:1.0 250:1.0 
2048.0 1:0.3333333333333333 2:0.45555555555555555 3:0.8888888888888888 4:0.019189765458422176 23:1.0 102:1.0 233:1.0 
2048.0 1:0.3333333333333333 2:0.022222222222222223 3:0.8677248677248677 4:0.40298507462686567 61:1.0 102:1.0 215:1.0 
2048.0 1:0.3333333333333333 2:0.06666666666666667 3:1.0 4:0.0042643923240938165 57:1.0 119:1.0 249:1.0 
2048.0 1:0.3333333333333333 2:0.23333333333333334 3:0.9411764705882353 4:0.03624733475479744 23:1.0 119:1.0 249:1.0 
1161.5487682291337 1:0.3333333333333333 2:0.15555555555555556 3:1.0 4:0.014925373134328358 22:1.0 181:1.0 250:1.0 
2048.0 1:0.6666666666666666 2:0.18888888888888888 3:1.0 41:1.0 102:1.0 249:1.0 
2048.0 1:0.3333333333333333 2:0.2222222222222222 3:0.9164265129682997 4:0.7398720682302772 61:1.0 121:1.0 215:1.0 
896.0614209953067 1:0.3333333333333333 2:0.16666666666666666 3:0.8571428571428571 4:0.05970149253731343 23:1.0 117:1.0 244:1.0 
2048.0 1:0.3333333333333333 2:0.1111111111111111 3:0.9 4:0.29850746268656714 61:1.0 119:1.0 246:1.0 
2048.0 1:0.3333333333333333 2:0.28888888888888886 3:0.8677248677248677 4:0.40298507462686567 61:1.0 119:1.0 215:1.0 
2048.0 1:0.3333333333333333 2:0.1111111111111111 3:0.9444444444444444 4:0.03837953091684435 22:1.0 119:1.0 249:1.0 
2048.0 2:0.2222222222222222 3:0.9918032786885246 4:0.2601279317697228 57:1.0 102:1.0 249:1.0 
683.92441131077 1:0.3333333333333333 2:0.06666666666666667 3:1.0 4:0.03624733475479744 23:1.0 102:1.0 215:1.0 
2048.0 1:0.3333333333333333 2:0.17777777777777778 3:0.9444444444444444 4:0.03837953091684435 22:1.0 119:1.0 249:1.0 
2048.0 2:0.2111111111111111 3:0.5467980295566502 4:0.43283582089552236 57:1.0 102:1.0 215:1.0 
1717.435490815149 1:0.3333333333333333 3:0.8571428571428571 4:0.05970149253731343 23:1.0 181:1.0 197:1.0 
2048.0 1:0.3333333333333333 3:0.9306930693069307 4:0.21535181236673773 61:1.0 181:1.0 249:1.0 
2048.0 1:0.3333333333333333 2:0.044444444444444446 3:0.4744897959183674 4:0.835820895522388 61:1.0 102:1.0 215:1.0 
2048.0 1:0.3333333333333333 2:0.08888888888888889 3:0.8677248677248677 4:0.40298507462686567 61:1.0 102:1.0 215:1.0 
2048.0 2:0.25555555555555554 3:1.0 4:0.11300639658848614 57:1.0 102:1.0 215:1.0 
66.26722617125617 1:0.3333333333333333 2:0.12222222222222222 3:0.6 4:0.010660980810234541 6:1.0 181:1.0 211:1.0 
742.0302081408798 2:0.05555555555555555 3:0.9032258064516129 4:0.13219616204690832 23:1.0 150:1.0 246:1.0 
2048.0 1:0.3333333333333333 2:0.2777777777777778 3:0.9164265129682997 4:0.7398720682302772 61:1.0 181:1.0 215:1.0 
2048.0 1:0.3333333333333333 2:0.2111111111111111 3:0.9007633587786259 4:0.279317697228145 61:1.0 103:1.0 233:1.0 
2048.0 1:0.3333333333333333 2:0.4222222222222222 3:0.9007633587786259 4:0.279317697228145 61:1.0 103:1.0 233:1.0 
2048.0 1:0.3333333333333333 3:0.9 4:0.29850746268656714 61:1.0 181:1.0 225:1.0 
2048.0 1:0.3333333333333333 2:0.1 3:0.8632478632478633 4:0.24946695095948826 61:1.0 102:1.0 198:1.0 
2048.0 1:0.3333333333333333 2:0.07777777777777778 3:0.9801980198019802 4:0.21535181236673773 22:1.0 119:1.0 215:1.0 
2048.0 1:0.3333333333333333 2:0.6555555555555556 3:0.5333333333333333 4:0.031982942430703626 6:1.0 119:1.0 233:1.0 
618.2428819453635 1:0.3333333333333333 2:0.011111111111111112 3:0.87 4:0.21321961620469082 41:1.0 181:1.0 249:1.0 
2048.0 1:0.3333333333333333 2:0.1111111111111111 3:0.7777777777777778 4:0.019189765458422176 57:1.0 102:1.0 215:1.0 
92.29268510563224 1:0.3333333333333333 3:0.87 4:0.21321961620469082 41:1.0 181:1.0 198:1.0 
2048.0 2:0.15555555555555556 3:1.0 4:0.11300639658848614 57:1.0 102:1.0 215:1.0 
2048.0 1:0.3333333333333333 2:0.15555555555555556 3:0.7692307692307693 4:0.02771855010660981 61:1.0 129:1.0 249:1.0 
2048.0 1:0.3333333333333333 2:0.1111111111111111 3:0.7777777777777778 4:0.019189765458422176 57:1.0 102:1.0 215:1.0 
2048.0 3:0.4418604651162791 4:0.5501066098081023 61:1.0 181:1.0 199:1.0 
2048.0 1:0.3333333333333333 2:0.06666666666666667 3:0.9164265129682997 4:0.7398720682302772 61:1.0 119:1.0 213:1.0 
2048.0 1:0.3333333333333333 2:0.25555555555555554 3:0.9801980198019802 4:0.21535181236673773 22:1.0 119:1.0 249:1.0 
2048.0 1:0.3333333333333333 2:0.16666666666666666 3:1.0 4:0.0042643923240938165 57:1.0 102:1.0 249:1.0 
2048.0 1:0.3333333333333333 2:0.2 3:0.9477611940298507 4:0.2857142857142857 61:1.0 181:1.0 198:1.0 
2048.0 1:0.3333333333333333 2:0.3888888888888889 3:1.0 4:0.06396588486140725 23:1.0 102:1.0 197:1.0 
2048.0 1:0.3333333333333333 3:1.0 4:0.0042643923240938165 58:1.0 181:1.0 215:1.0 
2048.0 1:0.3333333333333333 2:0.36666666666666664 3:0.8571428571428571 4:0.05970149253731343 23:1.0 102:1.0 244:1.0 
2048.0 1:0.3333333333333333 2:0.2777777777777778 3:0.9007633587786259 4:0.279317697228145 61:1.0 102:1.0 198:1.0 
2048.0 1:0.3333333333333333 2:0.5888888888888889 3:0.7692307692307693 4:0.02771855010660981 61:1.0 108:1.0 198:1.0 
1209.6963884010477 2:0.4111111111111111 3:0.9918032786885246 4:0.2601279317697228 57:1.0 153:1.0 250:1.0 
2048.0 1:0.3333333333333333 2:0.2777777777777778 3:0.9007633587786259 4:0.279317697228145 61:1.0 102:1.0 198:1.0 
817.6395634799065 1:0.3333333333333333 2:0.6 3:0.7692307692307693 4:0.02771855010660981 61:1.0 108:1.0 198:1.0 
2048.0 1:0.3333333333333333 3:0.8429752066115702 4:0.2579957356076759 61:1.0 181:1.0 225:1.0 
2048.0 1:0.3333333333333333 2:0.34444444444444444 3:0.8181818181818182 4:0.09381663113006397 61:1.0 102:1.0 215:1.0 
2048.0 1:0.3333333333333333 2:0.4 3:0.9 4:0.29850746268656714 61:1.0 119:1.0 215:1.0 
2048.0 2:0.4666666666666667 3:0.8266129032258065 4:0.5287846481876333 61:1.0 102:1.0 215:1.0 
2048.0 1:0.3333333333333333 2:0.6111111111111112 3:0.8429752066115702 4:0.2579957356076759 61:1.0 181:1.0 225:1.0 
861.9167332058606 3:0.4418604651162791 4:0.5501066098081023 61:1.0 181:1.0 198:1.0 
2048.0 1:0.3333333333333333 2:0.044444444444444446 3:0.8181818181818182 4:0.09381663113006397 61:1.0 102:1.0 215:1.0 
2048.0 1:0.3333333333333333 2:0.1 3:0.9 4:0.29850746268656714 61:1.0 119:1.0 215:1.0 
2048.0 2:0.16666666666666666 3:0.8266129032258065 4:0.5287846481876333 61:1.0 102:1.0 215:1.0 
2048.0 2:0.1 3:0.8266129032258065 4:0.5287846481876333 61:1.0 102:1.0 215:1.0 
145.76949798402782 1:0.3333333333333333 2:0.17777777777777778 3:0.8571428571428571 4:0.04477611940298507 23:1.0 159:1.0 225:1.0 
2048.0 1:0.3333333333333333 2:0.24444444444444444 3:0.5416666666666666 4:0.0511727078891258 61:1.0 102:1.0 249:1.0 
96.08315477110932 1:0.3333333333333333 3:0.8333333333333334 4:0.03837953091684435 57:1.0 181:1.0 215:1.0 
2048.0 1:0.3333333333333333 2:0.06666666666666667 3:0.5416666666666666 4:0.0511727078891258 61:1.0 102:1.0 249:1.0 
2048.0 2:0.13333333333333333 3:0.9918032786885246 4:0.2601279317697228 57:1.0 119:1.0 215:1.0 
2048.0 1:0.3333333333333333 2:0.13333333333333333 3:0.8 4:0.053304904051172705 61:1.0 119:1.0 199:1.0 
338.4870801264374 1:0.3333333333333333 2:0.05555555555555555 3:1.0 4:0.0021321961620469083 19:1.0 108:1.0 228:1.0 
2048.0 1:0.3333333333333333 2:0.044444444444444446 3:0.8 4:0.053304904051172705 61:1.0 101:1.0 215:1.0 
2048.0 1:0.3333333333333333 2:0.2111111111111111 3:1.0 4:0.0021321961620469083 57:1.0 102:1.0 215:1.0 
2048.0 1:0.3333333333333333 3:0.9 4:0.29850746268656714 61:1.0 181:1.0 198:1.0 
2048.0 1:0.3333333333333333 2:0.05555555555555555 3:0.5 4:0.0042643923240938165 22:1.0 150:1.0 233:1.0 
2048.0 2:0.23333333333333334 3:0.5467980295566502 4:0.43283582089552236 57:1.0 102:1.0 215:1.0 
2048.0 1:0.3333333333333333 2:0.2 3:0.9417808219178082 4:0.6226012793176973 61:1.0 181:1.0 250:1.0 
2048.0 1:0.3333333333333333 2:0.2222222222222222 3:0.8676470588235294 4:0.2899786780383795 58:1.0 157:1.0 215:1.0 
2048.0 1:0.3333333333333333 2:0.3111111111111111 3:0.9285714285714286 4:0.05970149253731343 61:1.0 102:1.0 215:1.0 
2048.0 2:0.18888888888888888 3:0.5467980295566502 4:0.43283582089552236 57:1.0 121:1.0 250:1.0 
2048.0 3:0.8266129032258065 4:0.5287846481876333 61:1.0 181:1.0 215:1.0 
2048.0 1:0.3333333333333333 2:0.2222222222222222 3:0.9306930693069307 4:0.21535181236673773 61:1.0 119:1.0 233:1.0 
2048.0 1:0.3333333333333333 3:0.9306930693069307 4:0.21535181236673773 61:1.0 181:1.0 250:1.0 
2048.0 1:0.3333333333333333 3:0.4744897959183674 4:0.835820895522388 61:1.0 181:1.0 233:1.0 
2048.0 1:0.3333333333333333 2:0.08888888888888889 3:0.8632478632478633 4:0.24946695095948826 61:1.0 119:1.0 198:1.0 
2048.0 1:0.3333333333333333 3:0.9 4:0.29850746268656714 61:1.0 181:1.0 230:1.0 
2048.0 1:0.3333333333333333 2:0.14444444444444443 3:0.8429752066115702 4:0.2579957356076759 61:1.0 119:1.0 198:1.0 
2048.0 1:0.3333333333333333 2:0.32222222222222224 3:0.9 4:0.29850746268656714 61:1.0 101:1.0 198:1.0 
2048.0 1:0.3333333333333333 2:0.45555555555555555 3:0.8632478632478633 4:0.24946695095948826 61:1.0 181:1.0 230:1.0 
2048.0 1:0.3333333333333333 2:0.08888888888888889 3:1.0 4:0.06396588486140725 23:1.0 119:1.0 198:1.0 
2048.0 1:0.3333333333333333 2:0.16666666666666666 3:0.9306930693069307 4:0.21535181236673773 61:1.0 181:1.0 244:1.0 
2048.0 1:0.3333333333333333 3:0.4744897959183674 4:0.835820895522388 61:1.0 181:1.0 211:1.0 
2048.0 1:0.3333333333333333 2:0.2222222222222222 3:1.0 4:0.06396588486140725 23:1.0 119:1.0 198:1.0 
2048.0 2:0.23333333333333334 3:0.5467980295566502 4:0.43283582089552236 57:1.0 102:1.0 215:1.0 
2048.0 1:0.3333333333333333 3:0.9 4:0.29850746268656714 61:1.0 181:1.0 198:1.0 
2048.0 1:0.3333333333333333 3:0.3953488372093023 4:0.09168443496801706 58:1.0 181:1.0 215:1.0 
1714.0269568041294 1:0.3333333333333333 2:0.03333333333333333 3:1.0 4:0.0021321961620469083 22:1.0 150:1.0 249:1.0 
2048.0 1:0.3333333333333333 2:0.15555555555555556 3:0.5416666666666666 4:0.0511727078891258 61:1.0 102:1.0 198:1.0 
2048.0 2:0.23333333333333334 3:0.9530916844349681 4:1.0 61:1.0 181:1.0 198:1.0 
2048.0 1:0.3333333333333333 2:0.022222222222222223 3:0.5416666666666666 4:0.0511727078891258 61:1.0 102:1.0 198:1.0 
2048.0 2:0.08888888888888889 3:0.9530916844349681 4:1.0 61:1.0 148:1.0 198:1.0 
2048.0 2:0.36666666666666664 3:0.5467980295566502 4:0.43283582089552236 57:1.0 113:1.0 250:1.0 
2048.0 1:0.3333333333333333 2:0.1111111111111111 3:1.0 4:0.0042643923240938165 57:1.0 129:1.0 215:1.0 
2048.0 1:0.3333333333333333 3:0.9 4:0.29850746268656714 61:1.0 181:1.0 233:1.0 
2048.0 1:0.3333333333333333 2:0.03333333333333333 3:0.9 4:0.29850746268656714 61:1.0 119:1.0 244:1.0 
2048.0 2:0.13333333333333333 3:0.9032258064516129 4:0.13219616204690832 23:1.0 102:1.0 198:1.0 
2048.0 1:0.6666666666666666 2:0.022222222222222223 3:1.0 4:0.0021321961620469083 61:1.0 121:1.0 215:1.0 
2048.0 2:0.3333333333333333 3:0.8266129032258065 4:0.5287846481876333 61:1.0 181:1.0 215:1.0 
2048.0 1:0.3333333333333333 2:0.1111111111111111 3:0.8676470588235294 4:0.2899786780383795 58:1.0 119:1.0 215:1.0 
91.01025334501581 1:0.3333333333333333 2:0.12222222222222222 3:0.8888888888888888 4:0.019189765458422176 23:1.0 148:1.0 207:1.0 
122.63469015141932 1:0.3333333333333333 2:0.12222222222222222 3:0.8 4:0.010660980810234541 57:1.0 121:1.0 216:1.0 
170.1557131986767 2:0.4777777777777778 3:0.6578947368421053 4:0.16204690831556504 57:1.0 115:1.0 250:1.0 
2048.0 2:0.06666666666666667 3:0.7636363636363637 4:0.11727078891257996 58:1.0 102:1.0 250:1.0 
2048.0 1:0.3333333333333333 2:0.06666666666666667 3:0.9007633587786259 4:0.279317697228145 61:1.0 102:1.0 204:1.0 
155.52061063388044 2:0.022222222222222223 3:0.6578947368421053 4:0.16204690831556504 57:1.0 108:1.0 249:1.0 
2048.0 2:0.3 3:0.8266129032258065 4:0.5287846481876333 61:1.0 181:1.0 226:1.0 
1602.2782216419307 2:0.12222222222222222 3:0.8484848484848485 4:0.07036247334754797 58:1.0 101:1.0 233:1.0 
2048.0 1:0.3333333333333333 2:0.3111111111111111 3:0.9915254237288136 4:0.2515991471215352 57:1.0 181:1.0 215:1.0 
2048.0 1:0.3333333333333333 2:0.13333333333333333 3:0.8632478632478633 4:0.24946695095948826 61:1.0 181:1.0 215:1.0 
2048.0 2:0.2222222222222222 3:0.6578947368421053 4:0.16204690831556504 57:1.0 118:1.0 215:1.0 
2048.0 1:0.3333333333333333 2:0.06666666666666667 3:0.9477611940298507 4:0.2857142857142857 61:1.0 181:1.0 250:1.0 
1740.0673577894129 1:0.3333333333333333 2:0.2222222222222222 3:1.0 4:0.006396588486140725 23:1.0 115:1.0 249:1.0 
2048.0 1:0.3333333333333333 2:0.022222222222222223 3:0.6666666666666666 4:0.006396588486140725 61:1.0 102:1.0 250:1.0 
2048.0 1:0.3333333333333333 2:0.2111111111111111 3:1.0 4:0.0042643923240938165 33:1.0 102:1.0 197:1.0 
2048.0 1:0.3333333333333333 2:0.17777777777777778 3:0.6666666666666666 4:0.006396588486140725 57:1.0 148:1.0 249:1.0 
930.0405820318249 1:0.3333333333333333 2:0.7 3:1.0 4:0.0042643923240938165 41:1.0 102:1.0 270:1.0 
2048.0 1:0.3333333333333333 2:0.3111111111111111 3:1.0 4:0.03624733475479744 23:1.0 119:1.0 215:1.0 
2048.0 2:0.06666666666666667 3:0.5467980295566502 4:0.43283582089552236 57:1.0 181:1.0 215:1.0 
2048.0 1:0.3333333333333333 3:0.8 4:0.053304904051172705 61:1.0 181:1.0 215:1.0 
228.4973957344828 1:0.3333333333333333 2:0.3 3:1.0 4:0.0021321961620469083 6:1.0 119:1.0 233:1.0 
2048.0 1:0.3333333333333333 2:0.34444444444444444 3:0.9007633587786259 4:0.279317697228145 61:1.0 102:1.0 214:1.0 
2048.0 2:0.13333333333333333 3:0.8266129032258065 4:0.5287846481876333 61:1.0 181:1.0 249:1.0 
2048.0 1:0.3333333333333333 2:0.23333333333333334 3:0.8260869565217391 4:0.04904051172707889 61:1.0 108:1.0 233:1.0 
2048.0 1:0.3333333333333333 2:0.24444444444444444 3:1.0 4:0.0042643923240938165 57:1.0 102:1.0 215:1.0 
2048.0 2:0.24444444444444444 3:0.6578947368421053 4:0.16204690831556504 57:1.0 137:1.0 215:1.0 
2048.0 1:0.3333333333333333 2:0.14444444444444443 3:0.9007633587786259 4:0.279317697228145 61:1.0 181:1.0 199:1.0 
1774.2691679515822 1:0.3333333333333333 3:0.5714285714285714 4:0.014925373134328358 58:1.0 181:1.0 204:1.0 
2048.0 1:0.3333333333333333 2:0.4444444444444444 3:0.9915254237288136 4:0.2515991471215352 57:1.0 181:1.0 215:1.0 
2048.0 1:0.3333333333333333 2:0.3333333333333333 3:0.87 4:0.21321961620469082 41:1.0 102:1.0 215:1.0 
2048.0 1:0.3333333333333333 2:0.18888888888888888 3:0.9417808219178082 4:0.6226012793176973 61:1.0 148:1.0 211:1.0 
2048.0 1:0.3333333333333333 2:0.16666666666666666 3:0.6666666666666666 4:0.0767590618336887 57:1.0 129:1.0 215:1.0 
2048.0 1:0.3333333333333333 3:0.9417808219178082 4:0.6226012793176973 61:1.0 181:1.0 217:1.0 
2048.0 1:0.3333333333333333 2:0.25555555555555554 3:0.7692307692307693 4:0.16631130063965885 61:1.0 101:1.0 277:1.0 
2048.0 1:0.3333333333333333 2:0.43333333333333335 3:0.87 4:0.21321961620469082 41:1.0 121:1.0 198:1.0 
2048.0 2:0.4 3:0.4418604651162791 4:0.5501066098081023 61:1.0 101:1.0 215:1.0 
2048.0 2:0.12222222222222222 3:0.4418604651162791 4:0.5501066098081023 61:1.0 101:1.0 215:1.0 
2048.0 1:0.3333333333333333 2:0.2222222222222222 3:1.0 4:0.0042643923240938165 57:1.0 102:1.0 215:1.0 
615.0342251653335 1:0.3333333333333333 3:0.87 4:0.21321961620469082 41:1.0 181:1.0 198:1.0 
2048.0 2:0.25555555555555554 3:0.5467980295566502 4:0.43283582089552236 57:1.0 102:1.0 215:1.0 
2048.0 1:0.3333333333333333 3:0.8571428571428571 4:0.05970149253731343 23:1.0 181:1.0 244:1.0 
2048.0 1:0.3333333333333333 2:0.1 3:0.8333333333333334 4:0.03837953091684435 57:1.0 174:1.0 233:1.0 
1228.266626628143 1:0.3333333333333333 2:0.044444444444444446 3:1.0 4:0.017057569296375266 23:1.0 102:1.0 199:1.0 
2048.0 3:0.4418604651162791 4:0.5501066098081023 61:1.0 181:1.0 198:1.0 
2048.0 1:0.3333333333333333 2:0.5666666666666667 3:0.8429752066115702 4:0.2579957356076759 61:1.0 181:1.0 233:1.0 
2048.0 1:0.3333333333333333 2:0.022222222222222223 3:0.5416666666666666 4:0.0511727078891258 61:1.0 108:1.0 204:1.0 
1987.6872484436199 2:0.16666666666666666 3:0.9530916844349681 4:1.0 61:1.0 116:1.0 233:1.0 
2048.0 1:0.3333333333333333 3:0.4744897959183674 4:0.835820895522388 61:1.0 181:1.0 198:1.0 
2048.0 1:0.3333333333333333 2:0.32222222222222224 3:0.8429752066115702 4:0.2579957356076759 61:1.0 108:1.0 233:1.0 
682.9736077620511 1:0.3333333333333333 2:0.2777777777777778 3:0.9024390243902439 4:0.08742004264392324 23:1.0 137:1.0 204:1.0 
2048.0 1:0.3333333333333333 2:0.2 3:0.9477611940298507 4:0.2857142857142857 61:1.0 181:1.0 215:1.0 
655.0753802494291 1:0.3333333333333333 2:0.5333333333333333 3:0.8571428571428571 4:0.05970149253731343 23:1.0 174:1.0 198:1.0 
2048.0 1:0.3333333333333333 3:0.4744897959183674 4:0.835820895522388 61:1.0 181:1.0 233:1.0 
2048.0 1:0.3333333333333333 2:0.37777777777777777 3:0.9477611940298507 4:0.2857142857142857 61:1.0 181:1.0 215:1.0 
2048.0 2:0.24444444444444444 3:0.8266129032258065 4:0.5287846481876333 61:1.0 181:1.0 250:1.0 
2048.0 1:0.3333333333333333 2:0.03333333333333333 3:0.8676470588235294 4:0.2899786780383795 58:1.0 119:1.0 215:1.0 
2048.0 3:0.8266129032258065 4:0.5287846481876333 61:1.0 181:1.0 250:1.0 
2048.0 1:0.3333333333333333 2:0.03333333333333333 3:0.8676470588235294 4:0.2899786780383795 58:1.0 119:1.0 215:1.0 
2048.0 2:0.2222222222222222 3:0.8266129032258065 4:0.5287846481876333 61:1.0 102:1.0 215:1.0 
1673.3710308401496 2:0.28888888888888886 3:0.9918032786885246 4:0.2601279317697228 57:1.0 103:1.0 250:1.0 
2048.0 1:0.3333333333333333 2:0.08888888888888889 3:1.0 4:0.0021321961620469083 22:1.0 119:1.0 244:1.0 
342.97171017406293 2:0.24444444444444444 3:0.5467980295566502 4:0.43283582089552236 57:1.0 102:1.0 249:1.0 
2048.0 2:0.2777777777777778 3:0.875 4:0.0511727078891258 23:1.0 119:1.0 199:1.0 
2048.0 1:0.3333333333333333 2:0.15555555555555556 3:0.7692307692307693 4:0.16631130063965885 61:1.0 181:1.0 249:1.0 
2048.0 2:0.25555555555555554 3:0.8135593220338984 4:0.1257995735607676 23:1.0 119:1.0 215:1.0 
65.450681284326 2:0.044444444444444446 3:0.7636363636363637 4:0.11727078891257996 58:1.0 118:1.0 213:1.0 
762.1401544860261 1:0.3333333333333333 2:0.18888888888888888 3:1.0 4:0.03624733475479744 23:1.0 102:1.0 249:1.0 
2048.0 1:0.3333333333333333 2:0.2111111111111111 3:0.7692307692307693 4:0.16631130063965885 61:1.0 119:1.0 215:1.0 
2048.0 1:0.3333333333333333 2:0.03333333333333333 3:0.9164265129682997 4:0.7398720682302772 61:1.0 119:1.0 230:1.0 
2048.0 1:0.3333333333333333 2:0.2777777777777778 3:0.8333333333333334 4:0.03837953091684435 57:1.0 101:1.0 233:1.0 
1561.36645539152 1:0.3333333333333333 2:0.37777777777777777 3:0.5 4:0.0042643923240938165 57:1.0 148:1.0 225:1.0 
2048.0 2:0.07777777777777778 3:0.8135593220338984 4:0.1257995735607676 23:1.0 102:1.0 204:1.0 
700.3911694018207 1:0.3333333333333333 2:0.1111111111111111 3:0.5416666666666666 4:0.0511727078891258 61:1.0 108:1.0 215:1.0 
2048.0 1:0.3333333333333333 2:0.5555555555555556 3:0.9417808219178082 4:0.6226012793176973 61:1.0 181:1.0 215:1.0 
2048.0 1:0.3333333333333333 2:0.6444444444444445 3:0.9007633587786259 4:0.279317697228145 61:1.0 181:1.0 198:1.0 
2048.0 2:0.17777777777777778 3:0.96 4:0.10660980810234541 61:1.0 102:1.0 198:1.0 
2048.0 1:0.3333333333333333 2:0.23333333333333334 3:1.0 4:0.03624733475479744 23:1.0 119:1.0 215:1.0 
1754.8661879852625 1:0.3333333333333333 2:0.17777777777777778 3:1.0 4:0.0042643923240938165 57:1.0 102:1.0 249:1.0 
3.322953196432929 1:0.3333333333333333 2:0.12222222222222222 3:1.0 19:1.0 118:1.0 249:1.0 
2048.0 1:0.3333333333333333 2:0.23333333333333334 3:1.0 4:0.06396588486140725 23:1.0 121:1.0 244:1.0 
2047.3583177313515 1:0.3333333333333333 3:1.0 4:0.06396588486140725 23:1.0 181:1.0 244:1.0 
2048.0 2:0.2111111111111111 3:0.4418604651162791 4:0.5501066098081023 61:1.0 119:1.0 198:1.0 
998.8608810138205 1:0.3333333333333333 3:0.87 4:0.21321961620469082 41:1.0 181:1.0 217:1.0 
2048.0 1:0.3333333333333333 2:0.6333333333333333 3:0.9007633587786259 4:0.279317697228145 61:1.0 102:1.0 204:1.0 
2048.0 1:0.3333333333333333 2:0.011111111111111112 3:0.9417808219178082 4:0.6226012793176973 61:1.0 181:1.0 253:1.0 
481.3856854864506 1:0.3333333333333333 2:0.24444444444444444 3:1.0 4:0.0042643923240938165 57:1.0 119:1.0 215:1.0 
2048.0 1:0.3333333333333333 2:0.25555555555555554 3:1.0 4:0.029850746268656716 6:1.0 119:1.0 215:1.0 
2048.0 1:0.3333333333333333 3:0.7692307692307693 4:0.16631130063965885 61:1.0 181:1.0 250:1.0 
2048.0 1:0.3333333333333333 3:0.8429752066115702 4:0.2579957356076759 61:1.0 181:1.0 249:1.0 
2048.0 1:0.3333333333333333 3:0.9164265129682997 4:0.7398720682302772 61:1.0 181:1.0 215:1.0 
1730.2452318273577 1:0.3333333333333333 2:0.13333333333333333 3:1.0 4:0.006396588486140725 19:1.0 119:1.0 249:1.0 
652.0508635244576 3:0.9530916844349681 4:1.0 61:1.0 181:1.0 233:1.0 
2048.0 1:0.3333333333333333 2:0.2 3:0.4744897959183674 4:0.835820895522388 61:1.0 119:1.0 215:1.0 
2048.0 2:0.3 3:0.4418604651162791 4:0.5501066098081023 61:1.0 121:1.0 215:1.0 
2048.0 2:0.06666666666666667 3:0.8266129032258065 4:0.5287846481876333 61:1.0 119:1.0 215:1.0 
2048.0 2:0.13333333333333333 3:0.8266129032258065 4:0.5287846481876333 61:1.0 119:1.0 215:1.0 
2048.0 1:0.3333333333333333 2:0.2777777777777778 3:0.6666666666666666 4:0.0767590618336887 57:1.0 181:1.0 215:1.0 
2048.0 2:0.4666666666666667 3:0.96 4:0.10660980810234541 61:1.0 102:1.0 246:1.0 
2048.0 1:0.3333333333333333 3:0.9 4:0.29850746268656714 61:1.0 181:1.0 204:1.0 
2048.0 1:0.3333333333333333 2:0.4 3:0.8632478632478633 4:0.24946695095948826 61:1.0 121:1.0 277:1.0 
2048.0 1:0.3333333333333333 2:0.25555555555555554 3:0.6666666666666666 4:0.0767590618336887 57:1.0 119:1.0 215:1.0 
2048.0 2:0.25555555555555554 3:0.8266129032258065 4:0.5287846481876333 61:1.0 102:1.0 215:1.0 
2048.0 2:0.18888888888888888 3:0.4418604651162791 4:0.5501066098081023 61:1.0 121:1.0 215:1.0 
2048.0 2:0.07777777777777778 3:0.4418604651162791 4:0.5501066098081023 61:1.0 102:1.0 250:1.0 
1234.847339431376 2:0.2222222222222222 3:0.5467980295566502 4:0.43283582089552236 57:1.0 102:1.0 215:1.0 
2048.0 1:0.3333333333333333 2:0.17777777777777778 3:1.0 4:0.06396588486140725 23:1.0 181:1.0 198:1.0 
2048.0 2:0.32222222222222224 3:0.8266129032258065 4:0.5287846481876333 61:1.0 102:1.0 249:1.0 
2048.0 3:0.9530916844349681 4:1.0 61:1.0 181:1.0 215:1.0 
2048.0 1:0.3333333333333333 3:0.9007633587786259 4:0.279317697228145 61:1.0 181:1.0 207:1.0 
2048.0 1:0.3333333333333333 2:0.08888888888888889 3:1.0 4:0.06183368869936034 22:1.0 121:1.0 215:1.0 
2048.0 1:0.3333333333333333 2:0.022222222222222223 3:0.8 4:0.053304904051172705 61:1.0 102:1.0 215:1.0 
533.8485262722285 1:0.3333333333333333 2:0.3333333333333333 3:1.0 4:0.0042643923240938165 58:1.0 121:1.0 204:1.0 
34.791420327650634 1:0.3333333333333333 2:0.044444444444444446 3:1.0 4:0.01279317697228145 23:1.0 108:1.0 250:1.0 
2048.0 1:0.3333333333333333 3:0.9417808219178082 4:0.6226012793176973 61:1.0 181:1.0 253:1.0 
2048.0 1:0.3333333333333333 2:0.13333333333333333 3:0.8632478632478633 4:0.24946695095948826 61:1.0 119:1.0 217:1.0 
2048.0 1:0.3333333333333333 2:0.32222222222222224 3:0.9007633587786259 4:0.279317697228145 61:1.0 119:1.0 214:1.0 
2048.0 1:0.3333333333333333 2:0.32222222222222224 3:0.9007633587786259 4:0.279317697228145 61:1.0 181:1.0 199:1.0 
2048.0 2:0.2222222222222222 3:0.8266129032258065 4:0.5287846481876333 61:1.0 102:1.0 215:1.0 
2048.0 1:0.3333333333333333 2:0.022222222222222223 3:0.7692307692307693 4:0.16631130063965885 61:1.0 102:1.0 249:1.0 
1652.2293995669434 1:0.3333333333333333 2:0.17777777777777778 3:1.0 4:0.0021321961620469083 57:1.0 102:1.0 215:1.0 
908.1907183301737 1:0.3333333333333333 2:0.25555555555555554 3:1.0 4:0.0042643923240938165 19:1.0 119:1.0 250:1.0 
2048.0 1:0.3333333333333333 3:0.9306930693069307 4:0.21535181236673773 61:1.0 181:1.0 250:1.0 
2048.0 1:0.3333333333333333 2:0.18888888888888888 3:0.9007633587786259 4:0.279317697228145 61:1.0 102:1.0 215:1.0 
465.4646377350473 1:0.3333333333333333 2:0.3111111111111111 3:1.0 4:0.0021321961620469083 6:1.0 102:1.0 214:1.0 
91.863479118341 2:0.23333333333333334 3:0.9530916844349681 4:1.0 61:1.0 111:1.0 250:1.0 
2048.0 1:0.3333333333333333 3:0.6666666666666666 4:0.0767590618336887 57:1.0 181:1.0 215:1.0 
1238.3894226745956 1:0.3333333333333333 2:0.06666666666666667 3:1.0 4:0.0021321961620469083 23:1.0 102:1.0 226:1.0 
2048.0 2:0.6111111111111112 3:0.8266129032258065 4:0.5287846481876333 61:1.0 102:1.0 215:1.0 
2048.0 2:0.6111111111111112 3:0.8266129032258065 4:0.5287846481876333 61:1.0 129:1.0 215:1.0 
595.7235697036016 1:0.3333333333333333 3:1.0 4:0.0021321961620469083 6:1.0 181:1.0 214:1.0 
9.107206841412621 3:0.9530916844349681 4:1.0 61:1.0 181:1.0 253:1.0 
431.4812663139694 1:0.3333333333333333 2:0.011111111111111112 3:0.9 4:0.29850746268656714 61:1.0 157:1.0 214:1.0 
2048.0 1:0.3333333333333333 2:0.18888888888888888 3:0.875 4:0.06823027718550106 23:1.0 101:1.0 244:1.0 
2048.0 2:0.2777777777777778 3:0.8266129032258065 4:0.5287846481876333 61:1.0 121:1.0 215:1.0 
2048.0 1:0.3333333333333333 2:0.24444444444444444 3:0.9007633587786259 4:0.279317697228145 61:1.0 119:1.0 217:1.0 
2048.0 1:0.3333333333333333 2:0.05555555555555555 3:1.0 4:0.008528784648187633 23:1.0 102:1.0 204:1.0 
2048.0 1:0.3333333333333333 2:0.15555555555555556 3:1.0 4:0.0042643923240938165 57:1.0 102:1.0 215:1.0 
2048.0 1:0.3333333333333333 3:0.9007633587786259 4:0.279317697228145 61:1.0 181:1.0 204:1.0 
925.5347623103703 2:0.4444444444444444 3:0.8266129032258065 4:0.5287846481876333 61:1.0 174:1.0 215:1.0 
1156.659389685612 1:0.3333333333333333 2:0.5111111111111111 3:0.5 4:0.0042643923240938165 23:1.0 102:1.0 233:1.0 
97.13409806384152 3:0.4418604651162791 4:0.5501066098081023 61:1.0 181:1.0 211:1.0 
2048.0 2:0.2777777777777778 3:0.8135593220338984 4:0.1257995735607676 23:1.0 119:1.0 233:1.0 
2048.0 1:0.3333333333333333 2:0.2222222222222222 3:0.9007633587786259 4:0.279317697228145 61:1.0 121:1.0 233:1.0 
2048.0 1:0.3333333333333333 2:0.18888888888888888 3:0.9007633587786259 4:0.279317697228145 61:1.0 148:1.0 198:1.0 
2048.0 2:0.4222222222222222 3:0.8266129032258065 4:0.5287846481876333 61:1.0 110:1.0 215:1.0 
2048.0 2:0.23333333333333334 3:0.8266129032258065 4:0.5287846481876333 61:1.0 103:1.0 215:1.0 
2048.0 2:0.16666666666666666 3:0.96 4:0.10660980810234541 61:1.0 102:1.0 214:1.0 
1611.5738643553107 2:0.15555555555555556 3:0.5467980295566502 4:0.43283582089552236 57:1.0 174:1.0 250:1.0 
2048.0 1:0.3333333333333333 2:0.03333333333333333 3:1.0 4:0.0021321961620469083 57:1.0 103:1.0 249:1.0 
172.43844139965725 2:0.03333333333333333 3:0.5467980295566502 4:0.43283582089552236 57:1.0 103:1.0 253:1.0 
2048.0 1:0.3333333333333333 2:0.14444444444444443 3:1.0 4:0.0042643923240938165 57:1.0 102:1.0 249:1.0 
2048.0 1:0.3333333333333333 2:0.2222222222222222 3:0.6 4:0.021321961620469083 61:1.0 102:1.0 233:1.0 
2048.0 1:0.3333333333333333 3:0.9164265129682997 4:0.7398720682302772 61:1.0 181:1.0 233:1.0 
2048.0 1:0.3333333333333333 3:0.9164265129682997 4:0.7398720682302772 61:1.0 181:1.0 233:1.0 
2048.0 1:0.3333333333333333 3:0.9164265129682997 4:0.7398720682302772 61:1.0 181:1.0 233:1.0 
2048.0 2:0.32222222222222224 3:0.875 4:0.0511727078891258 23:1.0 119:1.0 233:1.0 
2048.0 1:0.3333333333333333 2:0.4666666666666667 3:0.9477611940298507 4:0.2857142857142857 61:1.0 181:1.0 215:1.0 
2048.0 1:0.3333333333333333 2:0.3333333333333333 3:0.875 4:0.06823027718550106 23:1.0 181:1.0 249:1.0 
2048.0 1:0.3333333333333333 2:0.07777777777777778 3:0.9411764705882353 4:0.03624733475479744 23:1.0 102:1.0 246:1.0 
2048.0 1:0.3333333333333333 3:0.9164265129682997 4:0.7398720682302772 61:1.0 181:1.0 233:1.0 
2048.0 1:0.3333333333333333 2:0.17777777777777778 3:0.5833333333333334 4:0.0255863539445629 41:1.0 102:1.0 233:1.0 
2048.0 1:0.3333333333333333 3:0.9477611940298507 4:0.2857142857142857 61:1.0 181:1.0 233:1.0 
2048.0 1:0.3333333333333333 2:0.022222222222222223 3:0.5416666666666666 4:0.0511727078891258 61:1.0 101:1.0 211:1.0 
2048.0 1:0.3333333333333333 2:0.24444444444444444 3:0.8 4:0.010660980810234541 57:1.0 118:1.0 215:1.0 
2048.0 1:0.3333333333333333 3:0.8677248677248677 4:0.40298507462686567 61:1.0 181:1.0 250:1.0 
2048.0 1:0.3333333333333333 3:0.9417808219178082 4:0.6226012793176973 61:1.0 181:1.0 204:1.0 
1000.0461081397799 1:0.3333333333333333 2:0.1111111111111111 3:0.8 4:0.010660980810234541 57:1.0 118:1.0 215:1.0 
2048.0 1:0.3333333333333333 2:0.2 3:0.6666666666666666 4:0.0767590618336887 57:1.0 102:1.0 215:1.0 
2048.0 1:0.3333333333333333 2:0.28888888888888886 3:0.9417808219178082 4:0.6226012793176973 61:1.0 102:1.0 249:1.0 
2048.0 1:0.3333333333333333 2:0.13333333333333333 3:0.8 4:0.010660980810234541 57:1.0 102:1.0 215:1.0 
2048.0 1:0.3333333333333333 2:0.18888888888888888 3:1.0 4:0.03624733475479744 23:1.0 119:1.0 215:1.0 
2048.0 2:0.03333333333333333 3:0.5467980295566502 4:0.43283582089552236 57:1.0 108:1.0 249:1.0 
133.35390071485818 2:0.32222222222222224 3:0.875 4:0.0511727078891258 23:1.0 119:1.0 204:1.0 
2048.0 1:0.3333333333333333 2:0.35555555555555557 3:0.9915254237288136 4:0.2515991471215352 57:1.0 108:1.0 204:1.0 
595.9830527648754 1:0.3333333333333333 2:0.5666666666666667 3:1.0 4:0.0021321961620469083 23:1.0 129:1.0 199:1.0 
2048.0 1:0.3333333333333333 3:0.9417808219178082 4:0.6226012793176973 61:1.0 181:1.0 198:1.0 
1075.8604396220442 2:0.3 3:0.8135593220338984 4:0.1257995735607676 23:1.0 154:1.0 204:1.0 
2048.0 1:0.3333333333333333 3:0.9164265129682997 4:0.7398720682302772 61:1.0 181:1.0 225:1.0 
2048.0 1:0.3333333333333333 2:0.06666666666666667 3:0.8677248677248677 4:0.40298507462686567 61:1.0 119:1.0 215:1.0 
1463.2694597722643 1:0.3333333333333333 2:0.34444444444444444 3:0.75 4:0.008528784648187633 23:1.0 129:1.0 246:1.0 
2048.0 1:0.3333333333333333 2:0.2111111111111111 3:0.9024390243902439 4:0.08742004264392324 23:1.0 119:1.0 198:1.0 
59.93300300600601 2:0.43333333333333335 3:0.875 4:0.0511727078891258 23:1.0 137:1.0 233:1.0 
2048.0 1:0.3333333333333333 2:0.13333333333333333 3:0.9024390243902439 4:0.08742004264392324 23:1.0 102:1.0 198:1.0 
901.752589362525 2:0.35555555555555557 3:0.4418604651162791 4:0.5501066098081023 61:1.0 102:1.0 197:1.0 
1628.0645155808402 1:0.3333333333333333 2:0.4444444444444444 3:1.0 4:0.06396588486140725 23:1.0 118:1.0 197:1.0 
2048.0 2:0.17777777777777778 3:0.8857142857142857 4:0.07462686567164178 57:1.0 118:1.0 215:1.0 
422.4526197359374 1:0.3333333333333333 2:0.05555555555555555 3:1.0 4:0.03624733475479744 23:1.0 132:1.0 249:1.0 
2048.0 2:0.36666666666666664 3:0.8266129032258065 4:0.5287846481876333 61:1.0 102:1.0 249:1.0 
2048.0 1:0.3333333333333333 3:0.9164265129682997 4:0.7398720682302772 61:1.0 181:1.0 233:1.0 
2048.0 1:0.3333333333333333 2:0.15555555555555556 3:0.8 4:0.010660980810234541 57:1.0 102:1.0 215:1.0 
2048.0 1:0.3333333333333333 2:0.2 3:0.9164265129682997 4:0.7398720682302772 61:1.0 119:1.0 233:1.0 
2048.0 1:0.3333333333333333 2:0.1 3:0.9007633587786259 4:0.279317697228145 61:1.0 137:1.0 233:1.0 
2048.0 1:0.3333333333333333 3:0.9164265129682997 4:0.7398720682302772 61:1.0 181:1.0 198:1.0 
2048.0 1:0.3333333333333333 2:0.18888888888888888 3:1.0 4:0.06396588486140725 23:1.0 153:1.0 197:1.0 
368.9035783902235 2:0.044444444444444446 3:0.7636363636363637 4:0.11727078891257996 58:1.0 153:1.0 215:1.0 
10.404068918768935 3:0.5 4:0.01279317697228145 58:1.0 181:1.0 233:1.0 
2048.0 2:0.4222222222222222 3:0.4418604651162791 4:0.5501066098081023 61:1.0 119:1.0 215:1.0 
2048.0 1:0.3333333333333333 2:0.14444444444444443 3:0.8 4:0.010660980810234541 57:1.0 102:1.0 215:1.0 
2048.0 1:0.3333333333333333 2:0.16666666666666666 3:0.8 4:0.010660980810234541 57:1.0 102:1.0 215:1.0 
2048.0 1:0.3333333333333333 2:0.32222222222222224 3:0.9477611940298507 4:0.2857142857142857 61:1.0 181:1.0 250:1.0 
2048.0 1:0.3333333333333333 2:0.24444444444444444 3:1.0 4:0.03624733475479744 23:1.0 121:1.0 215:1.0 
2048.0 1:0.3333333333333333 2:0.2 3:0.9477611940298507 4:0.2857142857142857 61:1.0 102:1.0 250:1.0 
2048.0 1:0.3333333333333333 2:0.011111111111111112 3:0.8677248677248677 4:0.40298507462686567 61:1.0 181:1.0 249:1.0 
2048.0 1:0.3333333333333333 3:0.3953488372093023 4:0.09168443496801706 58:1.0 181:1.0 215:1.0 
2048.0 2:0.3111111111111111 3:0.5467980295566502 4:0.43283582089552236 57:1.0 102:1.0 250:1.0 
1003.3193055624583 1:0.3333333333333333 2:0.03333333333333333 3:1.0 4:0.0021321961620469083 23:1.0 119:1.0 204:1.0 
2048.0 1:0.3333333333333333 2:0.03333333333333333 3:1.0 4:0.029850746268656716 6:1.0 101:1.0 215:1.0 
2048.0 1:0.3333333333333333 3:0.9417808219178082 4:0.6226012793176973 61:1.0 181:1.0 253:1.0 
715.0315113063291 2:0.24444444444444444 3:0.4418604651162791 4:0.5501066098081023 61:1.0 129:1.0 227:1.0 
2048.0 1:0.3333333333333333 2:0.3333333333333333 3:0.8677248677248677 4:0.40298507462686567 61:1.0 181:1.0 215:1.0 
2048.0 1:0.3333333333333333 2:0.2222222222222222 3:0.9417808219178082 4:0.6226012793176973 61:1.0 181:1.0 215:1.0 
1448.5253997358705 1:0.3333333333333333 3:0.9306930693069307 4:0.21535181236673773 61:1.0 181:1.0 204:1.0 
2048.0 1:1.0 3:0.8 4:0.010660980810234541 61:1.0 181:1.0 199:1.0 
2048.0 2:0.08888888888888889 3:0.9918032786885246 4:0.2601279317697228 57:1.0 153:1.0 215:1.0 
2048.0 1:0.3333333333333333 2:0.34444444444444444 3:0.9007633587786259 4:0.279317697228145 61:1.0 103:1.0 204:1.0 
2048.0 1:0.3333333333333333 2:0.32222222222222224 3:0.8 4:0.053304904051172705 61:1.0 119:1.0 197:1.0 
2048.0 1:0.3333333333333333 2:0.13333333333333333 3:0.9007633587786259 4:0.279317697228145 61:1.0 181:1.0 204:1.0 
2048.0 1:0.3333333333333333 2:0.2 3:0.7142857142857143 4:0.014925373134328358 61:1.0 119:1.0 215:1.0 
256.11489141153646 1:0.3333333333333333 2:0.2777777777777778 3:0.5333333333333333 4:0.031982942430703626 6:1.0 101:1.0 215:1.0 
1356.8809430819676 1:1.0 3:0.8 4:0.010660980810234541 61:1.0 181:1.0 244:1.0 
2048.0 1:0.3333333333333333 2:0.13333333333333333 3:0.8 4:0.053304904051172705 61:1.0 119:1.0 197:1.0 
2048.0 1:0.3333333333333333 2:0.32222222222222224 3:0.8677248677248677 4:0.40298507462686567 61:1.0 181:1.0 198:1.0 
1369.4298652919554 1:0.3333333333333333 2:0.36666666666666664 3:0.5714285714285714 4:0.014925373134328358 61:1.0 102:1.0 225:1.0 
2048.0 1:0.3333333333333333 3:0.8677248677248677 4:0.40298507462686567 61:1.0 181:1.0 215:1.0 
2048.0 1:0.3333333333333333 2:0.15555555555555556 3:1.0 4:0.0042643923240938165 23:1.0 119:1.0 204:1.0 
2048.0 1:0.3333333333333333 2:0.25555555555555554 3:0.9007633587786259 4:0.279317697228145 61:1.0 181:1.0 204:1.0 
2048.0 1:0.3333333333333333 2:0.044444444444444446 3:0.87 4:0.21321961620469082 41:1.0 119:1.0 244:1.0 
2048.0 1:0.3333333333333333 3:0.9164265129682997 4:0.7398720682302772 61:1.0 181:1.0 233:1.0 
2048.0 2:0.16666666666666666 3:0.8266129032258065 4:0.5287846481876333 61:1.0 102:1.0 249:1.0 
811.8927873817337 1:0.3333333333333333 2:0.24444444444444444 3:1.0 4:0.006396588486140725 6:1.0 119:1.0 215:1.0 
2048.0 1:0.3333333333333333 2:0.17777777777777778 3:1.0 4:0.006396588486140725 57:1.0 102:1.0 215:1.0 
2048.0 1:0.3333333333333333 2:0.1 3:1.0 4:0.0042643923240938165 23:1.0 119:1.0 204:1.0 
2048.0 1:0.3333333333333333 2:0.4666666666666667 3:0.9007633587786259 4:0.279317697228145 61:1.0 132:1.0 233:1.0 
2048.0 2:0.5 3:0.5467980295566502 4:0.43283582089552236 57:1.0 102:1.0 250:1.0 
2048.0 1:0.3333333333333333 3:0.8 4:0.053304904051172705 61:1.0 181:1.0 246:1.0 
574.9422354458197 1:0.3333333333333333 2:0.07777777777777778 3:1.0 4:0.0042643923240938165 57:1.0 132:1.0 215:1.0 
2048.0 2:0.2777777777777778 3:0.4418604651162791 4:0.5501066098081023 61:1.0 119:1.0 215:1.0 
2048.0 1:0.3333333333333333 2:0.36666666666666664 3:1.0 4:0.0021321961620469083 57:1.0 119:1.0 249:1.0 
2048.0 1:0.3333333333333333 2:0.28888888888888886 3:0.9801980198019802 4:0.21535181236673773 22:1.0 119:1.0 215:1.0 
2048.0 2:0.3 3:0.8266129032258065 4:0.5287846481876333 61:1.0 181:1.0 215:1.0 
2048.0 1:0.3333333333333333 2:0.43333333333333335 3:0.9417808219178082 4:0.6226012793176973 61:1.0 181:1.0 246:1.0 
2048.0 1:0.3333333333333333 2:0.3111111111111111 3:0.9007633587786259 4:0.279317697228145 61:1.0 102:1.0 233:1.0 
2048.0 2:0.1111111111111111 3:0.8266129032258065 4:0.5287846481876333 61:1.0 119:1.0 215:1.0 
2048.0 1:0.3333333333333333 2:0.1 3:0.9007633587786259 4:0.279317697228145 61:1.0 102:1.0 233:1.0 
2048.0 1:0.3333333333333333 2:0.2777777777777778 3:1.0 4:0.06183368869936034 22:1.0 119:1.0 215:1.0 
398.49973048685865 1:0.3333333333333333 2:0.2 3:0.9801980198019802 4:0.21535181236673773 22:1.0 121:1.0 277:1.0 
2048.0 1:0.3333333333333333 3:1.0 4:0.0042643923240938165 58:1.0 181:1.0 211:1.0 
2048.0 1:0.3333333333333333 2:0.1111111111111111 3:0.9801980198019802 4:0.21535181236673773 22:1.0 121:1.0 204:1.0 
2048.0 1:0.3333333333333333 3:0.9791666666666666 4:0.1023454157782516 61:1.0 181:1.0 215:1.0 
2048.0 1:0.3333333333333333 2:0.14444444444444443 3:1.0 4:0.0042643923240938165 57:1.0 102:1.0 215:1.0 
2048.0 1:0.3333333333333333 2:0.08888888888888889 3:1.0 4:0.03624733475479744 23:1.0 102:1.0 204:1.0 
2048.0 1:0.3333333333333333 2:0.3111111111111111 3:0.8677248677248677 4:0.40298507462686567 61:1.0 181:1.0 250:1.0 
2048.0 2:0.022222222222222223 3:0.8266129032258065 4:0.5287846481876333 61:1.0 137:1.0 215:1.0 
1506.9388419056988 1:0.3333333333333333 2:0.24444444444444444 3:1.0 4:0.031982942430703626 22:1.0 115:1.0 204:1.0 
2048.0 1:0.3333333333333333 2:0.4 3:0.9915254237288136 4:0.2515991471215352 57:1.0 181:1.0 249:1.0 
304.81657774440697 1:0.3333333333333333 2:0.011111111111111112 3:0.7692307692307693 4:0.16631130063965885 61:1.0 137:1.0 215:1.0 
2048.0 1:0.3333333333333333 2:0.16666666666666666 3:0.9801980198019802 4:0.21535181236673773 22:1.0 119:1.0 204:1.0 
2048.0 3:0.9530916844349681 4:1.0 61:1.0 181:1.0 211:1.0 
2048.0 2:0.08888888888888889 3:0.9530916844349681 4:1.0 61:1.0 121:1.0 233:1.0 
1807.4541051970655 1:0.3333333333333333 2:0.1 3:1.0 4:0.0021321961620469083 23:1.0 121:1.0 246:1.0 
2048.0 1:0.3333333333333333 2:0.34444444444444444 3:0.9417808219178082 4:0.6226012793176973 61:1.0 119:1.0 233:1.0 
2048.0 1:0.3333333333333333 2:0.15555555555555556 3:0.9477611940298507 4:0.2857142857142857 61:1.0 181:1.0 225:1.0 
2048.0 1:0.3333333333333333 3:0.8632478632478633 4:0.24946695095948826 61:1.0 181:1.0 215:1.0 
809.75037109129 2:0.2111111111111111 3:0.7636363636363637 4:0.11727078891257996 58:1.0 101:1.0 204:1.0 
528.3737091628981 1:0.3333333333333333 2:0.12222222222222222 3:0.875 4:0.06823027718550106 23:1.0 115:1.0 244:1.0 
1586.0098489719737 1:0.3333333333333333 2:0.37777777777777777 3:0.875 4:0.06823027718550106 23:1.0 115:1.0 244:1.0 
1442.0333303940502 1:0.3333333333333333 2:0.4111111111111111 3:1.0 4:0.0021321961620469083 19:1.0 119:1.0 233:1.0 
2048.0 2:0.18888888888888888 3:0.9918032786885246 4:0.2601279317697228 57:1.0 102:1.0 215:1.0 
2048.0 1:0.3333333333333333 2:0.2 3:0.9417808219178082 4:0.6226012793176973 61:1.0 102:1.0 233:1.0 
2048.0 2:0.2777777777777778 3:0.9918032786885246 4:0.2601279317697228 57:1.0 102:1.0 215:1.0 
2048.0 1:0.3333333333333333 2:0.32222222222222224 3:0.8677248677248677 4:0.40298507462686567 61:1.0 181:1.0 215:1.0 
2048.0 1:0.3333333333333333 2:0.5111111111111111 3:1.0 4:0.0021321961620469083 41:1.0 119:1.0 233:1.0 
212.3920511966402 3:0.5 4:0.01279317697228145 58:1.0 181:1.0 233:1.0 
2048.0 1:0.3333333333333333 2:0.3888888888888889 3:0.9801980198019802 4:0.21535181236673773 22:1.0 119:1.0 215:1.0 
2048.0 1:0.3333333333333333 3:0.7058823529411765 4:0.07249466950959488 61:1.0 181:1.0 198:1.0 
2048.0 2:0.2 3:0.8266129032258065 4:0.5287846481876333 61:1.0 102:1.0 249:1.0 
2048.0 1:0.3333333333333333 2:0.23333333333333334 3:0.9417808219178082 4:0.6226012793176973 61:1.0 129:1.0 233:1.0 
2048.0 1:0.3333333333333333 3:0.7058823529411765 4:0.07249466950959488 61:1.0 181:1.0 217:1.0 
2048.0 1:0.3333333333333333 2:0.1111111111111111 3:0.9417808219178082 4:0.6226012793176973 61:1.0 102:1.0 198:1.0 
2048.0 2:0.2777777777777778 3:0.8266129032258065 4:0.5287846481876333 61:1.0 134:1.0 249:1.0 
2048.0 1:0.3333333333333333 3:0.7692307692307693 4:0.16631130063965885 61:1.0 181:1.0 233:1.0 
2048.0 2:0.14444444444444443 3:0.5467980295566502 4:0.43283582089552236 57:1.0 181:1.0 249:1.0 
2048.0 1:0.3333333333333333 2:0.05555555555555555 3:0.7058823529411765 4:0.07249466950959488 61:1.0 108:1.0 198:1.0 
1619.6135524877238 2:0.24444444444444444 3:0.5467980295566502 4:0.43283582089552236 57:1.0 159:1.0 215:1.0 
2048.0 1:0.3333333333333333 2:0.36666666666666664 3:0.75 4:0.05970149253731343 61:1.0 121:1.0 233:1.0 
2048.0 1:0.3333333333333333 2:0.25555555555555554 3:0.8429752066115702 4:0.2579957356076759 61:1.0 181:1.0 233:1.0 
2048.0 1:0.3333333333333333 3:0.4744897959183674 4:0.835820895522388 61:1.0 181:1.0 233:1.0 
2048.0 1:0.3333333333333333 2:0.011111111111111112 3:0.4744897959183674 4:0.835820895522388 61:1.0 119:1.0 233:1.0 
2048.0 1:0.3333333333333333 2:0.2111111111111111 3:0.4744897959183674 4:0.835820895522388 61:1.0 119:1.0 233:1.0 
2048.0 1:0.3333333333333333 2:0.14444444444444443 3:0.9801980198019802 4:0.21535181236673773 22:1.0 121:1.0 249:1.0 
1243.6623330881855 1:0.6666666666666666 2:0.2 3:1.0 4:0.006396588486140725 5:1.0 181:1.0 199:1.0 
2048.0 2:0.6222222222222222 3:0.8266129032258065 4:0.5287846481876333 61:1.0 102:1.0 249:1.0 
2048.0 1:0.3333333333333333 3:0.9164265129682997 4:0.7398720682302772 61:1.0 181:1.0 233:1.0 
478.6614550634896 1:0.3333333333333333 2:0.17777777777777778 3:0.5833333333333334 4:0.0255863539445629 41:1.0 119:1.0 233:1.0 
2048.0 2:0.1111111111111111 3:0.8266129032258065 4:0.5287846481876333 61:1.0 102:1.0 249:1.0 
2048.0 1:0.3333333333333333 2:0.2 3:0.9285714285714286 4:0.05970149253731343 61:1.0 102:1.0 233:1.0 
2048.0 1:0.3333333333333333 3:0.9306930693069307 4:0.21535181236673773 61:1.0 181:1.0 233:1.0 
2048.0 2:0.05555555555555555 3:0.8266129032258065 4:0.5287846481876333 61:1.0 102:1.0 249:1.0 
2048.0 1:0.3333333333333333 2:0.24444444444444444 3:0.9024390243902439 4:0.08742004264392324 23:1.0 119:1.0 233:1.0 
2048.0 2:0.16666666666666666 3:0.6578947368421053 4:0.16204690831556504 57:1.0 118:1.0 215:1.0 
2048.0 2:0.1111111111111111 3:0.8266129032258065 4:0.5287846481876333 61:1.0 102:1.0 249:1.0 
2048.0 1:0.3333333333333333 2:0.2 3:0.9285714285714286 4:0.05970149253731343 61:1.0 102:1.0 233:1.0 
2048.0 1:0.3333333333333333 2:0.28888888888888886 3:0.4 4:0.031982942430703626 61:1.0 101:1.0 250:1.0 
2048.0 1:0.3333333333333333 3:0.9164265129682997 4:0.7398720682302772 61:1.0 181:1.0 233:1.0 
2048.0 1:0.3333333333333333 3:0.9417808219178082 4:0.6226012793176973 61:1.0 181:1.0 233:1.0 
154.54316542554722 2:0.32222222222222224 3:0.875 4:0.0511727078891258 23:1.0 119:1.0 204:1.0 
2048.0 2:0.15555555555555556 3:0.4418604651162791 4:0.5501066098081023 61:1.0 121:1.0 215:1.0 
963.8402233452313 1:0.3333333333333333 2:0.1 3:1.0 4:0.03624733475479744 23:1.0 153:1.0 215:1.0 
492.58336790554125 2:0.06666666666666667 3:0.8484848484848485 4:0.07036247334754797 58:1.0 148:1.0 204:1.0 
99.44411604637425 2:0.4 3:0.8135593220338984 4:0.1257995735607676 23:1.0 154:1.0 250:1.0 
2048.0 1:0.3333333333333333 2:0.03333333333333333 3:0.9285714285714286 4:0.05970149253731343 61:1.0 108:1.0 215:1.0 
2048.0 1:0.3333333333333333 2:0.32222222222222224 3:0.9007633587786259 4:0.279317697228145 61:1.0 103:1.0 204:1.0 
2048.0 2:0.17777777777777778 3:0.4418604651162791 4:0.5501066098081023 61:1.0 129:1.0 215:1.0 
2048.0 1:0.3333333333333333 2:0.03333333333333333 3:0.4744897959183674 4:0.835820895522388 61:1.0 119:1.0 198:1.0 
2048.0 1:0.3333333333333333 2:0.14444444444444443 3:0.967741935483871 4:0.06609808102345416 61:1.0 102:1.0 215:1.0 
1012.1823749920031 1:0.3333333333333333 2:0.17777777777777778 3:0.3333333333333333 4:0.006396588486140725 23:1.0 117:1.0 233:1.0 
2048.0 2:0.08888888888888889 3:0.8266129032258065 4:0.5287846481876333 61:1.0 119:1.0 215:1.0 
2048.0 1:0.3333333333333333 2:0.2111111111111111 3:0.9417808219178082 4:0.6226012793176973 61:1.0 129:1.0 277:1.0 
2048.0 2:0.16666666666666666 3:0.4418604651162791 4:0.5501066098081023 61:1.0 129:1.0 204:1.0 
2048.0 2:0.25555555555555554 3:0.9918032786885246 4:0.2601279317697228 57:1.0 102:1.0 250:1.0 
2048.0 1:0.3333333333333333 2:0.2 3:1.0 4:0.03624733475479744 23:1.0 119:1.0 215:1.0 
2048.0 1:0.3333333333333333 2:0.3888888888888889 3:0.8888888888888888 4:0.019189765458422176 23:1.0 108:1.0 198:1.0 
2048.0 1:0.3333333333333333 2:0.3333333333333333 3:0.9417808219178082 4:0.6226012793176973 61:1.0 119:1.0 277:1.0 
2048.0 1:0.3333333333333333 2:0.1 3:0.9801980198019802 4:0.21535181236673773 22:1.0 102:1.0 198:1.0 
2048.0 1:0.3333333333333333 2:0.15555555555555556 3:1.0 4:0.03624733475479744 23:1.0 102:1.0 215:1.0 
2048.0 1:0.3333333333333333 2:0.18888888888888888 3:1.0 4:0.008528784648187633 23:1.0 101:1.0 204:1.0 
2048.0 2:0.3 3:0.8135593220338984 4:0.1257995735607676 23:1.0 181:1.0 217:1.0 
2048.0 2:0.28888888888888886 3:0.9918032786885246 4:0.2601279317697228 57:1.0 102:1.0 215:1.0 
2048.0 1:0.3333333333333333 2:0.1 3:0.9417808219178082 4:0.6226012793176973 61:1.0 119:1.0 249:1.0 
2048.0 2:0.1111111111111111 3:0.8266129032258065 4:0.5287846481876333 61:1.0 119:1.0 215:1.0 
2048.0 1:0.3333333333333333 2:0.3111111111111111 3:1.0 4:0.0021321961620469083 61:1.0 102:1.0 233:1.0 
2048.0 1:0.3333333333333333 3:0.7692307692307693 4:0.02771855010660981 57:1.0 181:1.0 215:1.0 
2048.0 1:0.3333333333333333 2:0.022222222222222223 3:1.0 4:0.06183368869936034 22:1.0 119:1.0 199:1.0 
2048.0 1:0.3333333333333333 2:0.4111111111111111 3:0.9007633587786259 4:0.279317697228145 61:1.0 102:1.0 215:1.0 
700.0166971029879 2:0.07777777777777778 3:0.4418604651162791 4:0.5501066098081023 61:1.0 102:1.0 215:1.0 
2048.0 2:0.1111111111111111 3:0.4418604651162791 4:0.5501066098081023 61:1.0 119:1.0 215:1.0 
2048.0 1:0.3333333333333333 2:0.1111111111111111 3:1.0 4:0.0042643923240938165 57:1.0 102:1.0 215:1.0 
2048.0 1:0.3333333333333333 2:0.3111111111111111 3:0.4744897959183674 4:0.835820895522388 61:1.0 148:1.0 199:1.0 
1730.6806314445025 1:0.3333333333333333 2:0.05555555555555555 3:0.8571428571428571 4:0.05970149253731343 23:1.0 101:1.0 244:1.0 
2048.0 1:0.3333333333333333 2:0.17777777777777778 3:1.0 4:0.0042643923240938165 57:1.0 119:1.0 250:1.0 
225.23336049740783 1:0.3333333333333333 2:0.05555555555555555 3:1.0 4:0.0021321961620469083 23:1.0 102:1.0 270:1.0 
2048.0 1:0.3333333333333333 2:0.5 3:0.5333333333333333 4:0.031982942430703626 6:1.0 101:1.0 211:1.0 
2048.0 1:0.3333333333333333 3:0.9164265129682997 4:0.7398720682302772 61:1.0 181:1.0 204:1.0 
2048.0 1:0.3333333333333333 3:0.9477611940298507 4:0.2857142857142857 61:1.0 181:1.0 204:1.0 
2048.0 1:0.3333333333333333 2:0.13333333333333333 3:0.4744897959183674 4:0.835820895522388 61:1.0 119:1.0 204:1.0 
2048.0 1:0.3333333333333333 3:0.9164265129682997 4:0.7398720682302772 61:1.0 181:1.0 204:1.0 
29.875464114112606 1:0.3333333333333333 2:0.4666666666666667 3:0.7692307692307693 4:0.16631130063965885 61:1.0 147:1.0 215:1.0 
2048.0 1:0.3333333333333333 3:0.9 4:0.29850746268656714 61:1.0 181:1.0 211:1.0 
2048.0 3:0.8484848484848485 4:0.07036247334754797 58:1.0 181:1.0 215:1.0 
1392.861843101349 1:0.3333333333333333 2:0.15555555555555556 3:1.0 4:0.0021321961620469083 19:1.0 129:1.0 249:1.0 
2048.0 1:0.3333333333333333 2:0.08888888888888889 3:0.9 4:0.29850746268656714 61:1.0 102:1.0 215:1.0 
2048.0 2:0.15555555555555556 3:0.4418604651162791 4:0.5501066098081023 61:1.0 119:1.0 250:1.0 
2048.0 1:0.3333333333333333 2:0.2 3:0.8677248677248677 4:0.40298507462686567 61:1.0 119:1.0 215:1.0 
2048.0 2:0.12222222222222222 3:0.8135593220338984 4:0.1257995735607676 23:1.0 119:1.0 204:1.0 
2048.0 1:0.3333333333333333 2:0.4777777777777778 3:0.5555555555555556 4:0.03837953091684435 61:1.0 119:1.0 244:1.0 
1034.4240769564192 1:0.3333333333333333 2:0.16666666666666666 3:0.967741935483871 4:0.06609808102345416 61:1.0 154:1.0 233:1.0 
2048.0 1:0.3333333333333333 2:0.08888888888888889 3:1.0 4:0.0021321961620469083 57:1.0 121:1.0 249:1.0 
2048.0 3:0.7636363636363637 4:0.11727078891257996 58:1.0 181:1.0 233:1.0 
78.28598593558111 1:0.3333333333333333 2:0.12222222222222222 3:0.9024390243902439 4:0.08742004264392324 23:1.0 102:1.0 230:1.0 
2048.0 1:0.3333333333333333 2:0.5 3:0.9007633587786259 4:0.279317697228145 61:1.0 102:1.0 233:1.0 
2048.0 1:0.3333333333333333 2:0.07777777777777778 3:0.9007633587786259 4:0.279317697228145 61:1.0 102:1.0 198:1.0 
2048.0 1:0.3333333333333333 2:0.25555555555555554 3:0.9007633587786259 4:0.279317697228145 61:1.0 103:1.0 198:1.0 
2048.0 1:0.6666666666666666 2:0.18888888888888888 3:1.0 4:0.0021321961620469083 61:1.0 101:1.0 253:1.0 
2048.0 1:0.6666666666666666 2:0.4 3:1.0 4:0.0021321961620469083 61:1.0 101:1.0 198:1.0 
2048.0 2:0.36666666666666664 3:0.8266129032258065 4:0.5287846481876333 61:1.0 181:1.0 250:1.0 
2048.0 2:0.12222222222222222 3:0.4418604651162791 4:0.5501066098081023 61:1.0 102:1.0 225:1.0 
2048.0 1:0.6666666666666666 2:0.18888888888888888 3:1.0 4:0.0021321961620469083 61:1.0 101:1.0 277:1.0 
2048.0 1:0.6666666666666666 2:0.4111111111111111 3:1.0 4:0.0021321961620469083 61:1.0 101:1.0 198:1.0 
906.8818097401854 2:0.1111111111111111 3:0.5467980295566502 4:0.43283582089552236 57:1.0 119:1.0 270:1.0 
2048.0 1:0.3333333333333333 2:0.15555555555555556 3:0.9417808219178082 4:0.6226012793176973 61:1.0 181:1.0 244:1.0 
2048.0 1:0.3333333333333333 2:0.03333333333333333 3:0.8571428571428571 4:0.05970149253731343 23:1.0 108:1.0 215:1.0 
2048.0 1:0.3333333333333333 2:0.2 3:0.9417808219178082 4:0.6226012793176973 61:1.0 102:1.0 250:1.0 
2048.0 1:0.3333333333333333 2:0.17777777777777778 3:1.0 4:0.0021321961620469083 57:1.0 102:1.0 215:1.0 
1846.9871586457423 1:0.3333333333333333 2:0.2 3:0.8571428571428571 4:0.05970149253731343 23:1.0 153:1.0 249:1.0 
2048.0 1:0.3333333333333333 2:0.2222222222222222 3:1.0 4:0.0021321961620469083 57:1.0 119:1.0 250:1.0 
2048.0 2:0.2777777777777778 3:0.8266129032258065 4:0.5287846481876333 61:1.0 181:1.0 250:1.0 
2048.0 1:0.3333333333333333 2:0.43333333333333335 3:0.9285714285714286 4:0.05970149253731343 61:1.0 102:1.0 198:1.0 
2048.0 2:0.5888888888888889 3:0.8266129032258065 4:0.5287846481876333 61:1.0 102:1.0 249:1.0 
2048.0 1:0.3333333333333333 3:0.9164265129682997 4:0.7398720682302772 61:1.0 181:1.0 250:1.0 
2048.0 1:0.3333333333333333 2:0.3111111111111111 3:0.9417808219178082 4:0.6226012793176973 61:1.0 102:1.0 198:1.0 
2048.0 1:0.3333333333333333 2:0.23333333333333334 3:0.9007633587786259 4:0.279317697228145 61:1.0 102:1.0 204:1.0 
2048.0 1:0.3333333333333333 2:0.1111111111111111 3:0.9007633587786259 4:0.279317697228145 61:1.0 102:1.0 214:1.0 
2048.0 1:0.3333333333333333 2:0.2222222222222222 3:0.6 4:0.021321961620469083 61:1.0 119:1.0 233:1.0 
2048.0 1:0.3333333333333333 2:0.2222222222222222 3:0.9007633587786259 4:0.279317697228145 61:1.0 102:1.0 204:1.0 
1065.6655052210049 2:0.9222222222222223 3:0.8266129032258065 4:0.5287846481876333 61:1.0 102:1.0 249:1.0 
2048.0 1:0.3333333333333333 2:0.07777777777777778 3:0.9417808219178082 4:0.6226012793176973 61:1.0 119:1.0 226:1.0 
1896.0206442694437 1:0.3333333333333333 2:0.15555555555555556 3:1.0 4:0.0021321961620469083 23:1.0 129:1.0 215:1.0 
2048.0 1:0.3333333333333333 3:0.9417808219178082 4:0.6226012793176973 61:1.0 181:1.0 250:1.0 
2048.0 1:0.3333333333333333 2:0.8111111111111111 3:0.4744897959183674 4:0.835820895522388 61:1.0 119:1.0 244:1.0 
2048.0 1:0.3333333333333333 3:0.9 4:0.29850746268656714 61:1.0 181:1.0 233:1.0 
2048.0 2:0.16666666666666666 3:0.5467980295566502 4:0.43283582089552236 57:1.0 101:1.0 215:1.0 
2048.0 1:0.3333333333333333 2:0.18888888888888888 3:0.967741935483871 4:0.13219616204690832 61:1.0 181:1.0 249:1.0 
2048.0 1:0.3333333333333333 2:0.14444444444444443 3:0.8677248677248677 4:0.40298507462686567 61:1.0 181:1.0 250:1.0 
2048.0 2:0.24444444444444444 3:0.6578947368421053 4:0.16204690831556504 57:1.0 137:1.0 215:1.0 
2048.0 1:0.3333333333333333 2:0.5 3:0.9417808219178082 4:0.6226012793176973 61:1.0 181:1.0 197:1.0 
2048.0 1:0.3333333333333333 2:0.25555555555555554 3:0.8677248677248677 4:0.40298507462686567 61:1.0 181:1.0 215:1.0 
2048.0 2:0.4222222222222222 3:0.8135593220338984 4:0.1257995735607676 23:1.0 181:1.0 199:1.0 
2048.0 1:0.3333333333333333 2:0.13333333333333333 3:0.9 4:0.29850746268656714 61:1.0 119:1.0 233:1.0 
999.4350243943327 1:0.3333333333333333 2:0.2 3:1.0 4:0.06396588486140725 23:1.0 130:1.0 197:1.0 
1025.746992599029 1:0.3333333333333333 2:0.3111111111111111 3:1.0 4:0.014925373134328358 22:1.0 119:1.0 244:1.0 
6.628620000414013 1:0.3333333333333333 2:0.24444444444444444 3:1.0 4:0.0021321961620469083 25:1.0 101:1.0 233:1.0 
2048.0 1:0.3333333333333333 2:0.16666666666666666 3:0.7692307692307693 4:0.16631130063965885 61:1.0 102:1.0 249:1.0 
2048.0 1:0.3333333333333333 3:0.4744897959183674 4:0.835820895522388 61:1.0 181:1.0 204:1.0 
2048.0 1:0.3333333333333333 2:0.2 3:0.9411764705882353 4:0.03624733475479744 23:1.0 108:1.0 250:1.0 
2048.0 1:0.3333333333333333 2:0.1 3:1.0 4:0.0021321961620469083 22:1.0 119:1.0 211:1.0 
2048.0 2:0.05555555555555555 3:0.9918032786885246 4:0.2601279317697228 57:1.0 102:1.0 215:1.0 
2048.0 2:0.15555555555555556 3:0.4418604651162791 4:0.5501066098081023 61:1.0 119:1.0 249:1.0 
2048.0 1:0.3333333333333333 3:0.9417808219178082 4:0.6226012793176973 61:1.0 181:1.0 250:1.0 
1819.7358683433588 2:0.07777777777777778 3:0.4418604651162791 4:0.5501066098081023 61:1.0 102:1.0 215:1.0 
2048.0 1:0.3333333333333333 2:0.26666666666666666 3:0.9477611940298507 4:0.2857142857142857 61:1.0 102:1.0 215:1.0 
4.659835580877747 1:0.3333333333333333 2:0.3888888888888889 3:1.0 4:0.06396588486140725 23:1.0 102:1.0 225:1.0 
2048.0 1:0.3333333333333333 2:0.07777777777777778 3:1.0 4:0.03624733475479744 23:1.0 102:1.0 199:1.0 
1720.8620433724318 2:0.18888888888888888 3:0.5467980295566502 4:0.43283582089552236 57:1.0 137:1.0 215:1.0 
2048.0 1:0.3333333333333333 2:0.24444444444444444 3:0.9801980198019802 4:0.21535181236673773 22:1.0 102:1.0 249:1.0 
2048.0 1:0.3333333333333333 2:0.26666666666666666 3:0.9477611940298507 4:0.2857142857142857 61:1.0 181:1.0 215:1.0 
967.5175939422796 1:0.3333333333333333 2:0.3888888888888889 3:1.0 4:0.06396588486140725 23:1.0 102:1.0 225:1.0 
2048.0 1:0.3333333333333333 3:0.9417808219178082 4:0.6226012793176973 61:1.0 181:1.0 250:1.0 
2048.0 1:0.3333333333333333 2:0.36666666666666664 3:0.9164265129682997 4:0.7398720682302772 61:1.0 181:1.0 215:1.0 
2048.0 1:0.3333333333333333 2:0.2777777777777778 3:1.0 4:0.029850746268656716 6:1.0 102:1.0 277:1.0 
