svm_type c_svc
kernel_type rbf
gamma 0.5
nr_class 2
total_sv 5998
rho -0.371572926725938
label 0 1
nr_sv 3304 2694
SV
2.0 1:0.3333333333333333 2:0.20689655172413793 3:0.9024390243902439 4:0.08742004264392324 5:0.08742004264392324 6:0.008291873963515755 25:1.0 183:1.0 199:1.0 
2.0 2:0.017241379310344827 3:0.9032258064516129 4:0.13219616204690832 5:0.13219616204690832 6:0.026533996683250415 25:1.0 121:1.0 279:1.0 
2.0 1:0.3333333333333333 2:0.034482758620689655 3:0.7692307692307693 4:0.16631130063965885 5:0.16631130063965885 6:0.008291873963515755 63:1.0 183:1.0 235:1.0 
2.0 1:0.3333333333333333 2:0.1896551724137931 3:0.8260869565217391 4:0.04904051172707889 5:0.04904051172707889 63:1.0 183:1.0 199:1.0 
2.0 1:0.3333333333333333 2:0.3448275862068966 3:0.3953488372093023 4:0.09168443496801706 5:0.09168443496801706 60:1.0 183:1.0 217:1.0 
0.28822411175100615 2:0.017241379310344827 3:0.9263157894736842 4:0.2025586353944563 5:0.2025586353944563 60:1.0 121:1.0 279:1.0 
2.0 1:0.3333333333333333 2:0.08620689655172414 3:0.7692307692307693 4:0.16631130063965885 5:0.16631130063965885 6:0.008291873963515755 63:1.0 121:1.0 251:1.0 
2.0 2:0.05172413793103448 3:0.979381443298969 4:0.2068230277185501 5:0.2068230277185501 24:1.0 121:1.0 217:1.0 
2.0 1:0.3333333333333333 2:0.05172413793103448 3:1.0 4:0.0021321961620469083 5:0.0021321961620469083 24:1.0 123:1.0 252:1.0 
2.0 1:0.3333333333333333 2:0.017241379310344827 3:0.7692307692307693 4:0.16631130063965885 5:0.16631130063965885 6:0.008291873963515755 63:1.0 183:1.0 200:1.0 
1.1580111833565598 1:0.3333333333333333 2:0.15517241379310345 3:1.0 4:0.06396588486140725 5:0.06396588486140725 25:1.0 155:1.0 279:1.0 
1.6084664262904544 1:0.3333333333333333 2:0.15517241379310345 3:1.0 4:0.06396588486140725 5:0.06396588486140725 25:1.0 155:1.0 279:1.0 
0.2546686934521948 1:0.3333333333333333 2:0.1896551724137931 3:0.5 4:0.0042643923240938165 5:0.0042643923240938165 8:1.0 183:1.0 246:1.0 
2.0 1:0.3333333333333333 2:0.017241379310344827 3:0.5555555555555556 4:0.03837953091684435 5:0.03837953091684435 63:1.0 183:1.0 200:1.0 
2.0 1:0.3333333333333333 2:0.13793103448275862 3:0.9024390243902439 4:0.08742004264392324 5:0.08742004264392324 6:0.008291873963515755 25:1.0 121:1.0 217:1.0 
0.4058104214175458 2:0.15517241379310345 3:0.9166666666666666 4:0.0511727078891258 5:0.0511727078891258 65:1.0 161:1.0 200:1.0 
0.811760644989685 2:0.05172413793103448 3:0.8135593220338984 4:0.1257995735607676 5:0.1257995735607676 25:1.0 159:1.0 200:1.0 
2.0 1:0.3333333333333333 2:0.08620689655172414 3:0.87 4:0.21321961620469082 5:0.21321961620469082 6:0.01990049751243781 43:1.0 183:1.0 279:1.0 
2.0 1:0.3333333333333333 2:0.017241379310344827 3:0.5555555555555556 4:0.03837953091684435 5:0.03837953091684435 63:1.0 183:1.0 200:1.0 
0.0936872925971719 1:0.3333333333333333 2:0.10344827586206896 3:0.3953488372093023 4:0.09168443496801706 5:0.09168443496801706 60:1.0 104:1.0 234:1.0 
0.5761952603522742 1:0.3333333333333333 2:0.06896551724137931 3:0.75 4:0.008528784648187633 5:0.008528784648187633 60:1.0 183:1.0 217:1.0 
1.670871768239334 1:0.3333333333333333 2:0.06896551724137931 3:1.0 4:0.0021321961620469083 5:0.0021321961620469083 21:1.0 104:1.0 279:1.0 
0.5570904367742021 2:0.25862068965517243 3:0.6578947368421053 4:0.16204690831556504 5:0.16204690831556504 59:1.0 104:1.0 252:1.0 
2.0 1:0.3333333333333333 2:0.017241379310344827 3:0.9024390243902439 4:0.08742004264392324 5:0.08742004264392324 6:0.008291873963515755 25:1.0 183:1.0 279:1.0 
2.0 1:0.3333333333333333 2:0.05172413793103448 3:0.5333333333333333 4:0.031982942430703626 5:0.031982942430703626 6:0.07462686567164178 8:1.0 103:1.0 279:1.0 
2.0 1:0.3333333333333333 2:0.05172413793103448 3:0.7777777777777778 4:0.019189765458422176 5:0.019189765458422176 59:1.0 183:1.0 252:1.0 
0.6266608790243247 1:0.3333333333333333 2:0.06896551724137931 3:0.9024390243902439 4:0.08742004264392324 5:0.08742004264392324 6:0.008291873963515755 25:1.0 120:1.0 217:1.0 
2.0 1:0.3333333333333333 2:0.3275862068965517 3:0.9444444444444444 4:0.03837953091684435 5:0.03837953091684435 6:0.003316749585406302 24:1.0 121:1.0 217:1.0 
0.9883234237543441 1:0.3333333333333333 2:0.1206896551724138 3:1.0 4:0.029850746268656716 5:0.029850746268656716 6:0.03814262023217247 8:1.0 131:1.0 235:1.0 
0.10226108241453621 1:0.3333333333333333 2:0.017241379310344827 3:1.0 4:0.03624733475479744 5:0.03624733475479744 6:0.16583747927031509 25:1.0 113:1.0 279:1.0 
2.0 3:0.979381443298969 4:0.2068230277185501 5:0.2068230277185501 24:1.0 123:1.0 279:1.0 
2.0 1:0.3333333333333333 2:0.034482758620689655 3:0.8 4:0.053304904051172705 5:0.053304904051172705 63:1.0 104:1.0 217:1.0 
1.5028676366384246 1:0.3333333333333333 2:0.1206896551724138 3:1.0 4:0.008528784648187633 5:0.008528784648187633 6:0.05140961857379768 25:1.0 161:1.0 217:1.0 
1.7654905590850987 2:0.2413793103448276 3:0.4418604651162791 4:0.5501066098081023 5:0.5501066098081023 6:0.004975124378109453 63:1.0 123:1.0 251:1.0 
2.0 3:0.4418604651162791 4:0.5501066098081023 5:0.5501066098081023 6:0.004975124378109453 63:1.0 183:1.0 219:1.0 
2.0 1:0.3333333333333333 2:0.25862068965517243 3:0.7692307692307693 4:0.16631130063965885 5:0.16631130063965885 6:0.008291873963515755 63:1.0 104:1.0 217:1.0 
2.0 1:0.3333333333333333 2:0.08620689655172414 3:0.9024390243902439 4:0.08742004264392324 5:0.08742004264392324 6:0.008291873963515755 25:1.0 183:1.0 200:1.0 
0.6133601525621545 1:0.3333333333333333 2:0.1206896551724138 3:1.0 4:0.03624733475479744 5:0.03624733475479744 6:0.16583747927031509 25:1.0 183:1.0 279:1.0 
2.0 1:0.3333333333333333 2:0.3275862068965517 3:1.0 4:0.06396588486140725 5:0.06396588486140725 25:1.0 183:1.0 235:1.0 
0.2693951893518185 60:1.0 103:1.0 213:1.0 
2.0 1:0.3333333333333333 2:0.10344827586206896 3:0.87 4:0.21321961620469082 5:0.21321961620469082 6:0.01990049751243781 43:1.0 183:1.0 251:1.0 
2.0 2:0.29310344827586204 3:0.6578947368421053 4:0.16204690831556504 5:0.16204690831556504 59:1.0 139:1.0 217:1.0 
2.0 1:0.3333333333333333 2:0.017241379310344827 3:0.5555555555555556 4:0.03837953091684435 5:0.03837953091684435 63:1.0 183:1.0 252:1.0 
2.0 1:0.6666666666666666 2:0.1206896551724138 3:1.0 4:0.0255863539445629 5:0.0255863539445629 7:1.0 183:1.0 279:1.0 
2.0 1:0.6666666666666666 2:0.10344827586206896 3:1.0 4:0.0021321961620469083 5:0.0021321961620469083 63:1.0 183:1.0 219:1.0 
2.0 1:0.6666666666666666 2:0.08620689655172414 3:1.0 4:0.0021321961620469083 5:0.0021321961620469083 63:1.0 123:1.0 219:1.0 
2.0 1:0.6666666666666666 2:0.13793103448275862 3:1.0 4:0.0021321961620469083 5:0.0021321961620469083 63:1.0 183:1.0 252:1.0 
2.0 1:0.6666666666666666 2:0.25862068965517243 3:1.0 4:0.0255863539445629 5:0.0255863539445629 7:1.0 183:1.0 252:1.0 
2.0 1:0.6666666666666666 2:0.3275862068965517 3:1.0 4:0.0021321961620469083 5:0.0021321961620469083 63:1.0 183:1.0 219:1.0 
2.0 2:0.05172413793103448 3:0.6578947368421053 4:0.16204690831556504 5:0.16204690831556504 59:1.0 121:1.0 217:1.0 
2.0 1:0.3333333333333333 2:0.017241379310344827 3:0.9444444444444444 4:0.03837953091684435 5:0.03837953091684435 6:0.003316749585406302 24:1.0 183:1.0 279:1.0 
2.0 2:0.017241379310344827 3:0.6578947368421053 4:0.16204690831556504 5:0.16204690831556504 59:1.0 104:1.0 252:1.0 
2.0 2:0.05172413793103448 3:0.9263157894736842 4:0.2025586353944563 5:0.2025586353944563 60:1.0 104:1.0 217:1.0 
2.0 1:0.3333333333333333 2:0.1896551724137931 3:0.9285714285714286 4:0.05970149253731343 5:0.05970149253731343 63:1.0 183:1.0 200:1.0 
2.0 3:0.7636363636363637 4:0.11727078891257996 5:0.11727078891257996 6:1.0 60:1.0 183:1.0 217:1.0 
2.0 2:0.034482758620689655 3:0.7636363636363637 4:0.11727078891257996 5:0.11727078891257996 6:1.0 60:1.0 183:1.0 217:1.0 
2.0 3:0.4418604651162791 4:0.5501066098081023 5:0.5501066098081023 6:0.004975124378109453 63:1.0 183:1.0 252:1.0 
1.0975834792937973 1:0.3333333333333333 2:0.15517241379310345 3:1.0 4:0.0021321961620469083 5:0.0021321961620469083 59:1.0 176:1.0 217:1.0 
2.0 2:0.2413793103448276 3:0.4418604651162791 4:0.5501066098081023 5:0.5501066098081023 6:0.004975124378109453 63:1.0 183:1.0 200:1.0 
2.0 3:0.4418604651162791 4:0.5501066098081023 5:0.5501066098081023 6:0.004975124378109453 63:1.0 183:1.0 252:1.0 
2.0 3:0.4418604651162791 4:0.5501066098081023 5:0.5501066098081023 6:0.004975124378109453 63:1.0 183:1.0 252:1.0 
0.10884533053252032 1:0.3333333333333333 2:0.05172413793103448 3:1.0 4:0.0021321961620469083 5:0.0021321961620469083 21:1.0 156:1.0 213:1.0 
2.0 1:0.3333333333333333 2:0.017241379310344827 3:0.5555555555555556 4:0.03837953091684435 5:0.03837953091684435 63:1.0 183:1.0 279:1.0 
0.6068625065513324 2:0.034482758620689655 3:0.6538461538461539 4:0.05543710021321962 5:0.05543710021321962 25:1.0 152:1.0 206:1.0 
2.0 1:0.3333333333333333 2:0.1896551724137931 3:1.0 4:0.0042643923240938165 5:0.0042643923240938165 63:1.0 104:1.0 217:1.0 
1.373374090496251 1:0.3333333333333333 2:0.15517241379310345 3:1.0 4:0.01279317697228145 5:0.01279317697228145 6:0.06633499170812604 24:1.0 121:1.0 200:1.0 
0.13466033946926548 1:0.3333333333333333 2:0.1896551724137931 3:1.0 4:0.0021321961620469083 5:0.0021321961620469083 59:1.0 183:1.0 227:1.0 
2.0 1:0.3333333333333333 2:0.1724137931034483 3:0.3953488372093023 4:0.09168443496801706 5:0.09168443496801706 60:1.0 159:1.0 279:1.0 
2.0 1:0.3333333333333333 2:0.10344827586206896 3:0.967741935483871 4:0.06609808102345416 5:0.06609808102345416 6:0.001658374792703151 63:1.0 183:1.0 216:1.0 
2.0 2:0.06896551724137931 3:0.6578947368421053 4:0.16204690831556504 5:0.16204690831556504 59:1.0 183:1.0 255:1.0 
2.0 1:0.3333333333333333 2:0.017241379310344827 3:0.6 4:0.010660980810234541 5:0.010660980810234541 6:0.1011608623548922 8:1.0 183:1.0 200:1.0 
2.0 1:0.6666666666666666 2:0.034482758620689655 3:0.8333333333333334 4:0.01279317697228145 5:0.01279317697228145 63:1.0 183:1.0 217:1.0 
2.0 2:0.13793103448275862 3:0.4418604651162791 4:0.5501066098081023 5:0.5501066098081023 6:0.004975124378109453 63:1.0 183:1.0 252:1.0 
2.0 2:0.25862068965517243 3:0.4418604651162791 4:0.5501066098081023 5:0.5501066098081023 6:0.004975124378109453 63:1.0 183:1.0 200:1.0 
2.0 3:0.979381443298969 4:0.2068230277185501 5:0.2068230277185501 24:1.0 104:1.0 279:1.0 
2.0 2:0.017241379310344827 3:0.6578947368421053 4:0.16204690831556504 5:0.16204690831556504 59:1.0 183:1.0 251:1.0 
1.059908650366186 2:0.034482758620689655 3:0.6538461538461539 4:0.05543710021321962 5:0.05543710021321962 25:1.0 120:1.0 252:1.0 
0.5297734665080577 2:0.05172413793103448 3:0.8857142857142857 4:0.07462686567164178 5:0.07462686567164178 59:1.0 183:1.0 228:1.0 
2.0 1:0.3333333333333333 2:0.034482758620689655 3:0.967741935483871 4:0.13219616204690832 5:0.13219616204690832 63:1.0 183:1.0 235:1.0 
0.1985073846248126 1:0.3333333333333333 2:0.1896551724137931 3:1.0 4:0.0021321961620469083 5:0.0021321961620469083 21:1.0 183:1.0 279:1.0 
1.9979335105140177 1:0.3333333333333333 2:0.017241379310344827 3:0.9024390243902439 4:0.08742004264392324 5:0.08742004264392324 6:0.008291873963515755 25:1.0 104:1.0 209:1.0 
2.0 1:0.3333333333333333 2:0.08620689655172414 3:0.87 4:0.21321961620469082 5:0.21321961620469082 6:0.01990049751243781 43:1.0 183:1.0 209:1.0 
2.0 2:0.13793103448275862 3:0.4418604651162791 4:0.5501066098081023 5:0.5501066098081023 6:0.004975124378109453 63:1.0 183:1.0 279:1.0 
0.9192577587302652 1:0.3333333333333333 2:0.06896551724137931 3:1.0 4:0.06396588486140725 5:0.06396588486140725 25:1.0 183:1.0 227:1.0 
0.6713378184475965 2:0.1896551724137931 3:0.6578947368421053 4:0.16204690831556504 5:0.16204690831556504 59:1.0 117:1.0 251:1.0 
2.0 3:0.6578947368421053 4:0.16204690831556504 5:0.16204690831556504 59:1.0 104:1.0 217:1.0 
2.0 1:0.3333333333333333 2:0.08620689655172414 3:0.9444444444444444 4:0.03837953091684435 5:0.03837953091684435 6:0.003316749585406302 24:1.0 131:1.0 279:1.0 
2.0 1:0.3333333333333333 2:0.22413793103448276 3:0.8181818181818182 4:0.09381663113006397 5:0.09381663113006397 63:1.0 183:1.0 279:1.0 
2.0 1:0.3333333333333333 2:0.017241379310344827 3:0.5416666666666666 4:0.0511727078891258 5:0.0511727078891258 63:1.0 183:1.0 201:1.0 
1.076107072055388 1:0.3333333333333333 2:0.3103448275862069 3:1.0 4:0.0021321961620469083 5:0.0021321961620469083 24:1.0 104:1.0 209:1.0 
0.9405924855646912 1:0.3333333333333333 2:0.034482758620689655 3:1.0 4:0.0021321961620469083 5:0.0021321961620469083 43:1.0 103:1.0 217:1.0 
2.0 2:0.3275862068965517 3:0.6578947368421053 4:0.16204690831556504 5:0.16204690831556504 59:1.0 139:1.0 217:1.0 
1.5352248309086751 1:0.3333333333333333 2:0.06896551724137931 3:0.5 4:0.0042643923240938165 5:0.0042643923240938165 8:1.0 183:1.0 200:1.0 
2.0 1:0.3333333333333333 2:0.1206896551724138 3:0.6 4:0.021321961620469083 5:0.021321961620469083 63:1.0 183:1.0 200:1.0 
2.0 3:0.4418604651162791 4:0.5501066098081023 5:0.5501066098081023 6:0.004975124378109453 63:1.0 183:1.0 209:1.0 
2.0 1:0.3333333333333333 2:0.1896551724137931 3:1.0 4:0.010660980810234541 5:0.010660980810234541 59:1.0 183:1.0 217:1.0 
1.078769925119851 1:0.3333333333333333 2:0.25862068965517243 3:0.5 4:0.0042643923240938165 5:0.0042643923240938165 8:1.0 183:1.0 279:1.0 
2.0 2:0.05172413793103448 3:0.979381443298969 4:0.2068230277185501 5:0.2068230277185501 24:1.0 121:1.0 279:1.0 
0.5770615454946361 1:0.3333333333333333 2:0.08620689655172414 3:1.0 4:0.0021321961620469083 5:0.0021321961620469083 21:1.0 104:1.0 213:1.0 
2.0 1:0.3333333333333333 2:0.15517241379310345 3:0.6 4:0.021321961620469083 5:0.021321961620469083 63:1.0 183:1.0 235:1.0 
0.09242019554236679 2:0.1896551724137931 3:0.9263157894736842 4:0.2025586353944563 5:0.2025586353944563 60:1.0 155:1.0 213:1.0 
0.4060972127017026 1:0.3333333333333333 2:0.13793103448275862 3:0.75 4:0.008528784648187633 5:0.008528784648187633 60:1.0 155:1.0 252:1.0 
1.3765957894101246 2:0.05172413793103448 3:0.8857142857142857 4:0.07462686567164178 5:0.07462686567164178 59:1.0 117:1.0 199:1.0 
2.0 1:0.3333333333333333 2:0.06896551724137931 3:0.7692307692307693 4:0.16631130063965885 5:0.16631130063965885 6:0.008291873963515755 63:1.0 183:1.0 217:1.0 
2.0 1:0.3333333333333333 2:0.27586206896551724 3:0.7692307692307693 4:0.16631130063965885 5:0.16631130063965885 6:0.008291873963515755 63:1.0 183:1.0 251:1.0 
2.0 1:0.3333333333333333 2:0.1206896551724138 3:0.5416666666666666 4:0.0511727078891258 5:0.0511727078891258 63:1.0 183:1.0 235:1.0 
1.3591700506145705 2:0.22413793103448276 3:1.0 4:0.11300639658848614 5:0.11300639658848614 6:0.16583747927031509 59:1.0 155:1.0 227:1.0 
2.0 2:0.017241379310344827 3:0.6578947368421053 4:0.16204690831556504 5:0.16204690831556504 59:1.0 104:1.0 217:1.0 
0.47631415200379945 1:0.3333333333333333 2:0.1206896551724138 3:1.0 4:0.0042643923240938165 5:0.0042643923240938165 63:1.0 120:1.0 217:1.0 
2.0 1:0.3333333333333333 2:0.1724137931034483 3:0.7692307692307693 4:0.16631130063965885 5:0.16631130063965885 6:0.008291873963515755 63:1.0 183:1.0 217:1.0 
2.0 1:0.3333333333333333 2:0.017241379310344827 3:0.5416666666666666 4:0.0511727078891258 5:0.0511727078891258 63:1.0 183:1.0 200:1.0 
2.0 1:0.3333333333333333 2:0.05172413793103448 3:0.7142857142857143 4:0.014925373134328358 5:0.014925373134328358 63:1.0 123:1.0 217:1.0 
2.0 2:0.08620689655172414 3:0.4418604651162791 4:0.5501066098081023 5:0.5501066098081023 6:0.004975124378109453 63:1.0 183:1.0 279:1.0 
2.0 2:0.22413793103448276 3:0.4418604651162791 4:0.5501066098081023 5:0.5501066098081023 6:0.004975124378109453 63:1.0 183:1.0 201:1.0 
2.0 1:0.3333333333333333 2:0.13793103448275862 3:0.5416666666666666 4:0.0511727078891258 5:0.0511727078891258 63:1.0 183:1.0 201:1.0 
0.39947812924060955 1:0.3333333333333333 2:0.29310344827586204 3:1.0 4:0.0255863539445629 5:0.0255863539445629 6:0.004975124378109453 21:1.0 104:1.0 251:1.0 
2.0 3:0.4418604651162791 4:0.5501066098081023 5:0.5501066098081023 6:0.004975124378109453 63:1.0 183:1.0 200:1.0 
2.0 1:0.3333333333333333 2:0.1896551724137931 3:0.8571428571428571 4:0.05970149253731343 5:0.05970149253731343 6:0.003316749585406302 25:1.0 183:1.0 279:1.0 
0.5302532839710709 2:0.08620689655172414 3:0.6578947368421053 4:0.16204690831556504 5:0.16204690831556504 59:1.0 159:1.0 199:1.0 
0.23914552881909984 1:0.3333333333333333 2:0.06896551724137931 3:1.0 4:0.0042643923240938165 5:0.0042643923240938165 6:0.029850746268656716 25:1.0 103:1.0 235:1.0 
1.9763060502318603 1:0.3333333333333333 2:0.06896551724137931 3:0.7692307692307693 4:0.02771855010660981 5:0.02771855010660981 63:1.0 104:1.0 200:1.0 
2.0 1:0.3333333333333333 2:0.017241379310344827 3:0.7058823529411765 4:0.07249466950959488 5:0.07249466950959488 63:1.0 183:1.0 235:1.0 
2.0 2:0.15517241379310345 3:1.0 4:0.11300639658848614 5:0.11300639658848614 6:0.16583747927031509 59:1.0 120:1.0 217:1.0 
2.0 1:0.3333333333333333 2:0.10344827586206896 3:0.87 4:0.21321961620469082 5:0.21321961620469082 6:0.01990049751243781 43:1.0 183:1.0 279:1.0 
0.5039155517767411 2:0.034482758620689655 3:0.9263157894736842 4:0.2025586353944563 5:0.2025586353944563 60:1.0 120:1.0 279:1.0 
0.3117610700880502 1:0.3333333333333333 2:0.29310344827586204 3:1.0 4:0.06396588486140725 5:0.06396588486140725 25:1.0 183:1.0 200:1.0 
2.0 1:0.3333333333333333 2:0.034482758620689655 3:0.87 4:0.21321961620469082 5:0.21321961620469082 6:0.01990049751243781 43:1.0 183:1.0 279:1.0 
1.0356875620684183 1:0.3333333333333333 2:0.08620689655172414 3:0.6666666666666666 4:0.006396588486140725 5:0.006396588486140725 63:1.0 183:1.0 199:1.0 
1.4275371956288283 2:0.10344827586206896 3:0.8857142857142857 4:0.07462686567164178 5:0.07462686567164178 59:1.0 104:1.0 199:1.0 
0.5859962766587336 1:0.3333333333333333 2:0.017241379310344827 3:1.0 4:0.0021321961620469083 5:0.0021321961620469083 21:1.0 117:1.0 219:1.0 
2.0 1:0.3333333333333333 2:0.034482758620689655 3:0.967741935483871 4:0.13219616204690832 5:0.13219616204690832 63:1.0 183:1.0 252:1.0 
2.0 1:0.3333333333333333 2:0.06896551724137931 3:0.6 4:0.010660980810234541 5:0.010660980810234541 6:0.1011608623548922 8:1.0 183:1.0 251:1.0 
2.0 1:0.3333333333333333 2:0.034482758620689655 3:0.967741935483871 4:0.13219616204690832 5:0.13219616204690832 63:1.0 183:1.0 252:1.0 
2.0 2:0.1896551724137931 3:0.6578947368421053 4:0.16204690831556504 5:0.16204690831556504 59:1.0 183:1.0 252:1.0 
0.37236181294272236 1:0.3333333333333333 2:0.1206896551724138 3:1.0 4:0.0255863539445629 5:0.0255863539445629 6:0.004975124378109453 21:1.0 183:1.0 200:1.0 
0.47649932279618146 1:0.3333333333333333 2:0.3275862068965517 3:0.6 4:0.010660980810234541 5:0.010660980810234541 6:0.1011608623548922 8:1.0 183:1.0 213:1.0 
2.0 2:0.05172413793103448 3:0.6578947368421053 4:0.16204690831556504 5:0.16204690831556504 59:1.0 183:1.0 246:1.0 
0.7622526729956532 2:0.5172413793103449 3:1.0 4:0.11300639658848614 5:0.11300639658848614 6:0.16583747927031509 59:1.0 104:1.0 217:1.0 
2.0 2:0.08620689655172414 3:0.6578947368421053 4:0.16204690831556504 5:0.16204690831556504 59:1.0 104:1.0 252:1.0 
2.0 1:0.3333333333333333 2:0.017241379310344827 3:0.5555555555555556 4:0.03837953091684435 5:0.03837953091684435 63:1.0 183:1.0 217:1.0 
2.0 2:0.08620689655172414 3:0.6578947368421053 4:0.16204690831556504 5:0.16204690831556504 59:1.0 104:1.0 252:1.0 
2.0 1:0.3333333333333333 2:0.06896551724137931 3:0.8 4:0.053304904051172705 5:0.053304904051172705 63:1.0 121:1.0 279:1.0 
2.0 2:0.25862068965517243 3:0.4418604651162791 4:0.5501066098081023 5:0.5501066098081023 6:0.004975124378109453 63:1.0 183:1.0 200:1.0 
2.0 1:0.3333333333333333 2:0.29310344827586204 3:0.8181818181818182 4:0.09381663113006397 5:0.09381663113006397 63:1.0 104:1.0 217:1.0 
2.0 2:0.39655172413793105 3:0.6578947368421053 4:0.16204690831556504 5:0.16204690831556504 59:1.0 104:1.0 252:1.0 
2.0 2:0.034482758620689655 3:1.0 4:0.11300639658848614 5:0.11300639658848614 6:0.16583747927031509 59:1.0 183:1.0 227:1.0 
0.022840471770568877 2:0.05172413793103448 3:0.6538461538461539 4:0.05543710021321962 5:0.05543710021321962 25:1.0 103:1.0 213:1.0 
2.0 1:0.3333333333333333 2:0.017241379310344827 3:0.75 4:0.008528784648187633 5:0.008528784648187633 60:1.0 183:1.0 217:1.0 
2.0 2:0.1206896551724138 3:0.4418604651162791 4:0.5501066098081023 5:0.5501066098081023 6:0.004975124378109453 63:1.0 183:1.0 200:1.0 
2.0 2:0.5689655172413793 3:0.6578947368421053 4:0.16204690831556504 5:0.16204690831556504 59:1.0 183:1.0 217:1.0 
2.0 1:0.3333333333333333 2:0.017241379310344827 3:0.967741935483871 4:0.13219616204690832 5:0.13219616204690832 63:1.0 183:1.0 217:1.0 
2.0 2:0.034482758620689655 3:0.4418604651162791 4:0.5501066098081023 5:0.5501066098081023 6:0.004975124378109453 63:1.0 183:1.0 252:1.0 
0.050419558448732284 1:0.3333333333333333 2:0.10344827586206896 3:0.5 4:0.0042643923240938165 5:0.0042643923240938165 6:0.008291873963515755 24:1.0 152:1.0 279:1.0 
2.0 3:0.6578947368421053 4:0.16204690831556504 5:0.16204690831556504 59:1.0 183:1.0 217:1.0 
2.0 2:0.034482758620689655 3:0.6578947368421053 4:0.16204690831556504 5:0.16204690831556504 59:1.0 183:1.0 217:1.0 
2.0 2:0.10344827586206896 3:0.9032258064516129 4:0.13219616204690832 5:0.13219616204690832 6:0.026533996683250415 25:1.0 104:1.0 279:1.0 
0.5603009716480181 1:0.3333333333333333 2:0.20689655172413793 3:0.875 4:0.06823027718550106 5:0.06823027718550106 25:1.0 155:1.0 217:1.0 
0.9285033111605855 2:0.29310344827586204 3:0.9032258064516129 4:0.13219616204690832 5:0.13219616204690832 6:0.026533996683250415 25:1.0 104:1.0 279:1.0 
2.0 3:0.6578947368421053 4:0.16204690831556504 5:0.16204690831556504 59:1.0 183:1.0 217:1.0 
2.0 2:0.06896551724137931 3:0.9032258064516129 4:0.13219616204690832 5:0.13219616204690832 6:0.026533996683250415 25:1.0 104:1.0 279:1.0 
1.7945132535574373 1:0.3333333333333333 2:0.10344827586206896 3:1.0 4:0.0021321961620469083 5:0.0021321961620469083 6:0.006633499170812604 25:1.0 110:1.0 200:1.0 
2.0 1:0.3333333333333333 2:0.017241379310344827 3:1.0 4:0.06183368869936034 5:0.06183368869936034 6:0.004975124378109453 24:1.0 121:1.0 279:1.0 
0.6137107260590633 1:0.3333333333333333 2:0.10344827586206896 3:0.75 4:0.008528784648187633 5:0.008528784648187633 60:1.0 110:1.0 206:1.0 
2.0 3:0.8125 4:0.03411513859275053 5:0.03411513859275053 25:1.0 183:1.0 217:1.0 
0.10079712531685421 1:0.3333333333333333 2:0.22413793103448276 3:0.8571428571428571 4:0.04477611940298507 5:0.04477611940298507 25:1.0 155:1.0 206:1.0 
0.42329971310126974 2:0.3620689655172414 3:0.6578947368421053 4:0.16204690831556504 5:0.16204690831556504 59:1.0 117:1.0 252:1.0 
0.29730182956416956 1:0.3333333333333333 2:0.06896551724137931 3:1.0 4:0.006396588486140725 5:0.006396588486140725 21:1.0 103:1.0 217:1.0 
1.5865561983258119 2:0.1206896551724138 3:0.6578947368421053 4:0.16204690831556504 5:0.16204690831556504 59:1.0 117:1.0 252:1.0 
2.0 1:0.3333333333333333 2:0.08620689655172414 3:0.7692307692307693 4:0.16631130063965885 5:0.16631130063965885 6:0.008291873963515755 63:1.0 103:1.0 279:1.0 
2.0 2:0.10344827586206896 3:0.6578947368421053 4:0.16204690831556504 5:0.16204690831556504 59:1.0 110:1.0 251:1.0 
2.0 2:0.08620689655172414 3:0.6578947368421053 4:0.16204690831556504 5:0.16204690831556504 59:1.0 104:1.0 252:1.0 
2.0 1:1.0 2:0.06896551724137931 3:0.8 4:0.010660980810234541 5:0.010660980810234541 63:1.0 183:1.0 251:1.0 
2.0 1:0.6666666666666666 2:0.13793103448275862 3:1.0 4:0.0021321961620469083 5:0.0021321961620469083 63:1.0 183:1.0 209:1.0 
2.0 1:0.3333333333333333 2:0.1724137931034483 3:0.8 4:0.053304904051172705 5:0.053304904051172705 63:1.0 183:1.0 217:1.0 
0.20230782019290555 2:0.10344827586206896 3:1.0 4:0.029850746268656716 5:0.029850746268656716 19:1.0 104:1.0 252:1.0 
2.0 1:0.3333333333333333 2:0.08620689655172414 3:1.0 4:0.0255863539445629 5:0.0255863539445629 6:0.004975124378109453 59:1.0 183:1.0 201:1.0 
2.0 2:0.017241379310344827 3:0.979381443298969 4:0.2068230277185501 5:0.2068230277185501 24:1.0 123:1.0 251:1.0 
2.0 1:0.3333333333333333 2:0.017241379310344827 3:0.5714285714285714 4:0.014925373134328358 5:0.014925373134328358 6:0.004975124378109453 60:1.0 183:1.0 235:1.0 
0.005068709106858053 2:0.05172413793103448 3:0.6578947368421053 4:0.16204690831556504 5:0.16204690831556504 59:1.0 119:1.0 217:1.0 
1.2567666659986974 1:0.3333333333333333 2:0.017241379310344827 3:1.0 4:0.0021321961620469083 5:0.0021321961620469083 59:1.0 110:1.0 200:1.0 
2.0 1:0.3333333333333333 2:0.1206896551724138 3:0.87 4:0.21321961620469082 5:0.21321961620469082 6:0.01990049751243781 43:1.0 183:1.0 217:1.0 
2.0 1:0.3333333333333333 2:0.2413793103448276 3:0.87 4:0.21321961620469082 5:0.21321961620469082 6:0.01990049751243781 43:1.0 183:1.0 217:1.0 
2.0 2:0.017241379310344827 3:0.9263157894736842 4:0.2025586353944563 5:0.2025586353944563 60:1.0 183:1.0 217:1.0 
2.0 2:0.034482758620689655 3:0.6578947368421053 4:0.16204690831556504 5:0.16204690831556504 59:1.0 104:1.0 217:1.0 
2.0 1:0.3333333333333333 2:0.08620689655172414 3:0.7692307692307693 4:0.16631130063965885 5:0.16631130063965885 6:0.008291873963515755 63:1.0 183:1.0 251:1.0 
1.967192669908043 2:0.1206896551724138 3:0.8135593220338984 4:0.1257995735607676 5:0.1257995735607676 25:1.0 121:1.0 217:1.0 
0.1293515107129738 1:0.3333333333333333 2:0.017241379310344827 3:1.0 4:0.006396588486140725 5:0.006396588486140725 21:1.0 109:1.0 217:1.0 
2.0 1:0.3333333333333333 2:0.05172413793103448 3:1.0 4:0.03624733475479744 5:0.03624733475479744 6:0.16583747927031509 25:1.0 117:1.0 279:1.0 
2.0 2:0.3793103448275862 3:0.6578947368421053 4:0.16204690831556504 5:0.16204690831556504 59:1.0 120:1.0 217:1.0 
2.0 2:0.06896551724137931 3:0.4418604651162791 4:0.5501066098081023 5:0.5501066098081023 6:0.004975124378109453 63:1.0 183:1.0 206:1.0 
2.0 2:0.1724137931034483 3:0.8135593220338984 4:0.1257995735607676 5:0.1257995735607676 25:1.0 183:1.0 251:1.0 
1.212379048891751 2:0.034482758620689655 3:0.8135593220338984 4:0.1257995735607676 5:0.1257995735607676 25:1.0 123:1.0 279:1.0 
2.0 1:0.3333333333333333 2:0.1206896551724138 3:0.7692307692307693 4:0.16631130063965885 5:0.16631130063965885 6:0.008291873963515755 63:1.0 183:1.0 251:1.0 
2.0 2:0.3103448275862069 3:0.4418604651162791 4:0.5501066098081023 5:0.5501066098081023 6:0.004975124378109453 63:1.0 183:1.0 206:1.0 
2.0 2:0.034482758620689655 3:0.979381443298969 4:0.2068230277185501 5:0.2068230277185501 24:1.0 121:1.0 279:1.0 
2.0 2:0.1724137931034483 3:0.6578947368421053 4:0.16204690831556504 5:0.16204690831556504 59:1.0 104:1.0 255:1.0 
0.27876472794496204 1:0.3333333333333333 2:0.1724137931034483 3:1.0 4:0.0042643923240938165 5:0.0042643923240938165 60:1.0 152:1.0 217:1.0 
2.0 2:0.15517241379310345 3:0.4418604651162791 4:0.5501066098081023 5:0.5501066098081023 6:0.004975124378109453 63:1.0 113:1.0 217:1.0 
2.0 3:0.979381443298969 4:0.2068230277185501 5:0.2068230277185501 24:1.0 121:1.0 279:1.0 
2.0 1:0.3333333333333333 2:0.017241379310344827 3:1.0 4:0.0255863539445629 5:0.0255863539445629 6:0.004975124378109453 59:1.0 183:1.0 279:1.0 
0.3352374660433614 1:0.3333333333333333 2:0.05172413793103448 3:1.0 4:0.0021321961620469083 5:0.0021321961620469083 43:1.0 183:1.0 232:1.0 
2.0 2:0.08620689655172414 3:0.6578947368421053 4:0.16204690831556504 5:0.16204690831556504 59:1.0 183:1.0 217:1.0 
2.0 1:0.3333333333333333 2:0.13793103448275862 3:1.0 4:0.017057569296375266 5:0.017057569296375266 6:0.06633499170812604 25:1.0 183:1.0 279:1.0 
1.4909530214836946 1:0.3333333333333333 2:0.05172413793103448 3:0.87 4:0.21321961620469082 5:0.21321961620469082 6:0.01990049751243781 43:1.0 103:1.0 246:1.0 
2.0 1:0.3333333333333333 2:0.017241379310344827 3:1.0 4:0.0511727078891258 5:0.0511727078891258 25:1.0 183:1.0 279:1.0 
1.9323604924046784 1:0.3333333333333333 2:0.15517241379310345 3:1.0 4:0.06183368869936034 5:0.06183368869936034 6:0.004975124378109453 24:1.0 183:1.0 199:1.0 
1.5867060224658494 2:0.06896551724137931 3:0.6538461538461539 4:0.05543710021321962 5:0.05543710021321962 25:1.0 123:1.0 235:1.0 
2.0 1:0.3333333333333333 2:0.10344827586206896 3:0.87 4:0.21321961620469082 5:0.21321961620469082 6:0.01990049751243781 43:1.0 121:1.0 246:1.0 
0.9232621611824561 1:0.3333333333333333 2:0.034482758620689655 3:1.0 4:0.0021321961620469083 5:0.0021321961620469083 25:1.0 104:1.0 279:1.0 
2.0 3:0.6578947368421053 4:0.16204690831556504 5:0.16204690831556504 59:1.0 183:1.0 217:1.0 
0.42437674414870186 1:0.3333333333333333 2:0.017241379310344827 3:0.75 4:0.008528784648187633 5:0.008528784648187633 60:1.0 183:1.0 200:1.0 
2.0 1:0.3333333333333333 2:0.15517241379310345 3:1.0 4:0.06396588486140725 5:0.06396588486140725 25:1.0 183:1.0 200:1.0 
2.0 1:0.3333333333333333 2:0.1896551724137931 3:1.0 4:0.0021321961620469083 5:0.0021321961620469083 17:1.0 121:1.0 279:1.0 
1.8690755081775232 1:0.3333333333333333 2:0.39655172413793105 3:0.5333333333333333 4:0.031982942430703626 5:0.031982942430703626 6:0.07462686567164178 8:1.0 103:1.0 279:1.0 
0.6397980154025802 2:0.08620689655172414 3:0.979381443298969 4:0.2068230277185501 5:0.2068230277185501 24:1.0 120:1.0 248:1.0 
2.0 1:0.3333333333333333 2:0.1206896551724138 3:0.7692307692307693 4:0.16631130063965885 5:0.16631130063965885 6:0.008291873963515755 63:1.0 104:1.0 251:1.0 
0.030246211512671102 1:0.3333333333333333 2:0.05172413793103448 3:1.0 4:0.0021321961620469083 5:0.0021321961620469083 6:0.02321724709784411 25:1.0 136:1.0 200:1.0 
2.0 1:0.3333333333333333 2:0.06896551724137931 3:0.7692307692307693 4:0.16631130063965885 5:0.16631130063965885 6:0.008291873963515755 63:1.0 183:1.0 217:1.0 
0.8532330005781467 1:0.3333333333333333 2:0.3620689655172414 3:1.0 4:0.08955223880597014 5:0.08955223880597014 25:1.0 183:1.0 206:1.0 
2.0 1:0.3333333333333333 2:0.13793103448275862 3:0.9024390243902439 4:0.08742004264392324 5:0.08742004264392324 6:0.008291873963515755 25:1.0 183:1.0 252:1.0 
0.17071306550878712 1:0.3333333333333333 2:0.10344827586206896 3:0.875 4:0.06823027718550106 5:0.06823027718550106 25:1.0 103:1.0 247:1.0 
1.2104528168083586 1:0.6666666666666666 2:0.20689655172413793 3:0.5416666666666666 4:0.0511727078891258 5:0.0511727078891258 7:1.0 104:1.0 232:1.0 
2.0 3:0.4418604651162791 4:0.5501066098081023 5:0.5501066098081023 6:0.004975124378109453 63:1.0 183:1.0 213:1.0 
0.010423943624552113 1:0.3333333333333333 2:0.1206896551724138 35:1.0 176:1.0 199:1.0 
2.0 3:0.4418604651162791 4:0.5501066098081023 5:0.5501066098081023 6:0.004975124378109453 63:1.0 183:1.0 252:1.0 
2.0 1:0.3333333333333333 2:0.05172413793103448 3:0.7692307692307693 4:0.16631130063965885 5:0.16631130063965885 6:0.008291873963515755 63:1.0 139:1.0 272:1.0 
2.0 3:0.4418604651162791 4:0.5501066098081023 5:0.5501066098081023 6:0.004975124378109453 63:1.0 183:1.0 213:1.0 
1.8755735235293127 1:0.3333333333333333 2:0.2413793103448276 3:0.5833333333333334 4:0.0255863539445629 5:0.0255863539445629 6:0.02321724709784411 43:1.0 183:1.0 255:1.0 
1.250047852793462 1:0.3333333333333333 2:0.27586206896551724 3:0.7692307692307693 4:0.16631130063965885 5:0.16631130063965885 6:0.008291873963515755 63:1.0 139:1.0 272:1.0 
0.7230354073545886 1:0.3333333333333333 2:0.05172413793103448 3:1.0 4:0.03624733475479744 5:0.03624733475479744 6:0.16583747927031509 25:1.0 112:1.0 279:1.0 
2.0 1:0.3333333333333333 2:0.1724137931034483 3:0.7692307692307693 4:0.16631130063965885 5:0.16631130063965885 6:0.008291873963515755 63:1.0 183:1.0 272:1.0 
1.8977617002316263 1:0.3333333333333333 2:0.1206896551724138 3:1.0 4:0.0021321961620469083 5:0.0021321961620469083 6:0.001658374792703151 25:1.0 110:1.0 279:1.0 
1.2099263927860144 1:0.6666666666666666 2:0.10344827586206896 3:0.8 4:0.010660980810234541 5:0.010660980810234541 6:0.003316749585406302 59:1.0 176:1.0 217:1.0 
1.586851817726772 1:0.3333333333333333 2:0.05172413793103448 3:0.7692307692307693 4:0.16631130063965885 5:0.16631130063965885 6:0.008291873963515755 63:1.0 139:1.0 272:1.0 
1.9705032817085926 1:0.3333333333333333 2:0.3103448275862069 3:0.9444444444444444 4:0.03837953091684435 5:0.03837953091684435 6:0.003316749585406302 24:1.0 108:1.0 199:1.0 
0.16673086377174823 1:0.3333333333333333 2:0.1896551724137931 3:1.0 4:0.0042643923240938165 5:0.0042643923240938165 60:1.0 132:1.0 227:1.0 
0.3317263400479507 1:0.3333333333333333 2:0.3275862068965517 3:1.0 4:0.031982942430703626 5:0.031982942430703626 6:0.003316749585406302 24:1.0 104:1.0 279:1.0 
0.436103963524433 1:0.6666666666666666 2:0.05172413793103448 3:0.7272727272727273 4:0.023454157782515993 5:0.023454157782515993 7:1.0 104:1.0 206:1.0 
2.0 2:0.08620689655172414 3:0.4418604651162791 4:0.5501066098081023 5:0.5501066098081023 6:0.004975124378109453 63:1.0 183:1.0 252:1.0 
0.06302644918966836 1:0.3333333333333333 2:0.13793103448275862 3:1.0 4:0.0021321961620469083 5:0.0021321961620469083 43:1.0 156:1.0 206:1.0 
2.0 1:0.3333333333333333 2:0.017241379310344827 3:0.5555555555555556 4:0.03837953091684435 5:0.03837953091684435 63:1.0 183:1.0 279:1.0 
0.14294263036964722 2:0.017241379310344827 3:0.9263157894736842 4:0.2025586353944563 5:0.2025586353944563 60:1.0 109:1.0 227:1.0 
2.0 1:0.3333333333333333 2:0.15517241379310345 3:0.9024390243902439 4:0.08742004264392324 5:0.08742004264392324 6:0.008291873963515755 25:1.0 183:1.0 235:1.0 
2.0 1:0.3333333333333333 2:0.29310344827586204 3:0.7692307692307693 4:0.16631130063965885 5:0.16631130063965885 6:0.008291873963515755 63:1.0 183:1.0 251:1.0 
2.0 1:0.3333333333333333 2:0.034482758620689655 3:0.9024390243902439 4:0.08742004264392324 5:0.08742004264392324 6:0.008291873963515755 25:1.0 104:1.0 200:1.0 
2.0 2:0.43103448275862066 3:0.4418604651162791 4:0.5501066098081023 5:0.5501066098081023 6:0.004975124378109453 63:1.0 183:1.0 217:1.0 
1.3699972622180108 1:0.3333333333333333 2:0.06896551724137931 3:1.0 4:0.03624733475479744 5:0.03624733475479744 6:0.16583747927031509 25:1.0 123:1.0 217:1.0 
0.8709388188170192 1:0.3333333333333333 2:0.05172413793103448 3:0.9285714285714286 4:0.05970149253731343 5:0.05970149253731343 63:1.0 139:1.0 217:1.0 
2.0 2:0.1724137931034483 3:0.4418604651162791 4:0.5501066098081023 5:0.5501066098081023 6:0.004975124378109453 63:1.0 131:1.0 229:1.0 
2.0 1:0.3333333333333333 2:0.017241379310344827 3:0.3953488372093023 4:0.09168443496801706 5:0.09168443496801706 60:1.0 183:1.0 217:1.0 
2.0 2:0.06896551724137931 3:0.9263157894736842 4:0.2025586353944563 5:0.2025586353944563 60:1.0 155:1.0 217:1.0 
0.1944685670575057 2:0.3620689655172414 3:0.4418604651162791 4:0.5501066098081023 5:0.5501066098081023 6:0.004975124378109453 63:1.0 131:1.0 229:1.0 
0.036347781668021314 1:0.3333333333333333 2:0.05172413793103448 3:0.3333333333333333 4:0.006396588486140725 5:0.006396588486140725 6:0.46434494195688225 25:1.0 121:1.0 251:1.0 
2.0 1:0.3333333333333333 2:0.017241379310344827 3:1.0 4:0.008528784648187633 5:0.008528784648187633 6:0.03150912106135987 25:1.0 183:1.0 199:1.0 
2.0 1:0.3333333333333333 2:0.10344827586206896 3:1.0 4:0.031982942430703626 5:0.031982942430703626 6:0.003316749585406302 24:1.0 152:1.0 251:1.0 
2.0 1:1.0 2:0.1724137931034483 3:0.8 4:0.010660980810234541 5:0.010660980810234541 63:1.0 183:1.0 205:1.0 
0.012802020281548056 1:0.3333333333333333 2:0.017241379310344827 3:1.0 4:0.03624733475479744 5:0.03624733475479744 6:0.16583747927031509 25:1.0 104:1.0 279:1.0 
2.0 1:0.3333333333333333 2:0.05172413793103448 3:0.7142857142857143 4:0.014925373134328358 5:0.014925373134328358 63:1.0 123:1.0 217:1.0 
0.3659035340644067 1:0.3333333333333333 2:0.1724137931034483 3:1.0 4:0.0255863539445629 5:0.0255863539445629 6:0.004975124378109453 21:1.0 183:1.0 206:1.0 
1.2431670102179926 1:0.6666666666666666 2:0.034482758620689655 3:1.0 4:0.0021321961620469083 5:0.0021321961620469083 17:1.0 150:1.0 206:1.0 
2.0 1:0.3333333333333333 2:0.08620689655172414 3:1.0 4:0.06183368869936034 5:0.06183368869936034 6:0.004975124378109453 24:1.0 104:1.0 246:1.0 
1.849460223136747 1:0.3333333333333333 2:0.017241379310344827 3:1.0 4:0.010660980810234541 5:0.010660980810234541 59:1.0 110:1.0 217:1.0 
1.546376854029388 1:0.3333333333333333 2:0.06896551724137931 3:1.0 4:0.03624733475479744 5:0.03624733475479744 6:0.16583747927031509 25:1.0 103:1.0 279:1.0 
2.0 1:1.0 2:0.05172413793103448 3:0.8 4:0.010660980810234541 5:0.010660980810234541 63:1.0 183:1.0 279:1.0 
2.0 2:0.017241379310344827 3:0.979381443298969 4:0.2068230277185501 5:0.2068230277185501 24:1.0 104:1.0 252:1.0 
0.7890172174385448 2:0.15517241379310345 3:0.96 4:0.10660980810234541 5:0.10660980810234541 6:0.28192371475953565 63:1.0 109:1.0 235:1.0 
1.157723377998973 1:0.3333333333333333 2:0.06896551724137931 3:1.0 4:0.03624733475479744 5:0.03624733475479744 6:0.16583747927031509 25:1.0 155:1.0 199:1.0 
2.0 2:0.017241379310344827 3:0.5 4:0.008528784648187633 5:0.008528784648187633 43:1.0 183:1.0 251:1.0 
2.0 1:0.3333333333333333 2:0.08620689655172414 3:0.8 4:0.053304904051172705 5:0.053304904051172705 63:1.0 183:1.0 205:1.0 
1.209740429852076 1:0.3333333333333333 2:0.017241379310344827 3:1.0 4:0.0042643923240938165 5:0.0042643923240938165 6:0.06965174129353234 60:1.0 183:1.0 213:1.0 
2.0 1:0.3333333333333333 2:0.06896551724137931 3:0.3953488372093023 4:0.09168443496801706 5:0.09168443496801706 60:1.0 183:1.0 246:1.0 
2.0 1:0.3333333333333333 2:0.22413793103448276 3:1.0 4:0.06396588486140725 5:0.06396588486140725 25:1.0 183:1.0 279:1.0 
2.0 2:0.3448275862068966 3:0.6578947368421053 4:0.16204690831556504 5:0.16204690831556504 59:1.0 117:1.0 217:1.0 
0.1282803015615453 1:0.3333333333333333 2:0.06896551724137931 3:1.0 4:0.0021321961620469083 5:0.0021321961620469083 27:1.0 152:1.0 200:1.0 
2.0 2:0.22413793103448276 3:0.6578947368421053 4:0.16204690831556504 5:0.16204690831556504 59:1.0 109:1.0 217:1.0 
2.0 2:0.017241379310344827 3:0.8135593220338984 4:0.1257995735607676 5:0.1257995735607676 25:1.0 104:1.0 246:1.0 
2.0 1:0.3333333333333333 2:0.034482758620689655 3:0.5416666666666666 4:0.0511727078891258 5:0.0511727078891258 63:1.0 183:1.0 217:1.0 
0.3565663813145724 1:0.3333333333333333 2:0.05172413793103448 3:1.0 4:0.0042643923240938165 5:0.0042643923240938165 59:1.0 139:1.0 255:1.0 
2.0 2:0.05172413793103448 3:0.5 4:0.008528784648187633 5:0.008528784648187633 43:1.0 183:1.0 248:1.0 
2.0 1:0.6666666666666666 2:0.05172413793103448 3:0.5416666666666666 4:0.0511727078891258 5:0.0511727078891258 7:1.0 183:1.0 252:1.0 
2.0 1:0.3333333333333333 2:0.06896551724137931 3:0.7058823529411765 4:0.07249466950959488 5:0.07249466950959488 63:1.0 183:1.0 200:1.0 
1.5386360275228024 1:0.3333333333333333 2:0.25862068965517243 3:1.0 4:0.0021321961620469083 5:0.0021321961620469083 59:1.0 183:1.0 279:1.0 
2.0 1:0.3333333333333333 2:0.1206896551724138 3:0.7058823529411765 4:0.07249466950959488 5:0.07249466950959488 63:1.0 183:1.0 219:1.0 
2.0 1:0.3333333333333333 2:0.22413793103448276 3:0.7692307692307693 4:0.16631130063965885 5:0.16631130063965885 6:0.008291873963515755 63:1.0 183:1.0 235:1.0 
2.0 1:0.3333333333333333 2:0.27586206896551724 3:0.8181818181818182 4:0.09381663113006397 5:0.09381663113006397 63:1.0 183:1.0 235:1.0 
6.657433197141339E-4 1:0.3333333333333333 2:0.05172413793103448 3:1.0 4:0.0042643923240938165 5:0.0042643923240938165 6:0.04809286898839138 60:1.0 156:1.0 205:1.0 
2.0 1:0.3333333333333333 2:0.017241379310344827 3:1.0 4:0.0255863539445629 5:0.0255863539445629 6:0.004975124378109453 21:1.0 183:1.0 246:1.0 
2.0 1:0.3333333333333333 2:0.017241379310344827 3:1.0 4:0.0042643923240938165 5:0.0042643923240938165 59:1.0 109:1.0 217:1.0 
2.0 3:0.4418604651162791 4:0.5501066098081023 5:0.5501066098081023 6:0.004975124378109453 63:1.0 183:1.0 252:1.0 
1.6066377334480277 1:0.3333333333333333 2:0.15517241379310345 3:1.0 4:0.03624733475479744 5:0.03624733475479744 6:0.16583747927031509 25:1.0 117:1.0 279:1.0 
2.0 1:0.3333333333333333 2:0.06896551724137931 3:0.9024390243902439 4:0.08742004264392324 5:0.08742004264392324 6:0.008291873963515755 25:1.0 183:1.0 246:1.0 
2.0 1:0.3333333333333333 2:0.1896551724137931 3:0.967741935483871 4:0.06609808102345416 5:0.06609808102345416 6:0.001658374792703151 63:1.0 183:1.0 235:1.0 
1.0053102355216785 2:0.017241379310344827 3:0.979381443298969 4:0.2068230277185501 5:0.2068230277185501 24:1.0 121:1.0 246:1.0 
2.0 1:0.3333333333333333 2:0.13793103448275862 3:1.0 4:0.06183368869936034 5:0.06183368869936034 6:0.004975124378109453 24:1.0 121:1.0 279:1.0 
2.0 2:0.017241379310344827 3:0.7636363636363637 4:0.11727078891257996 5:0.11727078891257996 6:1.0 60:1.0 183:1.0 217:1.0 
2.0 2:0.034482758620689655 3:0.4418604651162791 4:0.5501066098081023 5:0.5501066098081023 6:0.004975124378109453 63:1.0 104:1.0 217:1.0 
2.0 1:0.3333333333333333 2:0.017241379310344827 3:0.7692307692307693 4:0.16631130063965885 5:0.16631130063965885 6:0.008291873963515755 63:1.0 139:1.0 217:1.0 
2.0 1:0.3333333333333333 2:0.2413793103448276 3:0.7692307692307693 4:0.16631130063965885 5:0.16631130063965885 6:0.008291873963515755 63:1.0 183:1.0 279:1.0 
2.0 2:0.3275862068965517 3:0.4418604651162791 4:0.5501066098081023 5:0.5501066098081023 6:0.004975124378109453 63:1.0 183:1.0 252:1.0 
0.4592745450934676 1:0.3333333333333333 2:0.034482758620689655 3:1.0 4:0.0021321961620469083 5:0.0021321961620469083 8:1.0 152:1.0 216:1.0 
0.14196507066127645 1:0.3333333333333333 2:0.017241379310344827 3:1.0 4:0.03624733475479744 5:0.03624733475479744 6:0.16583747927031509 25:1.0 104:1.0 279:1.0 
2.0 1:0.3333333333333333 2:0.08620689655172414 3:1.0 4:0.008528784648187633 5:0.008528784648187633 63:1.0 183:1.0 252:1.0 
1.1037573273000536 1:0.3333333333333333 2:0.017241379310344827 3:1.0 4:0.06183368869936034 5:0.06183368869936034 6:0.004975124378109453 24:1.0 121:1.0 201:1.0 
2.0 1:0.3333333333333333 2:0.06896551724137931 3:0.5333333333333333 4:0.031982942430703626 5:0.031982942430703626 6:0.07462686567164178 8:1.0 103:1.0 213:1.0 
0.3820393564979591 3:0.9166666666666666 4:0.0511727078891258 5:0.0511727078891258 65:1.0 183:1.0 200:1.0 
1.4063791389459304 1:0.3333333333333333 2:0.29310344827586204 3:1.0 4:0.06183368869936034 5:0.06183368869936034 6:0.004975124378109453 24:1.0 183:1.0 251:1.0 
1.0595135134923643 1:0.3333333333333333 2:0.2413793103448276 3:1.0 4:0.06183368869936034 5:0.06183368869936034 6:0.004975124378109453 24:1.0 104:1.0 272:1.0 
0.035898075611706576 1:0.3333333333333333 2:0.05172413793103448 3:1.0 4:0.0021321961620469083 5:0.0021321961620469083 27:1.0 121:1.0 279:1.0 
0.01089207301349463 1:0.3333333333333333 2:0.034482758620689655 3:1.0 4:0.0042643923240938165 5:0.0042643923240938165 60:1.0 110:1.0 228:1.0 
2.0 2:0.05172413793103448 3:0.4418604651162791 4:0.5501066098081023 5:0.5501066098081023 6:0.004975124378109453 63:1.0 183:1.0 217:1.0 
2.0 3:0.4418604651162791 4:0.5501066098081023 5:0.5501066098081023 6:0.004975124378109453 63:1.0 183:1.0 252:1.0 
0.8176076120552597 3:0.9263157894736842 4:0.2025586353944563 5:0.2025586353944563 60:1.0 117:1.0 217:1.0 
1.012191698807113 1:0.3333333333333333 2:0.034482758620689655 3:0.8571428571428571 4:0.014925373134328358 5:0.014925373134328358 25:1.0 104:1.0 279:1.0 
0.13491172147523797 1:0.3333333333333333 2:0.1724137931034483 3:1.0 4:0.0021321961620469083 5:0.0021321961620469083 59:1.0 139:1.0 235:1.0 
2.0 1:0.3333333333333333 2:0.5862068965517241 3:0.9791666666666666 4:0.1023454157782516 5:0.1023454157782516 63:1.0 183:1.0 219:1.0 
2.0 1:0.3333333333333333 2:0.017241379310344827 3:0.5416666666666666 4:0.0511727078891258 5:0.0511727078891258 63:1.0 183:1.0 252:1.0 
2.0 1:0.3333333333333333 2:0.017241379310344827 3:0.9285714285714286 4:0.05970149253731343 5:0.05970149253731343 63:1.0 183:1.0 217:1.0 
2.0 3:0.9032258064516129 4:0.13219616204690832 5:0.13219616204690832 6:0.026533996683250415 25:1.0 183:1.0 200:1.0 
2.0 2:0.10344827586206896 3:0.6578947368421053 4:0.16204690831556504 5:0.16204690831556504 59:1.0 183:1.0 217:1.0 
2.0 3:0.6578947368421053 4:0.16204690831556504 5:0.16204690831556504 59:1.0 183:1.0 217:1.0 
2.0 3:0.9032258064516129 4:0.13219616204690832 5:0.13219616204690832 6:0.026533996683250415 25:1.0 183:1.0 227:1.0 
2.0 2:0.017241379310344827 3:0.6578947368421053 4:0.16204690831556504 5:0.16204690831556504 59:1.0 183:1.0 217:1.0 
2.0 3:0.6578947368421053 4:0.16204690831556504 5:0.16204690831556504 59:1.0 139:1.0 217:1.0 
2.0 1:0.3333333333333333 2:0.25862068965517243 3:0.9791666666666666 4:0.1023454157782516 5:0.1023454157782516 63:1.0 183:1.0 217:1.0 
2.0 1:0.3333333333333333 2:0.43103448275862066 3:1.0 4:0.0021321961620469083 5:0.0021321961620469083 6:0.04145936981757877 21:1.0 183:1.0 279:1.0 
2.0 1:0.3333333333333333 2:0.06896551724137931 3:1.0 4:0.01279317697228145 5:0.01279317697228145 25:1.0 155:1.0 199:1.0 
0.5477366445403307 2:0.3793103448275862 3:1.0 4:0.11300639658848614 5:0.11300639658848614 6:0.16583747927031509 59:1.0 103:1.0 227:1.0 
0.009446863308591952 1:0.3333333333333333 2:0.034482758620689655 3:1.0 4:0.01279317697228145 5:0.01279317697228145 25:1.0 110:1.0 199:1.0 
1.1733169900090992 1:0.6666666666666666 2:0.08620689655172414 3:0.5416666666666666 4:0.0511727078891258 5:0.0511727078891258 7:1.0 104:1.0 206:1.0 
2.0 1:0.3333333333333333 2:0.15517241379310345 3:0.75 4:0.05970149253731343 5:0.05970149253731343 63:1.0 183:1.0 235:1.0 
0.00300656250957345 1:0.3333333333333333 2:0.1896551724137931 3:1.0 4:0.010660980810234541 5:0.010660980810234541 6:0.14096185737976782 21:1.0 139:1.0 235:1.0 
2.0 2:0.5862068965517241 3:0.4418604651162791 4:0.5501066098081023 5:0.5501066098081023 6:0.004975124378109453 63:1.0 123:1.0 219:1.0 
2.0 1:0.3333333333333333 2:0.034482758620689655 3:1.0 4:0.01279317697228145 5:0.01279317697228145 25:1.0 104:1.0 200:1.0 
2.0 2:0.017241379310344827 3:0.9263157894736842 4:0.2025586353944563 5:0.2025586353944563 60:1.0 183:1.0 217:1.0 
2.0 2:0.06896551724137931 3:0.7636363636363637 4:0.11727078891257996 5:0.11727078891257996 6:1.0 60:1.0 183:1.0 217:1.0 
2.0 2:0.08620689655172414 3:0.4418604651162791 4:0.5501066098081023 5:0.5501066098081023 6:0.004975124378109453 63:1.0 104:1.0 219:1.0 
2.0 1:0.3333333333333333 2:0.20689655172413793 3:0.7692307692307693 4:0.16631130063965885 5:0.16631130063965885 6:0.008291873963515755 63:1.0 183:1.0 252:1.0 
2.0 2:0.05172413793103448 3:0.8135593220338984 4:0.1257995735607676 5:0.1257995735607676 25:1.0 183:1.0 235:1.0 
2.0 1:0.3333333333333333 2:0.017241379310344827 3:1.0 4:0.0021321961620469083 5:0.0021321961620469083 54:1.0 183:1.0 251:1.0 
0.017095862422351955 1:0.3333333333333333 2:0.017241379310344827 3:1.0 4:0.03624733475479744 5:0.03624733475479744 6:0.16583747927031509 25:1.0 105:1.0 279:1.0 
1.720584349763808 1:0.3333333333333333 2:0.15517241379310345 3:1.0 4:0.006396588486140725 5:0.006396588486140725 6:0.0779436152570481 8:1.0 150:1.0 279:1.0 
0.3230703629291733 1:0.3333333333333333 2:0.017241379310344827 3:1.0 4:0.03624733475479744 5:0.03624733475479744 6:0.16583747927031509 25:1.0 105:1.0 279:1.0 
0.28764390108276816 2:0.10344827586206896 3:1.0 4:0.029850746268656716 5:0.029850746268656716 19:1.0 104:1.0 257:1.0 
2.0 1:0.3333333333333333 2:0.017241379310344827 3:0.967741935483871 4:0.06609808102345416 5:0.06609808102345416 6:0.001658374792703151 63:1.0 183:1.0 235:1.0 
0.030867573071285397 1:0.3333333333333333 2:0.1206896551724138 3:1.0 4:0.0021321961620469083 5:0.0021321961620469083 54:1.0 156:1.0 199:1.0 
2.0 2:0.06896551724137931 3:0.6578947368421053 4:0.16204690831556504 5:0.16204690831556504 59:1.0 139:1.0 217:1.0 
2.0 3:0.6578947368421053 4:0.16204690831556504 5:0.16204690831556504 59:1.0 139:1.0 217:1.0 
0.46376181102995795 2:0.034482758620689655 3:0.4418604651162791 4:0.5501066098081023 5:0.5501066098081023 6:0.004975124378109453 63:1.0 183:1.0 251:1.0 
2.0 1:0.3333333333333333 2:0.13793103448275862 3:0.7692307692307693 4:0.16631130063965885 5:0.16631130063965885 6:0.008291873963515755 63:1.0 104:1.0 251:1.0 
0.9721774860500875 1:0.3333333333333333 2:0.22413793103448276 3:1.0 4:0.006396588486140725 5:0.006396588486140725 6:0.001658374792703151 24:1.0 103:1.0 279:1.0 
2.0 2:0.2413793103448276 3:0.6956521739130435 4:0.09808102345415778 5:0.09808102345415778 6:0.013266998341625208 59:1.0 109:1.0 217:1.0 
2.0 1:0.3333333333333333 2:0.017241379310344827 3:0.8571428571428571 4:0.05970149253731343 5:0.05970149253731343 6:0.003316749585406302 25:1.0 183:1.0 279:1.0 
2.0 2:0.034482758620689655 3:0.6578947368421053 4:0.16204690831556504 5:0.16204690831556504 59:1.0 183:1.0 217:1.0 
2.0 1:0.3333333333333333 2:0.10344827586206896 3:0.5555555555555556 4:0.03837953091684435 5:0.03837953091684435 63:1.0 183:1.0 246:1.0 
1.1190616224043646 1:0.3333333333333333 2:0.2413793103448276 3:0.75 4:0.008528784648187633 5:0.008528784648187633 25:1.0 183:1.0 279:1.0 
1.71649896089381 1:0.3333333333333333 2:0.017241379310344827 3:1.0 4:0.03624733475479744 5:0.03624733475479744 6:0.16583747927031509 25:1.0 113:1.0 217:1.0 
0.18602269275232514 1:0.3333333333333333 2:0.27586206896551724 3:1.0 4:0.029850746268656716 5:0.029850746268656716 6:0.03814262023217247 8:1.0 104:1.0 279:1.0 
2.0 1:0.3333333333333333 2:0.06896551724137931 3:0.9444444444444444 4:0.03837953091684435 5:0.03837953091684435 63:1.0 183:1.0 235:1.0 
2.0 3:0.96 4:0.10660980810234541 5:0.10660980810234541 6:0.28192371475953565 63:1.0 104:1.0 200:1.0 
0.9960433047325233 1:0.3333333333333333 2:0.06896551724137931 3:0.6666666666666666 4:0.01279317697228145 5:0.01279317697228145 6:0.03980099502487562 8:1.0 183:1.0 217:1.0 
2.0 2:0.1724137931034483 3:0.9263157894736842 4:0.2025586353944563 5:0.2025586353944563 60:1.0 183:1.0 217:1.0 
2.0 2:0.034482758620689655 3:0.9263157894736842 4:0.2025586353944563 5:0.2025586353944563 60:1.0 104:1.0 217:1.0 
2.0 1:0.3333333333333333 2:0.05172413793103448 3:1.0 4:0.017057569296375266 5:0.017057569296375266 6:0.06633499170812604 25:1.0 139:1.0 235:1.0 
0.27987361245141784 1:0.3333333333333333 2:0.27586206896551724 3:1.0 4:0.03624733475479744 5:0.03624733475479744 6:0.16583747927031509 25:1.0 123:1.0 227:1.0 
2.0 1:0.3333333333333333 2:0.13793103448275862 3:0.9444444444444444 4:0.03837953091684435 5:0.03837953091684435 63:1.0 183:1.0 235:1.0 
2.0 2:0.43103448275862066 3:0.5 4:0.0042643923240938165 5:0.0042643923240938165 43:1.0 183:1.0 217:1.0 
2.0 1:0.3333333333333333 2:0.13793103448275862 3:1.0 4:0.029850746268656716 5:0.029850746268656716 6:0.03814262023217247 8:1.0 183:1.0 217:1.0 
2.0 1:1.0 2:0.05172413793103448 3:0.8 4:0.010660980810234541 5:0.010660980810234541 63:1.0 183:1.0 200:1.0 
2.0 2:0.05172413793103448 3:0.6578947368421053 4:0.16204690831556504 5:0.16204690831556504 59:1.0 104:1.0 217:1.0 
2.0 1:0.3333333333333333 2:0.15517241379310345 3:0.9285714285714286 4:0.05970149253731343 5:0.05970149253731343 63:1.0 183:1.0 279:1.0 
2.0 2:0.3620689655172414 3:0.6578947368421053 4:0.16204690831556504 5:0.16204690831556504 59:1.0 104:1.0 217:1.0 
2.0 3:0.6578947368421053 4:0.16204690831556504 5:0.16204690831556504 59:1.0 183:1.0 235:1.0 
0.4508609548983392 1:0.3333333333333333 2:0.10344827586206896 3:1.0 4:0.008528784648187633 5:0.008528784648187633 6:0.05140961857379768 25:1.0 123:1.0 200:1.0 
0.43311191807335075 2:0.2413793103448276 3:0.6578947368421053 4:0.16204690831556504 5:0.16204690831556504 59:1.0 123:1.0 199:1.0 
2.0 1:0.3333333333333333 2:0.017241379310344827 3:0.9024390243902439 4:0.08742004264392324 5:0.08742004264392324 6:0.008291873963515755 25:1.0 183:1.0 200:1.0 
0.5467530283502212 1:0.3333333333333333 2:0.017241379310344827 3:1.0 4:0.03624733475479744 5:0.03624733475479744 6:0.16583747927031509 25:1.0 161:1.0 279:1.0 
0.6297897250164617 2:0.1206896551724138 3:0.9166666666666666 4:0.0511727078891258 5:0.0511727078891258 65:1.0 109:1.0 252:1.0 
2.0 1:0.3333333333333333 2:0.2413793103448276 3:1.0 4:0.0511727078891258 5:0.0511727078891258 25:1.0 183:1.0 217:1.0 
2.0 2:0.20689655172413793 3:0.6578947368421053 4:0.16204690831556504 5:0.16204690831556504 59:1.0 120:1.0 217:1.0 
2.0 1:0.3333333333333333 2:0.017241379310344827 3:1.0 4:0.017057569296375266 5:0.017057569296375266 6:0.06633499170812604 25:1.0 104:1.0 279:1.0 
2.0 1:0.3333333333333333 2:0.08620689655172414 3:1.0 4:0.029850746268656716 5:0.029850746268656716 6:0.03814262023217247 8:1.0 103:1.0 217:1.0 
2.0 1:0.3333333333333333 2:0.05172413793103448 3:0.9444444444444444 4:0.03837953091684435 5:0.03837953091684435 6:0.003316749585406302 24:1.0 121:1.0 279:1.0 
0.7911178610422342 1:0.3333333333333333 2:0.08620689655172414 3:1.0 4:0.0042643923240938165 5:0.0042643923240938165 25:1.0 120:1.0 279:1.0 
2.0 1:0.3333333333333333 2:0.05172413793103448 3:0.9444444444444444 4:0.03837953091684435 5:0.03837953091684435 6:0.003316749585406302 24:1.0 121:1.0 279:1.0 
0.08987538957117908 1:0.3333333333333333 2:0.27586206896551724 3:0.7692307692307693 4:0.16631130063965885 5:0.16631130063965885 6:0.008291873963515755 63:1.0 139:1.0 251:1.0 
0.20283713196239445 1:0.3333333333333333 2:0.08620689655172414 3:1.0 4:0.0042643923240938165 5:0.0042643923240938165 25:1.0 120:1.0 279:1.0 
0.02833393498513383 3:0.6538461538461539 4:0.05543710021321962 5:0.05543710021321962 25:1.0 183:1.0 235:1.0 
2.0 2:0.25862068965517243 3:0.6578947368421053 4:0.16204690831556504 5:0.16204690831556504 59:1.0 104:1.0 217:1.0 
0.5119728805619025 1:0.3333333333333333 2:0.017241379310344827 3:0.5714285714285714 4:0.014925373134328358 5:0.014925373134328358 6:0.004975124378109453 60:1.0 183:1.0 248:1.0 
1.063522063200501 2:0.034482758620689655 3:1.0 4:0.11300639658848614 5:0.11300639658848614 6:0.16583747927031509 59:1.0 131:1.0 200:1.0 
2.0 1:0.3333333333333333 2:0.034482758620689655 3:0.5416666666666666 4:0.0511727078891258 5:0.0511727078891258 63:1.0 183:1.0 206:1.0 
2.0 1:0.3333333333333333 2:0.017241379310344827 3:1.0 4:0.0511727078891258 5:0.0511727078891258 25:1.0 183:1.0 200:1.0 
0.008677744595651845 2:0.10344827586206896 3:0.4418604651162791 4:0.5501066098081023 5:0.5501066098081023 6:0.004975124378109453 63:1.0 104:1.0 217:1.0 
2.0 3:0.979381443298969 4:0.2068230277185501 5:0.2068230277185501 24:1.0 183:1.0 251:1.0 
2.0 2:0.034482758620689655 3:0.8857142857142857 4:0.07462686567164178 5:0.07462686567164178 59:1.0 183:1.0 279:1.0 
0.004756453465007977 3:0.8125 4:0.03411513859275053 5:0.03411513859275053 25:1.0 152:1.0 206:1.0 
1.1174141969310276 3:1.0 4:0.11300639658848614 5:0.11300639658848614 6:0.16583747927031509 59:1.0 104:1.0 217:1.0 
0.06374256597044617 2:0.15517241379310345 3:1.0 4:0.0255863539445629 5:0.0255863539445629 25:1.0 131:1.0 206:1.0 
2.0 1:0.3333333333333333 2:0.06896551724137931 3:0.5333333333333333 4:0.031982942430703626 5:0.031982942430703626 6:0.07462686567164178 8:1.0 103:1.0 279:1.0 
0.2283275759910554 2:0.43103448275862066 3:0.6956521739130435 4:0.09808102345415778 5:0.09808102345415778 6:0.013266998341625208 59:1.0 131:1.0 227:1.0 
0.5363975700350313 2:0.034482758620689655 3:0.6538461538461539 4:0.05543710021321962 5:0.05543710021321962 25:1.0 120:1.0 200:1.0 
1.6931685994829724 2:0.05172413793103448 3:0.96 4:0.10660980810234541 5:0.10660980810234541 6:0.28192371475953565 63:1.0 123:1.0 200:1.0 
2.0 1:0.3333333333333333 2:0.034482758620689655 3:0.7142857142857143 4:0.014925373134328358 5:0.014925373134328358 63:1.0 183:1.0 217:1.0 
2.0 3:0.9263157894736842 4:0.2025586353944563 5:0.2025586353944563 60:1.0 183:1.0 200:1.0 
2.0 1:0.3333333333333333 2:0.05172413793103448 3:1.0 4:0.029850746268656716 5:0.029850746268656716 6:0.03814262023217247 8:1.0 183:1.0 217:1.0 
2.0 1:0.3333333333333333 2:0.10344827586206896 3:0.8571428571428571 4:0.04477611940298507 5:0.04477611940298507 25:1.0 183:1.0 200:1.0 
2.0 2:0.1206896551724138 3:0.96 4:0.10660980810234541 5:0.10660980810234541 6:0.28192371475953565 63:1.0 183:1.0 200:1.0 
2.0 1:0.3333333333333333 2:0.034482758620689655 3:1.0 4:0.008528784648187633 5:0.008528784648187633 24:1.0 121:1.0 279:1.0 
2.0 1:0.3333333333333333 2:0.017241379310344827 3:1.0 4:0.0042643923240938165 5:0.0042643923240938165 25:1.0 183:1.0 279:1.0 
0.02485158632306193 2:0.13793103448275862 3:0.9032258064516129 4:0.13219616204690832 5:0.13219616204690832 6:0.026533996683250415 25:1.0 121:1.0 247:1.0 
2.0 2:0.017241379310344827 3:1.0 4:0.11300639658848614 5:0.11300639658848614 6:0.16583747927031509 59:1.0 104:1.0 279:1.0 
2.0 1:0.3333333333333333 2:0.05172413793103448 3:1.0 4:0.017057569296375266 5:0.017057569296375266 6:0.06633499170812604 25:1.0 183:1.0 279:1.0 
1.3205365635737631 1:0.3333333333333333 2:0.017241379310344827 3:1.0 4:0.0042643923240938165 5:0.0042643923240938165 59:1.0 104:1.0 227:1.0 
2.0 1:0.3333333333333333 2:0.05172413793103448 3:0.75 4:0.017057569296375266 5:0.017057569296375266 59:1.0 183:1.0 279:1.0 
2.0 1:0.3333333333333333 2:0.017241379310344827 3:1.0 4:0.0021321961620469083 5:0.0021321961620469083 6:0.001658374792703151 25:1.0 183:1.0 206:1.0 
2.0 2:0.05172413793103448 3:0.4418604651162791 4:0.5501066098081023 5:0.5501066098081023 6:0.004975124378109453 63:1.0 183:1.0 232:1.0 
2.0 1:0.3333333333333333 2:0.034482758620689655 3:0.9791666666666666 4:0.1023454157782516 5:0.1023454157782516 63:1.0 183:1.0 200:1.0 
1.3531644730254915 3:0.9032258064516129 4:0.13219616204690832 5:0.13219616204690832 6:0.026533996683250415 25:1.0 155:1.0 279:1.0 
2.0 1:0.3333333333333333 2:0.06896551724137931 3:0.87 4:0.21321961620469082 5:0.21321961620469082 6:0.01990049751243781 43:1.0 121:1.0 246:1.0 
2.0 3:0.9263157894736842 4:0.2025586353944563 5:0.2025586353944563 60:1.0 183:1.0 200:1.0 
1.6613113412663663 2:0.08620689655172414 3:0.9032258064516129 4:0.13219616204690832 5:0.13219616204690832 6:0.026533996683250415 25:1.0 183:1.0 227:1.0 
2.0 2:0.10344827586206896 3:0.4418604651162791 4:0.5501066098081023 5:0.5501066098081023 6:0.004975124378109453 63:1.0 183:1.0 232:1.0 
0.02319178595831579 2:0.20689655172413793 3:0.6578947368421053 4:0.16204690831556504 5:0.16204690831556504 59:1.0 155:1.0 252:1.0 
2.0 2:0.08620689655172414 3:0.7636363636363637 4:0.11727078891257996 5:0.11727078891257996 6:1.0 60:1.0 183:1.0 217:1.0 
2.0 2:0.06896551724137931 3:0.8857142857142857 4:0.07462686567164178 5:0.07462686567164178 59:1.0 183:1.0 279:1.0 
2.0 1:0.3333333333333333 2:0.10344827586206896 3:0.9791666666666666 4:0.1023454157782516 5:0.1023454157782516 63:1.0 183:1.0 279:1.0 
2.0 1:0.3333333333333333 2:0.1724137931034483 3:0.8571428571428571 4:0.04477611940298507 5:0.04477611940298507 25:1.0 183:1.0 235:1.0 
2.0 2:0.41379310344827586 3:0.5 4:0.008528784648187633 5:0.008528784648187633 43:1.0 183:1.0 248:1.0 
2.0 1:0.3333333333333333 2:0.017241379310344827 3:0.5416666666666666 4:0.0511727078891258 5:0.0511727078891258 63:1.0 183:1.0 279:1.0 
2.0 2:0.08620689655172414 3:0.6578947368421053 4:0.16204690831556504 5:0.16204690831556504 59:1.0 183:1.0 251:1.0 
2.0 1:0.3333333333333333 2:0.20689655172413793 3:0.5416666666666666 4:0.0511727078891258 5:0.0511727078891258 63:1.0 183:1.0 279:1.0 
0.2850760300894657 1:0.3333333333333333 2:0.15517241379310345 3:0.5833333333333334 4:0.0255863539445629 5:0.0255863539445629 6:0.02321724709784411 43:1.0 183:1.0 228:1.0 
1.896527933327149 2:0.1724137931034483 3:0.4418604651162791 4:0.5501066098081023 5:0.5501066098081023 6:0.004975124378109453 63:1.0 132:1.0 227:1.0 
2.0 1:0.3333333333333333 2:0.034482758620689655 3:0.3953488372093023 4:0.09168443496801706 5:0.09168443496801706 60:1.0 183:1.0 199:1.0 
2.0 2:0.3275862068965517 3:0.4418604651162791 4:0.5501066098081023 5:0.5501066098081023 6:0.004975124378109453 63:1.0 183:1.0 255:1.0 
2.0 1:0.3333333333333333 2:0.41379310344827586 3:0.8181818181818182 4:0.09381663113006397 5:0.09381663113006397 63:1.0 183:1.0 200:1.0 
2.0 1:0.3333333333333333 2:0.017241379310344827 3:0.967741935483871 4:0.13219616204690832 5:0.13219616204690832 63:1.0 183:1.0 252:1.0 
1.5576304311609641 3:0.6538461538461539 4:0.05543710021321962 5:0.05543710021321962 25:1.0 183:1.0 217:1.0 
2.0 2:0.06896551724137931 3:0.7636363636363637 4:0.11727078891257996 5:0.11727078891257996 6:1.0 60:1.0 183:1.0 217:1.0 
2.0 3:0.8135593220338984 4:0.1257995735607676 5:0.1257995735607676 25:1.0 159:1.0 200:1.0 
0.6128509331806343 2:0.017241379310344827 3:0.5 4:0.008528784648187633 5:0.008528784648187633 43:1.0 121:1.0 248:1.0 
2.0 2:0.017241379310344827 3:0.6578947368421053 4:0.16204690831556504 5:0.16204690831556504 59:1.0 183:1.0 217:1.0 
0.177249862359906 3:0.9263157894736842 4:0.2025586353944563 5:0.2025586353944563 60:1.0 139:1.0 235:1.0 
2.0 1:0.3333333333333333 2:0.13793103448275862 3:0.8181818181818182 4:0.09381663113006397 5:0.09381663113006397 63:1.0 183:1.0 200:1.0 
2.0 2:0.3793103448275862 3:0.6578947368421053 4:0.16204690831556504 5:0.16204690831556504 59:1.0 104:1.0 217:1.0 
0.4047854732638479 2:0.10344827586206896 3:0.979381443298969 4:0.2068230277185501 5:0.2068230277185501 24:1.0 110:1.0 251:1.0 
2.0 1:0.3333333333333333 2:0.20689655172413793 3:0.8260869565217391 4:0.04904051172707889 5:0.04904051172707889 63:1.0 183:1.0 199:1.0 
0.41479311743086067 2:0.034482758620689655 3:1.0 4:0.03837953091684435 5:0.03837953091684435 60:1.0 104:1.0 252:1.0 
2.0 2:0.034482758620689655 3:0.6578947368421053 4:0.16204690831556504 5:0.16204690831556504 59:1.0 183:1.0 217:1.0 
2.0 1:0.3333333333333333 2:0.10344827586206896 3:0.9024390243902439 4:0.08742004264392324 5:0.08742004264392324 6:0.008291873963515755 25:1.0 121:1.0 200:1.0 
2.0 1:0.3333333333333333 2:0.08620689655172414 3:0.9024390243902439 4:0.08742004264392324 5:0.08742004264392324 6:0.008291873963515755 25:1.0 183:1.0 217:1.0 
2.0 1:0.3333333333333333 2:0.10344827586206896 3:1.0 4:0.006396588486140725 5:0.006396588486140725 63:1.0 183:1.0 235:1.0 
2.0 1:0.3333333333333333 2:0.29310344827586204 3:0.8181818181818182 4:0.09381663113006397 5:0.09381663113006397 63:1.0 104:1.0 252:1.0 
2.0 2:0.39655172413793105 3:0.4418604651162791 4:0.5501066098081023 5:0.5501066098081023 6:0.004975124378109453 63:1.0 183:1.0 200:1.0 
0.43555938459181126 2:0.06896551724137931 3:0.9263157894736842 4:0.2025586353944563 5:0.2025586353944563 60:1.0 183:1.0 227:1.0 
2.0 1:0.3333333333333333 2:0.15517241379310345 3:0.5714285714285714 4:0.014925373134328358 5:0.014925373134328358 63:1.0 183:1.0 251:1.0 
2.0 1:0.3333333333333333 2:0.20689655172413793 3:0.6 4:0.021321961620469083 5:0.021321961620469083 63:1.0 183:1.0 251:1.0 
2.0 1:0.6666666666666666 2:0.15517241379310345 3:1.0 4:0.014925373134328358 5:0.014925373134328358 63:1.0 183:1.0 251:1.0 
1.1234037224056572 1:0.3333333333333333 2:0.1896551724137931 3:0.5714285714285714 4:0.014925373134328358 5:0.014925373134328358 6:0.004975124378109453 60:1.0 121:1.0 200:1.0 
2.0 1:0.3333333333333333 2:0.034482758620689655 3:1.0 4:0.06183368869936034 5:0.06183368869936034 6:0.004975124378109453 24:1.0 104:1.0 279:1.0 
2.0 1:0.3333333333333333 2:0.20689655172413793 3:0.7142857142857143 4:0.04477611940298507 5:0.04477611940298507 63:1.0 183:1.0 235:1.0 
0.43434181159879104 2:0.034482758620689655 3:0.5 4:0.008528784648187633 5:0.008528784648187633 22:1.0 183:1.0 252:1.0 
2.0 1:0.3333333333333333 2:0.15517241379310345 3:1.0 4:0.006396588486140725 5:0.006396588486140725 63:1.0 183:1.0 251:1.0 
1.5515000791749498 2:0.27586206896551724 3:0.9032258064516129 4:0.13219616204690832 5:0.13219616204690832 6:0.026533996683250415 25:1.0 104:1.0 217:1.0 
2.0 2:0.034482758620689655 3:0.9263157894736842 4:0.2025586353944563 5:0.2025586353944563 60:1.0 183:1.0 217:1.0 
2.0 1:0.3333333333333333 2:0.15517241379310345 3:1.0 4:0.01279317697228145 5:0.01279317697228145 63:1.0 183:1.0 235:1.0 
0.4484952011798778 1:0.3333333333333333 2:0.05172413793103448 3:1.0 4:0.0021321961620469083 5:0.0021321961620469083 27:1.0 183:1.0 206:1.0 
1.1391197609055215 1:0.3333333333333333 2:0.08620689655172414 3:0.5416666666666666 4:0.0511727078891258 5:0.0511727078891258 63:1.0 104:1.0 246:1.0 
2.0 2:0.1206896551724138 3:0.4418604651162791 4:0.5501066098081023 5:0.5501066098081023 6:0.004975124378109453 63:1.0 121:1.0 251:1.0 
0.9950128744549223 2:0.13793103448275862 3:0.6956521739130435 4:0.09808102345415778 5:0.09808102345415778 6:0.013266998341625208 59:1.0 159:1.0 200:1.0 
2.0 1:0.3333333333333333 2:0.05172413793103448 3:0.9444444444444444 4:0.03837953091684435 5:0.03837953091684435 63:1.0 183:1.0 279:1.0 
2.0 1:0.3333333333333333 2:0.1206896551724138 3:0.8 4:0.053304904051172705 5:0.053304904051172705 63:1.0 183:1.0 246:1.0 
1.1947967723090778 1:0.3333333333333333 2:0.15517241379310345 3:0.87 4:0.21321961620469082 5:0.21321961620469082 6:0.01990049751243781 43:1.0 121:1.0 235:1.0 
2.0 2:0.05172413793103448 3:1.0 4:0.11300639658848614 5:0.11300639658848614 6:0.16583747927031509 59:1.0 183:1.0 217:1.0 
2.0 1:0.3333333333333333 2:0.05172413793103448 3:1.0 4:0.008528784648187633 5:0.008528784648187633 24:1.0 123:1.0 279:1.0 
2.0 1:0.3333333333333333 2:0.1206896551724138 3:1.0 4:0.006396588486140725 5:0.006396588486140725 63:1.0 183:1.0 217:1.0 
2.0 2:0.25862068965517243 3:0.5 4:0.008528784648187633 5:0.008528784648187633 43:1.0 183:1.0 251:1.0 
0.6058030474435404 3:0.7636363636363637 4:0.11727078891257996 5:0.11727078891257996 6:1.0 60:1.0 183:1.0 199:1.0 
2.0 2:0.06896551724137931 3:0.6578947368421053 4:0.16204690831556504 5:0.16204690831556504 59:1.0 104:1.0 217:1.0 
1.4579394126472256 2:0.13793103448275862 3:0.979381443298969 4:0.2068230277185501 5:0.2068230277185501 24:1.0 121:1.0 255:1.0 
1.1086442860815444 2:0.15517241379310345 3:0.95 4:0.08528784648187633 5:0.08528784648187633 63:1.0 120:1.0 217:1.0 
2.0 1:0.3333333333333333 2:0.034482758620689655 3:1.0 4:0.0021321961620469083 5:0.0021321961620469083 25:1.0 104:1.0 279:1.0 
2.0 2:0.1206896551724138 3:0.4418604651162791 4:0.5501066098081023 5:0.5501066098081023 6:0.004975124378109453 63:1.0 183:1.0 235:1.0 
0.10702667747554725 2:0.034482758620689655 3:1.0 4:0.029850746268656716 5:0.029850746268656716 19:1.0 151:1.0 279:1.0 
2.0 3:1.0 4:0.11300639658848614 5:0.11300639658848614 6:0.16583747927031509 59:1.0 183:1.0 217:1.0 
2.0 2:0.20689655172413793 3:0.95 4:0.08528784648187633 5:0.08528784648187633 63:1.0 183:1.0 252:1.0 
2.0 1:0.3333333333333333 2:0.017241379310344827 3:0.5416666666666666 4:0.0511727078891258 5:0.0511727078891258 63:1.0 183:1.0 251:1.0 
2.0 1:0.3333333333333333 2:0.017241379310344827 3:0.5714285714285714 4:0.014925373134328358 5:0.014925373134328358 6:0.004975124378109453 60:1.0 183:1.0 200:1.0 
2.0 2:0.10344827586206896 3:0.9263157894736842 4:0.2025586353944563 5:0.2025586353944563 60:1.0 183:1.0 217:1.0 
1.941232578192997 2:0.25862068965517243 3:0.979381443298969 4:0.2068230277185501 5:0.2068230277185501 24:1.0 104:1.0 279:1.0 
2.0 1:0.3333333333333333 2:0.10344827586206896 3:0.8 4:0.010660980810234541 5:0.010660980810234541 63:1.0 183:1.0 251:1.0 
0.42667870247974227 2:0.034482758620689655 3:0.9263157894736842 4:0.2025586353944563 5:0.2025586353944563 60:1.0 104:1.0 232:1.0 
0.5916777510658302 2:0.4482758620689655 3:0.5 4:0.0042643923240938165 5:0.0042643923240938165 43:1.0 121:1.0 248:1.0 
2.0 1:0.3333333333333333 2:0.1206896551724138 3:0.8181818181818182 4:0.09381663113006397 5:0.09381663113006397 63:1.0 183:1.0 200:1.0 
2.0 3:0.4418604651162791 4:0.5501066098081023 5:0.5501066098081023 6:0.004975124378109453 63:1.0 183:1.0 235:1.0 
2.0 1:0.3333333333333333 2:0.1724137931034483 3:0.9285714285714286 4:0.05970149253731343 5:0.05970149253731343 63:1.0 183:1.0 217:1.0 
2.0 1:0.3333333333333333 2:0.06896551724137931 3:0.3953488372093023 4:0.09168443496801706 5:0.09168443496801706 60:1.0 183:1.0 217:1.0 
2.0 2:0.22413793103448276 3:0.6578947368421053 4:0.16204690831556504 5:0.16204690831556504 59:1.0 139:1.0 251:1.0 
2.0 3:0.979381443298969 4:0.2068230277185501 5:0.2068230277185501 24:1.0 121:1.0 279:1.0 
0.15234184576971746 1:0.3333333333333333 2:0.05172413793103448 3:1.0 4:0.0021321961620469083 5:0.0021321961620469083 54:1.0 183:1.0 279:1.0 
0.18334345653647022 1:0.3333333333333333 2:0.017241379310344827 3:1.0 4:0.017057569296375266 5:0.017057569296375266 6:0.06633499170812604 25:1.0 183:1.0 279:1.0 
2.0 1:0.3333333333333333 2:0.08620689655172414 3:0.3953488372093023 4:0.09168443496801706 5:0.09168443496801706 60:1.0 183:1.0 279:1.0 
0.3639632966347481 1:0.3333333333333333 2:0.1206896551724138 3:0.5 4:0.0042643923240938165 5:0.0042643923240938165 6:0.008291873963515755 24:1.0 183:1.0 279:1.0 
2.0 1:0.3333333333333333 2:0.1206896551724138 3:0.7692307692307693 4:0.16631130063965885 5:0.16631130063965885 6:0.008291873963515755 63:1.0 119:1.0 219:1.0 
2.0 1:0.3333333333333333 2:0.08620689655172414 3:1.0 4:0.006396588486140725 5:0.006396588486140725 63:1.0 104:1.0 219:1.0 
2.0 2:0.13793103448275862 3:1.0 4:0.11300639658848614 5:0.11300639658848614 6:0.16583747927031509 59:1.0 104:1.0 251:1.0 
0.4492096069891524 1:0.6666666666666666 2:0.3793103448275862 59:1.0 183:1.0 217:1.0 
0.013851207664665124 1:0.3333333333333333 2:0.017241379310344827 3:1.0 4:0.017057569296375266 5:0.017057569296375266 6:0.06633499170812604 25:1.0 139:1.0 279:1.0 
2.0 1:0.3333333333333333 2:0.05172413793103448 3:0.875 4:0.017057569296375266 5:0.017057569296375266 6:0.004975124378109453 25:1.0 183:1.0 279:1.0 
1.156742972869736 2:0.15517241379310345 3:0.6578947368421053 4:0.16204690831556504 5:0.16204690831556504 59:1.0 113:1.0 217:1.0 
0.09191948934463431 3:0.6538461538461539 4:0.05543710021321962 5:0.05543710021321962 25:1.0 183:1.0 235:1.0 
2.0 3:1.0 4:0.0255863539445629 5:0.0255863539445629 25:1.0 183:1.0 235:1.0 
2.0 2:0.22413793103448276 3:0.6578947368421053 4:0.16204690831556504 5:0.16204690831556504 59:1.0 110:1.0 217:1.0 
2.0 2:0.06896551724137931 3:0.6578947368421053 4:0.16204690831556504 5:0.16204690831556504 59:1.0 104:1.0 217:1.0 
2.0 1:0.3333333333333333 2:0.017241379310344827 3:0.3953488372093023 4:0.09168443496801706 5:0.09168443496801706 60:1.0 183:1.0 200:1.0 
1.039846944327391 1:0.3333333333333333 2:0.034482758620689655 3:0.875 4:0.017057569296375266 5:0.017057569296375266 6:0.004975124378109453 25:1.0 183:1.0 200:1.0 
2.0 2:0.05172413793103448 3:1.0 4:0.11300639658848614 5:0.11300639658848614 6:0.16583747927031509 59:1.0 183:1.0 217:1.0 
2.0 1:0.3333333333333333 2:0.05172413793103448 3:0.5416666666666666 4:0.0511727078891258 5:0.0511727078891258 63:1.0 183:1.0 235:1.0 
2.0 2:0.08620689655172414 3:0.96 4:0.10660980810234541 5:0.10660980810234541 6:0.28192371475953565 63:1.0 183:1.0 200:1.0 
2.0 2:0.05172413793103448 3:0.9263157894736842 4:0.2025586353944563 5:0.2025586353944563 60:1.0 104:1.0 217:1.0 
2.0 1:0.3333333333333333 2:0.08620689655172414 3:0.967741935483871 4:0.06609808102345416 5:0.06609808102345416 6:0.001658374792703151 63:1.0 183:1.0 279:1.0 
2.0 2:0.10344827586206896 3:0.4418604651162791 4:0.5501066098081023 5:0.5501066098081023 6:0.004975124378109453 63:1.0 183:1.0 235:1.0 
0.9692431470312757 2:0.2413793103448276 3:1.0 4:0.11300639658848614 5:0.11300639658848614 6:0.16583747927031509 59:1.0 104:1.0 227:1.0 
0.8760202755559313 1:0.3333333333333333 2:0.3103448275862069 3:0.9444444444444444 4:0.03837953091684435 5:0.03837953091684435 63:1.0 104:1.0 199:1.0 
2.0 1:0.3333333333333333 2:0.13793103448275862 3:1.0 4:0.0021321961620469083 5:0.0021321961620469083 24:1.0 123:1.0 279:1.0 
2.0 1:0.3333333333333333 2:0.017241379310344827 3:1.0 4:0.0042643923240938165 5:0.0042643923240938165 6:0.001658374792703151 63:1.0 183:1.0 235:1.0 
2.0 1:0.3333333333333333 2:0.017241379310344827 3:0.8333333333333334 4:0.01279317697228145 5:0.01279317697228145 63:1.0 183:1.0 235:1.0 
2.0 2:0.10344827586206896 3:0.6956521739130435 4:0.09808102345415778 5:0.09808102345415778 6:0.013266998341625208 59:1.0 183:1.0 200:1.0 
2.0 1:0.3333333333333333 2:0.15517241379310345 3:0.7692307692307693 4:0.02771855010660981 5:0.02771855010660981 63:1.0 183:1.0 279:1.0 
0.38843985703563977 3:1.0 4:0.006396588486140725 5:0.006396588486140725 43:1.0 183:1.0 246:1.0 
2.0 2:0.06896551724137931 3:1.0 4:0.11300639658848614 5:0.11300639658848614 6:0.16583747927031509 59:1.0 104:1.0 199:1.0 
0.024254682037004035 2:0.08620689655172414 3:1.0 4:0.11300639658848614 5:0.11300639658848614 6:0.16583747927031509 59:1.0 183:1.0 251:1.0 
2.0 1:0.3333333333333333 2:0.1206896551724138 3:1.0 4:0.017057569296375266 5:0.017057569296375266 6:0.06633499170812604 25:1.0 183:1.0 279:1.0 
1.578219260131292 1:0.3333333333333333 2:0.29310344827586204 3:1.0 4:0.0021321961620469083 5:0.0021321961620469083 59:1.0 131:1.0 251:1.0 
2.0 1:0.3333333333333333 2:0.017241379310344827 3:0.9791666666666666 4:0.1023454157782516 5:0.1023454157782516 63:1.0 183:1.0 279:1.0 
2.0 1:0.3333333333333333 2:0.017241379310344827 3:0.6666666666666666 4:0.01279317697228145 5:0.01279317697228145 6:0.03980099502487562 8:1.0 183:1.0 251:1.0 
2.0 1:0.3333333333333333 2:0.1206896551724138 3:0.8571428571428571 4:0.04477611940298507 5:0.04477611940298507 25:1.0 183:1.0 213:1.0 
2.0 1:0.3333333333333333 2:0.017241379310344827 3:0.6666666666666666 4:0.0767590618336887 5:0.0767590618336887 59:1.0 183:1.0 246:1.0 
2.0 1:0.3333333333333333 2:0.05172413793103448 3:1.0 4:0.0021321961620469083 5:0.0021321961620469083 6:0.008291873963515755 8:1.0 152:1.0 279:1.0 
0.3323448312296322 1:0.3333333333333333 2:0.08620689655172414 3:1.0 4:0.006396588486140725 5:0.006396588486140725 6:0.1077943615257048 21:1.0 183:1.0 209:1.0 
2.0 1:0.3333333333333333 2:0.08620689655172414 3:1.0 4:0.031982942430703626 5:0.031982942430703626 6:0.003316749585406302 24:1.0 113:1.0 251:1.0 
2.0 1:0.3333333333333333 2:0.08620689655172414 3:0.7692307692307693 4:0.02771855010660981 5:0.02771855010660981 59:1.0 183:1.0 235:1.0 
2.0 1:0.3333333333333333 2:0.1724137931034483 3:1.0 4:0.06183368869936034 5:0.06183368869936034 6:0.004975124378109453 24:1.0 121:1.0 251:1.0 
0.008972873105160942 60:1.0 121:1.0 235:1.0 
2.0 1:0.3333333333333333 2:0.017241379310344827 3:1.0 4:0.017057569296375266 5:0.017057569296375266 6:0.06633499170812604 25:1.0 183:1.0 279:1.0 
2.0 2:0.13793103448275862 3:0.9263157894736842 4:0.2025586353944563 5:0.2025586353944563 60:1.0 183:1.0 217:1.0 
1.4058179407856202 2:0.1206896551724138 3:0.88 4:0.053304904051172705 5:0.053304904051172705 63:1.0 104:1.0 213:1.0 
2.0 1:0.3333333333333333 2:0.017241379310344827 3:0.7692307692307693 4:0.16631130063965885 5:0.16631130063965885 6:0.008291873963515755 63:1.0 183:1.0 219:1.0 
2.0 1:0.3333333333333333 2:0.1724137931034483 3:1.0 4:0.0042643923240938165 5:0.0042643923240938165 6:0.001658374792703151 21:1.0 183:1.0 279:1.0 
2.0 1:0.3333333333333333 2:0.20689655172413793 3:0.7692307692307693 4:0.16631130063965885 5:0.16631130063965885 6:0.008291873963515755 63:1.0 121:1.0 217:1.0 
2.0 1:0.3333333333333333 2:0.1206896551724138 3:0.9444444444444444 4:0.03837953091684435 5:0.03837953091684435 63:1.0 183:1.0 217:1.0 
2.0 1:0.3333333333333333 2:0.017241379310344827 3:1.0 4:0.0042643923240938165 5:0.0042643923240938165 25:1.0 183:1.0 279:1.0 
0.18407158258924622 1:0.3333333333333333 2:0.15517241379310345 3:0.5333333333333333 4:0.031982942430703626 5:0.031982942430703626 6:0.07462686567164178 8:1.0 103:1.0 255:1.0 
2.0 1:0.3333333333333333 2:0.017241379310344827 3:1.0 4:0.017057569296375266 5:0.017057569296375266 6:0.06633499170812604 25:1.0 183:1.0 279:1.0 
2.0 1:0.3333333333333333 2:0.034482758620689655 3:0.9444444444444444 4:0.03837953091684435 5:0.03837953091684435 63:1.0 104:1.0 217:1.0 
2.0 1:0.3333333333333333 2:0.29310344827586204 3:0.5416666666666666 4:0.0511727078891258 5:0.0511727078891258 63:1.0 183:1.0 251:1.0 
2.0 3:0.6578947368421053 4:0.16204690831556504 5:0.16204690831556504 59:1.0 139:1.0 217:1.0 
0.95750451169408 1:0.3333333333333333 2:0.10344827586206896 3:1.0 4:0.06183368869936034 5:0.06183368869936034 6:0.004975124378109453 24:1.0 152:1.0 199:1.0 
2.0 2:0.3793103448275862 3:0.9263157894736842 4:0.2025586353944563 5:0.2025586353944563 60:1.0 121:1.0 235:1.0 
2.0 3:1.0 4:0.11300639658848614 5:0.11300639658848614 6:0.16583747927031509 59:1.0 139:1.0 217:1.0 
2.0 1:0.3333333333333333 2:0.25862068965517243 3:0.7692307692307693 4:0.02771855010660981 5:0.02771855010660981 63:1.0 183:1.0 235:1.0 
2.0 1:0.3333333333333333 2:0.05172413793103448 3:0.6666666666666666 4:0.006396588486140725 5:0.006396588486140725 63:1.0 183:1.0 200:1.0 
0.6544553594388781 2:0.08620689655172414 3:0.4418604651162791 4:0.5501066098081023 5:0.5501066098081023 6:0.004975124378109453 63:1.0 152:1.0 251:1.0 
2.0 2:0.15517241379310345 3:0.9263157894736842 4:0.2025586353944563 5:0.2025586353944563 60:1.0 183:1.0 251:1.0 
1.9830120071463548 2:0.22413793103448276 3:0.4418604651162791 4:0.5501066098081023 5:0.5501066098081023 6:0.004975124378109453 63:1.0 183:1.0 217:1.0 
2.0 1:0.3333333333333333 2:0.06896551724137931 3:0.9791666666666666 4:0.1023454157782516 5:0.1023454157782516 63:1.0 183:1.0 252:1.0 
0.13315651987707153 1:0.3333333333333333 2:0.15517241379310345 3:1.0 4:0.0021321961620469083 5:0.0021321961620469083 43:1.0 183:1.0 199:1.0 
2.0 1:0.3333333333333333 2:0.1896551724137931 3:0.7142857142857143 4:0.014925373134328358 5:0.014925373134328358 63:1.0 103:1.0 217:1.0 
2.0 2:0.29310344827586204 3:0.979381443298969 4:0.2068230277185501 5:0.2068230277185501 24:1.0 183:1.0 279:1.0 
2.0 1:0.3333333333333333 2:0.017241379310344827 3:1.0 4:0.008528784648187633 5:0.008528784648187633 6:0.03150912106135987 25:1.0 183:1.0 217:1.0 
0.800320982866024 1:0.3333333333333333 2:0.10344827586206896 3:1.0 4:0.0042643923240938165 5:0.0042643923240938165 60:1.0 104:1.0 216:1.0 
0.6238900747489055 1:0.3333333333333333 2:0.13793103448275862 3:1.0 4:0.031982942430703626 5:0.031982942430703626 6:0.003316749585406302 24:1.0 156:1.0 279:1.0 
0.31501559100682597 1:0.6666666666666666 2:0.05172413793103448 3:1.0 4:0.0021321961620469083 5:0.0021321961620469083 59:1.0 183:1.0 235:1.0 
0.5338551851508764 1:0.3333333333333333 2:0.017241379310344827 3:1.0 4:0.0511727078891258 5:0.0511727078891258 25:1.0 183:1.0 252:1.0 
2.0 1:0.3333333333333333 2:0.22413793103448276 3:0.9444444444444444 4:0.03837953091684435 5:0.03837953091684435 63:1.0 104:1.0 217:1.0 
2.0 2:0.034482758620689655 3:0.6578947368421053 4:0.16204690831556504 5:0.16204690831556504 59:1.0 183:1.0 217:1.0 
2.0 2:0.017241379310344827 3:0.979381443298969 4:0.2068230277185501 5:0.2068230277185501 24:1.0 121:1.0 279:1.0 
1.829944651632195 2:0.08620689655172414 3:1.0 4:0.11300639658848614 5:0.11300639658848614 6:0.16583747927031509 59:1.0 183:1.0 251:1.0 
0.4987007545559548 3:1.0 4:0.03837953091684435 5:0.03837953091684435 60:1.0 104:1.0 228:1.0 
2.0 2:0.034482758620689655 3:1.0 4:0.11300639658848614 5:0.11300639658848614 6:0.16583747927031509 59:1.0 183:1.0 251:1.0 
0.5494697887933198 1:0.3333333333333333 2:0.06896551724137931 3:1.0 4:0.01279317697228145 5:0.01279317697228145 6:0.013266998341625208 25:1.0 183:1.0 251:1.0 
2.0 2:0.1206896551724138 3:1.0 4:0.11300639658848614 5:0.11300639658848614 6:0.16583747927031509 59:1.0 183:1.0 252:1.0 
2.0 1:0.3333333333333333 2:0.15517241379310345 3:0.9791666666666666 4:0.1023454157782516 5:0.1023454157782516 63:1.0 183:1.0 251:1.0 
0.6123251552395883 2:0.3448275862068966 3:1.0 4:0.11300639658848614 5:0.11300639658848614 6:0.16583747927031509 59:1.0 113:1.0 235:1.0 
2.0 3:0.96 4:0.10660980810234541 5:0.10660980810234541 6:0.28192371475953565 63:1.0 104:1.0 235:1.0 
2.0 1:0.3333333333333333 2:0.13793103448275862 3:0.8260869565217391 4:0.04904051172707889 5:0.04904051172707889 63:1.0 183:1.0 279:1.0 
2.0 1:0.3333333333333333 2:0.29310344827586204 3:0.6666666666666666 4:0.006396588486140725 5:0.006396588486140725 63:1.0 183:1.0 279:1.0 
2.0 2:0.3275862068965517 3:0.4418604651162791 4:0.5501066098081023 5:0.5501066098081023 6:0.004975124378109453 63:1.0 104:1.0 219:1.0 
2.0 1:0.3333333333333333 2:0.017241379310344827 3:0.9791666666666666 4:0.1023454157782516 5:0.1023454157782516 63:1.0 183:1.0 213:1.0 
2.0 2:0.017241379310344827 3:0.979381443298969 4:0.2068230277185501 5:0.2068230277185501 24:1.0 152:1.0 279:1.0 
2.0 1:0.3333333333333333 2:0.1724137931034483 3:0.375 4:0.017057569296375266 5:0.017057569296375266 63:1.0 183:1.0 227:1.0 
1.7562520961141785 1:0.3333333333333333 2:0.017241379310344827 3:1.0 4:0.017057569296375266 5:0.017057569296375266 6:0.06633499170812604 25:1.0 183:1.0 279:1.0 
0.2989175270574847 1:0.3333333333333333 2:0.15517241379310345 3:0.7692307692307693 4:0.02771855010660981 5:0.02771855010660981 59:1.0 183:1.0 209:1.0 
2.0 3:0.7636363636363637 4:0.11727078891257996 5:0.11727078891257996 6:1.0 60:1.0 104:1.0 200:1.0 
2.0 2:0.10344827586206896 3:0.9263157894736842 4:0.2025586353944563 5:0.2025586353944563 60:1.0 183:1.0 217:1.0 
0.061422372153754144 1:0.3333333333333333 2:0.017241379310344827 3:1.0 4:0.0021321961620469083 5:0.0021321961620469083 43:1.0 183:1.0 248:1.0 
0.031248467668278962 1:0.3333333333333333 2:0.06896551724137931 3:0.5714285714285714 4:0.014925373134328358 5:0.014925373134328358 6:0.004975124378109453 60:1.0 183:1.0 200:1.0 
2.0 1:0.3333333333333333 2:0.1206896551724138 3:0.75 4:0.05970149253731343 5:0.05970149253731343 63:1.0 183:1.0 200:1.0 
2.0 1:0.3333333333333333 2:0.3275862068965517 3:1.0 4:0.0021321961620469083 5:0.0021321961620469083 6:0.008291873963515755 8:1.0 152:1.0 279:1.0 
0.5033742132979571 1:0.3333333333333333 2:0.1724137931034483 3:0.6 4:0.010660980810234541 5:0.010660980810234541 6:0.1011608623548922 8:1.0 183:1.0 206:1.0 
2.0 1:0.3333333333333333 2:0.017241379310344827 3:0.87 4:0.21321961620469082 5:0.21321961620469082 6:0.01990049751243781 43:1.0 183:1.0 206:1.0 
1.5763680214191378 1:0.3333333333333333 2:0.05172413793103448 3:1.0 4:0.0021321961620469083 5:0.0021321961620469083 6:0.008291873963515755 8:1.0 152:1.0 279:1.0 
2.0 1:0.3333333333333333 2:0.017241379310344827 3:0.967741935483871 4:0.06609808102345416 5:0.06609808102345416 6:0.001658374792703151 63:1.0 183:1.0 246:1.0 
2.0 2:0.034482758620689655 3:0.979381443298969 4:0.2068230277185501 5:0.2068230277185501 24:1.0 152:1.0 279:1.0 
0.5085650273520671 2:0.06896551724137931 3:0.979381443298969 4:0.2068230277185501 5:0.2068230277185501 24:1.0 121:1.0 279:1.0 
2.0 1:0.3333333333333333 2:0.06896551724137931 3:1.0 4:0.006396588486140725 5:0.006396588486140725 21:1.0 183:1.0 246:1.0 
2.0 1:0.3333333333333333 2:0.13793103448275862 3:1.0 4:0.010660980810234541 5:0.010660980810234541 59:1.0 183:1.0 217:1.0 
2.0 1:0.3333333333333333 2:0.05172413793103448 3:0.7692307692307693 4:0.02771855010660981 5:0.02771855010660981 63:1.0 183:1.0 217:1.0 
2.0 1:0.3333333333333333 2:0.017241379310344827 3:0.9791666666666666 4:0.1023454157782516 5:0.1023454157782516 63:1.0 183:1.0 217:1.0 
2.0 3:0.4418604651162791 4:0.5501066098081023 5:0.5501066098081023 6:0.004975124378109453 63:1.0 183:1.0 252:1.0 
2.0 2:0.017241379310344827 3:0.979381443298969 4:0.2068230277185501 5:0.2068230277185501 24:1.0 131:1.0 279:1.0 
2.0 1:0.3333333333333333 2:0.08620689655172414 3:0.8 4:0.053304904051172705 5:0.053304904051172705 63:1.0 183:1.0 217:1.0 
1.1645563248722934 1:0.3333333333333333 2:0.2413793103448276 3:1.0 4:0.0042643923240938165 5:0.0042643923240938165 21:1.0 183:1.0 255:1.0 
2.0 3:1.0 4:0.11300639658848614 5:0.11300639658848614 6:0.16583747927031509 59:1.0 183:1.0 217:1.0 
2.0 2:0.08620689655172414 3:0.4418604651162791 4:0.5501066098081023 5:0.5501066098081023 6:0.004975124378109453 63:1.0 183:1.0 227:1.0 
2.0 3:0.6578947368421053 4:0.16204690831556504 5:0.16204690831556504 59:1.0 152:1.0 217:1.0 
2.0 2:0.034482758620689655 3:0.4418604651162791 4:0.5501066098081023 5:0.5501066098081023 6:0.004975124378109453 63:1.0 183:1.0 255:1.0 
2.0 1:0.3333333333333333 2:0.06896551724137931 3:0.8181818181818182 4:0.09381663113006397 5:0.09381663113006397 63:1.0 159:1.0 200:1.0 
2.0 1:0.3333333333333333 2:0.017241379310344827 3:0.75 4:0.017057569296375266 5:0.017057569296375266 63:1.0 183:1.0 279:1.0 
2.0 2:0.034482758620689655 3:0.6578947368421053 4:0.16204690831556504 5:0.16204690831556504 59:1.0 183:1.0 217:1.0 
0.07003907212953855 2:0.3448275862068966 3:1.0 4:0.11300639658848614 5:0.11300639658848614 6:0.16583747927031509 59:1.0 159:1.0 246:1.0 
2.0 1:0.3333333333333333 2:0.034482758620689655 3:0.5714285714285714 4:0.014925373134328358 5:0.014925373134328358 6:0.004975124378109453 60:1.0 183:1.0 200:1.0 
0.20069428049941992 2:0.10344827586206896 3:0.4418604651162791 4:0.5501066098081023 5:0.5501066098081023 6:0.004975124378109453 63:1.0 183:1.0 209:1.0 
2.0 1:0.3333333333333333 2:0.017241379310344827 3:0.875 4:0.017057569296375266 5:0.017057569296375266 25:1.0 183:1.0 279:1.0 
2.0 2:0.2413793103448276 3:0.4418604651162791 4:0.5501066098081023 5:0.5501066098081023 6:0.004975124378109453 63:1.0 183:1.0 227:1.0 
2.0 2:0.1206896551724138 3:0.6578947368421053 4:0.16204690831556504 5:0.16204690831556504 59:1.0 183:1.0 217:1.0 
2.0 1:0.3333333333333333 2:0.017241379310344827 3:1.0 4:0.0042643923240938165 5:0.0042643923240938165 25:1.0 183:1.0 279:1.0 
2.0 1:0.3333333333333333 2:0.08620689655172414 3:0.8181818181818182 4:0.09381663113006397 5:0.09381663113006397 63:1.0 183:1.0 217:1.0 
2.0 2:0.1206896551724138 3:0.9032258064516129 4:0.13219616204690832 5:0.13219616204690832 6:0.026533996683250415 25:1.0 104:1.0 279:1.0 
2.0 1:0.3333333333333333 2:0.05172413793103448 3:0.5714285714285714 4:0.014925373134328358 5:0.014925373134328358 6:0.004975124378109453 60:1.0 183:1.0 200:1.0 
0.46961612316860946 1:0.6666666666666666 2:0.1724137931034483 3:1.0 4:0.0021321961620469083 5:0.0021321961620469083 7:1.0 103:1.0 235:1.0 
2.0 1:0.3333333333333333 2:0.05172413793103448 3:0.8571428571428571 4:0.05970149253731343 5:0.05970149253731343 6:0.003316749585406302 25:1.0 183:1.0 200:1.0 
2.0 3:0.4418604651162791 4:0.5501066098081023 5:0.5501066098081023 6:0.004975124378109453 63:1.0 183:1.0 252:1.0 
0.3346034943284095 1:0.3333333333333333 2:0.06896551724137931 3:0.5714285714285714 4:0.014925373134328358 5:0.014925373134328358 6:0.004975124378109453 60:1.0 183:1.0 200:1.0 
2.0 1:0.3333333333333333 2:0.017241379310344827 3:0.5416666666666666 4:0.0511727078891258 5:0.0511727078891258 63:1.0 183:1.0 235:1.0 
2.0 3:0.6578947368421053 4:0.16204690831556504 5:0.16204690831556504 59:1.0 104:1.0 217:1.0 
2.0 2:0.15517241379310345 3:0.9263157894736842 4:0.2025586353944563 5:0.2025586353944563 60:1.0 183:1.0 217:1.0 
2.0 2:0.034482758620689655 3:0.979381443298969 4:0.2068230277185501 5:0.2068230277185501 24:1.0 104:1.0 279:1.0 
0.2826421394038889 2:0.20689655172413793 3:0.6578947368421053 4:0.16204690831556504 5:0.16204690831556504 59:1.0 105:1.0 227:1.0 
0.015301871023370476 3:0.9263157894736842 4:0.2025586353944563 5:0.2025586353944563 60:1.0 155:1.0 215:1.0 
0.17876352623119823 2:0.017241379310344827 3:0.9032258064516129 4:0.13219616204690832 5:0.13219616204690832 6:0.026533996683250415 25:1.0 104:1.0 235:1.0 
0.002072199377846593 2:0.1206896551724138 3:0.9263157894736842 4:0.2025586353944563 5:0.2025586353944563 60:1.0 139:1.0 209:1.0 
0.5697077641201179 3:0.4418604651162791 4:0.5501066098081023 5:0.5501066098081023 6:0.004975124378109453 63:1.0 105:1.0 226:1.0 
2.0 2:0.1206896551724138 3:0.4418604651162791 4:0.5501066098081023 5:0.5501066098081023 6:0.004975124378109453 63:1.0 183:1.0 279:1.0 
2.0 2:0.034482758620689655 3:1.0 4:0.11300639658848614 5:0.11300639658848614 6:0.16583747927031509 59:1.0 183:1.0 217:1.0 
2.0 2:0.1206896551724138 3:0.6578947368421053 4:0.16204690831556504 5:0.16204690831556504 59:1.0 183:1.0 217:1.0 
2.0 2:0.13793103448275862 3:0.5 4:0.008528784648187633 5:0.008528784648187633 43:1.0 183:1.0 217:1.0 
2.0 1:0.3333333333333333 2:0.22413793103448276 3:1.0 4:0.03624733475479744 5:0.03624733475479744 6:0.16583747927031509 25:1.0 183:1.0 279:1.0 
2.0 2:0.017241379310344827 3:0.5 4:0.008528784648187633 5:0.008528784648187633 43:1.0 183:1.0 217:1.0 
2.0 2:0.034482758620689655 3:0.6578947368421053 4:0.16204690831556504 5:0.16204690831556504 59:1.0 183:1.0 279:1.0 
2.0 2:0.06896551724137931 3:0.4418604651162791 4:0.5501066098081023 5:0.5501066098081023 6:0.004975124378109453 63:1.0 183:1.0 252:1.0 
2.0 2:0.05172413793103448 3:0.6578947368421053 4:0.16204690831556504 5:0.16204690831556504 59:1.0 104:1.0 217:1.0 
0.35961073528754656 1:0.3333333333333333 2:0.1206896551724138 3:1.0 4:0.01279317697228145 5:0.01279317697228145 6:0.06633499170812604 24:1.0 121:1.0 217:1.0 
2.0 2:0.017241379310344827 3:0.9032258064516129 4:0.13219616204690832 5:0.13219616204690832 6:0.026533996683250415 25:1.0 155:1.0 199:1.0 
2.0 1:0.3333333333333333 2:0.06896551724137931 3:0.6666666666666666 4:0.006396588486140725 5:0.006396588486140725 63:1.0 183:1.0 209:1.0 
2.0 1:0.3333333333333333 2:0.10344827586206896 3:1.0 4:0.0021321961620469083 5:0.0021321961620469083 63:1.0 183:1.0 217:1.0 
0.04833419211846252 2:0.034482758620689655 3:0.9166666666666666 4:0.0511727078891258 5:0.0511727078891258 65:1.0 183:1.0 235:1.0 
2.0 1:0.3333333333333333 2:0.10344827586206896 3:0.3953488372093023 4:0.09168443496801706 5:0.09168443496801706 60:1.0 183:1.0 235:1.0 
2.0 1:0.3333333333333333 2:0.06896551724137931 3:0.8 4:0.053304904051172705 5:0.053304904051172705 63:1.0 183:1.0 217:1.0 
2.0 1:0.3333333333333333 2:0.06896551724137931 3:0.5 4:0.008528784648187633 5:0.008528784648187633 6:0.01990049751243781 59:1.0 183:1.0 279:1.0 
0.027536381197225363 2:0.2413793103448276 3:0.9263157894736842 4:0.2025586353944563 5:0.2025586353944563 60:1.0 112:1.0 200:1.0 
2.0 1:0.3333333333333333 2:0.017241379310344827 3:0.5416666666666666 4:0.0511727078891258 5:0.0511727078891258 63:1.0 183:1.0 200:1.0 
2.0 3:0.4418604651162791 4:0.5501066098081023 5:0.5501066098081023 6:0.004975124378109453 63:1.0 183:1.0 200:1.0 
2.0 2:0.017241379310344827 3:0.6578947368421053 4:0.16204690831556504 5:0.16204690831556504 59:1.0 104:1.0 217:1.0 
1.97327282841689 1:0.3333333333333333 2:0.017241379310344827 3:1.0 4:0.017057569296375266 5:0.017057569296375266 6:0.06633499170812604 25:1.0 183:1.0 279:1.0 
2.0 1:0.3333333333333333 2:0.13793103448275862 3:0.8181818181818182 4:0.09381663113006397 5:0.09381663113006397 63:1.0 159:1.0 200:1.0 
2.0 1:0.3333333333333333 2:0.017241379310344827 3:1.0 4:0.0255863539445629 5:0.0255863539445629 6:0.004975124378109453 21:1.0 183:1.0 279:1.0 
2.0 2:0.05172413793103448 3:0.6578947368421053 4:0.16204690831556504 5:0.16204690831556504 59:1.0 183:1.0 251:1.0 
2.0 1:0.3333333333333333 2:0.08620689655172414 3:1.0 4:0.0021321961620469083 5:0.0021321961620469083 24:1.0 103:1.0 279:1.0 
2.0 3:0.9166666666666666 4:0.0511727078891258 5:0.0511727078891258 65:1.0 183:1.0 200:1.0 
0.08279699466095147 2:0.06896551724137931 3:1.0 4:0.029850746268656716 5:0.029850746268656716 19:1.0 183:1.0 251:1.0 
0.2544308614561766 2:0.034482758620689655 3:0.8857142857142857 4:0.07462686567164178 5:0.07462686567164178 59:1.0 152:1.0 252:1.0 
2.0 2:0.20689655172413793 3:0.96 4:0.10660980810234541 5:0.10660980810234541 6:0.28192371475953565 63:1.0 183:1.0 252:1.0 
1.0797551256302833 2:0.1206896551724138 3:0.96 4:0.10660980810234541 5:0.10660980810234541 6:0.28192371475953565 63:1.0 183:1.0 279:1.0 
2.0 2:0.20689655172413793 3:0.6578947368421053 4:0.16204690831556504 5:0.16204690831556504 59:1.0 183:1.0 251:1.0 
1.8958846613431 2:0.034482758620689655 3:1.0 4:0.11300639658848614 5:0.11300639658848614 6:0.16583747927031509 59:1.0 104:1.0 279:1.0 
2.0 1:0.3333333333333333 2:0.06896551724137931 3:0.9411764705882353 4:0.03624733475479744 5:0.03624733475479744 6:0.23217247097844113 25:1.0 183:1.0 251:1.0 
1.9557720211303624 2:0.15517241379310345 3:1.0 4:0.11300639658848614 5:0.11300639658848614 6:0.16583747927031509 59:1.0 104:1.0 251:1.0 
2.0 2:0.5344827586206896 3:0.6578947368421053 4:0.16204690831556504 5:0.16204690831556504 59:1.0 104:1.0 217:1.0 
2.0 1:0.3333333333333333 2:0.4482758620689655 3:0.8181818181818182 4:0.09381663113006397 5:0.09381663113006397 63:1.0 183:1.0 232:1.0 
2.0 2:0.08620689655172414 3:0.5 4:0.008528784648187633 5:0.008528784648187633 43:1.0 183:1.0 217:1.0 
1.2827468589620123 2:0.13793103448275862 3:0.9032258064516129 4:0.13219616204690832 5:0.13219616204690832 6:0.026533996683250415 25:1.0 103:1.0 279:1.0 
2.0 2:0.20689655172413793 3:0.4418604651162791 4:0.5501066098081023 5:0.5501066098081023 6:0.004975124378109453 63:1.0 183:1.0 235:1.0 
2.0 1:0.3333333333333333 2:0.1724137931034483 3:0.8333333333333334 4:0.01279317697228145 5:0.01279317697228145 63:1.0 183:1.0 199:1.0 
2.0 1:0.3333333333333333 2:0.017241379310344827 3:1.0 4:0.0511727078891258 5:0.0511727078891258 25:1.0 183:1.0 279:1.0 
2.0 1:0.3333333333333333 2:0.1896551724137931 3:1.0 4:0.06183368869936034 5:0.06183368869936034 6:0.004975124378109453 24:1.0 183:1.0 251:1.0 
2.0 1:0.3333333333333333 2:0.1896551724137931 3:1.0 4:0.06183368869936034 5:0.06183368869936034 6:0.004975124378109453 24:1.0 183:1.0 251:1.0 
2.0 2:0.06896551724137931 3:0.979381443298969 4:0.2068230277185501 5:0.2068230277185501 24:1.0 121:1.0 279:1.0 
0.16819136415943622 2:0.06896551724137931 3:0.979381443298969 4:0.2068230277185501 5:0.2068230277185501 24:1.0 121:1.0 279:1.0 
2.0 2:0.1896551724137931 3:0.95 4:0.08528784648187633 5:0.08528784648187633 63:1.0 183:1.0 217:1.0 
2.0 2:0.27586206896551724 3:0.96 4:0.10660980810234541 5:0.10660980810234541 6:0.28192371475953565 63:1.0 183:1.0 209:1.0 
2.0 1:0.3333333333333333 2:0.017241379310344827 3:1.0 4:0.017057569296375266 5:0.017057569296375266 6:0.06633499170812604 25:1.0 183:1.0 279:1.0 
2.0 1:0.3333333333333333 2:0.1724137931034483 3:1.0 4:0.03624733475479744 5:0.03624733475479744 6:0.16583747927031509 25:1.0 183:1.0 279:1.0 
2.0 1:0.3333333333333333 2:0.1724137931034483 3:0.7692307692307693 4:0.16631130063965885 5:0.16631130063965885 6:0.008291873963515755 63:1.0 183:1.0 217:1.0 
0.18274170385134786 2:0.1206896551724138 3:0.9263157894736842 4:0.2025586353944563 5:0.2025586353944563 60:1.0 155:1.0 251:1.0 
0.5241106006860975 2:0.13793103448275862 3:0.9263157894736842 4:0.2025586353944563 5:0.2025586353944563 60:1.0 104:1.0 246:1.0 
2.0 3:0.979381443298969 4:0.2068230277185501 5:0.2068230277185501 24:1.0 152:1.0 279:1.0 
0.005912033588740488 2:0.20689655172413793 3:0.6578947368421053 4:0.16204690831556504 5:0.16204690831556504 59:1.0 155:1.0 251:1.0 
2.0 1:0.3333333333333333 2:0.017241379310344827 3:0.9791666666666666 4:0.1023454157782516 5:0.1023454157782516 63:1.0 183:1.0 279:1.0 
2.0 1:0.3333333333333333 2:0.017241379310344827 3:0.5555555555555556 4:0.03837953091684435 5:0.03837953091684435 63:1.0 183:1.0 251:1.0 
2.0 1:0.3333333333333333 2:0.06896551724137931 3:1.0 4:0.0021321961620469083 5:0.0021321961620469083 7:1.0 183:1.0 217:1.0 
2.0 2:0.08620689655172414 3:0.88 4:0.053304904051172705 5:0.053304904051172705 63:1.0 183:1.0 252:1.0 
2.0 3:0.4418604651162791 4:0.5501066098081023 5:0.5501066098081023 6:0.004975124378109453 63:1.0 183:1.0 227:1.0 
0.08355424620808442 2:0.017241379310344827 3:1.0 4:0.029850746268656716 5:0.029850746268656716 19:1.0 152:1.0 279:1.0 
2.0 3:0.9263157894736842 4:0.2025586353944563 5:0.2025586353944563 60:1.0 183:1.0 209:1.0 
2.0 2:0.15517241379310345 3:0.9263157894736842 4:0.2025586353944563 5:0.2025586353944563 60:1.0 183:1.0 217:1.0 
2.0 1:0.3333333333333333 2:0.017241379310344827 3:0.9791666666666666 4:0.1023454157782516 5:0.1023454157782516 63:1.0 183:1.0 255:1.0 
2.0 2:0.13793103448275862 3:0.9263157894736842 4:0.2025586353944563 5:0.2025586353944563 60:1.0 183:1.0 217:1.0 
2.0 1:0.3333333333333333 2:0.20689655172413793 3:1.0 4:0.017057569296375266 5:0.017057569296375266 6:0.06633499170812604 25:1.0 183:1.0 279:1.0 
2.0 1:0.3333333333333333 2:0.017241379310344827 3:0.3953488372093023 4:0.09168443496801706 5:0.09168443496801706 60:1.0 183:1.0 251:1.0 
2.0 1:0.3333333333333333 2:0.1206896551724138 3:0.9024390243902439 4:0.08742004264392324 5:0.08742004264392324 6:0.008291873963515755 25:1.0 183:1.0 209:1.0 
1.716732503790725 2:0.1206896551724138 3:0.979381443298969 4:0.2068230277185501 5:0.2068230277185501 24:1.0 104:1.0 252:1.0 
2.0 2:0.05172413793103448 3:0.9263157894736842 4:0.2025586353944563 5:0.2025586353944563 60:1.0 183:1.0 219:1.0 
0.0717467650463218 2:0.13793103448275862 3:0.9263157894736842 4:0.2025586353944563 5:0.2025586353944563 60:1.0 139:1.0 246:1.0 
2.0 2:0.017241379310344827 3:0.4418604651162791 4:0.5501066098081023 5:0.5501066098081023 6:0.004975124378109453 63:1.0 104:1.0 217:1.0 
2.0 2:0.1206896551724138 3:0.4418604651162791 4:0.5501066098081023 5:0.5501066098081023 6:0.004975124378109453 63:1.0 104:1.0 279:1.0 
1.563317075245785 2:0.1206896551724138 3:0.979381443298969 4:0.2068230277185501 5:0.2068230277185501 24:1.0 104:1.0 252:1.0 
2.0 3:0.7636363636363637 4:0.11727078891257996 5:0.11727078891257996 6:1.0 60:1.0 183:1.0 235:1.0 
2.0 1:0.3333333333333333 2:0.017241379310344827 3:1.0 4:0.0042643923240938165 5:0.0042643923240938165 6:0.06965174129353234 60:1.0 183:1.0 217:1.0 
2.0 1:0.3333333333333333 2:0.10344827586206896 3:0.9791666666666666 4:0.1023454157782516 5:0.1023454157782516 63:1.0 183:1.0 279:1.0 
0.21764283668260725 1:0.3333333333333333 2:0.05172413793103448 3:1.0 4:0.0042643923240938165 5:0.0042643923240938165 6:0.04809286898839138 60:1.0 155:1.0 227:1.0 
1.1723388177538292 2:0.10344827586206896 3:1.0 4:0.11300639658848614 5:0.11300639658848614 6:0.16583747927031509 59:1.0 121:1.0 217:1.0 
2.0 2:0.017241379310344827 3:0.9263157894736842 4:0.2025586353944563 5:0.2025586353944563 60:1.0 121:1.0 200:1.0 
2.0 1:0.3333333333333333 2:0.05172413793103448 3:0.9791666666666666 4:0.1023454157782516 5:0.1023454157782516 63:1.0 183:1.0 279:1.0 
2.0 3:0.979381443298969 4:0.2068230277185501 5:0.2068230277185501 24:1.0 123:1.0 279:1.0 
2.0 2:0.13793103448275862 3:0.8135593220338984 4:0.1257995735607676 5:0.1257995735607676 25:1.0 183:1.0 200:1.0 
1.5560627887684224 1:0.3333333333333333 2:0.017241379310344827 3:0.75 4:0.008528784648187633 5:0.008528784648187633 25:1.0 113:1.0 235:1.0 
1.8921697357947496 1:0.3333333333333333 2:0.13793103448275862 3:0.8260869565217391 4:0.04904051172707889 5:0.04904051172707889 63:1.0 183:1.0 234:1.0 
2.0 2:0.1206896551724138 3:0.4418604651162791 4:0.5501066098081023 5:0.5501066098081023 6:0.004975124378109453 63:1.0 183:1.0 279:1.0 
1.604430181744283 1:0.3333333333333333 2:0.1724137931034483 3:0.87 4:0.21321961620469082 5:0.21321961620469082 6:0.01990049751243781 43:1.0 121:1.0 251:1.0 
1.4630808370142467 1:0.3333333333333333 2:0.017241379310344827 3:0.6 4:0.010660980810234541 5:0.010660980810234541 6:0.1011608623548922 8:1.0 183:1.0 217:1.0 
2.0 1:0.3333333333333333 2:0.15517241379310345 3:1.0 4:0.008528784648187633 5:0.008528784648187633 63:1.0 183:1.0 199:1.0 
2.0 3:0.9263157894736842 4:0.2025586353944563 5:0.2025586353944563 60:1.0 183:1.0 235:1.0 
0.18613159274588964 3:0.9032258064516129 4:0.13219616204690832 5:0.13219616204690832 6:0.026533996683250415 25:1.0 150:1.0 217:1.0 
2.0 1:0.3333333333333333 2:0.20689655172413793 3:0.7692307692307693 4:0.02771855010660981 5:0.02771855010660981 63:1.0 183:1.0 200:1.0 
2.0 1:0.3333333333333333 2:0.08620689655172414 3:0.8571428571428571 4:0.04477611940298507 5:0.04477611940298507 25:1.0 183:1.0 235:1.0 
2.0 1:0.3333333333333333 2:0.15517241379310345 3:0.3953488372093023 4:0.09168443496801706 5:0.09168443496801706 60:1.0 183:1.0 251:1.0 
2.0 1:0.3333333333333333 2:0.08620689655172414 3:0.9791666666666666 4:0.1023454157782516 5:0.1023454157782516 63:1.0 183:1.0 246:1.0 
0.804406544849721 1:0.3333333333333333 2:0.1724137931034483 3:0.6666666666666666 4:0.006396588486140725 5:0.006396588486140725 63:1.0 183:1.0 209:1.0 
2.0 3:0.6578947368421053 4:0.16204690831556504 5:0.16204690831556504 59:1.0 183:1.0 217:1.0 
2.0 1:0.3333333333333333 2:0.05172413793103448 3:0.375 4:0.017057569296375266 5:0.017057569296375266 63:1.0 183:1.0 227:1.0 
2.0 1:0.3333333333333333 2:0.08620689655172414 3:0.7058823529411765 4:0.07249466950959488 5:0.07249466950959488 63:1.0 183:1.0 219:1.0 
0.9784843733885414 2:0.05172413793103448 3:0.9263157894736842 4:0.2025586353944563 5:0.2025586353944563 60:1.0 121:1.0 235:1.0 
2.0 1:0.3333333333333333 2:0.017241379310344827 3:0.9791666666666666 4:0.1023454157782516 5:0.1023454157782516 63:1.0 183:1.0 235:1.0 
1.3519891259987584 2:0.10344827586206896 3:0.979381443298969 4:0.2068230277185501 5:0.2068230277185501 24:1.0 121:1.0 213:1.0 
1.1409408031660064 2:0.2413793103448276 3:1.0 4:0.11300639658848614 5:0.11300639658848614 6:0.16583747927031509 59:1.0 139:1.0 227:1.0 
0.05070044228533757 1:0.3333333333333333 2:0.10344827586206896 3:0.75 4:0.017057569296375266 5:0.017057569296375266 59:1.0 183:1.0 213:1.0 
2.0 2:0.017241379310344827 3:0.9263157894736842 4:0.2025586353944563 5:0.2025586353944563 60:1.0 183:1.0 200:1.0 
2.0 1:0.3333333333333333 2:0.06896551724137931 3:0.8 4:0.053304904051172705 5:0.053304904051172705 63:1.0 183:1.0 217:1.0 
