svm_type c_svc
kernel_type rbf
gamma 0.0078125
nr_class 2
total_sv 6680
rho 9.29509800728971
label 0 1
nr_sv 5023 1657
SV
2048.0 1:0.3333333333333333 2:0.05357142857142857 3:1.0 4:0.03624733475479744 5:0.03624733475479744 6:0.16583747927031509 25:1.0 120:1.0 279:1.0 
2048.0 1:0.3333333333333333 2:0.21428571428571427 3:0.9024390243902439 4:0.08742004264392324 5:0.08742004264392324 6:0.008291873963515755 25:1.0 183:1.0 199:1.0 
2048.0 1:0.3333333333333333 2:0.03571428571428571 3:1.0 4:0.0021321961620469083 5:0.0021321961620469083 25:1.0 104:1.0 279:1.0 
2048.0 1:0.3333333333333333 2:0.19642857142857142 3:1.0 4:0.006396588486140725 5:0.006396588486140725 6:0.01824212271973466 25:1.0 183:1.0 216:1.0 
2048.0 1:0.3333333333333333 2:0.25 3:0.5416666666666666 4:0.0511727078891258 5:0.0511727078891258 63:1.0 109:1.0 217:1.0 
2048.0 2:0.017857142857142856 3:0.9032258064516129 4:0.13219616204690832 5:0.13219616204690832 6:0.026533996683250415 25:1.0 121:1.0 279:1.0 
2048.0 1:0.3333333333333333 2:0.125 3:1.0 4:0.0042643923240938165 5:0.0042643923240938165 25:1.0 183:1.0 206:1.0 
2048.0 2:0.017857142857142856 3:0.9263157894736842 4:0.2025586353944563 5:0.2025586353944563 60:1.0 121:1.0 279:1.0 
2048.0 1:0.3333333333333333 2:0.08928571428571429 3:0.7692307692307693 4:0.16631130063965885 5:0.16631130063965885 6:0.008291873963515755 63:1.0 121:1.0 251:1.0 
2048.0 1:0.3333333333333333 2:0.03571428571428571 3:0.7692307692307693 4:0.16631130063965885 5:0.16631130063965885 6:0.008291873963515755 63:1.0 183:1.0 235:1.0 
2048.0 1:0.3333333333333333 2:0.19642857142857142 3:0.8260869565217391 4:0.04904051172707889 5:0.04904051172707889 63:1.0 183:1.0 199:1.0 
2048.0 1:0.3333333333333333 2:0.017857142857142856 3:1.0 4:0.0042643923240938165 5:0.0042643923240938165 25:1.0 183:1.0 252:1.0 
2048.0 1:0.3333333333333333 2:0.017857142857142856 3:1.0 4:0.0042643923240938165 5:0.0042643923240938165 25:1.0 183:1.0 252:1.0 
2048.0 2:0.05357142857142857 3:0.979381443298969 4:0.2068230277185501 5:0.2068230277185501 24:1.0 121:1.0 217:1.0 
544.1842401561241 2:0.05357142857142857 3:0.8135593220338984 4:0.1257995735607676 5:0.1257995735607676 25:1.0 159:1.0 251:1.0 
2048.0 1:0.3333333333333333 2:0.017857142857142856 3:1.0 4:0.006396588486140725 5:0.006396588486140725 6:0.16583747927031509 40:1.0 183:1.0 217:1.0 
2048.0 1:0.3333333333333333 2:0.05357142857142857 3:1.0 4:0.0042643923240938165 5:0.0042643923240938165 59:1.0 183:1.0 252:1.0 
2048.0 2:0.017857142857142856 3:1.0 4:0.0021321961620469083 5:0.0021321961620469083 34:1.0 121:1.0 279:1.0 
2048.0 1:0.3333333333333333 2:0.05357142857142857 3:1.0 4:0.03624733475479744 5:0.03624733475479744 6:0.16583747927031509 25:1.0 104:1.0 279:1.0 
2048.0 1:0.3333333333333333 2:0.16071428571428573 3:1.0 4:0.06396588486140725 5:0.06396588486140725 25:1.0 155:1.0 279:1.0 
2048.0 1:0.3333333333333333 2:0.017857142857142856 3:0.7692307692307693 4:0.16631130063965885 5:0.16631130063965885 6:0.008291873963515755 63:1.0 183:1.0 200:1.0 
2048.0 1:0.3333333333333333 2:0.05357142857142857 3:1.0 4:0.03624733475479744 5:0.03624733475479744 6:0.16583747927031509 25:1.0 104:1.0 279:1.0 
2048.0 3:0.6956521739130435 4:0.09808102345415778 5:0.09808102345415778 6:0.013266998341625208 59:1.0 104:1.0 217:1.0 
1574.2184990447402 1:0.3333333333333333 2:0.30357142857142855 3:1.0 4:0.0021321961620469083 5:0.0021321961620469083 21:1.0 121:1.0 279:1.0 
2048.0 1:0.3333333333333333 2:0.017857142857142856 3:1.0 4:0.0021321961620469083 5:0.0021321961620469083 6:0.013266998341625208 59:1.0 183:1.0 235:1.0 
2048.0 1:0.3333333333333333 2:0.07142857142857142 3:1.0 4:0.03624733475479744 5:0.03624733475479744 6:0.16583747927031509 25:1.0 104:1.0 279:1.0 
2048.0 1:0.3333333333333333 2:0.017857142857142856 3:0.5555555555555556 4:0.03837953091684435 5:0.03837953091684435 63:1.0 183:1.0 200:1.0 
2048.0 1:0.3333333333333333 2:0.14285714285714285 3:0.9024390243902439 4:0.08742004264392324 5:0.08742004264392324 6:0.008291873963515755 25:1.0 121:1.0 217:1.0 
2048.0 2:0.16071428571428573 3:0.9166666666666666 4:0.0511727078891258 5:0.0511727078891258 65:1.0 161:1.0 200:1.0 
2048.0 1:0.3333333333333333 2:0.017857142857142856 3:0.75 4:0.017057569296375266 5:0.017057569296375266 63:1.0 183:1.0 217:1.0 
2048.0 1:0.3333333333333333 2:0.03571428571428571 3:0.5384615384615384 4:0.02771855010660981 5:0.02771855010660981 63:1.0 183:1.0 217:1.0 
2048.0 1:0.3333333333333333 2:0.08928571428571429 3:0.87 4:0.21321961620469082 5:0.21321961620469082 6:0.01990049751243781 43:1.0 183:1.0 279:1.0 
2048.0 1:0.3333333333333333 2:0.017857142857142856 3:0.5555555555555556 4:0.03837953091684435 5:0.03837953091684435 63:1.0 183:1.0 200:1.0 
2048.0 1:0.3333333333333333 2:0.26785714285714285 3:0.7692307692307693 4:0.02771855010660981 5:0.02771855010660981 63:1.0 183:1.0 217:1.0 
2048.0 1:0.3333333333333333 2:0.017857142857142856 3:1.0 4:0.03624733475479744 5:0.03624733475479744 6:0.16583747927031509 25:1.0 183:1.0 279:1.0 
2048.0 2:0.03571428571428571 3:0.7636363636363637 4:0.11727078891257996 5:0.11727078891257996 6:1.0 60:1.0 104:1.0 217:1.0 
2048.0 1:0.3333333333333333 2:0.07142857142857142 3:0.75 4:0.008528784648187633 5:0.008528784648187633 60:1.0 183:1.0 217:1.0 
2048.0 2:0.26785714285714285 3:0.6578947368421053 4:0.16204690831556504 5:0.16204690831556504 59:1.0 104:1.0 252:1.0 
2048.0 2:0.08928571428571429 3:0.8125 4:0.03411513859275053 5:0.03411513859275053 25:1.0 183:1.0 217:1.0 
2048.0 1:0.3333333333333333 2:0.14285714285714285 3:0.5333333333333333 4:0.031982942430703626 5:0.031982942430703626 6:0.07462686567164178 8:1.0 103:1.0 279:1.0 
2048.0 1:0.3333333333333333 2:0.017857142857142856 3:0.9024390243902439 4:0.08742004264392324 5:0.08742004264392324 6:0.008291873963515755 25:1.0 183:1.0 279:1.0 
2048.0 2:0.08928571428571429 3:0.6578947368421053 4:0.16204690831556504 5:0.16204690831556504 59:1.0 159:1.0 217:1.0 
2048.0 1:0.3333333333333333 2:0.017857142857142856 3:0.75 4:0.008528784648187633 5:0.008528784648187633 60:1.0 183:1.0 206:1.0 
2048.0 1:0.3333333333333333 2:0.07142857142857142 3:0.9024390243902439 4:0.08742004264392324 5:0.08742004264392324 6:0.008291873963515755 25:1.0 120:1.0 217:1.0 
2048.0 1:0.3333333333333333 2:0.16071428571428573 3:0.5333333333333333 4:0.031982942430703626 5:0.031982942430703626 6:0.07462686567164178 8:1.0 103:1.0 279:1.0 
2048.0 1:0.3333333333333333 2:0.05357142857142857 3:0.5333333333333333 4:0.031982942430703626 5:0.031982942430703626 6:0.07462686567164178 8:1.0 103:1.0 279:1.0 
1561.4591139866016 1:0.3333333333333333 2:0.08928571428571429 3:1.0 4:0.017057569296375266 5:0.017057569296375266 6:0.06633499170812604 25:1.0 115:1.0 279:1.0 
1150.4470371224365 2:0.32142857142857145 3:0.5 4:0.0042643923240938165 5:0.0042643923240938165 43:1.0 139:1.0 248:1.0 
757.9859214756893 1:0.3333333333333333 2:0.05357142857142857 3:1.0 4:0.006396588486140725 5:0.006396588486140725 6:0.029850746268656716 25:1.0 105:1.0 252:1.0 
2048.0 1:0.3333333333333333 2:0.10714285714285714 3:1.0 4:0.0042643923240938165 5:0.0042643923240938165 25:1.0 183:1.0 235:1.0 
79.77800031388286 2:0.375 3:0.5 4:0.0042643923240938165 5:0.0042643923240938165 43:1.0 105:1.0 248:1.0 
2048.0 1:0.3333333333333333 2:0.125 3:1.0 4:0.029850746268656716 5:0.029850746268656716 6:0.03814262023217247 8:1.0 131:1.0 235:1.0 
493.21467298573305 1:0.3333333333333333 2:0.14285714285714285 3:0.5416666666666666 4:0.0511727078891258 5:0.0511727078891258 63:1.0 117:1.0 252:1.0 
1825.1085420951013 1:0.3333333333333333 2:0.017857142857142856 3:1.0 4:0.03624733475479744 5:0.03624733475479744 6:0.16583747927031509 25:1.0 113:1.0 279:1.0 
2048.0 1:0.3333333333333333 2:0.05357142857142857 3:1.0 4:0.0021321961620469083 5:0.0021321961620469083 25:1.0 183:1.0 252:1.0 
2048.0 1:0.3333333333333333 2:0.125 3:1.0 4:0.008528784648187633 5:0.008528784648187633 6:0.05140961857379768 25:1.0 161:1.0 217:1.0 
2048.0 1:0.3333333333333333 2:0.05357142857142857 3:1.0 4:0.010660980810234541 5:0.010660980810234541 6:0.14096185737976782 21:1.0 183:1.0 251:1.0 
2048.0 1:0.3333333333333333 2:0.03571428571428571 3:0.8 4:0.053304904051172705 5:0.053304904051172705 63:1.0 104:1.0 217:1.0 
2048.0 1:0.3333333333333333 2:0.017857142857142856 3:0.75 4:0.008528784648187633 5:0.008528784648187633 60:1.0 183:1.0 200:1.0 
2048.0 1:0.3333333333333333 2:0.05357142857142857 3:1.0 4:0.017057569296375266 5:0.017057569296375266 6:0.06633499170812604 25:1.0 123:1.0 279:1.0 
2048.0 2:0.10714285714285714 3:0.979381443298969 4:0.2068230277185501 5:0.2068230277185501 24:1.0 183:1.0 217:1.0 
2048.0 1:0.3333333333333333 2:0.14285714285714285 3:0.875 4:0.06823027718550106 5:0.06823027718550106 25:1.0 183:1.0 246:1.0 
2048.0 1:0.3333333333333333 2:0.3392857142857143 3:1.0 4:0.0042643923240938165 5:0.0042643923240938165 59:1.0 120:1.0 252:1.0 
2048.0 1:0.3333333333333333 2:0.05357142857142857 3:1.0 4:0.017057569296375266 5:0.017057569296375266 6:0.06633499170812604 25:1.0 104:1.0 246:1.0 
2048.0 1:0.3333333333333333 2:0.375 3:0.5333333333333333 4:0.031982942430703626 5:0.031982942430703626 6:0.07462686567164178 8:1.0 136:1.0 279:1.0 
2048.0 1:0.3333333333333333 2:0.26785714285714285 3:0.7692307692307693 4:0.16631130063965885 5:0.16631130063965885 6:0.008291873963515755 63:1.0 104:1.0 217:1.0 
2048.0 1:0.3333333333333333 2:0.05357142857142857 3:1.0 4:0.0021321961620469083 5:0.0021321961620469083 25:1.0 104:1.0 252:1.0 
2048.0 2:0.125 3:0.9263157894736842 4:0.2025586353944563 5:0.2025586353944563 60:1.0 183:1.0 206:1.0 
2048.0 1:0.3333333333333333 2:0.017857142857142856 3:1.0 4:0.0042643923240938165 5:0.0042643923240938165 6:0.04809286898839138 60:1.0 183:1.0 200:1.0 
2048.0 1:0.3333333333333333 2:0.08928571428571429 3:0.9024390243902439 4:0.08742004264392324 5:0.08742004264392324 6:0.008291873963515755 25:1.0 183:1.0 200:1.0 
2048.0 2:0.05357142857142857 3:0.8857142857142857 4:0.07462686567164178 5:0.07462686567164178 59:1.0 121:1.0 251:1.0 
2048.0 1:0.3333333333333333 2:0.19642857142857142 3:0.3953488372093023 4:0.09168443496801706 5:0.09168443496801706 60:1.0 104:1.0 217:1.0 
2048.0 1:0.3333333333333333 2:0.23214285714285715 3:0.5 4:0.0042643923240938165 5:0.0042643923240938165 6:0.008291873963515755 24:1.0 121:1.0 279:1.0 
2048.0 2:0.25 3:0.6578947368421053 4:0.16204690831556504 5:0.16204690831556504 59:1.0 183:1.0 251:1.0 
2048.0 1:0.3333333333333333 2:0.05357142857142857 3:1.0 4:0.0042643923240938165 5:0.0042643923240938165 6:0.14096185737976782 21:1.0 121:1.0 279:1.0 
2048.0 1:0.3333333333333333 2:0.125 3:1.0 4:0.03624733475479744 5:0.03624733475479744 6:0.16583747927031509 25:1.0 183:1.0 279:1.0 
2048.0 1:0.3333333333333333 2:0.017857142857142856 3:1.0 4:0.03624733475479744 5:0.03624733475479744 6:0.16583747927031509 25:1.0 183:1.0 279:1.0 
2048.0 2:0.03571428571428571 3:0.7636363636363637 4:0.11727078891257996 5:0.11727078891257996 6:1.0 60:1.0 104:1.0 217:1.0 
2048.0 1:0.3333333333333333 2:0.05357142857142857 3:1.0 4:0.017057569296375266 5:0.017057569296375266 6:0.06633499170812604 25:1.0 104:1.0 279:1.0 
740.5399374397357 1:0.3333333333333333 2:0.08928571428571429 3:1.0 4:0.03624733475479744 5:0.03624733475479744 6:0.16583747927031509 25:1.0 120:1.0 217:1.0 
2048.0 1:0.3333333333333333 2:0.3392857142857143 3:1.0 4:0.06396588486140725 5:0.06396588486140725 25:1.0 183:1.0 235:1.0 
2048.0 1:0.3333333333333333 2:0.42857142857142855 3:0.9024390243902439 4:0.08742004264392324 5:0.08742004264392324 6:0.008291873963515755 25:1.0 104:1.0 206:1.0 
2048.0 2:0.125 3:1.0 4:0.11300639658848614 5:0.11300639658848614 6:0.16583747927031509 59:1.0 183:1.0 217:1.0 
2048.0 1:0.3333333333333333 2:0.10714285714285714 3:0.87 4:0.21321961620469082 5:0.21321961620469082 6:0.01990049751243781 43:1.0 183:1.0 251:1.0 
2048.0 1:0.3333333333333333 2:0.25 3:0.7142857142857143 4:0.014925373134328358 5:0.014925373134328358 63:1.0 183:1.0 217:1.0 
2048.0 2:0.30357142857142855 3:0.6578947368421053 4:0.16204690831556504 5:0.16204690831556504 59:1.0 139:1.0 217:1.0 
2048.0 1:0.3333333333333333 2:0.017857142857142856 3:0.5555555555555556 4:0.03837953091684435 5:0.03837953091684435 63:1.0 183:1.0 252:1.0 
2048.0 1:0.6666666666666666 2:0.125 3:1.0 4:0.0255863539445629 5:0.0255863539445629 7:1.0 183:1.0 279:1.0 
2048.0 2:0.05357142857142857 3:0.6578947368421053 4:0.16204690831556504 5:0.16204690831556504 59:1.0 121:1.0 217:1.0 
2048.0 1:0.6666666666666666 2:0.03571428571428571 3:1.0 4:0.0255863539445629 5:0.0255863539445629 7:1.0 183:1.0 252:1.0 
2048.0 1:0.6666666666666666 2:0.10714285714285714 3:1.0 4:0.0021321961620469083 5:0.0021321961620469083 63:1.0 183:1.0 219:1.0 
2048.0 1:0.3333333333333333 2:0.14285714285714285 3:0.375 4:0.017057569296375266 5:0.017057569296375266 63:1.0 123:1.0 219:1.0 
2048.0 2:0.16071428571428573 3:0.8571428571428571 4:0.04477611940298507 5:0.04477611940298507 59:1.0 183:1.0 217:1.0 
2048.0 1:0.3333333333333333 2:0.03571428571428571 3:1.0 4:0.0021321961620469083 5:0.0021321961620469083 24:1.0 183:1.0 279:1.0 
2048.0 1:0.6666666666666666 2:0.08928571428571429 3:1.0 4:0.0021321961620469083 5:0.0021321961620469083 63:1.0 123:1.0 219:1.0 
2048.0 1:0.6666666666666666 2:0.14285714285714285 3:1.0 4:0.0021321961620469083 5:0.0021321961620469083 63:1.0 183:1.0 252:1.0 
2048.0 1:0.6666666666666666 2:0.26785714285714285 3:1.0 4:0.0255863539445629 5:0.0255863539445629 7:1.0 183:1.0 252:1.0 
2048.0 1:0.6666666666666666 2:0.3392857142857143 3:1.0 4:0.0021321961620469083 5:0.0021321961620469083 63:1.0 183:1.0 219:1.0 
2048.0 2:0.017857142857142856 3:0.6578947368421053 4:0.16204690831556504 5:0.16204690831556504 59:1.0 104:1.0 252:1.0 
2048.0 2:0.05357142857142857 3:0.9263157894736842 4:0.2025586353944563 5:0.2025586353944563 60:1.0 104:1.0 217:1.0 
2048.0 3:0.8484848484848485 4:0.07036247334754797 5:0.07036247334754797 60:1.0 183:1.0 251:1.0 
2048.0 1:0.3333333333333333 2:0.19642857142857142 3:0.9285714285714286 4:0.05970149253731343 5:0.05970149253731343 63:1.0 183:1.0 200:1.0 
2048.0 3:0.5 4:0.0042643923240938165 5:0.0042643923240938165 43:1.0 183:1.0 217:1.0 
2048.0 1:0.3333333333333333 2:0.07142857142857142 3:1.0 4:0.017057569296375266 5:0.017057569296375266 6:0.06633499170812604 25:1.0 120:1.0 279:1.0 
2048.0 3:0.7636363636363637 4:0.11727078891257996 5:0.11727078891257996 6:1.0 60:1.0 183:1.0 217:1.0 
565.4172575764665 2:0.017857142857142856 3:1.0 4:0.11300639658848614 5:0.11300639658848614 6:0.16583747927031509 59:1.0 121:1.0 227:1.0 
2048.0 2:0.03571428571428571 3:0.7636363636363637 4:0.11727078891257996 5:0.11727078891257996 6:1.0 60:1.0 183:1.0 217:1.0 
691.3200836781062 2:0.125 3:0.7636363636363637 4:0.11727078891257996 5:0.11727078891257996 6:1.0 60:1.0 183:1.0 235:1.0 
2048.0 1:0.3333333333333333 2:0.125 3:0.9024390243902439 4:0.08742004264392324 5:0.08742004264392324 6:0.008291873963515755 25:1.0 155:1.0 199:1.0 
2048.0 2:0.07142857142857142 3:0.6538461538461539 4:0.05543710021321962 5:0.05543710021321962 25:1.0 183:1.0 206:1.0 
2048.0 1:0.3333333333333333 2:0.017857142857142856 3:0.5555555555555556 4:0.03837953091684435 5:0.03837953091684435 63:1.0 183:1.0 279:1.0 
2048.0 2:0.07142857142857142 3:0.6578947368421053 4:0.16204690831556504 5:0.16204690831556504 59:1.0 110:1.0 217:1.0 
2048.0 1:0.3333333333333333 2:0.17857142857142858 3:0.9024390243902439 4:0.08742004264392324 5:0.08742004264392324 6:0.008291873963515755 25:1.0 121:1.0 200:1.0 
2048.0 2:0.19642857142857142 3:0.6578947368421053 4:0.16204690831556504 5:0.16204690831556504 59:1.0 183:1.0 217:1.0 
2048.0 3:0.8125 4:0.03411513859275053 5:0.03411513859275053 25:1.0 183:1.0 235:1.0 
2048.0 1:0.3333333333333333 2:0.19642857142857142 3:1.0 4:0.0042643923240938165 5:0.0042643923240938165 63:1.0 104:1.0 217:1.0 
2048.0 1:0.3333333333333333 2:0.017857142857142856 3:1.0 4:0.010660980810234541 5:0.010660980810234541 6:0.14096185737976782 21:1.0 183:1.0 217:1.0 
2048.0 2:0.08928571428571429 3:0.6578947368421053 4:0.16204690831556504 5:0.16204690831556504 59:1.0 104:1.0 251:1.0 
2048.0 1:0.3333333333333333 2:0.16071428571428573 3:1.0 4:0.01279317697228145 5:0.01279317697228145 6:0.06633499170812604 24:1.0 121:1.0 200:1.0 
2048.0 1:0.3333333333333333 2:0.10714285714285714 3:0.967741935483871 4:0.06609808102345416 5:0.06609808102345416 6:0.001658374792703151 63:1.0 183:1.0 216:1.0 
2048.0 2:0.07142857142857142 3:0.6578947368421053 4:0.16204690831556504 5:0.16204690831556504 59:1.0 183:1.0 255:1.0 
2048.0 2:0.21428571428571427 3:0.9263157894736842 4:0.2025586353944563 5:0.2025586353944563 60:1.0 183:1.0 200:1.0 
2048.0 1:0.3333333333333333 2:0.4107142857142857 3:0.5416666666666666 4:0.0511727078891258 5:0.0511727078891258 63:1.0 183:1.0 217:1.0 
2048.0 1:0.3333333333333333 2:0.017857142857142856 3:0.6 4:0.010660980810234541 5:0.010660980810234541 6:0.1011608623548922 8:1.0 183:1.0 200:1.0 
2048.0 2:0.03571428571428571 3:0.8857142857142857 4:0.07462686567164178 5:0.07462686567164178 59:1.0 104:1.0 217:1.0 
2048.0 2:0.14285714285714285 3:0.6578947368421053 4:0.16204690831556504 5:0.16204690831556504 59:1.0 120:1.0 200:1.0 
2048.0 1:0.6666666666666666 2:0.03571428571428571 3:0.8333333333333334 4:0.01279317697228145 5:0.01279317697228145 63:1.0 183:1.0 217:1.0 
2048.0 3:0.979381443298969 4:0.2068230277185501 5:0.2068230277185501 24:1.0 104:1.0 279:1.0 
2048.0 2:0.017857142857142856 3:0.6578947368421053 4:0.16204690831556504 5:0.16204690831556504 59:1.0 183:1.0 251:1.0 
2048.0 1:0.3333333333333333 2:0.05357142857142857 3:1.0 4:0.01279317697228145 5:0.01279317697228145 25:1.0 155:1.0 217:1.0 
2048.0 2:0.05357142857142857 3:0.8857142857142857 4:0.07462686567164178 5:0.07462686567164178 59:1.0 183:1.0 228:1.0 
2048.0 1:0.3333333333333333 2:0.21428571428571427 3:1.0 4:0.0021321961620469083 5:0.0021321961620469083 24:1.0 121:1.0 279:1.0 
2048.0 1:0.3333333333333333 2:0.10714285714285714 3:0.6 4:0.010660980810234541 5:0.010660980810234541 6:0.1011608623548922 8:1.0 183:1.0 217:1.0 
2048.0 1:0.3333333333333333 2:0.14285714285714285 3:1.0 4:0.06396588486140725 5:0.06396588486140725 25:1.0 104:1.0 199:1.0 
2048.0 2:0.17857142857142858 3:0.6578947368421053 4:0.16204690831556504 5:0.16204690831556504 59:1.0 183:1.0 217:1.0 
2048.0 1:0.3333333333333333 2:0.07142857142857142 3:0.8888888888888888 4:0.019189765458422176 5:0.019189765458422176 6:0.175787728026534 25:1.0 183:1.0 217:1.0 
2048.0 1:0.3333333333333333 2:0.03571428571428571 3:0.967741935483871 4:0.13219616204690832 5:0.13219616204690832 63:1.0 183:1.0 235:1.0 
2048.0 2:0.16071428571428573 3:0.979381443298969 4:0.2068230277185501 5:0.2068230277185501 24:1.0 121:1.0 279:1.0 
2048.0 1:0.3333333333333333 2:0.017857142857142856 3:0.9024390243902439 4:0.08742004264392324 5:0.08742004264392324 6:0.008291873963515755 25:1.0 104:1.0 209:1.0 
2048.0 1:0.3333333333333333 2:0.08928571428571429 3:0.87 4:0.21321961620469082 5:0.21321961620469082 6:0.01990049751243781 43:1.0 183:1.0 209:1.0 
2048.0 1:0.3333333333333333 2:0.19642857142857142 3:1.0 4:0.0021321961620469083 5:0.0021321961620469083 21:1.0 183:1.0 279:1.0 
2048.0 3:0.6578947368421053 4:0.16204690831556504 5:0.16204690831556504 59:1.0 104:1.0 217:1.0 
2048.0 1:0.3333333333333333 2:0.14285714285714285 3:1.0 4:0.06396588486140725 5:0.06396588486140725 25:1.0 183:1.0 227:1.0 
2048.0 1:0.3333333333333333 2:0.07142857142857142 3:1.0 4:0.06396588486140725 5:0.06396588486140725 25:1.0 183:1.0 227:1.0 
2048.0 2:0.17857142857142858 3:0.6578947368421053 4:0.16204690831556504 5:0.16204690831556504 59:1.0 104:1.0 217:1.0 
2048.0 2:0.19642857142857142 3:0.6578947368421053 4:0.16204690831556504 5:0.16204690831556504 59:1.0 117:1.0 251:1.0 
2048.0 1:0.3333333333333333 2:0.08928571428571429 3:0.9444444444444444 4:0.03837953091684435 5:0.03837953091684435 6:0.003316749585406302 24:1.0 131:1.0 279:1.0 
2048.0 1:0.3333333333333333 2:0.23214285714285715 3:0.8181818181818182 4:0.09381663113006397 5:0.09381663113006397 63:1.0 183:1.0 279:1.0 
2048.0 2:0.25 3:0.6578947368421053 4:0.16204690831556504 5:0.16204690831556504 59:1.0 104:1.0 217:1.0 
2048.0 1:0.3333333333333333 2:0.017857142857142856 3:0.5416666666666666 4:0.0511727078891258 5:0.0511727078891258 63:1.0 183:1.0 201:1.0 
907.8244098896756 1:0.3333333333333333 2:0.32142857142857145 3:1.0 4:0.0021321961620469083 5:0.0021321961620469083 24:1.0 104:1.0 209:1.0 
2048.0 2:0.375 3:0.9263157894736842 4:0.2025586353944563 5:0.2025586353944563 60:1.0 183:1.0 217:1.0 
2048.0 1:0.3333333333333333 2:0.2857142857142857 3:1.0 4:0.0042643923240938165 5:0.0042643923240938165 59:1.0 117:1.0 279:1.0 
2048.0 1:0.3333333333333333 2:0.375 3:0.9444444444444444 4:0.03837953091684435 5:0.03837953091684435 63:1.0 183:1.0 217:1.0 
2048.0 1:0.3333333333333333 2:0.017857142857142856 3:1.0 4:0.0021321961620469083 5:0.0021321961620469083 43:1.0 183:1.0 213:1.0 
2048.0 1:0.3333333333333333 2:0.125 3:1.0 4:0.0021321961620469083 5:0.0021321961620469083 25:1.0 131:1.0 279:1.0 
2048.0 2:0.14285714285714285 3:0.6578947368421053 4:0.16204690831556504 5:0.16204690831556504 59:1.0 104:1.0 217:1.0 
2048.0 1:0.3333333333333333 2:0.17857142857142858 3:0.9411764705882353 4:0.03624733475479744 5:0.03624733475479744 6:0.23217247097844113 25:1.0 183:1.0 235:1.0 
2048.0 1:0.3333333333333333 2:0.14285714285714285 3:0.875 4:0.06823027718550106 5:0.06823027718550106 25:1.0 104:1.0 199:1.0 
2048.0 1:0.3333333333333333 2:0.17857142857142858 3:1.0 4:0.01279317697228145 5:0.01279317697228145 25:1.0 183:1.0 199:1.0 
2048.0 1:0.3333333333333333 2:0.14285714285714285 3:0.8571428571428571 4:0.04477611940298507 5:0.04477611940298507 25:1.0 121:1.0 235:1.0 
2048.0 1:0.3333333333333333 2:0.25 3:0.75 4:0.05970149253731343 5:0.05970149253731343 63:1.0 104:1.0 217:1.0 
2048.0 2:0.3392857142857143 3:0.6578947368421053 4:0.16204690831556504 5:0.16204690831556504 59:1.0 139:1.0 217:1.0 
1367.9570466700388 1:0.3333333333333333 2:0.39285714285714285 3:0.8571428571428571 4:0.05970149253731343 5:0.05970149253731343 6:0.003316749585406302 25:1.0 183:1.0 200:1.0 
2048.0 2:0.03571428571428571 3:0.8571428571428571 4:0.04477611940298507 5:0.04477611940298507 59:1.0 121:1.0 279:1.0 
2048.0 2:0.14285714285714285 3:1.0 4:0.11300639658848614 5:0.11300639658848614 6:0.16583747927031509 59:1.0 104:1.0 217:1.0 
2048.0 2:0.21428571428571427 3:0.6578947368421053 4:0.16204690831556504 5:0.16204690831556504 59:1.0 104:1.0 217:1.0 
2048.0 1:0.3333333333333333 2:0.017857142857142856 3:0.5 4:0.0042643923240938165 5:0.0042643923240938165 8:1.0 183:1.0 279:1.0 
2048.0 1:0.3333333333333333 2:0.07142857142857142 3:0.5 4:0.0042643923240938165 5:0.0042643923240938165 8:1.0 183:1.0 200:1.0 
2048.0 1:0.3333333333333333 2:0.125 3:0.6 4:0.021321961620469083 5:0.021321961620469083 63:1.0 183:1.0 200:1.0 
2048.0 1:0.3333333333333333 2:0.26785714285714285 3:0.5 4:0.0042643923240938165 5:0.0042643923240938165 8:1.0 183:1.0 279:1.0 
2048.0 1:0.3333333333333333 2:0.375 3:0.6 4:0.021321961620469083 5:0.021321961620469083 63:1.0 183:1.0 200:1.0 
2048.0 1:0.3333333333333333 2:0.14285714285714285 3:0.75 4:0.008528784648187633 5:0.008528784648187633 60:1.0 155:1.0 252:1.0 
2048.0 1:0.3333333333333333 2:0.375 3:0.9024390243902439 4:0.08742004264392324 5:0.08742004264392324 6:0.008291873963515755 25:1.0 183:1.0 252:1.0 
2048.0 2:0.5357142857142857 3:0.979381443298969 4:0.2068230277185501 5:0.2068230277185501 24:1.0 121:1.0 279:1.0 
500.1173289018715 1:0.3333333333333333 2:0.08928571428571429 3:1.0 4:0.0021321961620469083 5:0.0021321961620469083 21:1.0 104:1.0 213:1.0 
2048.0 1:0.3333333333333333 2:0.16071428571428573 3:0.6 4:0.021321961620469083 5:0.021321961620469083 63:1.0 183:1.0 235:1.0 
2048.0 2:0.19642857142857142 3:0.9263157894736842 4:0.2025586353944563 5:0.2025586353944563 60:1.0 155:1.0 213:1.0 
2048.0 2:0.05357142857142857 3:0.979381443298969 4:0.2068230277185501 5:0.2068230277185501 24:1.0 121:1.0 279:1.0 
2048.0 2:0.26785714285714285 3:0.6578947368421053 4:0.16204690831556504 5:0.16204690831556504 59:1.0 121:1.0 217:1.0 
2048.0 1:0.3333333333333333 2:0.07142857142857142 3:0.7692307692307693 4:0.16631130063965885 5:0.16631130063965885 6:0.008291873963515755 63:1.0 183:1.0 217:1.0 
2048.0 1:0.3333333333333333 2:0.4642857142857143 3:0.5416666666666666 4:0.0511727078891258 5:0.0511727078891258 63:1.0 183:1.0 235:1.0 
2048.0 1:0.3333333333333333 2:0.125 3:0.5416666666666666 4:0.0511727078891258 5:0.0511727078891258 63:1.0 183:1.0 235:1.0 
2048.0 3:0.8571428571428571 4:0.04477611940298507 5:0.04477611940298507 59:1.0 121:1.0 279:1.0 
2048.0 1:0.3333333333333333 2:0.05357142857142857 3:1.0 4:0.0042643923240938165 5:0.0042643923240938165 6:0.06965174129353234 60:1.0 183:1.0 199:1.0 
2048.0 1:0.3333333333333333 2:0.125 3:1.0 4:0.0042643923240938165 5:0.0042643923240938165 63:1.0 120:1.0 217:1.0 
2048.0 1:0.3333333333333333 2:0.17857142857142858 3:0.7692307692307693 4:0.16631130063965885 5:0.16631130063965885 6:0.008291873963515755 63:1.0 183:1.0 217:1.0 
2048.0 1:0.3333333333333333 2:0.017857142857142856 3:0.5416666666666666 4:0.0511727078891258 5:0.0511727078891258 63:1.0 183:1.0 200:1.0 
421.7554632929861 1:0.3333333333333333 2:0.05357142857142857 3:0.6666666666666666 4:0.01279317697228145 5:0.01279317697228145 6:0.03980099502487562 8:1.0 159:1.0 227:1.0 
2048.0 2:0.21428571428571427 3:0.5 4:0.008528784648187633 5:0.008528784648187633 43:1.0 183:1.0 251:1.0 
50.181509987631536 60:1.0 183:1.0 215:1.0 
2048.0 2:0.05357142857142857 3:0.6578947368421053 4:0.16204690831556504 5:0.16204690831556504 59:1.0 155:1.0 217:1.0 
2048.0 1:0.3333333333333333 2:0.21428571428571427 3:1.0 4:0.010660980810234541 5:0.010660980810234541 6:0.02155887230514096 25:1.0 183:1.0 217:1.0 
2048.0 1:0.3333333333333333 2:0.05357142857142857 3:0.7142857142857143 4:0.014925373134328358 5:0.014925373134328358 63:1.0 123:1.0 217:1.0 
2048.0 2:0.08928571428571429 3:0.6578947368421053 4:0.16204690831556504 5:0.16204690831556504 59:1.0 183:1.0 217:1.0 
2048.0 1:0.3333333333333333 2:0.10714285714285714 3:0.6 4:0.010660980810234541 5:0.010660980810234541 6:0.1011608623548922 8:1.0 183:1.0 279:1.0 
2048.0 1:0.3333333333333333 2:0.017857142857142856 3:1.0 4:0.0021321961620469083 5:0.0021321961620469083 25:1.0 104:1.0 217:1.0 
2048.0 1:0.3333333333333333 2:0.125 3:0.8 4:0.010660980810234541 5:0.010660980810234541 59:1.0 183:1.0 251:1.0 
2048.0 1:0.3333333333333333 2:0.14285714285714285 3:0.5416666666666666 4:0.0511727078891258 5:0.0511727078891258 63:1.0 183:1.0 201:1.0 
2048.0 1:0.3333333333333333 2:0.19642857142857142 3:0.8571428571428571 4:0.05970149253731343 5:0.05970149253731343 6:0.003316749585406302 25:1.0 183:1.0 279:1.0 
2017.3716668506597 2:0.03571428571428571 3:0.9263157894736842 4:0.2025586353944563 5:0.2025586353944563 60:1.0 159:1.0 200:1.0 
2048.0 2:0.08928571428571429 3:0.6578947368421053 4:0.16204690831556504 5:0.16204690831556504 59:1.0 159:1.0 199:1.0 
2048.0 1:0.6666666666666666 2:0.14285714285714285 59:1.0 103:1.0 279:1.0 
2048.0 2:0.16071428571428573 3:0.8857142857142857 4:0.07462686567164178 5:0.07462686567164178 59:1.0 183:1.0 217:1.0 
2048.0 1:0.3333333333333333 2:0.017857142857142856 3:1.0 4:0.0042643923240938165 5:0.0042643923240938165 59:1.0 104:1.0 279:1.0 
2048.0 1:0.3333333333333333 2:0.07142857142857142 3:1.0 4:0.0042643923240938165 5:0.0042643923240938165 6:0.029850746268656716 25:1.0 103:1.0 235:1.0 
2048.0 1:0.6666666666666666 2:0.03571428571428571 3:1.0 4:0.0021321961620469083 5:0.0021321961620469083 63:1.0 183:1.0 200:1.0 
2048.0 1:0.3333333333333333 2:0.07142857142857142 3:0.7692307692307693 4:0.02771855010660981 5:0.02771855010660981 63:1.0 104:1.0 200:1.0 
2048.0 1:0.3333333333333333 2:0.125 3:0.9411764705882353 4:0.03624733475479744 5:0.03624733475479744 6:0.23217247097844113 25:1.0 183:1.0 252:1.0 
2048.0 1:0.3333333333333333 2:0.03571428571428571 3:0.87 4:0.21321961620469082 5:0.21321961620469082 6:0.01990049751243781 43:1.0 183:1.0 279:1.0 
2048.0 1:0.3333333333333333 2:0.125 3:0.5416666666666666 4:0.0511727078891258 5:0.0511727078891258 63:1.0 104:1.0 217:1.0 
2048.0 2:0.26785714285714285 3:0.979381443298969 4:0.2068230277185501 5:0.2068230277185501 24:1.0 123:1.0 279:1.0 
2048.0 1:0.3333333333333333 2:0.30357142857142855 3:1.0 4:0.06396588486140725 5:0.06396588486140725 25:1.0 183:1.0 200:1.0 
2048.0 2:0.03571428571428571 3:0.8857142857142857 4:0.07462686567164178 5:0.07462686567164178 59:1.0 183:1.0 251:1.0 
2048.0 1:0.3333333333333333 2:0.10714285714285714 3:0.87 4:0.21321961620469082 5:0.21321961620469082 6:0.01990049751243781 43:1.0 183:1.0 279:1.0 
2048.0 2:0.03571428571428571 3:0.6578947368421053 4:0.16204690831556504 5:0.16204690831556504 59:1.0 120:1.0 217:1.0 
2048.0 1:0.3333333333333333 2:0.08928571428571429 3:0.6666666666666666 4:0.006396588486140725 5:0.006396588486140725 63:1.0 183:1.0 199:1.0 
1813.3730825657929 1:0.3333333333333333 2:0.017857142857142856 3:1.0 4:0.0021321961620469083 5:0.0021321961620469083 21:1.0 117:1.0 219:1.0 
2048.0 2:0.03571428571428571 3:0.5 4:0.0042643923240938165 5:0.0042643923240938165 43:1.0 183:1.0 217:1.0 
2048.0 1:0.3333333333333333 2:0.03571428571428571 3:0.967741935483871 4:0.13219616204690832 5:0.13219616204690832 63:1.0 183:1.0 252:1.0 
143.03076007822952 1:0.3333333333333333 2:0.03571428571428571 3:1.0 4:0.014925373134328358 5:0.014925373134328358 6:0.07628524046434494 24:1.0 183:1.0 252:1.0 
2048.0 1:0.3333333333333333 2:0.10714285714285714 3:0.7777777777777778 4:0.03837953091684435 5:0.03837953091684435 59:1.0 104:1.0 252:1.0 
2048.0 1:0.3333333333333333 2:0.03571428571428571 3:0.967741935483871 4:0.13219616204690832 5:0.13219616204690832 63:1.0 183:1.0 252:1.0 
2048.0 2:0.05357142857142857 3:0.6538461538461539 4:0.05543710021321962 5:0.05543710021321962 25:1.0 183:1.0 217:1.0 
5.1338173863097385 1:0.3333333333333333 2:0.08928571428571429 3:0.5333333333333333 4:0.031982942430703626 5:0.031982942430703626 6:0.07462686567164178 8:1.0 139:1.0 235:1.0 
2048.0 2:0.19642857142857142 3:0.6578947368421053 4:0.16204690831556504 5:0.16204690831556504 59:1.0 183:1.0 252:1.0 
2048.0 3:1.0 4:0.0042643923240938165 5:0.0042643923240938165 59:1.0 183:1.0 217:1.0 
2048.0 2:0.05357142857142857 3:0.6578947368421053 4:0.16204690831556504 5:0.16204690831556504 59:1.0 155:1.0 251:1.0 
2048.0 2:0.07142857142857142 3:1.0 4:0.11300639658848614 5:0.11300639658848614 6:0.16583747927031509 59:1.0 155:1.0 227:1.0 
2048.0 1:0.3333333333333333 2:0.3392857142857143 3:0.6 4:0.010660980810234541 5:0.010660980810234541 6:0.1011608623548922 8:1.0 183:1.0 213:1.0 
2048.0 2:0.03571428571428571 3:0.6578947368421053 4:0.16204690831556504 5:0.16204690831556504 59:1.0 159:1.0 217:1.0 
2048.0 2:0.08928571428571429 3:0.6578947368421053 4:0.16204690831556504 5:0.16204690831556504 59:1.0 159:1.0 217:1.0 
2048.0 2:0.05357142857142857 3:0.6578947368421053 4:0.16204690831556504 5:0.16204690831556504 59:1.0 183:1.0 246:1.0 
2048.0 2:0.30357142857142855 3:0.6578947368421053 4:0.16204690831556504 5:0.16204690831556504 59:1.0 183:1.0 217:1.0 
2048.0 2:0.08928571428571429 3:0.5 4:0.008528784648187633 5:0.008528784648187633 43:1.0 183:1.0 251:1.0 
2048.0 1:0.3333333333333333 2:0.32142857142857145 3:0.7692307692307693 4:0.02771855010660981 5:0.02771855010660981 63:1.0 131:1.0 251:1.0 
2048.0 1:0.3333333333333333 2:0.4642857142857143 3:0.5555555555555556 4:0.03837953091684435 5:0.03837953091684435 63:1.0 183:1.0 217:1.0 
2048.0 1:0.3333333333333333 2:0.017857142857142856 3:0.5555555555555556 4:0.03837953091684435 5:0.03837953091684435 63:1.0 183:1.0 217:1.0 
2048.0 2:0.08928571428571429 3:0.6578947368421053 4:0.16204690831556504 5:0.16204690831556504 59:1.0 104:1.0 252:1.0 
2048.0 1:0.3333333333333333 2:0.017857142857142856 3:0.5555555555555556 4:0.03837953091684435 5:0.03837953091684435 63:1.0 183:1.0 217:1.0 
2048.0 2:0.08928571428571429 3:0.6578947368421053 4:0.16204690831556504 5:0.16204690831556504 59:1.0 104:1.0 252:1.0 
2048.0 1:0.3333333333333333 2:0.017857142857142856 3:0.75 4:0.008528784648187633 5:0.008528784648187633 60:1.0 183:1.0 217:1.0 
2048.0 1:0.3333333333333333 2:0.16071428571428573 3:0.8181818181818182 4:0.09381663113006397 5:0.09381663113006397 63:1.0 104:1.0 217:1.0 
2048.0 2:0.26785714285714285 3:0.6578947368421053 4:0.16204690831556504 5:0.16204690831556504 59:1.0 104:1.0 252:1.0 
2048.0 2:0.375 3:0.6578947368421053 4:0.16204690831556504 5:0.16204690831556504 59:1.0 159:1.0 279:1.0 
2048.0 2:0.5892857142857143 3:0.6578947368421053 4:0.16204690831556504 5:0.16204690831556504 59:1.0 183:1.0 217:1.0 
2048.0 1:0.3333333333333333 2:0.125 3:0.8571428571428571 4:0.04477611940298507 5:0.04477611940298507 25:1.0 183:1.0 227:1.0 
2048.0 1:0.3333333333333333 2:0.017857142857142856 3:0.967741935483871 4:0.13219616204690832 5:0.13219616204690832 63:1.0 183:1.0 217:1.0 
2048.0 2:0.08928571428571429 3:0.45454545454545453 4:0.023454157782515993 5:0.023454157782515993 59:1.0 183:1.0 279:1.0 
2048.0 1:0.3333333333333333 2:0.16071428571428573 3:0.75 4:0.008528784648187633 5:0.008528784648187633 60:1.0 183:1.0 217:1.0 
2048.0 1:0.3333333333333333 2:0.30357142857142855 3:0.8181818181818182 4:0.09381663113006397 5:0.09381663113006397 63:1.0 104:1.0 217:1.0 
2048.0 2:0.4107142857142857 3:0.6578947368421053 4:0.16204690831556504 5:0.16204690831556504 59:1.0 104:1.0 252:1.0 
1378.958073055406 1:0.3333333333333333 2:0.05357142857142857 3:1.0 4:0.0021321961620469083 5:0.0021321961620469083 21:1.0 110:1.0 209:1.0 
2048.0 2:0.30357142857142855 3:0.5 4:0.0042643923240938165 5:0.0042643923240938165 43:1.0 183:1.0 255:1.0 
2048.0 3:0.5 4:0.0042643923240938165 5:0.0042643923240938165 43:1.0 183:1.0 217:1.0 
2048.0 1:0.3333333333333333 2:0.30357142857142855 3:0.8 4:0.053304904051172705 5:0.053304904051172705 63:1.0 183:1.0 246:1.0 
2048.0 1:0.3333333333333333 2:0.3392857142857143 3:0.5 4:0.0042643923240938165 5:0.0042643923240938165 59:1.0 183:1.0 235:1.0 
2048.0 2:0.17857142857142858 3:0.6578947368421053 4:0.16204690831556504 5:0.16204690831556504 59:1.0 131:1.0 217:1.0 
2048.0 2:0.21428571428571427 3:0.6578947368421053 4:0.16204690831556504 5:0.16204690831556504 59:1.0 183:1.0 217:1.0 
1106.7497324990843 1:0.6666666666666666 2:0.26785714285714285 59:1.0 121:1.0 219:1.0 
2048.0 3:0.6578947368421053 4:0.16204690831556504 5:0.16204690831556504 59:1.0 183:1.0 217:1.0 
2048.0 2:0.017857142857142856 3:0.96 4:0.10660980810234541 5:0.10660980810234541 6:0.28192371475953565 63:1.0 104:1.0 200:1.0 
2048.0 1:0.3333333333333333 2:0.25 3:0.875 4:0.06823027718550106 5:0.06823027718550106 25:1.0 155:1.0 217:1.0 
2048.0 1:0.3333333333333333 2:0.21428571428571427 3:0.875 4:0.06823027718550106 5:0.06823027718550106 25:1.0 155:1.0 217:1.0 
2048.0 2:0.30357142857142855 3:0.9032258064516129 4:0.13219616204690832 5:0.13219616204690832 6:0.026533996683250415 25:1.0 104:1.0 279:1.0 
2048.0 3:0.6578947368421053 4:0.16204690831556504 5:0.16204690831556504 59:1.0 183:1.0 217:1.0 
2048.0 1:0.3333333333333333 2:0.03571428571428571 3:1.0 4:0.017057569296375266 5:0.017057569296375266 6:0.06633499170812604 25:1.0 155:1.0 279:1.0 
2048.0 2:0.07142857142857142 3:0.9032258064516129 4:0.13219616204690832 5:0.13219616204690832 6:0.026533996683250415 25:1.0 104:1.0 279:1.0 
2048.0 2:0.03571428571428571 3:0.6578947368421053 4:0.16204690831556504 5:0.16204690831556504 59:1.0 183:1.0 217:1.0 
2048.0 2:0.10714285714285714 3:0.9032258064516129 4:0.13219616204690832 5:0.13219616204690832 6:0.026533996683250415 25:1.0 104:1.0 279:1.0 
2048.0 1:0.3333333333333333 2:0.017857142857142856 3:1.0 4:0.06183368869936034 5:0.06183368869936034 6:0.004975124378109453 24:1.0 121:1.0 279:1.0 
2048.0 1:0.3333333333333333 2:0.10714285714285714 3:0.75 4:0.008528784648187633 5:0.008528784648187633 60:1.0 110:1.0 206:1.0 
2048.0 1:0.3333333333333333 2:0.017857142857142856 3:1.0 4:0.010660980810234541 5:0.010660980810234541 59:1.0 110:1.0 217:1.0 
644.9372600682087 3:0.9263157894736842 4:0.2025586353944563 5:0.2025586353944563 60:1.0 103:1.0 200:1.0 
1517.0428076116923 1:0.3333333333333333 2:0.03571428571428571 3:0.8 4:0.010660980810234541 5:0.010660980810234541 59:1.0 123:1.0 279:1.0 
2048.0 1:0.3333333333333333 2:0.16071428571428573 3:1.0 4:0.06396588486140725 5:0.06396588486140725 25:1.0 183:1.0 199:1.0 
2048.0 3:0.8125 4:0.03411513859275053 5:0.03411513859275053 25:1.0 183:1.0 217:1.0 
2048.0 1:0.3333333333333333 2:0.03571428571428571 3:0.8888888888888888 4:0.019189765458422176 5:0.019189765458422176 6:0.175787728026534 25:1.0 183:1.0 209:1.0 
2048.0 1:0.3333333333333333 2:0.017857142857142856 3:1.0 4:0.03624733475479744 5:0.03624733475479744 6:0.16583747927031509 25:1.0 104:1.0 279:1.0 
2048.0 1:0.3333333333333333 2:0.4107142857142857 3:1.0 4:0.06396588486140725 5:0.06396588486140725 25:1.0 183:1.0 199:1.0 
2048.0 1:0.3333333333333333 2:0.017857142857142856 3:1.0 4:0.03624733475479744 5:0.03624733475479744 6:0.16583747927031509 25:1.0 105:1.0 279:1.0 
2048.0 2:0.10714285714285714 3:0.6578947368421053 4:0.16204690831556504 5:0.16204690831556504 59:1.0 110:1.0 251:1.0 
1264.838021565365 1:0.3333333333333333 2:0.03571428571428571 3:1.0 4:0.03624733475479744 5:0.03624733475479744 6:0.16583747927031509 25:1.0 132:1.0 279:1.0 
2048.0 2:0.08928571428571429 3:0.6578947368421053 4:0.16204690831556504 5:0.16204690831556504 59:1.0 104:1.0 252:1.0 
2048.0 2:0.05357142857142857 3:1.0 4:0.11300639658848614 5:0.11300639658848614 6:0.16583747927031509 59:1.0 104:1.0 227:1.0 
2048.0 2:0.07142857142857142 3:1.0 4:0.11300639658848614 5:0.11300639658848614 6:0.16583747927031509 59:1.0 104:1.0 227:1.0 
2048.0 1:1.0 2:0.07142857142857142 3:0.8 4:0.010660980810234541 5:0.010660980810234541 63:1.0 183:1.0 251:1.0 
2048.0 1:0.6666666666666666 2:0.14285714285714285 3:1.0 4:0.0021321961620469083 5:0.0021321961620469083 63:1.0 183:1.0 209:1.0 
2048.0 1:0.3333333333333333 2:0.17857142857142858 3:0.8 4:0.053304904051172705 5:0.053304904051172705 63:1.0 183:1.0 217:1.0 
2048.0 3:0.8484848484848485 4:0.07036247334754797 5:0.07036247334754797 60:1.0 183:1.0 217:1.0 
2048.0 1:0.3333333333333333 2:0.08928571428571429 3:1.0 4:0.0255863539445629 5:0.0255863539445629 6:0.004975124378109453 59:1.0 183:1.0 201:1.0 
1642.6847769641106 2:0.10714285714285714 3:0.5 4:0.008528784648187633 5:0.008528784648187633 43:1.0 183:1.0 251:1.0 
2048.0 3:0.9166666666666666 4:0.0511727078891258 5:0.0511727078891258 65:1.0 183:1.0 200:1.0 
2048.0 1:0.3333333333333333 2:0.03571428571428571 3:0.6 4:0.010660980810234541 5:0.010660980810234541 6:0.1011608623548922 8:1.0 183:1.0 217:1.0 
2048.0 2:0.05357142857142857 3:0.6578947368421053 4:0.16204690831556504 5:0.16204690831556504 59:1.0 117:1.0 217:1.0 
2048.0 1:0.3333333333333333 2:0.017857142857142856 3:0.5714285714285714 4:0.014925373134328358 5:0.014925373134328358 6:0.004975124378109453 60:1.0 183:1.0 235:1.0 
2048.0 1:0.6666666666666666 2:0.125 3:0.7272727272727273 4:0.023454157782515993 5:0.023454157782515993 7:1.0 183:1.0 200:1.0 
2048.0 1:0.3333333333333333 2:0.03571428571428571 3:1.0 4:0.01279317697228145 5:0.01279317697228145 6:0.06633499170812604 24:1.0 183:1.0 279:1.0 
610.9978273071715 2:0.05357142857142857 3:0.6578947368421053 4:0.16204690831556504 5:0.16204690831556504 59:1.0 119:1.0 217:1.0 
1531.6316068950384 1:0.3333333333333333 2:0.017857142857142856 3:1.0 4:0.0021321961620469083 5:0.0021321961620469083 59:1.0 110:1.0 200:1.0 
2048.0 1:0.3333333333333333 2:0.125 3:0.87 4:0.21321961620469082 5:0.21321961620469082 6:0.01990049751243781 43:1.0 183:1.0 217:1.0 
2048.0 1:0.3333333333333333 2:0.25 3:0.87 4:0.21321961620469082 5:0.21321961620469082 6:0.01990049751243781 43:1.0 183:1.0 217:1.0 
2048.0 2:0.017857142857142856 3:0.9263157894736842 4:0.2025586353944563 5:0.2025586353944563 60:1.0 183:1.0 217:1.0 
2048.0 1:0.3333333333333333 2:0.05357142857142857 3:0.8571428571428571 4:0.014925373134328358 5:0.014925373134328358 25:1.0 104:1.0 252:1.0 
2048.0 1:0.3333333333333333 2:0.08928571428571429 3:1.0 4:0.0021321961620469083 5:0.0021321961620469083 24:1.0 183:1.0 279:1.0 
2048.0 1:0.3333333333333333 2:0.14285714285714285 3:0.5384615384615384 4:0.02771855010660981 5:0.02771855010660981 63:1.0 183:1.0 217:1.0 
2048.0 2:0.03571428571428571 3:0.6578947368421053 4:0.16204690831556504 5:0.16204690831556504 59:1.0 104:1.0 217:1.0 
2048.0 1:0.3333333333333333 2:0.19642857142857142 3:1.0 4:0.0021321961620469083 5:0.0021321961620469083 24:1.0 183:1.0 279:1.0 
2048.0 1:0.3333333333333333 2:0.25 3:0.5384615384615384 4:0.02771855010660981 5:0.02771855010660981 63:1.0 183:1.0 217:1.0 
2048.0 1:0.3333333333333333 2:0.08928571428571429 3:0.7692307692307693 4:0.16631130063965885 5:0.16631130063965885 6:0.008291873963515755 63:1.0 183:1.0 251:1.0 
213.1170317686536 2:0.10714285714285714 3:0.6578947368421053 4:0.16204690831556504 5:0.16204690831556504 59:1.0 159:1.0 217:1.0 
2048.0 2:0.125 3:0.8135593220338984 4:0.1257995735607676 5:0.1257995735607676 25:1.0 121:1.0 217:1.0 
2048.0 1:0.3333333333333333 2:0.05357142857142857 3:1.0 4:0.03624733475479744 5:0.03624733475479744 6:0.16583747927031509 25:1.0 117:1.0 279:1.0 
2048.0 1:0.3333333333333333 2:0.017857142857142856 3:1.0 4:0.03624733475479744 5:0.03624733475479744 6:0.16583747927031509 25:1.0 155:1.0 228:1.0 
698.8163117097578 3:0.5 4:0.0042643923240938165 5:0.0042643923240938165 43:1.0 183:1.0 248:1.0 
2048.0 2:0.03571428571428571 3:0.8135593220338984 4:0.1257995735607676 5:0.1257995735607676 25:1.0 123:1.0 279:1.0 
2048.0 1:0.3333333333333333 2:0.017857142857142856 3:1.0 4:0.03624733475479744 5:0.03624733475479744 6:0.16583747927031509 25:1.0 183:1.0 279:1.0 
2048.0 1:0.3333333333333333 2:0.14285714285714285 3:0.9411764705882353 4:0.03624733475479744 5:0.03624733475479744 6:0.23217247097844113 25:1.0 183:1.0 200:1.0 
2048.0 2:0.17857142857142858 3:0.8135593220338984 4:0.1257995735607676 5:0.1257995735607676 25:1.0 183:1.0 251:1.0 
652.7874236857108 3:0.9166666666666666 4:0.0511727078891258 5:0.0511727078891258 65:1.0 110:1.0 200:1.0 
6.4071733603392085 60:1.0 183:1.0 217:1.0 
2048.0 2:0.03571428571428571 3:0.979381443298969 4:0.2068230277185501 5:0.2068230277185501 24:1.0 121:1.0 279:1.0 
2048.0 2:0.08928571428571429 3:0.96 4:0.10660980810234541 5:0.10660980810234541 6:0.28192371475953565 63:1.0 104:1.0 235:1.0 
2048.0 1:0.3333333333333333 2:0.017857142857142856 3:0.5 4:0.0042643923240938165 5:0.0042643923240938165 59:1.0 183:1.0 227:1.0 
2048.0 2:0.17857142857142858 3:0.6578947368421053 4:0.16204690831556504 5:0.16204690831556504 59:1.0 104:1.0 255:1.0 
2048.0 1:0.3333333333333333 2:0.07142857142857142 3:0.875 4:0.06823027718550106 5:0.06823027718550106 25:1.0 104:1.0 199:1.0 
2048.0 2:0.03571428571428571 3:0.96 4:0.10660980810234541 5:0.10660980810234541 6:0.28192371475953565 63:1.0 110:1.0 206:1.0 
2048.0 1:0.3333333333333333 2:0.08928571428571429 3:0.5333333333333333 4:0.031982942430703626 5:0.031982942430703626 6:0.07462686567164178 8:1.0 104:1.0 217:1.0 
2048.0 1:0.3333333333333333 2:0.14285714285714285 3:0.875 4:0.06823027718550106 5:0.06823027718550106 25:1.0 104:1.0 199:1.0 
854.6797127486049 1:0.3333333333333333 2:0.17857142857142858 3:1.0 4:0.0042643923240938165 5:0.0042643923240938165 60:1.0 152:1.0 217:1.0 
2048.0 1:0.6666666666666666 2:0.17857142857142858 3:0.7272727272727273 4:0.023454157782515993 5:0.023454157782515993 7:1.0 183:1.0 200:1.0 
2048.0 3:0.9285714285714286 4:0.029850746268656716 5:0.029850746268656716 63:1.0 183:1.0 213:1.0 
2048.0 1:0.3333333333333333 2:0.03571428571428571 3:1.0 4:0.0021321961620469083 5:0.0021321961620469083 24:1.0 104:1.0 279:1.0 
2048.0 2:0.017857142857142856 3:0.8571428571428571 4:0.04477611940298507 5:0.04477611940298507 59:1.0 113:1.0 252:1.0 
2048.0 2:0.16071428571428573 3:0.9263157894736842 4:0.2025586353944563 5:0.2025586353944563 60:1.0 183:1.0 200:1.0 
2048.0 1:0.3333333333333333 2:0.017857142857142856 3:1.0 4:0.0021321961620469083 5:0.0021321961620469083 6:0.024875621890547265 21:1.0 183:1.0 251:1.0 
2048.0 3:0.979381443298969 4:0.2068230277185501 5:0.2068230277185501 24:1.0 121:1.0 279:1.0 
2048.0 2:0.03571428571428571 3:0.9263157894736842 4:0.2025586353944563 5:0.2025586353944563 60:1.0 183:1.0 217:1.0 
2048.0 2:0.017857142857142856 3:0.8571428571428571 4:0.04477611940298507 5:0.04477611940298507 59:1.0 183:1.0 217:1.0 
2048.0 2:0.08928571428571429 3:0.6578947368421053 4:0.16204690831556504 5:0.16204690831556504 59:1.0 183:1.0 217:1.0 
2048.0 1:0.3333333333333333 2:0.14285714285714285 3:1.0 4:0.017057569296375266 5:0.017057569296375266 6:0.06633499170812604 25:1.0 183:1.0 279:1.0 
117.49633919077631 1:0.3333333333333333 2:0.05357142857142857 3:1.0 4:0.0021321961620469083 5:0.0021321961620469083 43:1.0 121:1.0 234:1.0 
2048.0 1:0.3333333333333333 2:0.05357142857142857 3:0.87 4:0.21321961620469082 5:0.21321961620469082 6:0.01990049751243781 43:1.0 103:1.0 246:1.0 
471.71192741869055 1:0.3333333333333333 2:0.017857142857142856 3:0.75 4:0.008528784648187633 5:0.008528784648187633 25:1.0 104:1.0 279:1.0 
2048.0 1:0.3333333333333333 2:0.017857142857142856 3:1.0 4:0.017057569296375266 5:0.017057569296375266 6:0.06633499170812604 25:1.0 183:1.0 279:1.0 
202.89149562109267 1:0.3333333333333333 2:0.17857142857142858 3:1.0 4:0.0042643923240938165 5:0.0042643923240938165 6:0.04809286898839138 60:1.0 123:1.0 206:1.0 
2048.0 2:0.07142857142857142 3:0.6538461538461539 4:0.05543710021321962 5:0.05543710021321962 25:1.0 123:1.0 235:1.0 
2048.0 1:0.3333333333333333 2:0.10714285714285714 3:0.87 4:0.21321961620469082 5:0.21321961620469082 6:0.01990049751243781 43:1.0 121:1.0 246:1.0 
2048.0 1:0.3333333333333333 2:0.017857142857142856 3:1.0 4:0.0511727078891258 5:0.0511727078891258 25:1.0 183:1.0 279:1.0 
2048.0 1:0.3333333333333333 2:0.08928571428571429 3:0.8 4:0.053304904051172705 5:0.053304904051172705 63:1.0 113:1.0 217:1.0 
2048.0 1:0.3333333333333333 2:0.03571428571428571 3:1.0 4:0.0021321961620469083 5:0.0021321961620469083 25:1.0 104:1.0 279:1.0 
2048.0 1:0.3333333333333333 2:0.017857142857142856 3:0.75 4:0.008528784648187633 5:0.008528784648187633 60:1.0 183:1.0 200:1.0 
2048.0 1:0.3333333333333333 2:0.16071428571428573 3:1.0 4:0.06396588486140725 5:0.06396588486140725 25:1.0 183:1.0 200:1.0 
2048.0 1:0.3333333333333333 2:0.19642857142857142 3:1.0 4:0.0021321961620469083 5:0.0021321961620469083 17:1.0 121:1.0 279:1.0 
2048.0 1:0.3333333333333333 2:0.4107142857142857 3:0.5333333333333333 4:0.031982942430703626 5:0.031982942430703626 6:0.07462686567164178 8:1.0 103:1.0 279:1.0 
2039.5906939550973 1:0.3333333333333333 2:0.19642857142857142 3:0.5333333333333333 4:0.031982942430703626 5:0.031982942430703626 6:0.07462686567164178 8:1.0 103:1.0 279:1.0 
321.4292369774699 2:0.08928571428571429 3:0.979381443298969 4:0.2068230277185501 5:0.2068230277185501 24:1.0 120:1.0 248:1.0 
2048.0 1:0.3333333333333333 2:0.125 3:0.7692307692307693 4:0.16631130063965885 5:0.16631130063965885 6:0.008291873963515755 63:1.0 104:1.0 251:1.0 
2048.0 2:0.017857142857142856 3:0.45454545454545453 4:0.023454157782515993 5:0.023454157782515993 59:1.0 183:1.0 279:1.0 
2048.0 2:0.03571428571428571 3:0.7777777777777778 4:0.019189765458422176 5:0.019189765458422176 59:1.0 183:1.0 252:1.0 
2048.0 1:0.3333333333333333 2:0.07142857142857142 3:0.7692307692307693 4:0.16631130063965885 5:0.16631130063965885 6:0.008291873963515755 63:1.0 183:1.0 217:1.0 
2048.0 1:0.3333333333333333 2:0.375 3:1.0 4:0.08955223880597014 5:0.08955223880597014 25:1.0 183:1.0 206:1.0 
61.94618857865073 1:0.3333333333333333 2:0.017857142857142856 3:1.0 4:0.006396588486140725 5:0.006396588486140725 6:0.16583747927031509 40:1.0 104:1.0 217:1.0 
2048.0 1:0.3333333333333333 2:0.05357142857142857 3:1.0 4:0.0021321961620469083 5:0.0021321961620469083 6:0.02321724709784411 25:1.0 136:1.0 200:1.0 
2048.0 2:0.03571428571428571 3:0.96 4:0.10660980810234541 5:0.10660980810234541 6:0.28192371475953565 63:1.0 104:1.0 235:1.0 
2048.0 1:0.3333333333333333 2:0.08928571428571429 3:1.0 4:0.03624733475479744 5:0.03624733475479744 6:0.16583747927031509 25:1.0 183:1.0 279:1.0 
2048.0 1:0.3333333333333333 2:0.14285714285714285 3:0.9024390243902439 4:0.08742004264392324 5:0.08742004264392324 6:0.008291873963515755 25:1.0 183:1.0 252:1.0 
2048.0 1:0.3333333333333333 2:0.10714285714285714 3:0.875 4:0.06823027718550106 5:0.06823027718550106 25:1.0 103:1.0 247:1.0 
2048.0 1:0.3333333333333333 2:0.42857142857142855 3:1.0 4:0.0511727078891258 5:0.0511727078891258 25:1.0 183:1.0 217:1.0 
2048.0 1:0.3333333333333333 2:0.07142857142857142 3:1.0 4:0.017057569296375266 5:0.017057569296375266 6:0.06633499170812604 25:1.0 120:1.0 279:1.0 
2048.0 1:0.3333333333333333 2:0.03571428571428571 3:1.0 4:0.03624733475479744 5:0.03624733475479744 6:0.16583747927031509 25:1.0 120:1.0 279:1.0 
2048.0 2:0.08928571428571429 3:1.0 4:0.0042643923240938165 5:0.0042643923240938165 25:1.0 123:1.0 206:1.0 
2048.0 1:0.3333333333333333 2:0.25 3:0.5833333333333334 4:0.0255863539445629 5:0.0255863539445629 6:0.02321724709784411 43:1.0 183:1.0 255:1.0 
2048.0 1:0.3333333333333333 2:0.2857142857142857 3:0.7692307692307693 4:0.16631130063965885 5:0.16631130063965885 6:0.008291873963515755 63:1.0 139:1.0 272:1.0 
2048.0 1:0.3333333333333333 2:0.017857142857142856 3:0.5833333333333334 4:0.0255863539445629 5:0.0255863539445629 6:0.02321724709784411 43:1.0 183:1.0 252:1.0 
2048.0 2:0.07142857142857142 3:0.6578947368421053 4:0.16204690831556504 5:0.16204690831556504 59:1.0 121:1.0 217:1.0 
2048.0 1:0.3333333333333333 2:0.30357142857142855 3:1.0 4:0.0021321961620469083 5:0.0021321961620469083 24:1.0 121:1.0 279:1.0 
2048.0 1:0.3333333333333333 2:0.017857142857142856 3:0.5833333333333334 4:0.0255863539445629 5:0.0255863539445629 6:0.02321724709784411 43:1.0 183:1.0 255:1.0 
2048.0 1:0.3333333333333333 2:0.05357142857142857 3:0.7692307692307693 4:0.16631130063965885 5:0.16631130063965885 6:0.008291873963515755 63:1.0 139:1.0 272:1.0 
2048.0 1:0.3333333333333333 2:0.25 3:0.5833333333333334 4:0.0255863539445629 5:0.0255863539445629 6:0.02321724709784411 43:1.0 183:1.0 255:1.0 
52.24658046488848 3:0.5 4:0.0042643923240938165 5:0.0042643923240938165 43:1.0 183:1.0 248:1.0 
2048.0 1:0.3333333333333333 2:0.125 3:1.0 4:0.0021321961620469083 5:0.0021321961620469083 6:0.001658374792703151 25:1.0 110:1.0 279:1.0 
2048.0 1:0.3333333333333333 2:0.14285714285714285 3:1.0 4:0.0021321961620469083 5:0.0021321961620469083 6:0.001658374792703151 25:1.0 110:1.0 279:1.0 
2048.0 1:0.3333333333333333 2:0.017857142857142856 3:0.5833333333333334 4:0.0255863539445629 5:0.0255863539445629 6:0.02321724709784411 43:1.0 183:1.0 255:1.0 
2048.0 1:0.3333333333333333 2:0.05357142857142857 3:0.7692307692307693 4:0.16631130063965885 5:0.16631130063965885 6:0.008291873963515755 63:1.0 139:1.0 272:1.0 
2048.0 1:0.3333333333333333 2:0.32142857142857145 3:0.9444444444444444 4:0.03837953091684435 5:0.03837953091684435 6:0.003316749585406302 24:1.0 108:1.0 199:1.0 
1723.4951478810985 1:0.6666666666666666 2:0.10714285714285714 3:0.8 4:0.010660980810234541 5:0.010660980810234541 6:0.003316749585406302 59:1.0 176:1.0 217:1.0 
2048.0 2:0.05357142857142857 3:0.6538461538461539 4:0.05543710021321962 5:0.05543710021321962 25:1.0 183:1.0 217:1.0 
2048.0 1:0.3333333333333333 2:0.17857142857142858 3:0.7692307692307693 4:0.16631130063965885 5:0.16631130063965885 6:0.008291873963515755 63:1.0 183:1.0 272:1.0 
2048.0 1:0.3333333333333333 2:0.03571428571428571 3:1.0 4:0.010660980810234541 5:0.010660980810234541 6:0.14096185737976782 21:1.0 183:1.0 251:1.0 
2048.0 1:0.3333333333333333 2:0.017857142857142856 3:1.0 4:0.03624733475479744 5:0.03624733475479744 6:0.16583747927031509 25:1.0 104:1.0 217:1.0 
2048.0 1:0.3333333333333333 2:0.03571428571428571 3:1.0 4:0.017057569296375266 5:0.017057569296375266 6:0.06633499170812604 25:1.0 155:1.0 279:1.0 
2048.0 1:0.3333333333333333 2:0.017857142857142856 3:1.0 4:0.03624733475479744 5:0.03624733475479744 6:0.16583747927031509 25:1.0 104:1.0 217:1.0 
2048.0 1:0.3333333333333333 2:0.03571428571428571 3:1.0 4:0.0021321961620469083 5:0.0021321961620469083 25:1.0 183:1.0 252:1.0 
2048.0 1:0.3333333333333333 2:0.017857142857142856 3:0.5555555555555556 4:0.03837953091684435 5:0.03837953091684435 63:1.0 183:1.0 279:1.0 
763.483264453092 1:0.3333333333333333 2:0.05357142857142857 3:1.0 4:0.0021321961620469083 5:0.0021321961620469083 6:0.04145936981757877 21:1.0 109:1.0 217:1.0 
1143.679105032785 1:0.3333333333333333 2:0.08928571428571429 3:1.0 4:0.0042643923240938165 5:0.0042643923240938165 25:1.0 117:1.0 199:1.0 
2048.0 1:0.3333333333333333 2:0.16071428571428573 3:1.0 4:0.0021321961620469083 5:0.0021321961620469083 24:1.0 121:1.0 279:1.0 
969.5725299733137 1:0.3333333333333333 2:0.14285714285714285 3:1.0 4:0.0021321961620469083 5:0.0021321961620469083 43:1.0 156:1.0 206:1.0 
2048.0 1:0.3333333333333333 2:0.017857142857142856 3:1.0 4:0.0021321961620469083 5:0.0021321961620469083 6:0.04975124378109453 59:1.0 183:1.0 217:1.0 
2048.0 1:0.3333333333333333 2:0.07142857142857142 3:0.8888888888888888 4:0.019189765458422176 5:0.019189765458422176 6:0.175787728026534 25:1.0 183:1.0 205:1.0 
2048.0 2:0.08928571428571429 3:0.8125 4:0.03411513859275053 5:0.03411513859275053 25:1.0 183:1.0 217:1.0 
2048.0 2:0.16071428571428573 3:0.6578947368421053 4:0.16204690831556504 5:0.16204690831556504 59:1.0 139:1.0 217:1.0 
2048.0 1:0.3333333333333333 2:0.08928571428571429 3:0.7692307692307693 4:0.16631130063965885 5:0.16631130063965885 6:0.008291873963515755 63:1.0 183:1.0 251:1.0 
2048.0 1:0.3333333333333333 2:0.17857142857142858 3:1.0 4:0.029850746268656716 5:0.029850746268656716 6:0.03814262023217247 8:1.0 183:1.0 217:1.0 
2048.0 3:1.0 4:0.0255863539445629 5:0.0255863539445629 25:1.0 183:1.0 279:1.0 
2048.0 1:0.3333333333333333 2:0.25 3:0.9024390243902439 4:0.08742004264392324 5:0.08742004264392324 6:0.008291873963515755 25:1.0 104:1.0 200:1.0 
2048.0 1:0.3333333333333333 2:0.30357142857142855 3:0.7692307692307693 4:0.16631130063965885 5:0.16631130063965885 6:0.008291873963515755 63:1.0 183:1.0 251:1.0 
2048.0 3:1.0 4:0.0255863539445629 5:0.0255863539445629 25:1.0 183:1.0 279:1.0 
2048.0 1:0.3333333333333333 2:0.07142857142857142 3:0.9285714285714286 4:0.05970149253731343 5:0.05970149253731343 63:1.0 139:1.0 217:1.0 
190.591878524608 3:0.5 4:0.0042643923240938165 5:0.0042643923240938165 43:1.0 183:1.0 248:1.0 
2048.0 2:0.017857142857142856 3:0.6578947368421053 4:0.16204690831556504 5:0.16204690831556504 59:1.0 104:1.0 217:1.0 
2048.0 2:0.21428571428571427 3:0.8571428571428571 4:0.04477611940298507 5:0.04477611940298507 59:1.0 109:1.0 217:1.0 
2048.0 1:0.3333333333333333 2:0.07142857142857142 3:1.0 4:0.03624733475479744 5:0.03624733475479744 6:0.16583747927031509 25:1.0 123:1.0 217:1.0 
3.0421883273343395 3:1.0 4:0.0255863539445629 5:0.0255863539445629 25:1.0 105:1.0 279:1.0 
2048.0 1:0.3333333333333333 2:0.07142857142857142 3:0.7058823529411765 4:0.07249466950959488 5:0.07249466950959488 63:1.0 159:1.0 200:1.0 
2048.0 2:0.03571428571428571 3:0.8571428571428571 4:0.04477611940298507 5:0.04477611940298507 59:1.0 183:1.0 217:1.0 
2048.0 2:0.07142857142857142 3:0.9263157894736842 4:0.2025586353944563 5:0.2025586353944563 60:1.0 155:1.0 217:1.0 
2048.0 1:0.3333333333333333 2:0.21428571428571427 3:1.0 4:0.0021321961620469083 5:0.0021321961620469083 24:1.0 123:1.0 279:1.0 
33.56783775138984 60:1.0 183:1.0 213:1.0 
2048.0 1:0.3333333333333333 2:0.05357142857142857 3:0.9285714285714286 4:0.05970149253731343 5:0.05970149253731343 63:1.0 139:1.0 217:1.0 
2048.0 1:0.3333333333333333 2:0.017857142857142856 3:1.0 4:0.008528784648187633 5:0.008528784648187633 6:0.03150912106135987 25:1.0 183:1.0 199:1.0 
280.434653305261 1:0.3333333333333333 2:0.05357142857142857 3:1.0 4:0.0021321961620469083 5:0.0021321961620469083 59:1.0 109:1.0 235:1.0 
54.22717618979658 1:0.6666666666666666 2:0.03571428571428571 3:1.0 4:0.0021321961620469083 5:0.0021321961620469083 17:1.0 150:1.0 206:1.0 
876.792838609763 1:0.3333333333333333 2:0.10714285714285714 3:1.0 4:0.006396588486140725 5:0.006396588486140725 6:0.16583747927031509 40:1.0 183:1.0 199:1.0 
2048.0 1:0.3333333333333333 2:0.14285714285714285 3:0.5333333333333333 4:0.031982942430703626 5:0.031982942430703626 6:0.07462686567164178 8:1.0 103:1.0 217:1.0 
2048.0 1:0.3333333333333333 2:0.30357142857142855 3:1.0 4:0.06396588486140725 5:0.06396588486140725 25:1.0 183:1.0 199:1.0 
2048.0 1:0.3333333333333333 2:0.017857142857142856 3:1.0 4:0.010660980810234541 5:0.010660980810234541 59:1.0 110:1.0 217:1.0 
2048.0 1:1.0 2:0.05357142857142857 3:0.8 4:0.010660980810234541 5:0.010660980810234541 63:1.0 183:1.0 279:1.0 
2048.0 1:0.3333333333333333 2:0.19642857142857142 3:1.0 4:0.0042643923240938165 5:0.0042643923240938165 25:1.0 183:1.0 206:1.0 
2047.984541489584 1:0.6666666666666666 2:0.03571428571428571 3:1.0 4:0.0021321961620469083 5:0.0021321961620469083 17:1.0 150:1.0 206:1.0 
2048.0 2:0.05357142857142857 3:1.0 4:0.0255863539445629 5:0.0255863539445629 25:1.0 183:1.0 235:1.0 
2048.0 1:1.0 2:0.17857142857142858 3:0.8 4:0.010660980810234541 5:0.010660980810234541 63:1.0 183:1.0 205:1.0 
2048.0 1:0.3333333333333333 2:0.03571428571428571 3:0.5333333333333333 4:0.031982942430703626 5:0.031982942430703626 6:0.07462686567164178 8:1.0 103:1.0 217:1.0 
2048.0 1:0.3333333333333333 2:0.08928571428571429 3:1.0 4:0.06183368869936034 5:0.06183368869936034 6:0.004975124378109453 24:1.0 104:1.0 246:1.0 
2048.0 1:0.3333333333333333 2:0.07142857142857142 3:1.0 4:0.03624733475479744 5:0.03624733475479744 6:0.16583747927031509 25:1.0 103:1.0 279:1.0 
2048.0 1:0.3333333333333333 2:0.017857142857142856 3:1.0 4:0.010660980810234541 5:0.010660980810234541 59:1.0 110:1.0 217:1.0 
2048.0 1:0.3333333333333333 2:0.017857142857142856 3:1.0 4:0.03624733475479744 5:0.03624733475479744 6:0.16583747927031509 25:1.0 104:1.0 279:1.0 
2048.0 1:0.3333333333333333 2:0.05357142857142857 3:0.7142857142857143 4:0.014925373134328358 5:0.014925373134328358 63:1.0 123:1.0 217:1.0 
1425.0128539142922 3:0.5 4:0.0042643923240938165 5:0.0042643923240938165 43:1.0 183:1.0 246:1.0 
2048.0 1:0.3333333333333333 2:0.03571428571428571 3:0.5333333333333333 4:0.031982942430703626 5:0.031982942430703626 6:0.07462686567164178 8:1.0 103:1.0 217:1.0 
2048.0 1:0.3333333333333333 2:0.08928571428571429 3:1.0 4:0.06183368869936034 5:0.06183368869936034 6:0.004975124378109453 24:1.0 104:1.0 246:1.0 
2048.0 2:0.017857142857142856 3:0.5 4:0.008528784648187633 5:0.008528784648187633 43:1.0 183:1.0 251:1.0 
2048.0 1:0.3333333333333333 2:0.08928571428571429 3:0.8 4:0.053304904051172705 5:0.053304904051172705 63:1.0 183:1.0 205:1.0 
2048.0 2:0.017857142857142856 3:0.6538461538461539 4:0.05543710021321962 5:0.05543710021321962 25:1.0 183:1.0 217:1.0 
2048.0 2:0.017857142857142856 3:0.979381443298969 4:0.2068230277185501 5:0.2068230277185501 24:1.0 104:1.0 252:1.0 
2048.0 2:0.10714285714285714 3:0.6578947368421053 4:0.16204690831556504 5:0.16204690831556504 59:1.0 110:1.0 217:1.0 
23.75001420552837 2:0.16071428571428573 3:0.96 4:0.10660980810234541 5:0.10660980810234541 6:0.28192371475953565 63:1.0 109:1.0 235:1.0 
2048.0 1:0.3333333333333333 2:0.19642857142857142 3:0.5416666666666666 4:0.0511727078891258 5:0.0511727078891258 63:1.0 183:1.0 200:1.0 
2048.0 1:0.3333333333333333 2:0.017857142857142856 3:0.9024390243902439 4:0.08742004264392324 5:0.08742004264392324 6:0.008291873963515755 25:1.0 183:1.0 201:1.0 
2016.686982556135 1:0.3333333333333333 2:0.07142857142857142 3:1.0 4:0.03624733475479744 5:0.03624733475479744 6:0.16583747927031509 25:1.0 155:1.0 199:1.0 
2048.0 1:0.3333333333333333 2:0.10714285714285714 3:0.9411764705882353 4:0.03624733475479744 5:0.03624733475479744 6:0.23217247097844113 25:1.0 183:1.0 217:1.0 
2048.0 1:0.3333333333333333 2:0.17857142857142858 3:1.0 4:0.03624733475479744 5:0.03624733475479744 6:0.16583747927031509 25:1.0 183:1.0 251:1.0 
2048.0 1:0.3333333333333333 2:0.07142857142857142 3:0.3953488372093023 4:0.09168443496801706 5:0.09168443496801706 60:1.0 183:1.0 246:1.0 
2048.0 1:0.3333333333333333 2:0.017857142857142856 3:1.0 4:0.0042643923240938165 5:0.0042643923240938165 6:0.06965174129353234 60:1.0 183:1.0 213:1.0 
2048.0 1:0.3333333333333333 2:0.125 3:0.75 4:0.008528784648187633 5:0.008528784648187633 60:1.0 183:1.0 206:1.0 
2048.0 2:0.19642857142857142 3:0.979381443298969 4:0.2068230277185501 5:0.2068230277185501 24:1.0 121:1.0 279:1.0 
2048.0 1:0.6666666666666666 2:0.03571428571428571 3:0.5416666666666666 4:0.0511727078891258 5:0.0511727078891258 7:1.0 183:1.0 217:1.0 
2048.0 2:0.16071428571428573 3:0.7636363636363637 4:0.11727078891257996 5:0.11727078891257996 6:1.0 60:1.0 183:1.0 251:1.0 
2048.0 2:0.14285714285714285 3:0.6578947368421053 4:0.16204690831556504 5:0.16204690831556504 59:1.0 155:1.0 199:1.0 
2048.0 2:0.23214285714285715 3:0.6578947368421053 4:0.16204690831556504 5:0.16204690831556504 59:1.0 109:1.0 217:1.0 
2048.0 2:0.017857142857142856 3:0.8135593220338984 4:0.1257995735607676 5:0.1257995735607676 25:1.0 104:1.0 246:1.0 
2048.0 1:0.3333333333333333 2:0.08928571428571429 3:1.0 4:0.0021321961620469083 5:0.0021321961620469083 6:0.008291873963515755 8:1.0 152:1.0 279:1.0 
1554.063191290889 3:1.0 4:0.008528784648187633 5:0.008528784648187633 8:1.0 156:1.0 235:1.0 
2048.0 1:0.3333333333333333 2:0.03571428571428571 3:0.5416666666666666 4:0.0511727078891258 5:0.0511727078891258 63:1.0 183:1.0 217:1.0 
2048.0 2:0.14285714285714285 3:0.6578947368421053 4:0.16204690831556504 5:0.16204690831556504 59:1.0 104:1.0 217:1.0 
2048.0 2:0.05357142857142857 3:0.5 4:0.008528784648187633 5:0.008528784648187633 43:1.0 183:1.0 248:1.0 
2048.0 2:0.08928571428571429 3:0.9583333333333334 4:0.0511727078891258 5:0.0511727078891258 60:1.0 183:1.0 217:1.0 
2048.0 1:0.6666666666666666 2:0.05357142857142857 3:0.5416666666666666 4:0.0511727078891258 5:0.0511727078891258 7:1.0 183:1.0 252:1.0 
2048.0 1:0.3333333333333333 2:0.07142857142857142 3:0.7058823529411765 4:0.07249466950959488 5:0.07249466950959488 63:1.0 183:1.0 200:1.0 
2048.0 1:0.3333333333333333 2:0.26785714285714285 3:1.0 4:0.0021321961620469083 5:0.0021321961620469083 59:1.0 183:1.0 279:1.0 
4.5419636311304785 1:0.3333333333333333 2:0.017857142857142856 3:0.6 4:0.010660980810234541 5:0.010660980810234541 6:0.1011608623548922 8:1.0 123:1.0 217:1.0 
2048.0 1:0.3333333333333333 2:0.125 3:0.7058823529411765 4:0.07249466950959488 5:0.07249466950959488 63:1.0 183:1.0 219:1.0 
1743.9178698996063 1:0.3333333333333333 2:0.017857142857142856 3:0.6 4:0.010660980810234541 5:0.010660980810234541 6:0.1011608623548922 8:1.0 123:1.0 217:1.0 
2048.0 1:0.3333333333333333 2:0.125 3:0.7058823529411765 4:0.07249466950959488 5:0.07249466950959488 63:1.0 183:1.0 219:1.0 
2048.0 1:0.3333333333333333 2:0.2857142857142857 3:0.8181818181818182 4:0.09381663113006397 5:0.09381663113006397 63:1.0 183:1.0 235:1.0 
2048.0 1:0.3333333333333333 2:0.05357142857142857 3:1.0 4:0.03624733475479744 5:0.03624733475479744 6:0.16583747927031509 25:1.0 104:1.0 279:1.0 
895.16125935114 2:0.08928571428571429 3:0.5 4:0.0042643923240938165 5:0.0042643923240938165 43:1.0 183:1.0 217:1.0 
2048.0 1:0.3333333333333333 2:0.03571428571428571 3:1.0 4:0.0021321961620469083 5:0.0021321961620469083 24:1.0 104:1.0 279:1.0 
1888.4201963114992 2:0.16071428571428573 3:0.5 4:0.008528784648187633 5:0.008528784648187633 43:1.0 156:1.0 248:1.0 
2048.0 1:0.3333333333333333 2:0.017857142857142856 3:1.0 4:0.0042643923240938165 5:0.0042643923240938165 59:1.0 109:1.0 217:1.0 
2048.0 1:0.3333333333333333 2:0.05357142857142857 3:1.0 4:0.0021321961620469083 5:0.0021321961620469083 24:1.0 123:1.0 251:1.0 
2048.0 1:0.3333333333333333 2:0.16071428571428573 3:1.0 4:0.03624733475479744 5:0.03624733475479744 6:0.16583747927031509 25:1.0 117:1.0 279:1.0 
2048.0 1:0.3333333333333333 2:0.19642857142857142 3:0.967741935483871 4:0.06609808102345416 5:0.06609808102345416 6:0.001658374792703151 63:1.0 183:1.0 235:1.0 
2048.0 2:0.017857142857142856 3:0.979381443298969 4:0.2068230277185501 5:0.2068230277185501 24:1.0 121:1.0 246:1.0 
2048.0 1:0.3333333333333333 2:0.14285714285714285 3:1.0 4:0.06183368869936034 5:0.06183368869936034 6:0.004975124378109453 24:1.0 121:1.0 279:1.0 
2048.0 1:0.3333333333333333 2:0.17857142857142858 3:0.5714285714285714 4:0.014925373134328358 5:0.014925373134328358 59:1.0 183:1.0 252:1.0 
2048.0 1:0.3333333333333333 2:0.25 3:0.7692307692307693 4:0.16631130063965885 5:0.16631130063965885 6:0.008291873963515755 63:1.0 183:1.0 279:1.0 
2048.0 1:0.3333333333333333 2:0.08928571428571429 3:1.0 4:0.06183368869936034 5:0.06183368869936034 6:0.004975124378109453 24:1.0 123:1.0 217:1.0 
4.1816270960780795 60:1.0 183:1.0 213:1.0 
2048.0 1:0.3333333333333333 2:0.07142857142857142 3:1.0 4:0.006396588486140725 5:0.006396588486140725 6:0.07462686567164178 59:1.0 183:1.0 279:1.0 
2048.0 1:0.3333333333333333 2:0.26785714285714285 3:0.7692307692307693 4:0.16631130063965885 5:0.16631130063965885 6:0.008291873963515755 63:1.0 103:1.0 279:1.0 
2048.0 1:0.3333333333333333 2:0.017857142857142856 3:1.0 4:0.0021321961620469083 5:0.0021321961620469083 6:0.024875621890547265 21:1.0 183:1.0 251:1.0 
2048.0 1:0.3333333333333333 2:0.017857142857142856 3:1.0 4:0.03624733475479744 5:0.03624733475479744 6:0.16583747927031509 25:1.0 104:1.0 279:1.0 
2048.0 1:0.3333333333333333 2:0.08928571428571429 3:1.0 4:0.008528784648187633 5:0.008528784648187633 63:1.0 183:1.0 252:1.0 
164.97652148891427 2:0.10714285714285714 3:0.5 4:0.008528784648187633 5:0.008528784648187633 43:1.0 183:1.0 251:1.0 
1082.0679290496998 1:0.3333333333333333 2:0.017857142857142856 3:1.0 4:0.06183368869936034 5:0.06183368869936034 6:0.004975124378109453 24:1.0 121:1.0 201:1.0 
2048.0 1:0.3333333333333333 2:0.05357142857142857 3:1.0 4:0.0021321961620469083 5:0.0021321961620469083 24:1.0 104:1.0 279:1.0 
296.87973884952333 1:0.3333333333333333 2:0.25 3:1.0 4:0.06183368869936034 5:0.06183368869936034 6:0.004975124378109453 24:1.0 104:1.0 272:1.0 
2048.0 3:0.9166666666666666 4:0.0511727078891258 5:0.0511727078891258 65:1.0 183:1.0 200:1.0 
258.4817332095134 1:0.3333333333333333 2:0.03571428571428571 3:1.0 4:0.0042643923240938165 5:0.0042643923240938165 60:1.0 110:1.0 228:1.0 
2048.0 3:1.0 4:0.0255863539445629 5:0.0255863539445629 25:1.0 183:1.0 279:1.0 
2048.0 1:0.3333333333333333 2:0.05357142857142857 3:1.0 4:0.0021321961620469083 5:0.0021321961620469083 6:0.024875621890547265 21:1.0 183:1.0 251:1.0 
2048.0 1:1.0 2:0.16071428571428573 3:1.0 4:0.0042643923240938165 5:0.0042643923240938165 7:1.0 183:1.0 279:1.0 
2048.0 1:0.3333333333333333 2:0.26785714285714285 3:0.7692307692307693 4:0.16631130063965885 5:0.16631130063965885 6:0.008291873963515755 63:1.0 183:1.0 279:1.0 
2048.0 3:0.9263157894736842 4:0.2025586353944563 5:0.2025586353944563 60:1.0 117:1.0 217:1.0 
2048.0 1:0.3333333333333333 2:0.03571428571428571 3:0.8571428571428571 4:0.014925373134328358 5:0.014925373134328358 25:1.0 104:1.0 279:1.0 
2048.0 2:0.05357142857142857 3:0.6578947368421053 4:0.16204690831556504 5:0.16204690831556504 59:1.0 159:1.0 217:1.0 
2039.297203490783 2:0.08928571428571429 3:0.5 4:0.0042643923240938165 5:0.0042643923240938165 43:1.0 183:1.0 217:1.0 
2048.0 1:0.3333333333333333 2:0.05357142857142857 3:1.0 4:0.0021321961620469083 5:0.0021321961620469083 59:1.0 183:1.0 252:1.0 
2048.0 3:0.6578947368421053 4:0.16204690831556504 5:0.16204690831556504 59:1.0 183:1.0 217:1.0 
31.370208862330927 1:0.3333333333333333 2:0.03571428571428571 3:1.0 4:0.01279317697228145 5:0.01279317697228145 25:1.0 110:1.0 199:1.0 
533.010316958619 1:0.6666666666666666 2:0.08928571428571429 3:0.5416666666666666 4:0.0511727078891258 5:0.0511727078891258 7:1.0 104:1.0 206:1.0 
2048.0 1:0.3333333333333333 2:0.16071428571428573 3:0.75 4:0.05970149253731343 5:0.05970149253731343 63:1.0 183:1.0 235:1.0 
2048.0 1:0.3333333333333333 2:0.017857142857142856 3:0.75 4:0.008528784648187633 5:0.008528784648187633 25:1.0 183:1.0 279:1.0 
2048.0 1:0.3333333333333333 2:0.017857142857142856 3:0.5416666666666666 4:0.0511727078891258 5:0.0511727078891258 63:1.0 183:1.0 252:1.0 
2048.0 1:0.3333333333333333 2:0.25 3:0.7142857142857143 4:0.014925373134328358 5:0.014925373134328358 63:1.0 121:1.0 217:1.0 
35.074185941248444 1:0.3333333333333333 2:0.017857142857142856 3:1.0 4:0.0021321961620469083 5:0.0021321961620469083 6:0.04145936981757877 21:1.0 183:1.0 235:1.0 
2048.0 2:0.03571428571428571 3:0.6956521739130435 4:0.09808102345415778 5:0.09808102345415778 6:0.013266998341625208 59:1.0 104:1.0 217:1.0 
2048.0 1:0.3333333333333333 2:0.07142857142857142 3:1.0 4:0.01279317697228145 5:0.01279317697228145 25:1.0 155:1.0 199:1.0 
2048.0 1:0.3333333333333333 2:0.017857142857142856 3:0.9285714285714286 4:0.05970149253731343 5:0.05970149253731343 63:1.0 183:1.0 217:1.0 
2048.0 2:0.017857142857142856 3:0.6578947368421053 4:0.16204690831556504 5:0.16204690831556504 59:1.0 183:1.0 217:1.0 
2048.0 3:0.9032258064516129 4:0.13219616204690832 5:0.13219616204690832 6:0.026533996683250415 25:1.0 183:1.0 200:1.0 
2048.0 1:0.3333333333333333 2:0.6071428571428571 3:0.9791666666666666 4:0.1023454157782516 5:0.1023454157782516 63:1.0 183:1.0 219:1.0 
2048.0 1:0.3333333333333333 2:0.03571428571428571 3:1.0 4:0.01279317697228145 5:0.01279317697228145 25:1.0 104:1.0 200:1.0 
2048.0 1:0.3333333333333333 2:0.07142857142857142 3:1.0 4:0.0042643923240938165 5:0.0042643923240938165 59:1.0 183:1.0 251:1.0 
2048.0 2:0.16071428571428573 3:0.9263157894736842 4:0.2025586353944563 5:0.2025586353944563 60:1.0 155:1.0 217:1.0 
2048.0 2:0.25 3:0.8135593220338984 4:0.1257995735607676 5:0.1257995735607676 25:1.0 183:1.0 279:1.0 
2048.0 3:0.6578947368421053 4:0.16204690831556504 5:0.16204690831556504 59:1.0 139:1.0 217:1.0 
2048.0 2:0.10714285714285714 3:0.6578947368421053 4:0.16204690831556504 5:0.16204690831556504 59:1.0 104:1.0 217:1.0 
2048.0 1:0.3333333333333333 2:0.26785714285714285 3:0.9791666666666666 4:0.1023454157782516 5:0.1023454157782516 63:1.0 183:1.0 217:1.0 
2048.0 1:0.3333333333333333 2:0.39285714285714285 3:0.5714285714285714 4:0.014925373134328358 5:0.014925373134328358 59:1.0 183:1.0 235:1.0 
1507.5358789411234 1:0.3333333333333333 2:0.44642857142857145 3:1.0 4:0.0021321961620469083 5:0.0021321961620469083 6:0.04145936981757877 21:1.0 183:1.0 279:1.0 
2048.0 2:0.017857142857142856 3:0.9263157894736842 4:0.2025586353944563 5:0.2025586353944563 60:1.0 183:1.0 217:1.0 
2048.0 2:0.07142857142857142 3:0.7636363636363637 4:0.11727078891257996 5:0.11727078891257996 6:1.0 60:1.0 183:1.0 217:1.0 
2048.0 1:0.3333333333333333 2:0.21428571428571427 3:0.7692307692307693 4:0.16631130063965885 5:0.16631130063965885 6:0.008291873963515755 63:1.0 183:1.0 252:1.0 
2048.0 1:0.3333333333333333 2:0.32142857142857145 3:0.375 4:0.017057569296375266 5:0.017057569296375266 63:1.0 183:1.0 209:1.0 
2048.0 2:0.05357142857142857 3:0.8135593220338984 4:0.1257995735607676 5:0.1257995735607676 25:1.0 183:1.0 235:1.0 
730.2185805619339 2:0.07142857142857142 3:0.5 4:0.01279317697228145 5:0.01279317697228145 6:0.03316749585406302 60:1.0 183:1.0 205:1.0 
2048.0 2:0.32142857142857145 3:0.5 4:0.008528784648187633 5:0.008528784648187633 43:1.0 104:1.0 248:1.0 
2048.0 3:1.0 4:0.0255863539445629 5:0.0255863539445629 25:1.0 183:1.0 279:1.0 
2048.0 1:0.3333333333333333 2:0.017857142857142856 3:1.0 4:0.0021321961620469083 5:0.0021321961620469083 54:1.0 183:1.0 251:1.0 
2048.0 1:0.3333333333333333 2:0.017857142857142856 3:1.0 4:0.03624733475479744 5:0.03624733475479744 6:0.16583747927031509 25:1.0 183:1.0 251:1.0 
2048.0 1:0.3333333333333333 2:0.017857142857142856 3:1.0 4:0.03624733475479744 5:0.03624733475479744 6:0.16583747927031509 25:1.0 105:1.0 279:1.0 
2048.0 1:0.3333333333333333 2:0.16071428571428573 3:1.0 4:0.006396588486140725 5:0.006396588486140725 6:0.0779436152570481 8:1.0 150:1.0 279:1.0 
2048.0 1:0.3333333333333333 2:0.017857142857142856 3:0.967741935483871 4:0.06609808102345416 5:0.06609808102345416 6:0.001658374792703151 63:1.0 183:1.0 235:1.0 
2048.0 1:0.3333333333333333 2:0.017857142857142856 3:1.0 4:0.03624733475479744 5:0.03624733475479744 6:0.16583747927031509 25:1.0 105:1.0 279:1.0 
2048.0 2:0.03571428571428571 3:0.5 4:0.0042643923240938165 5:0.0042643923240938165 43:1.0 183:1.0 217:1.0 
2048.0 2:0.03571428571428571 3:0.5 4:0.0042643923240938165 5:0.0042643923240938165 43:1.0 183:1.0 217:1.0 
2048.0 2:0.07142857142857142 3:0.6578947368421053 4:0.16204690831556504 5:0.16204690831556504 59:1.0 139:1.0 217:1.0 
2048.0 1:0.3333333333333333 2:0.017857142857142856 3:0.8571428571428571 4:0.05970149253731343 5:0.05970149253731343 6:0.003316749585406302 25:1.0 183:1.0 279:1.0 
2048.0 1:0.3333333333333333 2:0.125 3:1.0 4:0.0021321961620469083 5:0.0021321961620469083 25:1.0 183:1.0 246:1.0 
2048.0 1:0.3333333333333333 2:0.03571428571428571 3:1.0 4:0.0021321961620469083 5:0.0021321961620469083 24:1.0 121:1.0 279:1.0 
2048.0 2:0.125 3:0.6578947368421053 4:0.16204690831556504 5:0.16204690831556504 59:1.0 183:1.0 217:1.0 
2048.0 2:0.03571428571428571 3:0.6578947368421053 4:0.16204690831556504 5:0.16204690831556504 59:1.0 183:1.0 217:1.0 
409.48106643098197 1:0.3333333333333333 2:0.10714285714285714 3:1.0 4:0.0021321961620469083 5:0.0021321961620469083 6:0.024875621890547265 21:1.0 104:1.0 252:1.0 
1198.437345401523 1:0.3333333333333333 2:0.07142857142857142 3:1.0 4:0.006396588486140725 5:0.006396588486140725 6:0.16583747927031509 40:1.0 183:1.0 217:1.0 
2048.0 1:0.6666666666666666 2:0.32142857142857145 3:0.5416666666666666 4:0.0511727078891258 5:0.0511727078891258 7:1.0 183:1.0 252:1.0 
2048.0 3:0.5 4:0.0042643923240938165 5:0.0042643923240938165 43:1.0 183:1.0 248:1.0 
2048.0 1:0.3333333333333333 2:0.14285714285714285 3:0.7692307692307693 4:0.16631130063965885 5:0.16631130063965885 6:0.008291873963515755 63:1.0 104:1.0 251:1.0 
2048.0 2:0.25 3:0.6956521739130435 4:0.09808102345415778 5:0.09808102345415778 6:0.013266998341625208 59:1.0 109:1.0 217:1.0 
2048.0 1:0.3333333333333333 2:0.10714285714285714 3:0.5555555555555556 4:0.03837953091684435 5:0.03837953091684435 63:1.0 183:1.0 246:1.0 
2048.0 1:0.3333333333333333 2:0.017857142857142856 3:1.0 4:0.017057569296375266 5:0.017057569296375266 6:0.06633499170812604 25:1.0 183:1.0 279:1.0 
2048.0 1:0.3333333333333333 2:0.05357142857142857 3:0.75 4:0.008528784648187633 5:0.008528784648187633 25:1.0 183:1.0 279:1.0 
2048.0 1:0.6666666666666666 2:0.125 3:0.5416666666666666 4:0.0511727078891258 5:0.0511727078891258 7:1.0 183:1.0 252:1.0 
2048.0 1:0.3333333333333333 2:0.25 3:0.75 4:0.008528784648187633 5:0.008528784648187633 25:1.0 183:1.0 279:1.0 
401.51904874732514 1:0.3333333333333333 2:0.125 3:1.0 4:0.0021321961620469083 5:0.0021321961620469083 6:0.024875621890547265 21:1.0 110:1.0 251:1.0 
2048.0 1:0.3333333333333333 2:0.017857142857142856 3:0.75 4:0.008528784648187633 5:0.008528784648187633 60:1.0 183:1.0 206:1.0 
2048.0 1:0.3333333333333333 2:0.21428571428571427 3:0.7692307692307693 4:0.16631130063965885 5:0.16631130063965885 6:0.008291873963515755 63:1.0 104:1.0 251:1.0 
2048.0 1:0.3333333333333333 2:0.07142857142857142 3:0.75 4:0.008528784648187633 5:0.008528784648187633 25:1.0 183:1.0 217:1.0 
2048.0 1:0.3333333333333333 2:0.21428571428571427 3:0.375 4:0.017057569296375266 5:0.017057569296375266 63:1.0 121:1.0 279:1.0 
2048.0 1:0.3333333333333333 2:0.03571428571428571 3:1.0 4:0.03624733475479744 5:0.03624733475479744 6:0.16583747927031509 25:1.0 104:1.0 279:1.0 
2048.0 2:0.07142857142857142 3:1.0 4:0.03624733475479744 5:0.03624733475479744 25:1.0 183:1.0 251:1.0 
2048.0 1:0.3333333333333333 2:0.017857142857142856 3:1.0 4:0.03624733475479744 5:0.03624733475479744 6:0.16583747927031509 25:1.0 113:1.0 217:1.0 
2048.0 1:0.3333333333333333 2:0.30357142857142855 3:0.5833333333333334 4:0.0255863539445629 5:0.0255863539445629 6:0.02321724709784411 43:1.0 183:1.0 251:1.0 
2048.0 1:0.3333333333333333 2:0.03571428571428571 3:1.0 4:0.008528784648187633 5:0.008528784648187633 6:0.03150912106135987 25:1.0 104:1.0 279:1.0 
2048.0 1:0.3333333333333333 2:0.07142857142857142 3:0.9444444444444444 4:0.03837953091684435 5:0.03837953091684435 63:1.0 183:1.0 235:1.0 
2048.0 1:0.3333333333333333 2:0.26785714285714285 3:0.5833333333333334 4:0.0255863539445629 5:0.0255863539445629 6:0.02321724709784411 43:1.0 183:1.0 251:1.0 
2048.0 3:0.96 4:0.10660980810234541 5:0.10660980810234541 6:0.28192371475953565 63:1.0 104:1.0 200:1.0 
2048.0 1:0.3333333333333333 2:0.07142857142857142 3:0.6666666666666666 4:0.01279317697228145 5:0.01279317697228145 6:0.03980099502487562 8:1.0 183:1.0 217:1.0 
2048.0 2:0.17857142857142858 3:0.9263157894736842 4:0.2025586353944563 5:0.2025586353944563 60:1.0 183:1.0 217:1.0 
2048.0 2:0.03571428571428571 3:0.9263157894736842 4:0.2025586353944563 5:0.2025586353944563 60:1.0 104:1.0 217:1.0 
2048.0 3:0.6578947368421053 4:0.16204690831556504 5:0.16204690831556504 59:1.0 104:1.0 217:1.0 
2048.0 1:0.3333333333333333 2:0.03571428571428571 3:1.0 4:0.017057569296375266 5:0.017057569296375266 6:0.06633499170812604 25:1.0 155:1.0 279:1.0 
206.86160005553918 1:0.3333333333333333 2:0.2857142857142857 3:1.0 4:0.03624733475479744 5:0.03624733475479744 6:0.16583747927031509 25:1.0 123:1.0 227:1.0 
2048.0 1:1.0 2:0.05357142857142857 3:0.8 4:0.010660980810234541 5:0.010660980810234541 63:1.0 183:1.0 200:1.0 
2048.0 2:0.17857142857142858 3:0.6578947368421053 4:0.16204690831556504 5:0.16204690831556504 59:1.0 104:1.0 217:1.0 
2048.0 1:0.3333333333333333 2:0.19642857142857142 3:0.375 4:0.017057569296375266 5:0.017057569296375266 63:1.0 121:1.0 251:1.0 
2048.0 1:0.3333333333333333 2:0.42857142857142855 3:0.7692307692307693 4:0.16631130063965885 5:0.16631130063965885 6:0.008291873963515755 63:1.0 183:1.0 200:1.0 
2048.0 1:0.3333333333333333 2:0.14285714285714285 3:1.0 4:0.029850746268656716 5:0.029850746268656716 6:0.03814262023217247 8:1.0 183:1.0 217:1.0 
2048.0 2:0.05357142857142857 3:0.6578947368421053 4:0.16204690831556504 5:0.16204690831556504 59:1.0 104:1.0 217:1.0 
2048.0 2:0.375 3:0.6578947368421053 4:0.16204690831556504 5:0.16204690831556504 59:1.0 104:1.0 217:1.0 
2048.0 1:0.3333333333333333 2:0.2857142857142857 3:0.875 4:0.06823027718550106 5:0.06823027718550106 25:1.0 183:1.0 199:1.0 
2048.0 1:0.3333333333333333 2:0.17857142857142858 3:1.0 4:0.029850746268656716 5:0.029850746268656716 6:0.03814262023217247 8:1.0 183:1.0 217:1.0 
2030.583453094967 2:0.125 3:0.9166666666666666 4:0.0511727078891258 5:0.0511727078891258 65:1.0 109:1.0 252:1.0 
2048.0 1:0.3333333333333333 2:0.017857142857142856 3:0.9024390243902439 4:0.08742004264392324 5:0.08742004264392324 6:0.008291873963515755 25:1.0 183:1.0 200:1.0 
2048.0 1:0.3333333333333333 2:0.017857142857142856 3:1.0 4:0.03624733475479744 5:0.03624733475479744 6:0.16583747927031509 25:1.0 161:1.0 279:1.0 
2048.0 1:0.3333333333333333 2:0.125 3:1.0 4:0.0021321961620469083 5:0.0021321961620469083 25:1.0 183:1.0 252:1.0 
2048.0 1:0.3333333333333333 2:0.25 3:1.0 4:0.0511727078891258 5:0.0511727078891258 25:1.0 183:1.0 217:1.0 
2048.0 1:0.3333333333333333 2:0.017857142857142856 3:1.0 4:0.017057569296375266 5:0.017057569296375266 6:0.06633499170812604 25:1.0 104:1.0 279:1.0 
2048.0 2:0.07142857142857142 3:0.5 4:0.0042643923240938165 5:0.0042643923240938165 43:1.0 183:1.0 252:1.0 
2048.0 1:0.3333333333333333 2:0.10714285714285714 3:1.0 4:0.0021321961620469083 5:0.0021321961620469083 6:0.003316749585406302 25:1.0 183:1.0 199:1.0 
37.96485473551967 2:0.14285714285714285 3:0.9263157894736842 4:0.2025586353944563 5:0.2025586353944563 60:1.0 103:1.0 219:1.0 
2048.0 2:0.05357142857142857 3:0.5 4:0.0042643923240938165 5:0.0042643923240938165 43:1.0 183:1.0 252:1.0 
2048.0 2:0.16071428571428573 3:0.979381443298969 4:0.2068230277185501 5:0.2068230277185501 24:1.0 121:1.0 217:1.0 
2048.0 3:0.7777777777777778 4:0.019189765458422176 5:0.019189765458422176 59:1.0 183:1.0 252:1.0 
2048.0 1:0.3333333333333333 2:0.05357142857142857 3:0.9444444444444444 4:0.03837953091684435 5:0.03837953091684435 6:0.003316749585406302 24:1.0 121:1.0 279:1.0 
2048.0 1:0.3333333333333333 2:0.08928571428571429 3:0.875 4:0.06823027718550106 5:0.06823027718550106 25:1.0 121:1.0 200:1.0 
2048.0 1:0.3333333333333333 2:0.16071428571428573 3:0.75 4:0.017057569296375266 5:0.017057569296375266 59:1.0 183:1.0 217:1.0 
2048.0 1:0.3333333333333333 2:0.16071428571428573 3:0.75 4:0.017057569296375266 5:0.017057569296375266 59:1.0 183:1.0 217:1.0 
2048.0 1:0.3333333333333333 2:0.05357142857142857 3:0.9444444444444444 4:0.03837953091684435 5:0.03837953091684435 6:0.003316749585406302 24:1.0 121:1.0 279:1.0 
2048.0 3:0.6538461538461539 4:0.05543710021321962 5:0.05543710021321962 25:1.0 183:1.0 235:1.0 
2048.0 2:0.26785714285714285 3:0.6578947368421053 4:0.16204690831556504 5:0.16204690831556504 59:1.0 104:1.0 217:1.0 
2048.0 2:0.017857142857142856 3:1.0 4:0.11300639658848614 5:0.11300639658848614 6:0.16583747927031509 59:1.0 121:1.0 227:1.0 
2048.0 2:0.03571428571428571 3:1.0 4:0.11300639658848614 5:0.11300639658848614 6:0.16583747927031509 59:1.0 131:1.0 200:1.0 
2048.0 1:0.3333333333333333 2:0.07142857142857142 3:0.7692307692307693 4:0.16631130063965885 5:0.16631130063965885 6:0.008291873963515755 63:1.0 103:1.0 279:1.0 
2048.0 1:0.3333333333333333 2:0.017857142857142856 3:0.5714285714285714 4:0.014925373134328358 5:0.014925373134328358 6:0.004975124378109453 60:1.0 183:1.0 248:1.0 
2048.0 1:0.3333333333333333 2:0.05357142857142857 3:1.0 4:0.01279317697228145 5:0.01279317697228145 25:1.0 131:1.0 200:1.0 
237.4926578849351 1:0.3333333333333333 2:0.07142857142857142 3:1.0 4:0.01279317697228145 5:0.01279317697228145 25:1.0 131:1.0 200:1.0 
2048.0 3:0.6538461538461539 4:0.05543710021321962 5:0.05543710021321962 25:1.0 183:1.0 206:1.0 
2048.0 1:0.3333333333333333 2:0.17857142857142858 3:0.7692307692307693 4:0.02771855010660981 5:0.02771855010660981 59:1.0 183:1.0 217:1.0 
2048.0 2:0.19642857142857142 3:0.6956521739130435 4:0.09808102345415778 5:0.09808102345415778 6:0.013266998341625208 59:1.0 183:1.0 217:1.0 
2048.0 3:1.0 4:0.11300639658848614 5:0.11300639658848614 6:0.16583747927031509 59:1.0 104:1.0 217:1.0 
2048.0 1:0.3333333333333333 2:0.03571428571428571 3:1.0 4:0.0021321961620469083 5:0.0021321961620469083 25:1.0 155:1.0 217:1.0 
2048.0 1:0.3333333333333333 2:0.07142857142857142 3:1.0 4:0.03624733475479744 5:0.03624733475479744 6:0.16583747927031509 25:1.0 121:1.0 279:1.0 
2048.0 2:0.14285714285714285 3:0.6578947368421053 4:0.16204690831556504 5:0.16204690831556504 59:1.0 183:1.0 217:1.0 
2048.0 1:0.3333333333333333 2:0.07142857142857142 3:0.5333333333333333 4:0.031982942430703626 5:0.031982942430703626 6:0.07462686567164178 8:1.0 103:1.0 279:1.0 
1692.758307287268 2:0.2857142857142857 3:0.95 4:0.08528784648187633 5:0.08528784648187633 63:1.0 104:1.0 217:1.0 
7.67955937027978 1:0.3333333333333333 2:0.32142857142857145 3:0.5714285714285714 4:0.014925373134328358 5:0.014925373134328358 59:1.0 183:1.0 209:1.0 
2048.0 2:0.07142857142857142 3:1.0 4:0.0255863539445629 5:0.0255863539445629 25:1.0 183:1.0 279:1.0 
2048.0 2:0.05357142857142857 3:0.9263157894736842 4:0.2025586353944563 5:0.2025586353944563 60:1.0 183:1.0 279:1.0 
267.27361913470895 2:0.017857142857142856 3:1.0 4:0.023454157782515993 5:0.023454157782515993 24:1.0 183:1.0 208:1.0 
2048.0 3:0.8 4:0.042643923240938165 5:0.042643923240938165 25:1.0 183:1.0 279:1.0 
2048.0 1:0.3333333333333333 2:0.03571428571428571 3:0.7142857142857143 4:0.014925373134328358 5:0.014925373134328358 63:1.0 183:1.0 217:1.0 
2048.0 2:0.017857142857142856 3:0.5 4:0.0042643923240938165 5:0.0042643923240938165 63:1.0 183:1.0 217:1.0 
2048.0 2:0.05357142857142857 3:0.96 4:0.10660980810234541 5:0.10660980810234541 6:0.28192371475953565 63:1.0 123:1.0 200:1.0 
2048.0 2:0.125 3:1.0 4:0.11300639658848614 5:0.11300639658848614 6:0.16583747927031509 59:1.0 183:1.0 217:1.0 
2048.0 2:0.17857142857142858 3:0.9032258064516129 4:0.13219616204690832 5:0.13219616204690832 6:0.026533996683250415 25:1.0 155:1.0 217:1.0 
2048.0 1:0.3333333333333333 2:0.017857142857142856 3:1.0 4:0.0021321961620469083 5:0.0021321961620469083 6:0.008291873963515755 8:1.0 103:1.0 217:1.0 
2048.0 3:0.979381443298969 4:0.2068230277185501 5:0.2068230277185501 24:1.0 183:1.0 251:1.0 
2048.0 2:0.03571428571428571 3:0.8857142857142857 4:0.07462686567164178 5:0.07462686567164178 59:1.0 183:1.0 279:1.0 
2048.0 3:0.8125 4:0.03411513859275053 5:0.03411513859275053 25:1.0 152:1.0 206:1.0 
811.7713789612205 2:0.03571428571428571 3:0.8125 4:0.03411513859275053 5:0.03411513859275053 25:1.0 150:1.0 248:1.0 
2048.0 3:0.9263157894736842 4:0.2025586353944563 5:0.2025586353944563 60:1.0 183:1.0 200:1.0 
975.2973187083206 2:0.05357142857142857 3:0.8 4:0.042643923240938165 5:0.042643923240938165 25:1.0 113:1.0 209:1.0 
2048.0 3:0.6538461538461539 4:0.05543710021321962 5:0.05543710021321962 25:1.0 183:1.0 200:1.0 
2048.0 1:0.3333333333333333 2:0.05357142857142857 3:1.0 4:0.029850746268656716 5:0.029850746268656716 6:0.03814262023217247 8:1.0 183:1.0 217:1.0 
2048.0 1:0.3333333333333333 2:0.017857142857142856 3:1.0 4:0.0042643923240938165 5:0.0042643923240938165 25:1.0 183:1.0 279:1.0 
2048.0 2:0.125 3:0.979381443298969 4:0.2068230277185501 5:0.2068230277185501 24:1.0 121:1.0 279:1.0 
2048.0 2:0.14285714285714285 3:0.9032258064516129 4:0.13219616204690832 5:0.13219616204690832 6:0.026533996683250415 25:1.0 121:1.0 247:1.0 
2048.0 1:0.3333333333333333 2:0.17857142857142858 3:0.6666666666666666 4:0.006396588486140725 5:0.006396588486140725 60:1.0 183:1.0 251:1.0 
2048.0 3:0.7636363636363637 4:0.11727078891257996 5:0.11727078891257996 6:1.0 60:1.0 183:1.0 235:1.0 
27.014081123624745 2:0.03571428571428571 3:0.6538461538461539 4:0.05543710021321962 5:0.05543710021321962 25:1.0 183:1.0 235:1.0 
2048.0 1:0.3333333333333333 2:0.07142857142857142 3:0.87 4:0.21321961620469082 5:0.21321961620469082 6:0.01990049751243781 43:1.0 121:1.0 246:1.0 
2048.0 3:0.6538461538461539 4:0.05543710021321962 5:0.05543710021321962 25:1.0 183:1.0 200:1.0 
2048.0 1:0.3333333333333333 2:0.03571428571428571 3:1.0 4:0.03624733475479744 5:0.03624733475479744 6:0.16583747927031509 25:1.0 183:1.0 279:1.0 
2048.0 1:0.3333333333333333 2:0.10714285714285714 3:0.7058823529411765 4:0.07249466950959488 5:0.07249466950959488 63:1.0 183:1.0 215:1.0 
2048.0 1:0.3333333333333333 2:0.14285714285714285 3:0.5 4:0.0042643923240938165 5:0.0042643923240938165 59:1.0 183:1.0 251:1.0 
2048.0 2:0.19642857142857142 3:0.6578947368421053 4:0.16204690831556504 5:0.16204690831556504 59:1.0 121:1.0 217:1.0 
2048.0 1:0.3333333333333333 2:0.03571428571428571 3:1.0 4:0.008528784648187633 5:0.008528784648187633 24:1.0 121:1.0 279:1.0 
2048.0 3:0.6538461538461539 4:0.05543710021321962 5:0.05543710021321962 25:1.0 183:1.0 213:1.0 
2048.0 1:0.3333333333333333 2:0.08928571428571429 3:0.8571428571428571 4:0.04477611940298507 5:0.04477611940298507 25:1.0 183:1.0 219:1.0 
2048.0 3:0.9032258064516129 4:0.13219616204690832 5:0.13219616204690832 6:0.026533996683250415 25:1.0 155:1.0 279:1.0 
2048.0 2:0.07142857142857142 3:0.8571428571428571 4:0.04477611940298507 5:0.04477611940298507 59:1.0 183:1.0 217:1.0 
2048.0 2:0.017857142857142856 3:1.0 4:0.11300639658848614 5:0.11300639658848614 6:0.16583747927031509 59:1.0 104:1.0 279:1.0 
2048.0 1:0.3333333333333333 2:0.05357142857142857 3:1.0 4:0.017057569296375266 5:0.017057569296375266 6:0.06633499170812604 25:1.0 183:1.0 279:1.0 
2048.0 1:0.3333333333333333 2:0.08928571428571429 3:0.7142857142857143 4:0.014925373134328358 5:0.014925373134328358 63:1.0 183:1.0 217:1.0 
2048.0 1:0.3333333333333333 2:0.017857142857142856 3:0.875 4:0.017057569296375266 5:0.017057569296375266 25:1.0 183:1.0 213:1.0 
51.26362994505986 2:0.05357142857142857 3:0.9263157894736842 4:0.2025586353944563 5:0.2025586353944563 60:1.0 119:1.0 217:1.0 
2048.0 3:0.625 4:0.017057569296375266 5:0.017057569296375266 59:1.0 183:1.0 252:1.0 
2048.0 2:0.017857142857142856 3:0.9263157894736842 4:0.2025586353944563 5:0.2025586353944563 60:1.0 155:1.0 219:1.0 
2048.0 1:0.3333333333333333 2:0.017857142857142856 3:1.0 4:0.0021321961620469083 5:0.0021321961620469083 6:0.001658374792703151 25:1.0 183:1.0 206:1.0 
2048.0 2:0.03571428571428571 3:0.6538461538461539 4:0.05543710021321962 5:0.05543710021321962 25:1.0 183:1.0 217:1.0 
2048.0 1:0.3333333333333333 2:0.017857142857142856 3:0.75 4:0.017057569296375266 5:0.017057569296375266 59:1.0 183:1.0 235:1.0 
1162.4826688052467 1:0.3333333333333333 2:0.125 3:0.6666666666666666 4:0.006396588486140725 5:0.006396588486140725 63:1.0 155:1.0 251:1.0 
2048.0 1:0.3333333333333333 2:0.03571428571428571 3:0.9791666666666666 4:0.1023454157782516 5:0.1023454157782516 63:1.0 183:1.0 200:1.0 
2048.0 1:0.3333333333333333 2:0.05357142857142857 3:0.75 4:0.017057569296375266 5:0.017057569296375266 59:1.0 183:1.0 279:1.0 
2048.0 1:0.3333333333333333 2:0.26785714285714285 3:0.375 4:0.017057569296375266 5:0.017057569296375266 63:1.0 110:1.0 279:1.0 
1619.0817311996116 1:0.3333333333333333 2:0.05357142857142857 3:0.5416666666666666 4:0.0511727078891258 5:0.0511727078891258 63:1.0 117:1.0 200:1.0 
2048.0 1:0.3333333333333333 2:0.10714285714285714 3:0.8571428571428571 4:0.04477611940298507 5:0.04477611940298507 25:1.0 183:1.0 200:1.0 
2048.0 2:0.125 3:0.96 4:0.10660980810234541 5:0.10660980810234541 6:0.28192371475953565 63:1.0 183:1.0 200:1.0 
1107.987509002022 1:0.3333333333333333 2:0.16071428571428573 3:0.5833333333333334 4:0.0255863539445629 5:0.0255863539445629 6:0.02321724709784411 43:1.0 183:1.0 228:1.0 
2048.0 1:0.3333333333333333 2:0.05357142857142857 3:0.5416666666666666 4:0.0511727078891258 5:0.0511727078891258 63:1.0 139:1.0 279:1.0 
2048.0 2:0.07142857142857142 3:0.8857142857142857 4:0.07462686567164178 5:0.07462686567164178 59:1.0 183:1.0 279:1.0 
2048.0 1:0.3333333333333333 2:0.10714285714285714 3:0.9791666666666666 4:0.1023454157782516 5:0.1023454157782516 63:1.0 183:1.0 279:1.0 
2048.0 1:0.3333333333333333 2:0.17857142857142858 3:0.8571428571428571 4:0.04477611940298507 5:0.04477611940298507 25:1.0 183:1.0 235:1.0 
2048.0 2:0.25 3:0.6578947368421053 4:0.16204690831556504 5:0.16204690831556504 59:1.0 183:1.0 251:1.0 
2048.0 2:0.42857142857142855 3:0.5 4:0.008528784648187633 5:0.008528784648187633 43:1.0 183:1.0 248:1.0 
2048.0 1:0.3333333333333333 2:0.017857142857142856 3:0.5416666666666666 4:0.0511727078891258 5:0.0511727078891258 63:1.0 183:1.0 279:1.0 
2048.0 2:0.08928571428571429 3:0.6578947368421053 4:0.16204690831556504 5:0.16204690831556504 59:1.0 183:1.0 251:1.0 
2048.0 1:0.3333333333333333 2:0.21428571428571427 3:0.5416666666666666 4:0.0511727078891258 5:0.0511727078891258 63:1.0 183:1.0 279:1.0 
2048.0 2:0.017857142857142856 3:0.5 4:0.008528784648187633 5:0.008528784648187633 43:1.0 121:1.0 248:1.0 
2048.0 2:0.08928571428571429 3:0.7636363636363637 4:0.11727078891257996 5:0.11727078891257996 6:1.0 60:1.0 183:1.0 217:1.0 
2048.0 2:0.21428571428571427 3:0.979381443298969 4:0.2068230277185501 5:0.2068230277185501 24:1.0 121:1.0 279:1.0 
2048.0 2:0.30357142857142855 3:0.96 4:0.10660980810234541 5:0.10660980810234541 6:0.28192371475953565 63:1.0 183:1.0 279:1.0 
2048.0 1:0.3333333333333333 2:0.03571428571428571 3:0.3953488372093023 4:0.09168443496801706 5:0.09168443496801706 60:1.0 183:1.0 199:1.0 
2048.0 2:0.10714285714285714 3:0.6578947368421053 4:0.16204690831556504 5:0.16204690831556504 59:1.0 117:1.0 217:1.0 
2048.0 3:0.9263157894736842 4:0.2025586353944563 5:0.2025586353944563 60:1.0 139:1.0 235:1.0 
2048.0 1:0.3333333333333333 2:0.14285714285714285 3:0.8181818181818182 4:0.09381663113006397 5:0.09381663113006397 63:1.0 183:1.0 200:1.0 
2048.0 3:0.8135593220338984 4:0.1257995735607676 5:0.1257995735607676 25:1.0 159:1.0 200:1.0 
2048.0 2:0.017857142857142856 3:0.5 4:0.008528784648187633 5:0.008528784648187633 43:1.0 121:1.0 248:1.0 
2048.0 1:0.3333333333333333 2:0.017857142857142856 3:0.967741935483871 4:0.13219616204690832 5:0.13219616204690832 63:1.0 183:1.0 252:1.0 
2048.0 2:0.10714285714285714 3:0.8857142857142857 4:0.07462686567164178 5:0.07462686567164178 59:1.0 183:1.0 199:1.0 
2048.0 1:0.3333333333333333 2:0.03571428571428571 3:1.0 4:0.06396588486140725 5:0.06396588486140725 25:1.0 155:1.0 200:1.0 
2048.0 3:0.6538461538461539 4:0.05543710021321962 5:0.05543710021321962 25:1.0 183:1.0 217:1.0 
2048.0 1:0.3333333333333333 2:0.03571428571428571 3:0.3953488372093023 4:0.09168443496801706 5:0.09168443496801706 60:1.0 183:1.0 200:1.0 
2048.0 2:0.07142857142857142 3:0.7636363636363637 4:0.11727078891257996 5:0.11727078891257996 6:1.0 60:1.0 183:1.0 217:1.0 
2048.0 2:0.10714285714285714 3:0.6578947368421053 4:0.16204690831556504 5:0.16204690831556504 59:1.0 183:1.0 217:1.0 
2048.0 1:0.3333333333333333 2:0.017857142857142856 3:0.75 4:0.008528784648187633 5:0.008528784648187633 60:1.0 183:1.0 206:1.0 
2048.0 1:0.3333333333333333 2:0.10714285714285714 3:0.9024390243902439 4:0.08742004264392324 5:0.08742004264392324 6:0.008291873963515755 25:1.0 121:1.0 200:1.0 
520.531152918574 2:0.16071428571428573 3:0.6956521739130435 4:0.09808102345415778 5:0.09808102345415778 6:0.013266998341625208 59:1.0 110:1.0 217:1.0 
972.2942876048196 2:0.23214285714285715 3:0.979381443298969 4:0.2068230277185501 5:0.2068230277185501 24:1.0 110:1.0 251:1.0 
187.209157263554 1:0.3333333333333333 2:0.017857142857142856 3:1.0 4:0.0042643923240938165 5:0.0042643923240938165 6:0.001658374792703151 21:1.0 183:1.0 200:1.0 
2048.0 2:0.05357142857142857 3:0.9263157894736842 4:0.2025586353944563 5:0.2025586353944563 60:1.0 183:1.0 200:1.0 
2048.0 1:0.3333333333333333 2:0.125 3:0.75 4:0.008528784648187633 5:0.008528784648187633 60:1.0 183:1.0 217:1.0 
2048.0 1:0.3333333333333333 2:0.017857142857142856 3:1.0 4:0.017057569296375266 5:0.017057569296375266 6:0.06633499170812604 25:1.0 183:1.0 279:1.0 
2048.0 1:0.3333333333333333 2:0.08928571428571429 3:0.9024390243902439 4:0.08742004264392324 5:0.08742004264392324 6:0.008291873963515755 25:1.0 183:1.0 217:1.0 
2048.0 2:0.10714285714285714 3:0.9263157894736842 4:0.2025586353944563 5:0.2025586353944563 60:1.0 183:1.0 206:1.0 
2048.0 1:0.3333333333333333 2:0.017857142857142856 3:1.0 4:0.017057569296375266 5:0.017057569296375266 6:0.06633499170812604 25:1.0 183:1.0 279:1.0 
2048.0 1:0.3333333333333333 2:0.017857142857142856 3:1.0 4:0.010660980810234541 5:0.010660980810234541 6:0.14096185737976782 21:1.0 183:1.0 217:1.0 
2048.0 2:0.07142857142857142 3:0.9263157894736842 4:0.2025586353944563 5:0.2025586353944563 60:1.0 183:1.0 227:1.0 
2048.0 3:0.6538461538461539 4:0.05543710021321962 5:0.05543710021321962 25:1.0 183:1.0 200:1.0 
2048.0 2:0.03571428571428571 3:0.6578947368421053 4:0.16204690831556504 5:0.16204690831556504 59:1.0 183:1.0 217:1.0 
154.31795077523398 60:1.0 183:1.0 213:1.0 
2048.0 1:0.3333333333333333 2:0.10714285714285714 3:1.0 4:0.006396588486140725 5:0.006396588486140725 63:1.0 183:1.0 235:1.0 
2048.0 1:0.3333333333333333 2:0.125 3:0.75 4:0.008528784648187633 5:0.008528784648187633 25:1.0 183:1.0 279:1.0 
2048.0 1:0.3333333333333333 2:0.16071428571428573 3:0.3953488372093023 4:0.09168443496801706 5:0.09168443496801706 60:1.0 139:1.0 217:1.0 
2048.0 2:0.21428571428571427 3:1.0 4:0.11300639658848614 5:0.11300639658848614 6:0.16583747927031509 59:1.0 183:1.0 227:1.0 
2048.0 1:0.3333333333333333 2:0.30357142857142855 3:0.8181818181818182 4:0.09381663113006397 5:0.09381663113006397 63:1.0 104:1.0 252:1.0 
2048.0 2:0.10714285714285714 3:0.979381443298969 4:0.2068230277185501 5:0.2068230277185501 24:1.0 110:1.0 251:1.0 
2048.0 2:0.21428571428571427 3:0.979381443298969 4:0.2068230277185501 5:0.2068230277185501 24:1.0 183:1.0 217:1.0 
849.8072536052692 2:0.2857142857142857 3:0.979381443298969 4:0.2068230277185501 5:0.2068230277185501 24:1.0 183:1.0 217:1.0 
2048.0 2:0.21428571428571427 3:0.95 4:0.08528784648187633 5:0.08528784648187633 63:1.0 104:1.0 217:1.0 
1620.223400094897 1:0.3333333333333333 2:0.017857142857142856 3:1.0 4:0.0021321961620469083 5:0.0021321961620469083 6:0.024875621890547265 21:1.0 183:1.0 279:1.0 
2048.0 1:0.3333333333333333 2:0.07142857142857142 3:0.6666666666666666 4:0.006396588486140725 5:0.006396588486140725 60:1.0 183:1.0 200:1.0 
2048.0 2:0.17857142857142858 3:0.6578947368421053 4:0.16204690831556504 5:0.16204690831556504 59:1.0 104:1.0 252:1.0 
2048.0 2:0.017857142857142856 3:0.6666666666666666 4:0.006396588486140725 5:0.006396588486140725 24:1.0 156:1.0 279:1.0 
2048.0 1:0.6666666666666666 2:0.08928571428571429 3:0.7272727272727273 4:0.023454157782515993 5:0.023454157782515993 7:1.0 183:1.0 217:1.0 
2048.0 1:0.6666666666666666 2:0.16071428571428573 3:1.0 4:0.014925373134328358 5:0.014925373134328358 63:1.0 183:1.0 251:1.0 
2048.0 3:1.0 4:0.0042643923240938165 5:0.0042643923240938165 25:1.0 183:1.0 279:1.0 
2048.0 1:0.3333333333333333 2:0.125 3:0.375 4:0.017057569296375266 5:0.017057569296375266 63:1.0 183:1.0 251:1.0 
2048.0 2:0.07142857142857142 3:1.0 4:0.0255863539445629 5:0.0255863539445629 25:1.0 183:1.0 279:1.0 
2048.0 2:0.08928571428571429 3:0.7636363636363637 4:0.11727078891257996 5:0.11727078891257996 6:1.0 60:1.0 183:1.0 235:1.0 
40.77633106831855 2:0.03571428571428571 3:0.7636363636363637 4:0.11727078891257996 5:0.11727078891257996 6:1.0 60:1.0 121:1.0 217:1.0 
2048.0 1:0.3333333333333333 2:0.16071428571428573 3:0.5714285714285714 4:0.014925373134328358 5:0.014925373134328358 63:1.0 183:1.0 251:1.0 
2048.0 1:0.3333333333333333 2:0.21428571428571427 3:0.6 4:0.021321961620469083 5:0.021321961620469083 63:1.0 183:1.0 251:1.0 
2048.0 2:0.08928571428571429 3:0.6578947368421053 4:0.16204690831556504 5:0.16204690831556504 59:1.0 104:1.0 251:1.0 
2042.5635645961593 2:0.03571428571428571 3:0.5 4:0.008528784648187633 5:0.008528784648187633 22:1.0 183:1.0 252:1.0 
2048.0 1:0.3333333333333333 2:0.16071428571428573 3:1.0 4:0.006396588486140725 5:0.006396588486140725 63:1.0 183:1.0 251:1.0 
2048.0 1:0.3333333333333333 2:0.16071428571428573 3:0.87 4:0.21321961620469082 5:0.21321961620469082 6:0.01990049751243781 43:1.0 121:1.0 235:1.0 
2048.0 1:0.3333333333333333 2:0.08928571428571429 3:0.5416666666666666 4:0.0511727078891258 5:0.0511727078891258 63:1.0 104:1.0 246:1.0 
2048.0 2:0.08928571428571429 3:0.5 4:0.008528784648187633 5:0.008528784648187633 43:1.0 183:1.0 217:1.0 
2048.0 2:0.017857142857142856 3:0.6538461538461539 4:0.05543710021321962 5:0.05543710021321962 25:1.0 183:1.0 200:1.0 
2048.0 2:0.03571428571428571 3:0.9263157894736842 4:0.2025586353944563 5:0.2025586353944563 60:1.0 183:1.0 217:1.0 
2048.0 2:0.08928571428571429 3:1.0 4:0.11300639658848614 5:0.11300639658848614 6:0.16583747927031509 59:1.0 183:1.0 217:1.0 
2048.0 1:0.3333333333333333 2:0.32142857142857145 3:0.7692307692307693 4:0.16631130063965885 5:0.16631130063965885 6:0.008291873963515755 63:1.0 103:1.0 279:1.0 
2048.0 1:0.3333333333333333 2:0.017857142857142856 3:1.0 4:0.0042643923240938165 5:0.0042643923240938165 6:0.06965174129353234 60:1.0 183:1.0 279:1.0 
2048.0 2:0.05357142857142857 3:1.0 4:0.11300639658848614 5:0.11300639658848614 6:0.16583747927031509 59:1.0 183:1.0 217:1.0 
2048.0 1:0.3333333333333333 2:0.125 3:1.0 4:0.0021321961620469083 5:0.0021321961620469083 25:1.0 183:1.0 251:1.0 
2048.0 2:0.08928571428571429 3:0.6578947368421053 4:0.16204690831556504 5:0.16204690831556504 59:1.0 183:1.0 217:1.0 
2048.0 1:0.3333333333333333 2:0.21428571428571427 3:0.375 4:0.017057569296375266 5:0.017057569296375266 63:1.0 183:1.0 217:1.0 
62.544150269014374 1:0.3333333333333333 2:0.017857142857142856 3:0.5714285714285714 4:0.014925373134328358 5:0.014925373134328358 6:0.004975124378109453 60:1.0 139:1.0 279:1.0 
2048.0 1:0.3333333333333333 2:0.05357142857142857 3:0.9444444444444444 4:0.03837953091684435 5:0.03837953091684435 63:1.0 183:1.0 279:1.0 
2048.0 1:0.3333333333333333 2:0.125 3:0.8 4:0.053304904051172705 5:0.053304904051172705 63:1.0 183:1.0 246:1.0 
2048.0 1:0.3333333333333333 2:0.03571428571428571 3:1.0 4:0.03624733475479744 5:0.03624733475479744 6:0.16583747927031509 25:1.0 183:1.0 279:1.0 
2048.0 2:0.05357142857142857 3:0.96 4:0.10660980810234541 5:0.10660980810234541 6:0.28192371475953565 63:1.0 104:1.0 200:1.0 
2048.0 2:0.14285714285714285 3:1.0 4:0.11300639658848614 5:0.11300639658848614 6:0.16583747927031509 59:1.0 183:1.0 217:1.0 
2048.0 1:0.3333333333333333 2:0.05357142857142857 3:1.0 4:0.008528784648187633 5:0.008528784648187633 24:1.0 123:1.0 279:1.0 
2048.0 1:0.3333333333333333 2:0.125 3:1.0 4:0.006396588486140725 5:0.006396588486140725 63:1.0 183:1.0 217:1.0 
1390.9872040367627 2:0.14285714285714285 3:0.9285714285714286 4:0.029850746268656716 5:0.029850746268656716 63:1.0 121:1.0 227:1.0 
